digraph Tree {
node [shape=box, style="rounded", color="black", fontname="helvetica"] ;
edge [fontname="helvetica"] ;
0 [label="ELO_DIFF <= 3.7\ngini = 0.5\nsamples = 5015\nvalue = [4131, 3762]"] ;
1 [label="HOME_AWAY_GOAL_DIFF <= 3.5\ngini = 0.4\nsamples = 1943\nvalue = [2041, 1021]"] ;
0 -> 1 [labeldistance=2.5, labelangle=45, headlabel="True"] ;
2 [label="HOME_AWAY_GOAL_DIFF <= 1.9\ngini = 0.4\nsamples = 755\nvalue = [857, 349]"] ;
1 -> 2 ;
3 [label="ELO_DIFF <= 3.6\ngini = 0.2\nsamples = 51\nvalue = [68, 10]"] ;
2 -> 3 ;
4 [label="HOME_AWAY_GOAL_DIFF <= 1.7\ngini = 0.2\nsamples = 49\nvalue = [67, 7]"] ;
3 -> 4 ;
5 [label="ELO_DIFF <= 1.3\ngini = 0.2\nsamples = 28\nvalue = [36, 6]"] ;
4 -> 5 ;
6 [label="RECENT_PERF_DIFF <= 1.5\ngini = 0.4\nsamples = 2\nvalue = [1, 2]"] ;
5 -> 6 ;
7 [label="gini = 0.0\nsamples = 1\nvalue = [1, 0]"] ;
6 -> 7 ;
8 [label="gini = 0.0\nsamples = 1\nvalue = [0, 2]"] ;
6 -> 8 ;
9 [label="HOME_AWAY_GOAL_DIFF <= 0.7\ngini = 0.2\nsamples = 26\nvalue = [35, 4]"] ;
5 -> 9 ;
10 [label="gini = 0.0\nsamples = 3\nvalue = [3, 0]"] ;
9 -> 10 ;
11 [label="RECENT_PERF_DIFF <= 0.9\ngini = 0.2\nsamples = 23\nvalue = [32, 4]"] ;
9 -> 11 ;
12 [label="ELO_DIFF <= 2.3\ngini = 0.4\nsamples = 3\nvalue = [3, 1]"] ;
11 -> 12 ;
13 [label="gini = 0.0\nsamples = 1\nvalue = [0, 1]"] ;
12 -> 13 ;
14 [label="gini = 0.0\nsamples = 2\nvalue = [3, 0]"] ;
12 -> 14 ;
15 [label="ELO_DIFF <= 2.3\ngini = 0.2\nsamples = 20\nvalue = [29, 3]"] ;
11 -> 15 ;
16 [label="ELO_DIFF <= 1.7\ngini = 0.1\nsamples = 14\nvalue = [23, 1]"] ;
15 -> 16 ;
17 [label="gini = 0.0\nsamples = 6\nvalue = [13, 0]"] ;
16 -> 17 ;
18 [label="HOME_AWAY_GOAL_DIFF <= 1.3\ngini = 0.2\nsamples = 8\nvalue = [10, 1]"] ;
16 -> 18 ;
19 [label="gini = 0.0\nsamples = 2\nvalue = [3, 0]"] ;
18 -> 19 ;
20 [label="ELO_DIFF <= 1.8\ngini = 0.2\nsamples = 6\nvalue = [7, 1]"] ;
18 -> 20 ;
21 [label="gini = 0.0\nsamples = 1\nvalue = [0, 1]"] ;
20 -> 21 ;
22 [label="gini = 0.0\nsamples = 5\nvalue = [7, 0]"] ;
20 -> 22 ;
23 [label="HOME_AWAY_GOAL_DIFF <= 1.5\ngini = 0.4\nsamples = 6\nvalue = [6, 2]"] ;
15 -> 23 ;
24 [label="ELO_DIFF <= 2.8\ngini = 0.4\nsamples = 3\nvalue = [3, 1]"] ;
23 -> 24 ;
25 [label="gini = 0.0\nsamples = 2\nvalue = [3, 0]"] ;
24 -> 25 ;
26 [label="gini = 0.0\nsamples = 1\nvalue = [0, 1]"] ;
24 -> 26 ;
27 [label="ELO_DIFF <= 2.9\ngini = 0.4\nsamples = 3\nvalue = [3, 1]"] ;
23 -> 27 ;
28 [label="gini = 0.0\nsamples = 1\nvalue = [0, 1]"] ;
27 -> 28 ;
29 [label="gini = 0.0\nsamples = 2\nvalue = [3, 0]"] ;
27 -> 29 ;
30 [label="ELO_DIFF <= 2.6\ngini = 0.1\nsamples = 21\nvalue = [31, 1]"] ;
4 -> 30 ;
31 [label="gini = 0.0\nsamples = 14\nvalue = [22, 0]"] ;
30 -> 31 ;
32 [label="ELO_DIFF <= 2.8\ngini = 0.2\nsamples = 7\nvalue = [9, 1]"] ;
30 -> 32 ;
33 [label="gini = 0.5\nsamples = 2\nvalue = [1, 1]"] ;
32 -> 33 ;
34 [label="gini = 0.0\nsamples = 5\nvalue = [8, 0]"] ;
32 -> 34 ;
35 [label="gini = 0.4\nsamples = 2\nvalue = [1, 3]"] ;
3 -> 35 ;
36 [label="HOME_AWAY_GOAL_DIFF <= 3.3\ngini = 0.4\nsamples = 704\nvalue = [789, 339]"] ;
2 -> 36 ;
37 [label="ELO_DIFF <= 2.6\ngini = 0.4\nsamples = 553\nvalue = [597, 277]"] ;
36 -> 37 ;
38 [label="HOME_AWAY_GOAL_DIFF <= 3.1\ngini = 0.3\nsamples = 206\nvalue = [255, 66]"] ;
37 -> 38 ;
39 [label="HOME_AWAY_GOAL_DIFF <= 2.9\ngini = 0.3\nsamples = 164\nvalue = [202, 58]"] ;
38 -> 39 ;
40 [label="HOME_AWAY_GOAL_DIFF <= 2.5\ngini = 0.3\nsamples = 123\nvalue = [159, 39]"] ;
39 -> 40 ;
41 [label="ELO_DIFF <= 1.9\ngini = 0.4\nsamples = 59\nvalue = [74, 24]"] ;
40 -> 41 ;
42 [label="ELO_DIFF <= 0.8\ngini = 0.2\nsamples = 32\nvalue = [51, 5]"] ;
41 -> 42 ;
43 [label="HOME_AWAY_GOAL_DIFF <= 2.3\ngini = 0.4\nsamples = 4\nvalue = [5, 2]"] ;
42 -> 43 ;
44 [label="gini = 0.5\nsamples = 3\nvalue = [3, 2]"] ;
43 -> 44 ;
45 [label="gini = 0.0\nsamples = 1\nvalue = [2, 0]"] ;
43 -> 45 ;
46 [label="RECENT_PERF_DIFF <= 2.1\ngini = 0.1\nsamples = 28\nvalue = [46, 3]"] ;
42 -> 46 ;
47 [label="ELO_DIFF <= 1.5\ngini = 0.2\nsamples = 5\nvalue = [7, 1]"] ;
46 -> 47 ;
48 [label="gini = 0.0\nsamples = 1\nvalue = [0, 1]"] ;
47 -> 48 ;
49 [label="gini = 0.0\nsamples = 4\nvalue = [7, 0]"] ;
47 -> 49 ;
50 [label="RECENT_PERF_DIFF <= 2.3\ngini = 0.1\nsamples = 23\nvalue = [39, 2]"] ;
46 -> 50 ;
51 [label="ELO_DIFF <= 1.4\ngini = 0.1\nsamples = 11\nvalue = [16, 1]"] ;
50 -> 51 ;
52 [label="gini = 0.0\nsamples = 4\nvalue = [8, 0]"] ;
51 -> 52 ;
53 [label="ELO_DIFF <= 1.6\ngini = 0.2\nsamples = 7\nvalue = [8, 1]"] ;
51 -> 53 ;
54 [label="gini = 0.4\nsamples = 3\nvalue = [2, 1]"] ;
53 -> 54 ;
55 [label="gini = 0.0\nsamples = 4\nvalue = [6, 0]"] ;
53 -> 55 ;
56 [label="ELO_DIFF <= 1.6\ngini = 0.1\nsamples = 12\nvalue = [23, 1]"] ;
50 -> 56 ;
57 [label="gini = 0.0\nsamples = 8\nvalue = [16, 0]"] ;
56 -> 57 ;
58 [label="ELO_DIFF <= 1.7\ngini = 0.2\nsamples = 4\nvalue = [7, 1]"] ;
56 -> 58 ;
59 [label="gini = 0.5\nsamples = 2\nvalue = [1, 1]"] ;
58 -> 59 ;
60 [label="gini = 0.0\nsamples = 2\nvalue = [6, 0]"] ;
58 -> 60 ;
61 [label="HOME_AWAY_GOAL_DIFF <= 2.3\ngini = 0.5\nsamples = 27\nvalue = [23, 19]"] ;
41 -> 61 ;
62 [label="HOME_AWAY_GOAL_DIFF <= 2.1\ngini = 0.3\nsamples = 12\nvalue = [15, 3]"] ;
61 -> 62 ;
63 [label="ELO_DIFF <= 2.5\ngini = 0.4\nsamples = 6\nvalue = [9, 3]"] ;
62 -> 63 ;
64 [label="ELO_DIFF <= 2.3\ngini = 0.2\nsamples = 5\nvalue = [9, 1]"] ;
63 -> 64 ;
65 [label="ELO_DIFF <= 2.1\ngini = 0.3\nsamples = 3\nvalue = [4, 1]"] ;
64 -> 65 ;
66 [label="gini = 0.0\nsamples = 1\nvalue = [1, 0]"] ;
65 -> 66 ;
67 [label="gini = 0.4\nsamples = 2\nvalue = [3, 1]"] ;
65 -> 67 ;
68 [label="gini = 0.0\nsamples = 2\nvalue = [5, 0]"] ;
64 -> 68 ;
69 [label="gini = 0.0\nsamples = 1\nvalue = [0, 2]"] ;
63 -> 69 ;
70 [label="gini = 0.0\nsamples = 6\nvalue = [6, 0]"] ;
62 -> 70 ;
71 [label="ELO_DIFF <= 2.3\ngini = 0.4\nsamples = 15\nvalue = [8, 16]"] ;
61 -> 71 ;
72 [label="ELO_DIFF <= 2.1\ngini = 0.5\nsamples = 8\nvalue = [6, 7]"] ;
71 -> 72 ;
73 [label="ELO_DIFF <= 2.0\ngini = 0.4\nsamples = 4\nvalue = [2, 6]"] ;
72 -> 73 ;
74 [label="gini = 0.0\nsamples = 1\nvalue = [0, 3]"] ;
73 -> 74 ;
75 [label="gini = 0.5\nsamples = 3\nvalue = [2, 3]"] ;
73 -> 75 ;
76 [label="gini = 0.3\nsamples = 4\nvalue = [4, 1]"] ;
72 -> 76 ;
77 [label="ELO_DIFF <= 2.5\ngini = 0.3\nsamples = 7\nvalue = [2, 9]"] ;
71 -> 77 ;
78 [label="gini = 0.0\nsamples = 2\nvalue = [0, 4]"] ;
77 -> 78 ;
79 [label="gini = 0.4\nsamples = 5\nvalue = [2, 5]"] ;
77 -> 79 ;
80 [label="ELO_DIFF <= 2.5\ngini = 0.3\nsamples = 64\nvalue = [85, 15]"] ;
40 -> 80 ;
81 [label="HOME_AWAY_GOAL_DIFF <= 2.7\ngini = 0.3\nsamples = 54\nvalue = [73, 15]"] ;
80 -> 81 ;
82 [label="ELO_DIFF <= 2.4\ngini = 0.2\nsamples = 21\nvalue = [29, 4]"] ;
81 -> 82 ;
83 [label="ELO_DIFF <= 1.5\ngini = 0.1\nsamples = 17\nvalue = [25, 2]"] ;
82 -> 83 ;
84 [label="ELO_DIFF <= 1.4\ngini = 0.3\nsamples = 7\nvalue = [8, 2]"] ;
83 -> 84 ;
85 [label="gini = 0.0\nsamples = 5\nvalue = [7, 0]"] ;
84 -> 85 ;
86 [label="gini = 0.4\nsamples = 2\nvalue = [1, 2]"] ;
84 -> 86 ;
87 [label="gini = 0.0\nsamples = 10\nvalue = [17, 0]"] ;
83 -> 87 ;
88 [label="gini = 0.4\nsamples = 4\nvalue = [4, 2]"] ;
82 -> 88 ;
89 [label="ELO_DIFF <= 2.2\ngini = 0.3\nsamples = 33\nvalue = [44, 11]"] ;
81 -> 89 ;
90 [label="ELO_DIFF <= 1.4\ngini = 0.2\nsamples = 18\nvalue = [27, 3]"] ;
89 -> 90 ;
91 [label="ELO_DIFF <= 1.1\ngini = 0.5\nsamples = 3\nvalue = [3, 2]"] ;
90 -> 91 ;
92 [label="gini = 0.0\nsamples = 2\nvalue = [3, 0]"] ;
91 -> 92 ;
93 [label="gini = 0.0\nsamples = 1\nvalue = [0, 2]"] ;
91 -> 93 ;
94 [label="ELO_DIFF <= 1.9\ngini = 0.1\nsamples = 15\nvalue = [24, 1]"] ;
90 -> 94 ;
95 [label="ELO_DIFF <= 1.8\ngini = 0.1\nsamples = 9\nvalue = [16, 1]"] ;
94 -> 95 ;
96 [label="gini = 0.0\nsamples = 4\nvalue = [6, 0]"] ;
95 -> 96 ;
97 [label="gini = 0.2\nsamples = 5\nvalue = [10, 1]"] ;
95 -> 97 ;
98 [label="gini = 0.0\nsamples = 6\nvalue = [8, 0]"] ;
94 -> 98 ;
99 [label="ELO_DIFF <= 2.3\ngini = 0.4\nsamples = 15\nvalue = [17, 8]"] ;
89 -> 99 ;
100 [label="gini = 0.5\nsamples = 5\nvalue = [4, 5]"] ;
99 -> 100 ;
101 [label="ELO_DIFF <= 2.4\ngini = 0.3\nsamples = 10\nvalue = [13, 3]"] ;
99 -> 101 ;
102 [label="gini = 0.3\nsamples = 5\nvalue = [8, 2]"] ;
101 -> 102 ;
103 [label="gini = 0.3\nsamples = 5\nvalue = [5, 1]"] ;
101 -> 103 ;
104 [label="gini = 0.0\nsamples = 10\nvalue = [12, 0]"] ;
80 -> 104 ;
105 [label="ELO_DIFF <= 2.3\ngini = 0.4\nsamples = 41\nvalue = [43, 19]"] ;
39 -> 105 ;
106 [label="ELO_DIFF <= 1.6\ngini = 0.5\nsamples = 25\nvalue = [21, 17]"] ;
105 -> 106 ;
107 [label="ELO_DIFF <= 1.1\ngini = 0.2\nsamples = 6\nvalue = [9, 1]"] ;
106 -> 107 ;
108 [label="gini = 0.5\nsamples = 2\nvalue = [1, 1]"] ;
107 -> 108 ;
109 [label="gini = 0.0\nsamples = 4\nvalue = [8, 0]"] ;
107 -> 109 ;
110 [label="ELO_DIFF <= 1.8\ngini = 0.5\nsamples = 19\nvalue = [12, 16]"] ;
106 -> 110 ;
111 [label="gini = 0.3\nsamples = 3\nvalue = [1, 5]"] ;
110 -> 111 ;
112 [label="ELO_DIFF <= 2.1\ngini = 0.5\nsamples = 16\nvalue = [11, 11]"] ;
110 -> 112 ;
113 [label="ELO_DIFF <= 1.9\ngini = 0.4\nsamples = 7\nvalue = [7, 3]"] ;
112 -> 113 ;
114 [label="gini = 0.0\nsamples = 1\nvalue = [1, 0]"] ;
113 -> 114 ;
115 [label="ELO_DIFF <= 2.0\ngini = 0.4\nsamples = 6\nvalue = [6, 3]"] ;
113 -> 115 ;
116 [label="gini = 0.5\nsamples = 2\nvalue = [1, 1]"] ;
115 -> 116 ;
117 [label="gini = 0.4\nsamples = 4\nvalue = [5, 2]"] ;
115 -> 117 ;
118 [label="ELO_DIFF <= 2.2\ngini = 0.4\nsamples = 9\nvalue = [4, 8]"] ;
112 -> 118 ;
119 [label="gini = 0.4\nsamples = 6\nvalue = [2, 6]"] ;
118 -> 119 ;
120 [label="gini = 0.5\nsamples = 3\nvalue = [2, 2]"] ;
118 -> 120 ;
121 [label="ELO_DIFF <= 2.4\ngini = 0.2\nsamples = 16\nvalue = [22, 2]"] ;
105 -> 121 ;
122 [label="gini = 0.0\nsamples = 3\nvalue = [5, 0]"] ;
121 -> 122 ;
123 [label="ELO_DIFF <= 2.5\ngini = 0.2\nsamples = 13\nvalue = [17, 2]"] ;
121 -> 123 ;
124 [label="gini = 0.2\nsamples = 5\nvalue = [6, 1]"] ;
123 -> 124 ;
125 [label="gini = 0.2\nsamples = 8\nvalue = [11, 1]"] ;
123 -> 125 ;
126 [label="ELO_DIFF <= 2.4\ngini = 0.2\nsamples = 42\nvalue = [53, 8]"] ;
38 -> 126 ;
127 [label="ELO_DIFF <= 1.6\ngini = 0.1\nsamples = 30\nvalue = [41, 3]"] ;
126 -> 127 ;
128 [label="gini = 0.0\nsamples = 8\nvalue = [12, 0]"] ;
127 -> 128 ;
129 [label="ELO_DIFF <= 1.8\ngini = 0.2\nsamples = 22\nvalue = [29, 3]"] ;
127 -> 129 ;
130 [label="ELO_DIFF <= 1.7\ngini = 0.4\nsamples = 7\nvalue = [6, 2]"] ;
129 -> 130 ;
131 [label="gini = 0.4\nsamples = 4\nvalue = [3, 1]"] ;
130 -> 131 ;
132 [label="gini = 0.4\nsamples = 3\nvalue = [3, 1]"] ;
130 -> 132 ;
133 [label="ELO_DIFF <= 2.0\ngini = 0.1\nsamples = 15\nvalue = [23, 1]"] ;
129 -> 133 ;
134 [label="ELO_DIFF <= 1.9\ngini = 0.2\nsamples = 6\nvalue = [11, 1]"] ;
133 -> 134 ;
135 [label="gini = 0.0\nsamples = 3\nvalue = [6, 0]"] ;
134 -> 135 ;
136 [label="gini = 0.3\nsamples = 3\nvalue = [5, 1]"] ;
134 -> 136 ;
137 [label="gini = 0.0\nsamples = 9\nvalue = [12, 0]"] ;
133 -> 137 ;
138 [label="ELO_DIFF <= 2.5\ngini = 0.4\nsamples = 12\nvalue = [12, 5]"] ;
126 -> 138 ;
139 [label="gini = 0.4\nsamples = 6\nvalue = [7, 3]"] ;
138 -> 139 ;
140 [label="gini = 0.4\nsamples = 6\nvalue = [5, 2]"] ;
138 -> 140 ;
141 [label="RECENT_PERF_DIFF <= 2.1\ngini = 0.5\nsamples = 347\nvalue = [342, 211]"] ;
37 -> 141 ;
142 [label="ELO_DIFF <= 3.4\ngini = 0.4\nsamples = 9\nvalue = [5, 10]"] ;
141 -> 142 ;
143 [label="ELO_DIFF <= 3.1\ngini = 0.3\nsamples = 6\nvalue = [2, 7]"] ;
142 -> 143 ;
144 [label="ELO_DIFF <= 2.8\ngini = 0.5\nsamples = 3\nvalue = [2, 2]"] ;
143 -> 144 ;
145 [label="gini = 0.0\nsamples = 1\nvalue = [0, 2]"] ;
144 -> 145 ;
146 [label="gini = 0.0\nsamples = 2\nvalue = [2, 0]"] ;
144 -> 146 ;
147 [label="gini = 0.0\nsamples = 3\nvalue = [0, 5]"] ;
143 -> 147 ;
148 [label="gini = 0.5\nsamples = 3\nvalue = [3, 3]"] ;
142 -> 148 ;
149 [label="HOME_AWAY_GOAL_DIFF <= 2.3\ngini = 0.5\nsamples = 338\nvalue = [337, 201]"] ;
141 -> 149 ;
150 [label="ELO_DIFF <= 3.2\ngini = 0.4\nsamples = 25\nvalue = [30, 11]"] ;
149 -> 150 ;
151 [label="ELO_DIFF <= 3.1\ngini = 0.5\nsamples = 12\nvalue = [10, 10]"] ;
150 -> 151 ;
152 [label="ELO_DIFF <= 2.7\ngini = 0.5\nsamples = 10\nvalue = [10, 7]"] ;
151 -> 152 ;
153 [label="gini = 0.0\nsamples = 1\nvalue = [0, 1]"] ;
152 -> 153 ;
154 [label="ELO_DIFF <= 2.8\ngini = 0.5\nsamples = 9\nvalue = [10, 6]"] ;
152 -> 154 ;
155 [label="gini = 0.0\nsamples = 2\nvalue = [3, 0]"] ;
154 -> 155 ;
156 [label="ELO_DIFF <= 2.9\ngini = 0.5\nsamples = 7\nvalue = [7, 6]"] ;
154 -> 156 ;
157 [label="gini = 0.0\nsamples = 1\nvalue = [0, 3]"] ;
156 -> 157 ;
158 [label="ELO_DIFF <= 3.0\ngini = 0.4\nsamples = 6\nvalue = [7, 3]"] ;
156 -> 158 ;
159 [label="gini = 0.0\nsamples = 3\nvalue = [4, 0]"] ;
158 -> 159 ;
160 [label="gini = 0.5\nsamples = 3\nvalue = [3, 3]"] ;
158 -> 160 ;
161 [label="gini = 0.0\nsamples = 2\nvalue = [0, 3]"] ;
151 -> 161 ;
162 [label="ELO_DIFF <= 3.4\ngini = 0.1\nsamples = 13\nvalue = [20, 1]"] ;
150 -> 162 ;
163 [label="ELO_DIFF <= 3.3\ngini = 0.2\nsamples = 7\nvalue = [9, 1]"] ;
162 -> 163 ;
164 [label="gini = 0.0\nsamples = 2\nvalue = [2, 0]"] ;
163 -> 164 ;
165 [label="gini = 0.2\nsamples = 5\nvalue = [7, 1]"] ;
163 -> 165 ;
166 [label="gini = 0.0\nsamples = 6\nvalue = [11, 0]"] ;
162 -> 166 ;
167 [label="RECENT_PERF_DIFF <= 2.5\ngini = 0.5\nsamples = 313\nvalue = [307, 190]"] ;
149 -> 167 ;
168 [label="ELO_DIFF <= 3.5\ngini = 0.5\nsamples = 26\nvalue = [17, 18]"] ;
167 -> 168 ;
169 [label="ELO_DIFF <= 3.2\ngini = 0.5\nsamples = 24\nvalue = [12, 18]"] ;
168 -> 169 ;
170 [label="ELO_DIFF <= 2.8\ngini = 0.5\nsamples = 18\nvalue = [10, 10]"] ;
169 -> 170 ;
171 [label="ELO_DIFF <= 2.7\ngini = 0.4\nsamples = 4\nvalue = [3, 1]"] ;
170 -> 171 ;
172 [label="gini = 0.4\nsamples = 3\nvalue = [2, 1]"] ;
171 -> 172 ;
173 [label="gini = 0.0\nsamples = 1\nvalue = [1, 0]"] ;
171 -> 173 ;
174 [label="ELO_DIFF <= 2.9\ngini = 0.5\nsamples = 14\nvalue = [7, 9]"] ;
170 -> 174 ;
175 [label="gini = 0.3\nsamples = 5\nvalue = [1, 5]"] ;
174 -> 175 ;
176 [label="ELO_DIFF <= 3.0\ngini = 0.5\nsamples = 9\nvalue = [6, 4]"] ;
174 -> 176 ;
177 [label="gini = 0.4\nsamples = 5\nvalue = [4, 2]"] ;
176 -> 177 ;
178 [label="ELO_DIFF <= 3.1\ngini = 0.5\nsamples = 4\nvalue = [2, 2]"] ;
176 -> 178 ;
179 [label="gini = 0.0\nsamples = 1\nvalue = [0, 1]"] ;
178 -> 179 ;
180 [label="gini = 0.4\nsamples = 3\nvalue = [2, 1]"] ;
178 -> 180 ;
181 [label="ELO_DIFF <= 3.3\ngini = 0.3\nsamples = 6\nvalue = [2, 8]"] ;
169 -> 181 ;
182 [label="gini = 0.2\nsamples = 3\nvalue = [1, 6]"] ;
181 -> 182 ;
183 [label="ELO_DIFF <= 3.4\ngini = 0.4\nsamples = 3\nvalue = [1, 2]"] ;
181 -> 183 ;
184 [label="gini = 0.5\nsamples = 2\nvalue = [1, 1]"] ;
183 -> 184 ;
185 [label="gini = 0.0\nsamples = 1\nvalue = [0, 1]"] ;
183 -> 185 ;
186 [label="gini = 0.0\nsamples = 2\nvalue = [5, 0]"] ;
168 -> 186 ;
187 [label="ELO_DIFF <= 3.6\ngini = 0.5\nsamples = 287\nvalue = [290, 172]"] ;
167 -> 187 ;
188 [label="RECENT_PERF_DIFF <= 2.7\ngini = 0.5\nsamples = 258\nvalue = [251, 156]"] ;
187 -> 188 ;
189 [label="ELO_DIFF <= 2.7\ngini = 0.4\nsamples = 38\nvalue = [41, 14]"] ;
188 -> 189 ;
190 [label="gini = 0.4\nsamples = 5\nvalue = [2, 4]"] ;
189 -> 190 ;
191 [label="ELO_DIFF <= 3.1\ngini = 0.3\nsamples = 33\nvalue = [39, 10]"] ;
189 -> 191 ;
192 [label="ELO_DIFF <= 2.8\ngini = 0.1\nsamples = 10\nvalue = [12, 1]"] ;
191 -> 192 ;
193 [label="gini = 0.4\nsamples = 2\nvalue = [2, 1]"] ;
192 -> 193 ;
194 [label="gini = 0.0\nsamples = 8\nvalue = [10, 0]"] ;
192 -> 194 ;
195 [label="ELO_DIFF <= 3.5\ngini = 0.4\nsamples = 23\nvalue = [27, 9]"] ;
191 -> 195 ;
196 [label="ELO_DIFF <= 3.4\ngini = 0.4\nsamples = 17\nvalue = [20, 8]"] ;
195 -> 196 ;
197 [label="ELO_DIFF <= 3.3\ngini = 0.4\nsamples = 13\nvalue = [16, 5]"] ;
196 -> 197 ;
198 [label="ELO_DIFF <= 3.2\ngini = 0.4\nsamples = 9\nvalue = [10, 4]"] ;
197 -> 198 ;
199 [label="gini = 0.4\nsamples = 2\nvalue = [2, 1]"] ;
198 -> 199 ;
200 [label="gini = 0.4\nsamples = 7\nvalue = [8, 3]"] ;
198 -> 200 ;
201 [label="gini = 0.2\nsamples = 4\nvalue = [6, 1]"] ;
197 -> 201 ;
202 [label="gini = 0.5\nsamples = 4\nvalue = [4, 3]"] ;
196 -> 202 ;
203 [label="gini = 0.2\nsamples = 6\nvalue = [7, 1]"] ;
195 -> 203 ;
204 [label="ELO_DIFF <= 2.9\ngini = 0.5\nsamples = 220\nvalue = [210, 142]"] ;
188 -> 204 ;
205 [label="RECENT_PERF_DIFF <= 2.9\ngini = 0.4\nsamples = 60\nvalue = [65, 29]"] ;
204 -> 205 ;
206 [label="ELO_DIFF <= 2.8\ngini = 0.5\nsamples = 23\nvalue = [21, 11]"] ;
205 -> 206 ;
207 [label="ELO_DIFF <= 2.7\ngini = 0.5\nsamples = 13\nvalue = [10, 8]"] ;
206 -> 207 ;
208 [label="gini = 0.5\nsamples = 7\nvalue = [5, 4]"] ;
207 -> 208 ;
209 [label="gini = 0.5\nsamples = 6\nvalue = [5, 4]"] ;
207 -> 209 ;
210 [label="gini = 0.3\nsamples = 10\nvalue = [11, 3]"] ;
206 -> 210 ;
211 [label="ELO_DIFF <= 2.8\ngini = 0.4\nsamples = 37\nvalue = [44, 18]"] ;
205 -> 211 ;
212 [label="ELO_DIFF <= 2.7\ngini = 0.4\nsamples = 23\nvalue = [29, 9]"] ;
211 -> 212 ;
213 [label="RECENT_PERF_DIFF <= 3.1\ngini = 0.4\nsamples = 12\nvalue = [15, 5]"] ;
212 -> 213 ;
214 [label="gini = 0.2\nsamples = 4\nvalue = [6, 1]"] ;
213 -> 214 ;
215 [label="gini = 0.4\nsamples = 8\nvalue = [9, 4]"] ;
213 -> 215 ;
216 [label="HOME_AWAY_GOAL_DIFF <= 3.1\ngini = 0.3\nsamples = 11\nvalue = [14, 4]"] ;
212 -> 216 ;
217 [label="gini = 0.3\nsamples = 5\nvalue = [8, 2]"] ;
216 -> 217 ;
218 [label="gini = 0.4\nsamples = 6\nvalue = [6, 2]"] ;
216 -> 218 ;
219 [label="RECENT_PERF_DIFF <= 3.1\ngini = 0.5\nsamples = 14\nvalue = [15, 9]"] ;
211 -> 219 ;
220 [label="gini = 0.5\nsamples = 7\nvalue = [6, 5]"] ;
219 -> 220 ;
221 [label="gini = 0.4\nsamples = 7\nvalue = [9, 4]"] ;
219 -> 221 ;
222 [label="RECENT_PERF_DIFF <= 2.9\ngini = 0.5\nsamples = 160\nvalue = [145, 113]"] ;
204 -> 222 ;
223 [label="ELO_DIFF <= 3.4\ngini = 0.5\nsamples = 42\nvalue = [38, 28]"] ;
222 -> 223 ;
224 [label="ELO_DIFF <= 3.0\ngini = 0.5\nsamples = 30\nvalue = [24, 21]"] ;
223 -> 224 ;
225 [label="gini = 0.5\nsamples = 6\nvalue = [6, 4]"] ;
224 -> 225 ;
226 [label="ELO_DIFF <= 3.2\ngini = 0.5\nsamples = 24\nvalue = [18, 17]"] ;
224 -> 226 ;
227 [label="ELO_DIFF <= 3.1\ngini = 0.5\nsamples = 14\nvalue = [10, 11]"] ;
226 -> 227 ;
228 [label="gini = 0.5\nsamples = 9\nvalue = [6, 7]"] ;
227 -> 228 ;
229 [label="gini = 0.5\nsamples = 5\nvalue = [4, 4]"] ;
227 -> 229 ;
230 [label="ELO_DIFF <= 3.3\ngini = 0.5\nsamples = 10\nvalue = [8, 6]"] ;
226 -> 230 ;
231 [label="gini = 0.5\nsamples = 3\nvalue = [3, 2]"] ;
230 -> 231 ;
232 [label="gini = 0.5\nsamples = 7\nvalue = [5, 4]"] ;
230 -> 232 ;
233 [label="ELO_DIFF <= 3.5\ngini = 0.4\nsamples = 12\nvalue = [14, 7]"] ;
223 -> 233 ;
234 [label="gini = 0.5\nsamples = 6\nvalue = [7, 4]"] ;
233 -> 234 ;
235 [label="gini = 0.4\nsamples = 6\nvalue = [7, 3]"] ;
233 -> 235 ;
236 [label="RECENT_PERF_DIFF <= 3.1\ngini = 0.5\nsamples = 118\nvalue = [107, 85]"] ;
222 -> 236 ;
237 [label="ELO_DIFF <= 3.2\ngini = 0.5\nsamples = 55\nvalue = [51, 41]"] ;
236 -> 237 ;
238 [label="ELO_DIFF <= 3.0\ngini = 0.5\nsamples = 26\nvalue = [27, 15]"] ;
237 -> 238 ;
239 [label="gini = 0.5\nsamples = 7\nvalue = [5, 7]"] ;
238 -> 239 ;
240 [label="ELO_DIFF <= 3.1\ngini = 0.4\nsamples = 19\nvalue = [22, 8]"] ;
238 -> 240 ;
241 [label="gini = 0.3\nsamples = 10\nvalue = [14, 4]"] ;
240 -> 241 ;
242 [label="gini = 0.4\nsamples = 9\nvalue = [8, 4]"] ;
240 -> 242 ;
243 [label="ELO_DIFF <= 3.3\ngini = 0.5\nsamples = 29\nvalue = [24, 26]"] ;
237 -> 243 ;
244 [label="gini = 0.2\nsamples = 3\nvalue = [1, 7]"] ;
243 -> 244 ;
245 [label="ELO_DIFF <= 3.5\ngini = 0.5\nsamples = 26\nvalue = [23, 19]"] ;
243 -> 245 ;
246 [label="ELO_DIFF <= 3.4\ngini = 0.5\nsamples = 9\nvalue = [10, 6]"] ;
245 -> 246 ;
247 [label="gini = 0.5\nsamples = 5\nvalue = [4, 4]"] ;
246 -> 247 ;
248 [label="gini = 0.4\nsamples = 4\nvalue = [6, 2]"] ;
246 -> 248 ;
249 [label="gini = 0.5\nsamples = 17\nvalue = [13, 13]"] ;
245 -> 249 ;
250 [label="ELO_DIFF <= 3.5\ngini = 0.5\nsamples = 63\nvalue = [56, 44]"] ;
236 -> 250 ;
251 [label="ELO_DIFF <= 3.4\ngini = 0.5\nsamples = 52\nvalue = [41, 37]"] ;
250 -> 251 ;
252 [label="ELO_DIFF <= 3.3\ngini = 0.5\nsamples = 42\nvalue = [36, 27]"] ;
251 -> 252 ;
253 [label="ELO_DIFF <= 3.0\ngini = 0.5\nsamples = 37\nvalue = [31, 26]"] ;
252 -> 253 ;
254 [label="gini = 0.4\nsamples = 8\nvalue = [8, 4]"] ;
253 -> 254 ;
255 [label="ELO_DIFF <= 3.2\ngini = 0.5\nsamples = 29\nvalue = [23, 22]"] ;
253 -> 255 ;
256 [label="ELO_DIFF <= 3.1\ngini = 0.5\nsamples = 17\nvalue = [11, 14]"] ;
255 -> 256 ;
257 [label="gini = 0.5\nsamples = 7\nvalue = [5, 7]"] ;
256 -> 257 ;
258 [label="gini = 0.5\nsamples = 10\nvalue = [6, 7]"] ;
256 -> 258 ;
259 [label="gini = 0.5\nsamples = 12\nvalue = [12, 8]"] ;
255 -> 259 ;
260 [label="gini = 0.3\nsamples = 5\nvalue = [5, 1]"] ;
252 -> 260 ;
261 [label="gini = 0.4\nsamples = 10\nvalue = [5, 10]"] ;
251 -> 261 ;
262 [label="gini = 0.4\nsamples = 11\nvalue = [15, 7]"] ;
250 -> 262 ;
263 [label="RECENT_PERF_DIFF <= 3.1\ngini = 0.4\nsamples = 29\nvalue = [39, 16]"] ;
187 -> 263 ;
264 [label="HOME_AWAY_GOAL_DIFF <= 2.9\ngini = 0.3\nsamples = 21\nvalue = [35, 10]"] ;
263 -> 264 ;
265 [label="RECENT_PERF_DIFF <= 2.7\ngini = 0.3\nsamples = 11\nvalue = [18, 4]"] ;
264 -> 265 ;
266 [label="gini = 0.4\nsamples = 2\nvalue = [3, 1]"] ;
265 -> 266 ;
267 [label="gini = 0.3\nsamples = 9\nvalue = [15, 3]"] ;
265 -> 267 ;
268 [label="gini = 0.4\nsamples = 10\nvalue = [17, 6]"] ;
264 -> 268 ;
269 [label="gini = 0.5\nsamples = 8\nvalue = [4, 6]"] ;
263 -> 269 ;
270 [label="ELO_DIFF <= 2.5\ngini = 0.4\nsamples = 151\nvalue = [192, 62]"] ;
36 -> 270 ;
271 [label="ELO_DIFF <= 1.8\ngini = 0.1\nsamples = 39\nvalue = [62, 2]"] ;
270 -> 271 ;
272 [label="ELO_DIFF <= 1.7\ngini = 0.1\nsamples = 16\nvalue = [26, 2]"] ;
271 -> 272 ;
273 [label="gini = 0.0\nsamples = 12\nvalue = [23, 0]"] ;
272 -> 273 ;
274 [label="gini = 0.5\nsamples = 4\nvalue = [3, 2]"] ;
272 -> 274 ;
275 [label="gini = 0.0\nsamples = 23\nvalue = [36, 0]"] ;
271 -> 275 ;
276 [label="ELO_DIFF <= 3.2\ngini = 0.4\nsamples = 112\nvalue = [130, 60]"] ;
270 -> 276 ;
277 [label="ELO_DIFF <= 2.9\ngini = 0.5\nsamples = 58\nvalue = [52, 39]"] ;
276 -> 277 ;
278 [label="ELO_DIFF <= 2.8\ngini = 0.5\nsamples = 30\nvalue = [26, 25]"] ;
277 -> 278 ;
279 [label="ELO_DIFF <= 2.7\ngini = 0.5\nsamples = 22\nvalue = [21, 14]"] ;
278 -> 279 ;
280 [label="ELO_DIFF <= 2.6\ngini = 0.4\nsamples = 6\nvalue = [9, 4]"] ;
279 -> 280 ;
281 [label="gini = 0.5\nsamples = 4\nvalue = [4, 4]"] ;
280 -> 281 ;
282 [label="gini = 0.0\nsamples = 2\nvalue = [5, 0]"] ;
280 -> 282 ;
283 [label="gini = 0.5\nsamples = 16\nvalue = [12, 10]"] ;
279 -> 283 ;
284 [label="gini = 0.4\nsamples = 8\nvalue = [5, 11]"] ;
278 -> 284 ;
285 [label="ELO_DIFF <= 3.1\ngini = 0.5\nsamples = 28\nvalue = [26, 14]"] ;
277 -> 285 ;
286 [label="ELO_DIFF <= 3.0\ngini = 0.4\nsamples = 16\nvalue = [20, 7]"] ;
285 -> 286 ;
287 [label="gini = 0.4\nsamples = 10\nvalue = [12, 4]"] ;
286 -> 287 ;
288 [label="gini = 0.4\nsamples = 6\nvalue = [8, 3]"] ;
286 -> 288 ;
289 [label="gini = 0.5\nsamples = 12\nvalue = [6, 7]"] ;
285 -> 289 ;
290 [label="ELO_DIFF <= 3.5\ngini = 0.3\nsamples = 54\nvalue = [78, 21]"] ;
276 -> 290 ;
291 [label="ELO_DIFF <= 3.3\ngini = 0.3\nsamples = 32\nvalue = [50, 10]"] ;
290 -> 291 ;
292 [label="gini = 0.2\nsamples = 7\nvalue = [9, 1]"] ;
291 -> 292 ;
293 [label="ELO_DIFF <= 3.4\ngini = 0.3\nsamples = 25\nvalue = [41, 9]"] ;
291 -> 293 ;
294 [label="gini = 0.3\nsamples = 14\nvalue = [24, 6]"] ;
293 -> 294 ;
295 [label="gini = 0.3\nsamples = 11\nvalue = [17, 3]"] ;
293 -> 295 ;
296 [label="ELO_DIFF <= 3.6\ngini = 0.4\nsamples = 22\nvalue = [28, 11]"] ;
290 -> 296 ;
297 [label="gini = 0.5\nsamples = 13\nvalue = [12, 8]"] ;
296 -> 297 ;
298 [label="gini = 0.3\nsamples = 9\nvalue = [16, 3]"] ;
296 -> 298 ;
299 [label="RECENT_PERF_DIFF <= 6.1\ngini = 0.5\nsamples = 1188\nvalue = [1184, 672]"] ;
1 -> 299 ;
300 [label="HOME_AWAY_GOAL_DIFF <= 5.3\ngini = 0.5\nsamples = 1185\nvalue = [1184, 667]"] ;
299 -> 300 ;
301 [label="HOME_AWAY_GOAL_DIFF <= 5.1\ngini = 0.5\nsamples = 1133\nvalue = [1138, 625]"] ;
300 -> 301 ;
302 [label="HOME_AWAY_GOAL_DIFF <= 4.7\ngini = 0.5\nsamples = 1090\nvalue = [1082, 610]"] ;
301 -> 302 ;
303 [label="HOME_AWAY_GOAL_DIFF <= 4.1\ngini = 0.5\nsamples = 967\nvalue = [970, 528]"] ;
302 -> 303 ;
304 [label="ELO_DIFF <= 2.5\ngini = 0.4\nsamples = 554\nvalue = [570, 294]"] ;
303 -> 304 ;
305 [label="HOME_AWAY_GOAL_DIFF <= 3.7\ngini = 0.2\nsamples = 105\nvalue = [142, 20]"] ;
304 -> 305 ;
306 [label="ELO_DIFF <= 0.9\ngini = 0.2\nsamples = 39\nvalue = [53, 9]"] ;
305 -> 306 ;
307 [label="gini = 0.0\nsamples = 1\nvalue = [0, 1]"] ;
306 -> 307 ;
308 [label="ELO_DIFF <= 1.4\ngini = 0.2\nsamples = 38\nvalue = [53, 8]"] ;
306 -> 308 ;
309 [label="ELO_DIFF <= 1.3\ngini = 0.4\nsamples = 3\nvalue = [2, 1]"] ;
308 -> 309 ;
310 [label="gini = 0.0\nsamples = 2\nvalue = [2, 0]"] ;
309 -> 310 ;
311 [label="gini = 0.0\nsamples = 1\nvalue = [0, 1]"] ;
309 -> 311 ;
312 [label="ELO_DIFF <= 2.2\ngini = 0.2\nsamples = 35\nvalue = [51, 7]"] ;
308 -> 312 ;
313 [label="ELO_DIFF <= 2.0\ngini = 0.2\nsamples = 18\nvalue = [32, 3]"] ;
312 -> 313 ;
314 [label="ELO_DIFF <= 1.9\ngini = 0.2\nsamples = 13\nvalue = [18, 3]"] ;
313 -> 314 ;
315 [label="ELO_DIFF <= 1.6\ngini = 0.1\nsamples = 10\nvalue = [15, 1]"] ;
314 -> 315 ;
316 [label="ELO_DIFF <= 1.5\ngini = 0.2\nsamples = 5\nvalue = [7, 1]"] ;
315 -> 316 ;
317 [label="gini = 0.0\nsamples = 2\nvalue = [3, 0]"] ;
316 -> 317 ;
318 [label="gini = 0.3\nsamples = 3\nvalue = [4, 1]"] ;
316 -> 318 ;
319 [label="gini = 0.0\nsamples = 5\nvalue = [8, 0]"] ;
315 -> 319 ;
320 [label="gini = 0.5\nsamples = 3\nvalue = [3, 2]"] ;
314 -> 320 ;
321 [label="gini = 0.0\nsamples = 5\nvalue = [14, 0]"] ;
313 -> 321 ;
322 [label="ELO_DIFF <= 2.3\ngini = 0.3\nsamples = 17\nvalue = [19, 4]"] ;
312 -> 322 ;
323 [label="gini = 0.4\nsamples = 4\nvalue = [4, 2]"] ;
322 -> 323 ;
324 [label="ELO_DIFF <= 2.4\ngini = 0.2\nsamples = 13\nvalue = [15, 2]"] ;
322 -> 324 ;
325 [label="gini = 0.2\nsamples = 7\nvalue = [8, 1]"] ;
324 -> 325 ;
326 [label="gini = 0.2\nsamples = 6\nvalue = [7, 1]"] ;
324 -> 326 ;
327 [label="HOME_AWAY_GOAL_DIFF <= 3.9\ngini = 0.2\nsamples = 66\nvalue = [89, 11]"] ;
305 -> 327 ;
328 [label="ELO_DIFF <= 1.5\ngini = 0.1\nsamples = 36\nvalue = [46, 4]"] ;
327 -> 328 ;
329 [label="ELO_DIFF <= 1.3\ngini = 0.3\nsamples = 6\nvalue = [7, 2]"] ;
328 -> 329 ;
330 [label="gini = 0.0\nsamples = 3\nvalue = [4, 0]"] ;
329 -> 330 ;
331 [label="gini = 0.5\nsamples = 3\nvalue = [3, 2]"] ;
329 -> 331 ;
332 [label="ELO_DIFF <= 2.4\ngini = 0.1\nsamples = 30\nvalue = [39, 2]"] ;
328 -> 332 ;
333 [label="ELO_DIFF <= 2.2\ngini = 0.1\nsamples = 24\nvalue = [31, 1]"] ;
332 -> 333 ;
334 [label="ELO_DIFF <= 2.1\ngini = 0.1\nsamples = 14\nvalue = [16, 1]"] ;
333 -> 334 ;
335 [label="gini = 0.0\nsamples = 9\nvalue = [11, 0]"] ;
334 -> 335 ;
336 [label="gini = 0.3\nsamples = 5\nvalue = [5, 1]"] ;
334 -> 336 ;
337 [label="gini = 0.0\nsamples = 10\nvalue = [15, 0]"] ;
333 -> 337 ;
338 [label="gini = 0.2\nsamples = 6\nvalue = [8, 1]"] ;
332 -> 338 ;
339 [label="ELO_DIFF <= 2.3\ngini = 0.2\nsamples = 30\nvalue = [43, 7]"] ;
327 -> 339 ;
340 [label="ELO_DIFF <= 2.0\ngini = 0.1\nsamples = 21\nvalue = [33, 2]"] ;
339 -> 340 ;
341 [label="ELO_DIFF <= 1.7\ngini = 0.2\nsamples = 12\nvalue = [18, 2]"] ;
340 -> 341 ;
342 [label="gini = 0.0\nsamples = 6\nvalue = [12, 0]"] ;
341 -> 342 ;
343 [label="ELO_DIFF <= 1.8\ngini = 0.4\nsamples = 6\nvalue = [6, 2]"] ;
341 -> 343 ;
344 [label="gini = 0.0\nsamples = 1\nvalue = [0, 1]"] ;
343 -> 344 ;
345 [label="ELO_DIFF <= 1.9\ngini = 0.2\nsamples = 5\nvalue = [6, 1]"] ;
343 -> 345 ;
346 [label="gini = 0.0\nsamples = 3\nvalue = [4, 0]"] ;
345 -> 346 ;
347 [label="gini = 0.4\nsamples = 2\nvalue = [2, 1]"] ;
345 -> 347 ;
348 [label="gini = 0.0\nsamples = 9\nvalue = [15, 0]"] ;
340 -> 348 ;
349 [label="ELO_DIFF <= 2.4\ngini = 0.4\nsamples = 9\nvalue = [10, 5]"] ;
339 -> 349 ;
350 [label="gini = 0.5\nsamples = 3\nvalue = [3, 3]"] ;
349 -> 350 ;
351 [label="gini = 0.3\nsamples = 6\nvalue = [7, 2]"] ;
349 -> 351 ;
352 [label="RECENT_PERF_DIFF <= 3.9\ngini = 0.5\nsamples = 449\nvalue = [428, 274]"] ;
304 -> 352 ;
353 [label="RECENT_PERF_DIFF <= 3.7\ngini = 0.5\nsamples = 316\nvalue = [291, 194]"] ;
352 -> 353 ;
354 [label="ELO_DIFF <= 3.6\ngini = 0.5\nsamples = 165\nvalue = [149, 99]"] ;
353 -> 354 ;
355 [label="ELO_DIFF <= 3.0\ngini = 0.5\nsamples = 149\nvalue = [142, 85]"] ;
354 -> 355 ;
356 [label="ELO_DIFF <= 2.8\ngini = 0.5\nsamples = 50\nvalue = [37, 35]"] ;
355 -> 356 ;
357 [label="ELO_DIFF <= 2.6\ngini = 0.5\nsamples = 20\nvalue = [16, 10]"] ;
356 -> 357 ;
358 [label="gini = 0.5\nsamples = 7\nvalue = [3, 4]"] ;
357 -> 358 ;
359 [label="ELO_DIFF <= 2.7\ngini = 0.4\nsamples = 13\nvalue = [13, 6]"] ;
357 -> 359 ;
360 [label="gini = 0.0\nsamples = 2\nvalue = [3, 0]"] ;
359 -> 360 ;
361 [label="gini = 0.5\nsamples = 11\nvalue = [10, 6]"] ;
359 -> 361 ;
362 [label="ELO_DIFF <= 2.9\ngini = 0.5\nsamples = 30\nvalue = [21, 25]"] ;
356 -> 362 ;
363 [label="gini = 0.5\nsamples = 9\nvalue = [5, 6]"] ;
362 -> 363 ;
364 [label="gini = 0.5\nsamples = 21\nvalue = [16, 19]"] ;
362 -> 364 ;
365 [label="ELO_DIFF <= 3.1\ngini = 0.4\nsamples = 99\nvalue = [105, 50]"] ;
355 -> 365 ;
366 [label="gini = 0.2\nsamples = 16\nvalue = [21, 3]"] ;
365 -> 366 ;
367 [label="ELO_DIFF <= 3.4\ngini = 0.5\nsamples = 83\nvalue = [84, 47]"] ;
365 -> 367 ;
368 [label="ELO_DIFF <= 3.3\ngini = 0.4\nsamples = 48\nvalue = [51, 22]"] ;
367 -> 368 ;
369 [label="ELO_DIFF <= 3.2\ngini = 0.5\nsamples = 22\nvalue = [19, 13]"] ;
368 -> 369 ;
370 [label="gini = 0.4\nsamples = 10\nvalue = [12, 5]"] ;
369 -> 370 ;
371 [label="gini = 0.5\nsamples = 12\nvalue = [7, 8]"] ;
369 -> 371 ;
372 [label="gini = 0.3\nsamples = 26\nvalue = [32, 9]"] ;
368 -> 372 ;
373 [label="ELO_DIFF <= 3.5\ngini = 0.5\nsamples = 35\nvalue = [33, 25]"] ;
367 -> 373 ;
374 [label="gini = 0.5\nsamples = 15\nvalue = [13, 14]"] ;
373 -> 374 ;
375 [label="gini = 0.5\nsamples = 20\nvalue = [20, 11]"] ;
373 -> 375 ;
376 [label="gini = 0.4\nsamples = 16\nvalue = [7, 14]"] ;
354 -> 376 ;
377 [label="ELO_DIFF <= 2.7\ngini = 0.5\nsamples = 151\nvalue = [142, 95]"] ;
353 -> 377 ;
378 [label="ELO_DIFF <= 2.6\ngini = 0.5\nsamples = 16\nvalue = [10, 15]"] ;
377 -> 378 ;
379 [label="gini = 0.3\nsamples = 6\nvalue = [8, 2]"] ;
378 -> 379 ;
380 [label="gini = 0.2\nsamples = 10\nvalue = [2, 13]"] ;
378 -> 380 ;
381 [label="ELO_DIFF <= 2.8\ngini = 0.5\nsamples = 135\nvalue = [132, 80]"] ;
377 -> 381 ;
382 [label="gini = 0.3\nsamples = 11\nvalue = [12, 3]"] ;
381 -> 382 ;
383 [label="ELO_DIFF <= 3.4\ngini = 0.5\nsamples = 124\nvalue = [120, 77]"] ;
381 -> 383 ;
384 [label="ELO_DIFF <= 3.0\ngini = 0.5\nsamples = 80\nvalue = [73, 56]"] ;
383 -> 384 ;
385 [label="ELO_DIFF <= 2.9\ngini = 0.5\nsamples = 19\nvalue = [14, 14]"] ;
384 -> 385 ;
386 [label="gini = 0.5\nsamples = 10\nvalue = [8, 7]"] ;
385 -> 386 ;
387 [label="gini = 0.5\nsamples = 9\nvalue = [6, 7]"] ;
385 -> 387 ;
388 [label="ELO_DIFF <= 3.3\ngini = 0.5\nsamples = 61\nvalue = [59, 42]"] ;
384 -> 388 ;
389 [label="ELO_DIFF <= 3.1\ngini = 0.5\nsamples = 44\nvalue = [42, 27]"] ;
388 -> 389 ;
390 [label="gini = 0.4\nsamples = 8\nvalue = [8, 4]"] ;
389 -> 390 ;
391 [label="ELO_DIFF <= 3.2\ngini = 0.5\nsamples = 36\nvalue = [34, 23]"] ;
389 -> 391 ;
392 [label="gini = 0.5\nsamples = 22\nvalue = [23, 15]"] ;
391 -> 392 ;
393 [label="gini = 0.5\nsamples = 14\nvalue = [11, 8]"] ;
391 -> 393 ;
394 [label="gini = 0.5\nsamples = 17\nvalue = [17, 15]"] ;
388 -> 394 ;
395 [label="ELO_DIFF <= 3.6\ngini = 0.4\nsamples = 44\nvalue = [47, 21]"] ;
383 -> 395 ;
396 [label="ELO_DIFF <= 3.5\ngini = 0.4\nsamples = 28\nvalue = [30, 12]"] ;
395 -> 396 ;
397 [label="gini = 0.4\nsamples = 12\nvalue = [14, 7]"] ;
396 -> 397 ;
398 [label="gini = 0.4\nsamples = 16\nvalue = [16, 5]"] ;
396 -> 398 ;
399 [label="gini = 0.5\nsamples = 16\nvalue = [17, 9]"] ;
395 -> 399 ;
400 [label="ELO_DIFF <= 3.3\ngini = 0.5\nsamples = 133\nvalue = [137, 80]"] ;
352 -> 400 ;
401 [label="ELO_DIFF <= 2.9\ngini = 0.4\nsamples = 82\nvalue = [100, 37]"] ;
400 -> 401 ;
402 [label="ELO_DIFF <= 2.8\ngini = 0.5\nsamples = 32\nvalue = [31, 20]"] ;
401 -> 402 ;
403 [label="ELO_DIFF <= 2.7\ngini = 0.5\nsamples = 22\nvalue = [20, 15]"] ;
402 -> 403 ;
404 [label="ELO_DIFF <= 2.6\ngini = 0.5\nsamples = 15\nvalue = [13, 7]"] ;
403 -> 404 ;
405 [label="gini = 0.5\nsamples = 11\nvalue = [8, 7]"] ;
404 -> 405 ;
406 [label="gini = 0.0\nsamples = 4\nvalue = [5, 0]"] ;
404 -> 406 ;
407 [label="gini = 0.5\nsamples = 7\nvalue = [7, 8]"] ;
403 -> 407 ;
408 [label="gini = 0.4\nsamples = 10\nvalue = [11, 5]"] ;
402 -> 408 ;
409 [label="ELO_DIFF <= 3.1\ngini = 0.3\nsamples = 50\nvalue = [69, 17]"] ;
401 -> 409 ;
410 [label="ELO_DIFF <= 3.0\ngini = 0.3\nsamples = 19\nvalue = [28, 6]"] ;
409 -> 410 ;
411 [label="gini = 0.3\nsamples = 12\nvalue = [16, 4]"] ;
410 -> 411 ;
412 [label="gini = 0.2\nsamples = 7\nvalue = [12, 2]"] ;
410 -> 412 ;
413 [label="ELO_DIFF <= 3.2\ngini = 0.3\nsamples = 31\nvalue = [41, 11]"] ;
409 -> 413 ;
414 [label="gini = 0.3\nsamples = 13\nvalue = [16, 4]"] ;
413 -> 414 ;
415 [label="gini = 0.3\nsamples = 18\nvalue = [25, 7]"] ;
413 -> 415 ;
416 [label="ELO_DIFF <= 3.6\ngini = 0.5\nsamples = 51\nvalue = [37, 43]"] ;
400 -> 416 ;
417 [label="ELO_DIFF <= 3.5\ngini = 0.5\nsamples = 34\nvalue = [27, 25]"] ;
416 -> 417 ;
418 [label="ELO_DIFF <= 3.4\ngini = 0.5\nsamples = 21\nvalue = [13, 19]"] ;
417 -> 418 ;
419 [label="gini = 0.5\nsamples = 11\nvalue = [7, 8]"] ;
418 -> 419 ;
420 [label="gini = 0.5\nsamples = 10\nvalue = [6, 11]"] ;
418 -> 420 ;
421 [label="gini = 0.4\nsamples = 13\nvalue = [14, 6]"] ;
417 -> 421 ;
422 [label="gini = 0.5\nsamples = 17\nvalue = [10, 18]"] ;
416 -> 422 ;
423 [label="RECENT_PERF_DIFF <= 4.3\ngini = 0.5\nsamples = 413\nvalue = [400, 234]"] ;
303 -> 423 ;
424 [label="ELO_DIFF <= 3.4\ngini = 0.5\nsamples = 162\nvalue = [155, 98]"] ;
423 -> 424 ;
425 [label="ELO_DIFF <= 2.5\ngini = 0.4\nsamples = 125\nvalue = [130, 63]"] ;
424 -> 425 ;
426 [label="ELO_DIFF <= 1.1\ngini = 0.3\nsamples = 31\nvalue = [36, 9]"] ;
425 -> 426 ;
427 [label="gini = 0.0\nsamples = 1\nvalue = [0, 1]"] ;
426 -> 427 ;
428 [label="ELO_DIFF <= 1.8\ngini = 0.3\nsamples = 30\nvalue = [36, 8]"] ;
426 -> 428 ;
429 [label="gini = 0.0\nsamples = 5\nvalue = [9, 0]"] ;
428 -> 429 ;
430 [label="ELO_DIFF <= 1.9\ngini = 0.4\nsamples = 25\nvalue = [27, 8]"] ;
428 -> 430 ;
431 [label="gini = 0.4\nsamples = 2\nvalue = [1, 2]"] ;
430 -> 431 ;
432 [label="ELO_DIFF <= 2.4\ngini = 0.3\nsamples = 23\nvalue = [26, 6]"] ;
430 -> 432 ;
433 [label="ELO_DIFF <= 2.0\ngini = 0.4\nsamples = 18\nvalue = [18, 6]"] ;
432 -> 433 ;
434 [label="gini = 0.0\nsamples = 1\nvalue = [1, 0]"] ;
433 -> 434 ;
435 [label="ELO_DIFF <= 2.3\ngini = 0.4\nsamples = 17\nvalue = [17, 6]"] ;
433 -> 435 ;
436 [label="ELO_DIFF <= 2.1\ngini = 0.4\nsamples = 12\nvalue = [12, 5]"] ;
435 -> 436 ;
437 [label="gini = 0.4\nsamples = 5\nvalue = [6, 2]"] ;
436 -> 437 ;
438 [label="ELO_DIFF <= 2.2\ngini = 0.4\nsamples = 7\nvalue = [6, 3]"] ;
436 -> 438 ;
439 [label="gini = 0.4\nsamples = 4\nvalue = [4, 2]"] ;
438 -> 439 ;
440 [label="gini = 0.4\nsamples = 3\nvalue = [2, 1]"] ;
438 -> 440 ;
441 [label="gini = 0.3\nsamples = 5\nvalue = [5, 1]"] ;
435 -> 441 ;
442 [label="gini = 0.0\nsamples = 5\nvalue = [8, 0]"] ;
432 -> 442 ;
443 [label="ELO_DIFF <= 2.6\ngini = 0.5\nsamples = 94\nvalue = [94, 54]"] ;
425 -> 443 ;
444 [label="gini = 0.4\nsamples = 10\nvalue = [6, 12]"] ;
443 -> 444 ;
445 [label="ELO_DIFF <= 2.9\ngini = 0.4\nsamples = 84\nvalue = [88, 42]"] ;
443 -> 445 ;
446 [label="ELO_DIFF <= 2.7\ngini = 0.3\nsamples = 17\nvalue = [22, 4]"] ;
445 -> 446 ;
447 [label="gini = 0.4\nsamples = 7\nvalue = [6, 2]"] ;
446 -> 447 ;
448 [label="ELO_DIFF <= 2.8\ngini = 0.2\nsamples = 10\nvalue = [16, 2]"] ;
446 -> 448 ;
449 [label="gini = 0.2\nsamples = 5\nvalue = [10, 1]"] ;
448 -> 449 ;
450 [label="gini = 0.2\nsamples = 5\nvalue = [6, 1]"] ;
448 -> 450 ;
451 [label="ELO_DIFF <= 3.3\ngini = 0.5\nsamples = 67\nvalue = [66, 38]"] ;
445 -> 451 ;
452 [label="ELO_DIFF <= 3.0\ngini = 0.5\nsamples = 51\nvalue = [51, 27]"] ;
451 -> 452 ;
453 [label="gini = 0.5\nsamples = 10\nvalue = [9, 6]"] ;
452 -> 453 ;
454 [label="ELO_DIFF <= 3.2\ngini = 0.4\nsamples = 41\nvalue = [42, 21]"] ;
452 -> 454 ;
455 [label="ELO_DIFF <= 3.1\ngini = 0.4\nsamples = 30\nvalue = [30, 14]"] ;
454 -> 455 ;
456 [label="gini = 0.4\nsamples = 17\nvalue = [16, 8]"] ;
455 -> 456 ;
457 [label="gini = 0.4\nsamples = 13\nvalue = [14, 6]"] ;
455 -> 457 ;
458 [label="gini = 0.5\nsamples = 11\nvalue = [12, 7]"] ;
454 -> 458 ;
459 [label="gini = 0.5\nsamples = 16\nvalue = [15, 11]"] ;
451 -> 459 ;
460 [label="ELO_DIFF <= 3.5\ngini = 0.5\nsamples = 37\nvalue = [25, 35]"] ;
424 -> 460 ;
461 [label="gini = 0.5\nsamples = 12\nvalue = [6, 10]"] ;
460 -> 461 ;
462 [label="ELO_DIFF <= 3.6\ngini = 0.5\nsamples = 25\nvalue = [19, 25]"] ;
460 -> 462 ;
463 [label="gini = 0.5\nsamples = 10\nvalue = [10, 13]"] ;
462 -> 463 ;
464 [label="gini = 0.5\nsamples = 15\nvalue = [9, 12]"] ;
462 -> 464 ;
465 [label="ELO_DIFF <= 2.2\ngini = 0.5\nsamples = 251\nvalue = [245, 136]"] ;
423 -> 465 ;
466 [label="HOME_AWAY_GOAL_DIFF <= 4.5\ngini = 0.1\nsamples = 23\nvalue = [35, 3]"] ;
465 -> 466 ;
467 [label="ELO_DIFF <= 1.7\ngini = 0.2\nsamples = 13\nvalue = [17, 2]"] ;
466 -> 467 ;
468 [label="gini = 0.0\nsamples = 8\nvalue = [13, 0]"] ;
467 -> 468 ;
469 [label="ELO_DIFF <= 2.0\ngini = 0.4\nsamples = 5\nvalue = [4, 2]"] ;
467 -> 469 ;
470 [label="gini = 0.0\nsamples = 1\nvalue = [0, 1]"] ;
469 -> 470 ;
471 [label="ELO_DIFF <= 2.1\ngini = 0.3\nsamples = 4\nvalue = [4, 1]"] ;
469 -> 471 ;
472 [label="gini = 0.0\nsamples = 2\nvalue = [2, 0]"] ;
471 -> 472 ;
473 [label="gini = 0.4\nsamples = 2\nvalue = [2, 1]"] ;
471 -> 473 ;
474 [label="ELO_DIFF <= 1.8\ngini = 0.1\nsamples = 10\nvalue = [18, 1]"] ;
466 -> 474 ;
475 [label="ELO_DIFF <= 1.4\ngini = 0.4\nsamples = 2\nvalue = [3, 1]"] ;
474 -> 475 ;
476 [label="gini = 0.0\nsamples = 1\nvalue = [3, 0]"] ;
475 -> 476 ;
477 [label="gini = 0.0\nsamples = 1\nvalue = [0, 1]"] ;
475 -> 477 ;
478 [label="gini = 0.0\nsamples = 8\nvalue = [15, 0]"] ;
474 -> 478 ;
479 [label="HOME_AWAY_GOAL_DIFF <= 4.5\ngini = 0.5\nsamples = 228\nvalue = [210, 133]"] ;
465 -> 479 ;
480 [label="ELO_DIFF <= 3.0\ngini = 0.5\nsamples = 139\nvalue = [127, 74]"] ;
479 -> 480 ;
481 [label="ELO_DIFF <= 2.6\ngini = 0.4\nsamples = 46\nvalue = [52, 18]"] ;
480 -> 481 ;
482 [label="ELO_DIFF <= 2.3\ngini = 0.5\nsamples = 16\nvalue = [13, 9]"] ;
481 -> 482 ;
483 [label="gini = 0.5\nsamples = 4\nvalue = [2, 2]"] ;
482 -> 483 ;
484 [label="ELO_DIFF <= 2.4\ngini = 0.5\nsamples = 12\nvalue = [11, 7]"] ;
482 -> 484 ;
485 [label="gini = 0.0\nsamples = 1\nvalue = [1, 0]"] ;
484 -> 485 ;
486 [label="ELO_DIFF <= 2.5\ngini = 0.5\nsamples = 11\nvalue = [10, 7]"] ;
484 -> 486 ;
487 [label="gini = 0.5\nsamples = 5\nvalue = [4, 3]"] ;
486 -> 487 ;
488 [label="gini = 0.5\nsamples = 6\nvalue = [6, 4]"] ;
486 -> 488 ;
489 [label="ELO_DIFF <= 2.8\ngini = 0.3\nsamples = 30\nvalue = [39, 9]"] ;
481 -> 489 ;
490 [label="ELO_DIFF <= 2.7\ngini = 0.3\nsamples = 14\nvalue = [21, 4]"] ;
489 -> 490 ;
491 [label="gini = 0.3\nsamples = 7\nvalue = [8, 2]"] ;
490 -> 491 ;
492 [label="gini = 0.2\nsamples = 7\nvalue = [13, 2]"] ;
490 -> 492 ;
493 [label="ELO_DIFF <= 2.9\ngini = 0.3\nsamples = 16\nvalue = [18, 5]"] ;
489 -> 493 ;
494 [label="gini = 0.4\nsamples = 8\nvalue = [8, 3]"] ;
493 -> 494 ;
495 [label="gini = 0.3\nsamples = 8\nvalue = [10, 2]"] ;
493 -> 495 ;
496 [label="ELO_DIFF <= 3.1\ngini = 0.5\nsamples = 93\nvalue = [75, 56]"] ;
480 -> 496 ;
497 [label="gini = 0.4\nsamples = 9\nvalue = [3, 7]"] ;
496 -> 497 ;
498 [label="ELO_DIFF <= 3.4\ngini = 0.5\nsamples = 84\nvalue = [72, 49]"] ;
496 -> 498 ;
499 [label="ELO_DIFF <= 3.3\ngini = 0.5\nsamples = 44\nvalue = [38, 23]"] ;
498 -> 499 ;
500 [label="ELO_DIFF <= 3.2\ngini = 0.5\nsamples = 24\nvalue = [19, 15]"] ;
499 -> 500 ;
501 [label="gini = 0.5\nsamples = 12\nvalue = [11, 6]"] ;
500 -> 501 ;
502 [label="gini = 0.5\nsamples = 12\nvalue = [8, 9]"] ;
500 -> 502 ;
503 [label="gini = 0.4\nsamples = 20\nvalue = [19, 8]"] ;
499 -> 503 ;
504 [label="ELO_DIFF <= 3.6\ngini = 0.5\nsamples = 40\nvalue = [34, 26]"] ;
498 -> 504 ;
505 [label="ELO_DIFF <= 3.5\ngini = 0.5\nsamples = 26\nvalue = [21, 17]"] ;
504 -> 505 ;
506 [label="gini = 0.5\nsamples = 13\nvalue = [10, 7]"] ;
505 -> 506 ;
507 [label="gini = 0.5\nsamples = 13\nvalue = [11, 10]"] ;
505 -> 507 ;
508 [label="gini = 0.5\nsamples = 14\nvalue = [13, 9]"] ;
504 -> 508 ;
509 [label="ELO_DIFF <= 3.6\ngini = 0.5\nsamples = 89\nvalue = [83, 59]"] ;
479 -> 509 ;
510 [label="ELO_DIFF <= 2.9\ngini = 0.5\nsamples = 75\nvalue = [67, 56]"] ;
509 -> 510 ;
511 [label="ELO_DIFF <= 2.6\ngini = 0.5\nsamples = 26\nvalue = [29, 16]"] ;
510 -> 511 ;
512 [label="ELO_DIFF <= 2.3\ngini = 0.5\nsamples = 10\nvalue = [8, 9]"] ;
511 -> 512 ;
513 [label="gini = 0.4\nsamples = 2\nvalue = [1, 2]"] ;
512 -> 513 ;
514 [label="ELO_DIFF <= 2.5\ngini = 0.5\nsamples = 8\nvalue = [7, 7]"] ;
512 -> 514 ;
515 [label="gini = 0.5\nsamples = 6\nvalue = [6, 5]"] ;
514 -> 515 ;
516 [label="gini = 0.4\nsamples = 2\nvalue = [1, 2]"] ;
514 -> 516 ;
517 [label="ELO_DIFF <= 2.7\ngini = 0.4\nsamples = 16\nvalue = [21, 7]"] ;
511 -> 517 ;
518 [label="gini = 0.4\nsamples = 6\nvalue = [5, 2]"] ;
517 -> 518 ;
519 [label="ELO_DIFF <= 2.8\ngini = 0.4\nsamples = 10\nvalue = [16, 5]"] ;
517 -> 519 ;
520 [label="gini = 0.0\nsamples = 2\nvalue = [2, 0]"] ;
519 -> 520 ;
521 [label="gini = 0.4\nsamples = 8\nvalue = [14, 5]"] ;
519 -> 521 ;
522 [label="ELO_DIFF <= 3.4\ngini = 0.5\nsamples = 49\nvalue = [38, 40]"] ;
510 -> 522 ;
523 [label="ELO_DIFF <= 3.3\ngini = 0.5\nsamples = 30\nvalue = [17, 27]"] ;
522 -> 523 ;
524 [label="ELO_DIFF <= 3.2\ngini = 0.5\nsamples = 21\nvalue = [16, 15]"] ;
523 -> 524 ;
525 [label="ELO_DIFF <= 3.0\ngini = 0.4\nsamples = 14\nvalue = [7, 14]"] ;
524 -> 525 ;
526 [label="gini = 0.5\nsamples = 6\nvalue = [5, 5]"] ;
525 -> 526 ;
527 [label="ELO_DIFF <= 3.1\ngini = 0.3\nsamples = 8\nvalue = [2, 9]"] ;
525 -> 527 ;
528 [label="gini = 0.4\nsamples = 2\nvalue = [1, 3]"] ;
527 -> 528 ;
529 [label="gini = 0.2\nsamples = 6\nvalue = [1, 6]"] ;
527 -> 529 ;
530 [label="gini = 0.2\nsamples = 7\nvalue = [9, 1]"] ;
524 -> 530 ;
531 [label="gini = 0.1\nsamples = 9\nvalue = [1, 12]"] ;
523 -> 531 ;
532 [label="ELO_DIFF <= 3.5\ngini = 0.5\nsamples = 19\nvalue = [21, 13]"] ;
522 -> 532 ;
533 [label="gini = 0.5\nsamples = 8\nvalue = [7, 5]"] ;
532 -> 533 ;
534 [label="gini = 0.5\nsamples = 11\nvalue = [14, 8]"] ;
532 -> 534 ;
535 [label="gini = 0.3\nsamples = 14\nvalue = [16, 3]"] ;
509 -> 535 ;
536 [label="HOME_AWAY_GOAL_DIFF <= 4.9\ngini = 0.5\nsamples = 123\nvalue = [112, 82]"] ;
302 -> 536 ;
537 [label="ELO_DIFF <= 2.6\ngini = 0.5\nsamples = 66\nvalue = [60, 40]"] ;
536 -> 537 ;
538 [label="ELO_DIFF <= 1.3\ngini = 0.2\nsamples = 10\nvalue = [17, 2]"] ;
537 -> 538 ;
539 [label="gini = 0.0\nsamples = 1\nvalue = [0, 2]"] ;
538 -> 539 ;
540 [label="gini = 0.0\nsamples = 9\nvalue = [17, 0]"] ;
538 -> 540 ;
541 [label="ELO_DIFF <= 3.6\ngini = 0.5\nsamples = 56\nvalue = [43, 38]"] ;
537 -> 541 ;
542 [label="ELO_DIFF <= 3.5\ngini = 0.5\nsamples = 52\nvalue = [38, 38]"] ;
541 -> 542 ;
543 [label="ELO_DIFF <= 2.8\ngini = 0.5\nsamples = 43\nvalue = [33, 26]"] ;
542 -> 543 ;
544 [label="ELO_DIFF <= 2.7\ngini = 0.3\nsamples = 6\nvalue = [2, 7]"] ;
543 -> 544 ;
545 [label="gini = 0.0\nsamples = 2\nvalue = [0, 3]"] ;
544 -> 545 ;
546 [label="gini = 0.4\nsamples = 4\nvalue = [2, 4]"] ;
544 -> 546 ;
547 [label="ELO_DIFF <= 3.0\ngini = 0.5\nsamples = 37\nvalue = [31, 19]"] ;
543 -> 547 ;
548 [label="gini = 0.0\nsamples = 6\nvalue = [9, 0]"] ;
547 -> 548 ;
549 [label="ELO_DIFF <= 3.2\ngini = 0.5\nsamples = 31\nvalue = [22, 19]"] ;
547 -> 549 ;
550 [label="ELO_DIFF <= 3.1\ngini = 0.5\nsamples = 16\nvalue = [8, 14]"] ;
549 -> 550 ;
551 [label="gini = 0.5\nsamples = 7\nvalue = [3, 4]"] ;
550 -> 551 ;
552 [label="gini = 0.4\nsamples = 9\nvalue = [5, 10]"] ;
550 -> 552 ;
553 [label="ELO_DIFF <= 3.4\ngini = 0.4\nsamples = 15\nvalue = [14, 5]"] ;
549 -> 553 ;
554 [label="ELO_DIFF <= 3.3\ngini = 0.4\nsamples = 10\nvalue = [8, 4]"] ;
553 -> 554 ;
555 [label="gini = 0.4\nsamples = 6\nvalue = [5, 2]"] ;
554 -> 555 ;
556 [label="gini = 0.5\nsamples = 4\nvalue = [3, 2]"] ;
554 -> 556 ;
557 [label="gini = 0.2\nsamples = 5\nvalue = [6, 1]"] ;
553 -> 557 ;
558 [label="gini = 0.4\nsamples = 9\nvalue = [5, 12]"] ;
542 -> 558 ;
559 [label="gini = 0.0\nsamples = 4\nvalue = [5, 0]"] ;
541 -> 559 ;
560 [label="ELO_DIFF <= 3.4\ngini = 0.5\nsamples = 57\nvalue = [52, 42]"] ;
536 -> 560 ;
561 [label="ELO_DIFF <= 2.4\ngini = 0.4\nsamples = 35\nvalue = [37, 19]"] ;
560 -> 561 ;
562 [label="ELO_DIFF <= 2.1\ngini = 0.3\nsamples = 5\nvalue = [2, 7]"] ;
561 -> 562 ;
563 [label="ELO_DIFF <= 1.3\ngini = 0.4\nsamples = 3\nvalue = [2, 1]"] ;
562 -> 563 ;
564 [label="gini = 0.0\nsamples = 1\nvalue = [0, 1]"] ;
563 -> 564 ;
565 [label="gini = 0.0\nsamples = 2\nvalue = [2, 0]"] ;
563 -> 565 ;
566 [label="gini = 0.0\nsamples = 2\nvalue = [0, 6]"] ;
562 -> 566 ;
567 [label="ELO_DIFF <= 2.8\ngini = 0.4\nsamples = 30\nvalue = [35, 12]"] ;
561 -> 567 ;
568 [label="gini = 0.0\nsamples = 4\nvalue = [6, 0]"] ;
567 -> 568 ;
569 [label="ELO_DIFF <= 3.2\ngini = 0.4\nsamples = 26\nvalue = [29, 12]"] ;
567 -> 569 ;
570 [label="ELO_DIFF <= 3.1\ngini = 0.5\nsamples = 16\nvalue = [16, 10]"] ;
569 -> 570 ;
571 [label="ELO_DIFF <= 2.9\ngini = 0.4\nsamples = 11\nvalue = [14, 6]"] ;
570 -> 571 ;
572 [label="gini = 0.5\nsamples = 5\nvalue = [5, 4]"] ;
571 -> 572 ;
573 [label="ELO_DIFF <= 3.0\ngini = 0.3\nsamples = 6\nvalue = [9, 2]"] ;
571 -> 573 ;
574 [label="gini = 0.0\nsamples = 3\nvalue = [6, 0]"] ;
573 -> 574 ;
575 [label="gini = 0.5\nsamples = 3\nvalue = [3, 2]"] ;
573 -> 575 ;
576 [label="gini = 0.4\nsamples = 5\nvalue = [2, 4]"] ;
570 -> 576 ;
577 [label="ELO_DIFF <= 3.3\ngini = 0.2\nsamples = 10\nvalue = [13, 2]"] ;
569 -> 577 ;
578 [label="gini = 0.3\nsamples = 8\nvalue = [10, 2]"] ;
577 -> 578 ;
579 [label="gini = 0.0\nsamples = 2\nvalue = [3, 0]"] ;
577 -> 579 ;
580 [label="ELO_DIFF <= 3.5\ngini = 0.5\nsamples = 22\nvalue = [15, 23]"] ;
560 -> 580 ;
581 [label="gini = 0.0\nsamples = 4\nvalue = [0, 7]"] ;
580 -> 581 ;
582 [label="ELO_DIFF <= 3.6\ngini = 0.5\nsamples = 18\nvalue = [15, 16]"] ;
580 -> 582 ;
583 [label="gini = 0.5\nsamples = 12\nvalue = [10, 11]"] ;
582 -> 583 ;
584 [label="gini = 0.5\nsamples = 6\nvalue = [5, 5]"] ;
582 -> 584 ;
585 [label="ELO_DIFF <= 3.0\ngini = 0.3\nsamples = 43\nvalue = [56, 15]"] ;
301 -> 585 ;
586 [label="ELO_DIFF <= 2.7\ngini = 0.5\nsamples = 17\nvalue = [15, 8]"] ;
585 -> 586 ;
587 [label="ELO_DIFF <= 1.9\ngini = 0.3\nsamples = 7\nvalue = [9, 2]"] ;
586 -> 587 ;
588 [label="ELO_DIFF <= 1.5\ngini = 0.4\nsamples = 2\nvalue = [2, 1]"] ;
587 -> 588 ;
589 [label="gini = 0.0\nsamples = 1\nvalue = [2, 0]"] ;
588 -> 589 ;
590 [label="gini = 0.0\nsamples = 1\nvalue = [0, 1]"] ;
588 -> 590 ;
591 [label="ELO_DIFF <= 2.3\ngini = 0.2\nsamples = 5\nvalue = [7, 1]"] ;
587 -> 591 ;
592 [label="gini = 0.0\nsamples = 1\nvalue = [3, 0]"] ;
591 -> 592 ;
593 [label="ELO_DIFF <= 2.4\ngini = 0.3\nsamples = 4\nvalue = [4, 1]"] ;
591 -> 593 ;
594 [label="gini = 0.4\nsamples = 2\nvalue = [2, 1]"] ;
593 -> 594 ;
595 [label="gini = 0.0\nsamples = 2\nvalue = [2, 0]"] ;
593 -> 595 ;
596 [label="ELO_DIFF <= 2.8\ngini = 0.5\nsamples = 10\nvalue = [6, 6]"] ;
586 -> 596 ;
597 [label="gini = 0.3\nsamples = 4\nvalue = [1, 4]"] ;
596 -> 597 ;
598 [label="ELO_DIFF <= 2.9\ngini = 0.4\nsamples = 6\nvalue = [5, 2]"] ;
596 -> 598 ;
599 [label="gini = 0.4\nsamples = 3\nvalue = [3, 1]"] ;
598 -> 599 ;
600 [label="gini = 0.4\nsamples = 3\nvalue = [2, 1]"] ;
598 -> 600 ;
601 [label="ELO_DIFF <= 3.6\ngini = 0.2\nsamples = 26\nvalue = [41, 7]"] ;
585 -> 601 ;
602 [label="ELO_DIFF <= 3.4\ngini = 0.2\nsamples = 23\nvalue = [39, 6]"] ;
601 -> 602 ;
603 [label="ELO_DIFF <= 3.2\ngini = 0.3\nsamples = 11\nvalue = [15, 3]"] ;
602 -> 603 ;
604 [label="ELO_DIFF <= 3.1\ngini = 0.2\nsamples = 6\nvalue = [9, 1]"] ;
603 -> 604 ;
605 [label="gini = 0.0\nsamples = 1\nvalue = [1, 0]"] ;
604 -> 605 ;
606 [label="gini = 0.2\nsamples = 5\nvalue = [8, 1]"] ;
604 -> 606 ;
607 [label="gini = 0.4\nsamples = 5\nvalue = [6, 2]"] ;
603 -> 607 ;
608 [label="ELO_DIFF <= 3.5\ngini = 0.2\nsamples = 12\nvalue = [24, 3]"] ;
602 -> 608 ;
609 [label="gini = 0.2\nsamples = 6\nvalue = [14, 2]"] ;
608 -> 609 ;
610 [label="gini = 0.2\nsamples = 6\nvalue = [10, 1]"] ;
608 -> 610 ;
611 [label="gini = 0.4\nsamples = 3\nvalue = [2, 1]"] ;
601 -> 611 ;
612 [label="RECENT_PERF_DIFF <= 5.9\ngini = 0.5\nsamples = 52\nvalue = [46, 42]"] ;
300 -> 612 ;
613 [label="ELO_DIFF <= 3.5\ngini = 0.5\nsamples = 49\nvalue = [40, 42]"] ;
612 -> 613 ;
614 [label="HOME_AWAY_GOAL_DIFF <= 5.7\ngini = 0.5\nsamples = 41\nvalue = [31, 39]"] ;
613 -> 614 ;
615 [label="RECENT_PERF_DIFF <= 5.5\ngini = 0.5\nsamples = 36\nvalue = [25, 35]"] ;
614 -> 615 ;
616 [label="ELO_DIFF <= 3.3\ngini = 0.5\nsamples = 28\nvalue = [20, 26]"] ;
615 -> 616 ;
617 [label="ELO_DIFF <= 3.1\ngini = 0.5\nsamples = 17\nvalue = [17, 11]"] ;
616 -> 617 ;
618 [label="ELO_DIFF <= 2.3\ngini = 0.5\nsamples = 13\nvalue = [10, 10]"] ;
617 -> 618 ;
619 [label="ELO_DIFF <= 1.8\ngini = 0.3\nsamples = 4\nvalue = [4, 1]"] ;
618 -> 619 ;
620 [label="gini = 0.0\nsamples = 1\nvalue = [0, 1]"] ;
619 -> 620 ;
621 [label="gini = 0.0\nsamples = 3\nvalue = [4, 0]"] ;
619 -> 621 ;
622 [label="ELO_DIFF <= 3.0\ngini = 0.5\nsamples = 9\nvalue = [6, 9]"] ;
618 -> 622 ;
623 [label="ELO_DIFF <= 2.8\ngini = 0.5\nsamples = 8\nvalue = [6, 7]"] ;
622 -> 623 ;
624 [label="ELO_DIFF <= 2.7\ngini = 0.5\nsamples = 6\nvalue = [4, 7]"] ;
623 -> 624 ;
625 [label="ELO_DIFF <= 2.5\ngini = 0.5\nsamples = 4\nvalue = [4, 4]"] ;
624 -> 625 ;
626 [label="gini = 0.3\nsamples = 3\nvalue = [1, 4]"] ;
625 -> 626 ;
627 [label="gini = 0.0\nsamples = 1\nvalue = [3, 0]"] ;
625 -> 627 ;
628 [label="gini = 0.0\nsamples = 2\nvalue = [0, 3]"] ;
624 -> 628 ;
629 [label="gini = 0.0\nsamples = 2\nvalue = [2, 0]"] ;
623 -> 629 ;
630 [label="gini = 0.0\nsamples = 1\nvalue = [0, 2]"] ;
622 -> 630 ;
631 [label="ELO_DIFF <= 3.2\ngini = 0.2\nsamples = 4\nvalue = [7, 1]"] ;
617 -> 631 ;
632 [label="gini = 0.0\nsamples = 2\nvalue = [5, 0]"] ;
631 -> 632 ;
633 [label="gini = 0.4\nsamples = 2\nvalue = [2, 1]"] ;
631 -> 633 ;
634 [label="ELO_DIFF <= 3.4\ngini = 0.3\nsamples = 11\nvalue = [3, 15]"] ;
616 -> 634 ;
635 [label="gini = 0.3\nsamples = 3\nvalue = [1, 4]"] ;
634 -> 635 ;
636 [label="gini = 0.3\nsamples = 8\nvalue = [2, 11]"] ;
634 -> 636 ;
637 [label="ELO_DIFF <= 3.1\ngini = 0.5\nsamples = 8\nvalue = [5, 9]"] ;
615 -> 637 ;
638 [label="ELO_DIFF <= 2.7\ngini = 0.4\nsamples = 4\nvalue = [4, 2]"] ;
637 -> 638 ;
639 [label="gini = 0.0\nsamples = 1\nvalue = [2, 0]"] ;
638 -> 639 ;
640 [label="ELO_DIFF <= 3.0\ngini = 0.5\nsamples = 3\nvalue = [2, 2]"] ;
638 -> 640 ;
641 [label="gini = 0.0\nsamples = 1\nvalue = [0, 2]"] ;
640 -> 641 ;
642 [label="gini = 0.0\nsamples = 2\nvalue = [2, 0]"] ;
640 -> 642 ;
643 [label="ELO_DIFF <= 3.2\ngini = 0.2\nsamples = 4\nvalue = [1, 7]"] ;
637 -> 643 ;
644 [label="gini = 0.4\nsamples = 2\nvalue = [1, 2]"] ;
643 -> 644 ;
645 [label="gini = 0.0\nsamples = 2\nvalue = [0, 5]"] ;
643 -> 645 ;
646 [label="ELO_DIFF <= 3.4\ngini = 0.5\nsamples = 5\nvalue = [6, 4]"] ;
614 -> 646 ;
647 [label="ELO_DIFF <= 2.9\ngini = 0.3\nsamples = 3\nvalue = [1, 4]"] ;
646 -> 647 ;
648 [label="gini = 0.0\nsamples = 1\nvalue = [0, 2]"] ;
647 -> 648 ;
649 [label="ELO_DIFF <= 3.2\ngini = 0.4\nsamples = 2\nvalue = [1, 2]"] ;
647 -> 649 ;
650 [label="gini = 0.0\nsamples = 1\nvalue = [1, 0]"] ;
649 -> 650 ;
651 [label="gini = 0.0\nsamples = 1\nvalue = [0, 2]"] ;
649 -> 651 ;
652 [label="gini = 0.0\nsamples = 2\nvalue = [5, 0]"] ;
646 -> 652 ;
653 [label="HOME_AWAY_GOAL_DIFF <= 5.6\ngini = 0.4\nsamples = 8\nvalue = [9, 3]"] ;
613 -> 653 ;
654 [label="ELO_DIFF <= 3.6\ngini = 0.4\nsamples = 7\nvalue = [8, 3]"] ;
653 -> 654 ;
655 [label="gini = 0.0\nsamples = 2\nvalue = [2, 0]"] ;
654 -> 655 ;
656 [label="gini = 0.4\nsamples = 5\nvalue = [6, 3]"] ;
654 -> 656 ;
657 [label="gini = 0.0\nsamples = 1\nvalue = [1, 0]"] ;
653 -> 657 ;
658 [label="gini = 0.0\nsamples = 3\nvalue = [6, 0]"] ;
612 -> 658 ;
659 [label="gini = 0.0\nsamples = 3\nvalue = [0, 5]"] ;
299 -> 659 ;
660 [label="HOME_AWAY_GOAL_DIFF <= 5.3\ngini = 0.5\nsamples = 3072\nvalue = [2090, 2741]"] ;
0 -> 660 [labeldistance=2.5, labelangle=-45, headlabel="False"] ;
661 [label="RECENT_PERF_DIFF <= 2.9\ngini = 0.5\nsamples = 2708\nvalue = [1930, 2356]"] ;
660 -> 661 ;
662 [label="ELO_DIFF <= 4.9\ngini = 0.5\nsamples = 156\nvalue = [135, 96]"] ;
661 -> 662 ;
663 [label="RECENT_PERF_DIFF <= 1.5\ngini = 0.5\nsamples = 117\nvalue = [109, 64]"] ;
662 -> 663 ;
664 [label="gini = 0.0\nsamples = 2\nvalue = [3, 0]"] ;
663 -> 664 ;
665 [label="ELO_DIFF <= 4.1\ngini = 0.5\nsamples = 115\nvalue = [106, 64]"] ;
663 -> 665 ;
666 [label="RECENT_PERF_DIFF <= 2.7\ngini = 0.5\nsamples = 54\nvalue = [44, 33]"] ;
665 -> 666 ;
667 [label="HOME_AWAY_GOAL_DIFF <= 2.1\ngini = 0.5\nsamples = 35\nvalue = [26, 25]"] ;
666 -> 667 ;
668 [label="HOME_AWAY_GOAL_DIFF <= 1.9\ngini = 0.5\nsamples = 7\nvalue = [5, 7]"] ;
667 -> 668 ;
669 [label="RECENT_PERF_DIFF <= 1.7\ngini = 0.5\nsamples = 6\nvalue = [5, 6]"] ;
668 -> 669 ;
670 [label="gini = 0.5\nsamples = 2\nvalue = [1, 1]"] ;
669 -> 670 ;
671 [label="ELO_DIFF <= 3.8\ngini = 0.5\nsamples = 4\nvalue = [4, 5]"] ;
669 -> 671 ;
672 [label="gini = 0.4\nsamples = 2\nvalue = [1, 2]"] ;
671 -> 672 ;
673 [label="gini = 0.5\nsamples = 2\nvalue = [3, 3]"] ;
671 -> 673 ;
674 [label="gini = 0.0\nsamples = 1\nvalue = [0, 1]"] ;
668 -> 674 ;
675 [label="HOME_AWAY_GOAL_DIFF <= 2.3\ngini = 0.5\nsamples = 28\nvalue = [21, 18]"] ;
667 -> 675 ;
676 [label="gini = 0.4\nsamples = 2\nvalue = [2, 1]"] ;
675 -> 676 ;
677 [label="RECENT_PERF_DIFF <= 2.5\ngini = 0.5\nsamples = 26\nvalue = [19, 17]"] ;
675 -> 677 ;
678 [label="ELO_DIFF <= 3.9\ngini = 0.5\nsamples = 13\nvalue = [8, 7]"] ;
677 -> 678 ;
679 [label="ELO_DIFF <= 3.8\ngini = 0.5\nsamples = 8\nvalue = [5, 5]"] ;
678 -> 679 ;
680 [label="gini = 0.5\nsamples = 2\nvalue = [1, 1]"] ;
679 -> 680 ;
681 [label="gini = 0.5\nsamples = 6\nvalue = [4, 4]"] ;
679 -> 681 ;
682 [label="ELO_DIFF <= 4.0\ngini = 0.5\nsamples = 5\nvalue = [3, 2]"] ;
678 -> 682 ;
683 [label="gini = 0.4\nsamples = 3\nvalue = [2, 1]"] ;
682 -> 683 ;
684 [label="gini = 0.5\nsamples = 2\nvalue = [1, 1]"] ;
682 -> 684 ;
685 [label="ELO_DIFF <= 4.0\ngini = 0.5\nsamples = 13\nvalue = [11, 10]"] ;
677 -> 685 ;
686 [label="ELO_DIFF <= 3.8\ngini = 0.5\nsamples = 9\nvalue = [9, 6]"] ;
685 -> 686 ;
687 [label="gini = 0.0\nsamples = 1\nvalue = [1, 0]"] ;
686 -> 687 ;
688 [label="ELO_DIFF <= 3.9\ngini = 0.5\nsamples = 8\nvalue = [8, 6]"] ;
686 -> 688 ;
689 [label="gini = 0.5\nsamples = 5\nvalue = [6, 5]"] ;
688 -> 689 ;
690 [label="gini = 0.4\nsamples = 3\nvalue = [2, 1]"] ;
688 -> 690 ;
691 [label="gini = 0.4\nsamples = 4\nvalue = [2, 4]"] ;
685 -> 691 ;
692 [label="ELO_DIFF <= 3.8\ngini = 0.4\nsamples = 19\nvalue = [18, 8]"] ;
666 -> 692 ;
693 [label="gini = 0.5\nsamples = 3\nvalue = [2, 2]"] ;
692 -> 693 ;
694 [label="ELO_DIFF <= 3.9\ngini = 0.4\nsamples = 16\nvalue = [16, 6]"] ;
692 -> 694 ;
695 [label="gini = 0.3\nsamples = 5\nvalue = [4, 1]"] ;
694 -> 695 ;
696 [label="ELO_DIFF <= 4.0\ngini = 0.4\nsamples = 11\nvalue = [12, 5]"] ;
694 -> 696 ;
697 [label="gini = 0.4\nsamples = 8\nvalue = [7, 3]"] ;
696 -> 697 ;
698 [label="gini = 0.4\nsamples = 3\nvalue = [5, 2]"] ;
696 -> 698 ;
699 [label="ELO_DIFF <= 4.2\ngini = 0.4\nsamples = 61\nvalue = [62, 31]"] ;
665 -> 699 ;
700 [label="HOME_AWAY_GOAL_DIFF <= 2.7\ngini = 0.3\nsamples = 12\nvalue = [15, 4]"] ;
699 -> 700 ;
701 [label="HOME_AWAY_GOAL_DIFF <= 2.5\ngini = 0.2\nsamples = 5\nvalue = [10, 1]"] ;
700 -> 701 ;
702 [label="gini = 0.0\nsamples = 2\nvalue = [5, 0]"] ;
701 -> 702 ;
703 [label="gini = 0.3\nsamples = 3\nvalue = [5, 1]"] ;
701 -> 703 ;
704 [label="gini = 0.5\nsamples = 7\nvalue = [5, 3]"] ;
700 -> 704 ;
705 [label="RECENT_PERF_DIFF <= 2.1\ngini = 0.5\nsamples = 49\nvalue = [47, 27]"] ;
699 -> 705 ;
706 [label="RECENT_PERF_DIFF <= 1.9\ngini = 0.4\nsamples = 3\nvalue = [2, 5]"] ;
705 -> 706 ;
707 [label="ELO_DIFF <= 4.7\ngini = 0.5\nsamples = 2\nvalue = [2, 3]"] ;
706 -> 707 ;
708 [label="gini = 0.0\nsamples = 1\nvalue = [0, 3]"] ;
707 -> 708 ;
709 [label="gini = 0.0\nsamples = 1\nvalue = [2, 0]"] ;
707 -> 709 ;
710 [label="gini = 0.0\nsamples = 1\nvalue = [0, 2]"] ;
706 -> 710 ;
711 [label="RECENT_PERF_DIFF <= 2.7\ngini = 0.4\nsamples = 46\nvalue = [45, 22]"] ;
705 -> 711 ;
712 [label="RECENT_PERF_DIFF <= 2.3\ngini = 0.4\nsamples = 21\nvalue = [25, 8]"] ;
711 -> 712 ;
713 [label="ELO_DIFF <= 4.8\ngini = 0.5\nsamples = 4\nvalue = [3, 2]"] ;
712 -> 713 ;
714 [label="ELO_DIFF <= 4.5\ngini = 0.4\nsamples = 3\nvalue = [1, 2]"] ;
713 -> 714 ;
715 [label="gini = 0.5\nsamples = 2\nvalue = [1, 1]"] ;
714 -> 715 ;
716 [label="gini = 0.0\nsamples = 1\nvalue = [0, 1]"] ;
714 -> 716 ;
717 [label="gini = 0.0\nsamples = 1\nvalue = [2, 0]"] ;
713 -> 717 ;
718 [label="HOME_AWAY_GOAL_DIFF <= 2.5\ngini = 0.3\nsamples = 17\nvalue = [22, 6]"] ;
712 -> 718 ;
719 [label="ELO_DIFF <= 4.8\ngini = 0.2\nsamples = 7\nvalue = [13, 2]"] ;
718 -> 719 ;
720 [label="gini = 0.0\nsamples = 5\nvalue = [10, 0]"] ;
719 -> 720 ;
721 [label="gini = 0.5\nsamples = 2\nvalue = [3, 2]"] ;
719 -> 721 ;
722 [label="ELO_DIFF <= 4.3\ngini = 0.4\nsamples = 10\nvalue = [9, 4]"] ;
718 -> 722 ;
723 [label="gini = 0.4\nsamples = 3\nvalue = [1, 3]"] ;
722 -> 723 ;
724 [label="ELO_DIFF <= 4.4\ngini = 0.2\nsamples = 7\nvalue = [8, 1]"] ;
722 -> 724 ;
725 [label="gini = 0.0\nsamples = 2\nvalue = [3, 0]"] ;
724 -> 725 ;
726 [label="ELO_DIFF <= 4.5\ngini = 0.3\nsamples = 5\nvalue = [5, 1]"] ;
724 -> 726 ;
727 [label="gini = 0.4\nsamples = 2\nvalue = [2, 1]"] ;
726 -> 727 ;
728 [label="gini = 0.0\nsamples = 3\nvalue = [3, 0]"] ;
726 -> 728 ;
729 [label="ELO_DIFF <= 4.8\ngini = 0.5\nsamples = 25\nvalue = [20, 14]"] ;
711 -> 729 ;
730 [label="ELO_DIFF <= 4.7\ngini = 0.5\nsamples = 22\nvalue = [19, 11]"] ;
729 -> 730 ;
731 [label="ELO_DIFF <= 4.6\ngini = 0.5\nsamples = 19\nvalue = [17, 9]"] ;
730 -> 731 ;
732 [label="ELO_DIFF <= 4.5\ngini = 0.5\nsamples = 18\nvalue = [15, 9]"] ;
731 -> 732 ;
733 [label="ELO_DIFF <= 4.4\ngini = 0.5\nsamples = 17\nvalue = [15, 8]"] ;
732 -> 733 ;
734 [label="ELO_DIFF <= 4.3\ngini = 0.5\nsamples = 12\nvalue = [10, 7]"] ;
733 -> 734 ;
735 [label="gini = 0.5\nsamples = 8\nvalue = [7, 4]"] ;
734 -> 735 ;
736 [label="gini = 0.5\nsamples = 4\nvalue = [3, 3]"] ;
734 -> 736 ;
737 [label="gini = 0.3\nsamples = 5\nvalue = [5, 1]"] ;
733 -> 737 ;
738 [label="gini = 0.0\nsamples = 1\nvalue = [0, 1]"] ;
732 -> 738 ;
739 [label="gini = 0.0\nsamples = 1\nvalue = [2, 0]"] ;
731 -> 739 ;
740 [label="gini = 0.5\nsamples = 3\nvalue = [2, 2]"] ;
730 -> 740 ;
741 [label="gini = 0.4\nsamples = 3\nvalue = [1, 3]"] ;
729 -> 741 ;
742 [label="ELO_DIFF <= 5.0\ngini = 0.5\nsamples = 39\nvalue = [26, 32]"] ;
662 -> 742 ;
743 [label="RECENT_PERF_DIFF <= 2.5\ngini = 0.4\nsamples = 6\nvalue = [3, 8]"] ;
742 -> 743 ;
744 [label="gini = 0.0\nsamples = 4\nvalue = [0, 7]"] ;
743 -> 744 ;
745 [label="HOME_AWAY_GOAL_DIFF <= 2.7\ngini = 0.4\nsamples = 2\nvalue = [3, 1]"] ;
743 -> 745 ;
746 [label="gini = 0.0\nsamples = 1\nvalue = [3, 0]"] ;
745 -> 746 ;
747 [label="gini = 0.0\nsamples = 1\nvalue = [0, 1]"] ;
745 -> 747 ;
748 [label="ELO_DIFF <= 5.1\ngini = 0.5\nsamples = 33\nvalue = [23, 24]"] ;
742 -> 748 ;
749 [label="RECENT_PERF_DIFF <= 2.7\ngini = 0.3\nsamples = 6\nvalue = [7, 2]"] ;
748 -> 749 ;
750 [label="gini = 0.0\nsamples = 4\nvalue = [7, 0]"] ;
749 -> 750 ;
751 [label="gini = 0.0\nsamples = 2\nvalue = [0, 2]"] ;
749 -> 751 ;
752 [label="ELO_DIFF <= 5.2\ngini = 0.5\nsamples = 27\nvalue = [16, 22]"] ;
748 -> 752 ;
753 [label="RECENT_PERF_DIFF <= 2.6\ngini = 0.2\nsamples = 4\nvalue = [1, 7]"] ;
752 -> 753 ;
754 [label="HOME_AWAY_GOAL_DIFF <= 2.3\ngini = 0.4\nsamples = 2\nvalue = [1, 3]"] ;
753 -> 754 ;
755 [label="gini = 0.0\nsamples = 1\nvalue = [0, 3]"] ;
754 -> 755 ;
756 [label="gini = 0.0\nsamples = 1\nvalue = [1, 0]"] ;
754 -> 756 ;
757 [label="gini = 0.0\nsamples = 2\nvalue = [0, 4]"] ;
753 -> 757 ;
758 [label="ELO_DIFF <= 5.8\ngini = 0.5\nsamples = 23\nvalue = [15, 15]"] ;
752 -> 758 ;
759 [label="HOME_AWAY_GOAL_DIFF <= 2.3\ngini = 0.5\nsamples = 16\nvalue = [12, 7]"] ;
758 -> 759 ;
760 [label="gini = 0.0\nsamples = 2\nvalue = [2, 0]"] ;
759 -> 760 ;
761 [label="HOME_AWAY_GOAL_DIFF <= 2.5\ngini = 0.5\nsamples = 14\nvalue = [10, 7]"] ;
759 -> 761 ;
762 [label="ELO_DIFF <= 5.4\ngini = 0.4\nsamples = 3\nvalue = [1, 2]"] ;
761 -> 762 ;
763 [label="gini = 0.5\nsamples = 2\nvalue = [1, 1]"] ;
762 -> 763 ;
764 [label="gini = 0.0\nsamples = 1\nvalue = [0, 1]"] ;
762 -> 764 ;
765 [label="HOME_AWAY_GOAL_DIFF <= 2.7\ngini = 0.5\nsamples = 11\nvalue = [9, 5]"] ;
761 -> 765 ;
766 [label="ELO_DIFF <= 5.6\ngini = 0.5\nsamples = 5\nvalue = [4, 3]"] ;
765 -> 766 ;
767 [label="ELO_DIFF <= 5.3\ngini = 0.4\nsamples = 4\nvalue = [1, 3]"] ;
766 -> 767 ;
768 [label="gini = 0.5\nsamples = 2\nvalue = [1, 1]"] ;
767 -> 768 ;
769 [label="gini = 0.0\nsamples = 2\nvalue = [0, 2]"] ;
767 -> 769 ;
770 [label="gini = 0.0\nsamples = 1\nvalue = [3, 0]"] ;
766 -> 770 ;
771 [label="ELO_DIFF <= 5.4\ngini = 0.4\nsamples = 6\nvalue = [5, 2]"] ;
765 -> 771 ;
772 [label="gini = 0.0\nsamples = 2\nvalue = [2, 0]"] ;
771 -> 772 ;
773 [label="ELO_DIFF <= 5.5\ngini = 0.5\nsamples = 4\nvalue = [3, 2]"] ;
771 -> 773 ;
774 [label="gini = 0.0\nsamples = 1\nvalue = [0, 1]"] ;
773 -> 774 ;
775 [label="ELO_DIFF <= 5.7\ngini = 0.4\nsamples = 3\nvalue = [3, 1]"] ;
773 -> 775 ;
776 [label="gini = 0.0\nsamples = 1\nvalue = [2, 0]"] ;
775 -> 776 ;
777 [label="gini = 0.5\nsamples = 2\nvalue = [1, 1]"] ;
775 -> 777 ;
778 [label="ELO_DIFF <= 6.0\ngini = 0.4\nsamples = 7\nvalue = [3, 8]"] ;
758 -> 778 ;
779 [label="gini = 0.0\nsamples = 3\nvalue = [0, 5]"] ;
778 -> 779 ;
780 [label="HOME_AWAY_GOAL_DIFF <= 2.7\ngini = 0.5\nsamples = 4\nvalue = [3, 3]"] ;
778 -> 780 ;
781 [label="gini = 0.0\nsamples = 1\nvalue = [0, 1]"] ;
780 -> 781 ;
782 [label="ELO_DIFF <= 6.1\ngini = 0.5\nsamples = 3\nvalue = [3, 2]"] ;
780 -> 782 ;
783 [label="gini = 0.0\nsamples = 1\nvalue = [2, 0]"] ;
782 -> 783 ;
784 [label="gini = 0.4\nsamples = 2\nvalue = [1, 2]"] ;
782 -> 784 ;
785 [label="ELO_DIFF <= 4.7\ngini = 0.5\nsamples = 2552\nvalue = [1795, 2260]"] ;
661 -> 785 ;
786 [label="ELO_DIFF <= 4.2\ngini = 0.5\nsamples = 1409\nvalue = [1116, 1112]"] ;
785 -> 786 ;
787 [label="RECENT_PERF_DIFF <= 4.1\ngini = 0.5\nsamples = 741\nvalue = [620, 587]"] ;
786 -> 787 ;
788 [label="ELO_DIFF <= 4.0\ngini = 0.5\nsamples = 386\nvalue = [285, 321]"] ;
787 -> 788 ;
789 [label="HOME_AWAY_GOAL_DIFF <= 3.7\ngini = 0.5\nsamples = 230\nvalue = [178, 194]"] ;
788 -> 789 ;
790 [label="RECENT_PERF_DIFF <= 3.1\ngini = 0.5\nsamples = 132\nvalue = [105, 106]"] ;
789 -> 790 ;
791 [label="ELO_DIFF <= 3.9\ngini = 0.5\nsamples = 18\nvalue = [13, 16]"] ;
790 -> 791 ;
792 [label="ELO_DIFF <= 3.8\ngini = 0.5\nsamples = 13\nvalue = [8, 14]"] ;
791 -> 792 ;
793 [label="gini = 0.5\nsamples = 10\nvalue = [6, 11]"] ;
792 -> 793 ;
794 [label="gini = 0.5\nsamples = 3\nvalue = [2, 3]"] ;
792 -> 794 ;
795 [label="gini = 0.4\nsamples = 5\nvalue = [5, 2]"] ;
791 -> 795 ;
796 [label="HOME_AWAY_GOAL_DIFF <= 3.3\ngini = 0.5\nsamples = 114\nvalue = [92, 90]"] ;
790 -> 796 ;
797 [label="ELO_DIFF <= 3.8\ngini = 0.5\nsamples = 28\nvalue = [23, 19]"] ;
796 -> 797 ;
798 [label="gini = 0.4\nsamples = 13\nvalue = [13, 6]"] ;
797 -> 798 ;
799 [label="ELO_DIFF <= 3.9\ngini = 0.5\nsamples = 15\nvalue = [10, 13]"] ;
797 -> 799 ;
800 [label="gini = 0.5\nsamples = 9\nvalue = [4, 7]"] ;
799 -> 800 ;
801 [label="gini = 0.5\nsamples = 6\nvalue = [6, 6]"] ;
799 -> 801 ;
802 [label="ELO_DIFF <= 3.9\ngini = 0.5\nsamples = 86\nvalue = [69, 71]"] ;
796 -> 802 ;
803 [label="HOME_AWAY_GOAL_DIFF <= 3.5\ngini = 0.5\nsamples = 60\nvalue = [50, 45]"] ;
802 -> 803 ;
804 [label="ELO_DIFF <= 3.8\ngini = 0.5\nsamples = 25\nvalue = [21, 19]"] ;
803 -> 804 ;
805 [label="gini = 0.5\nsamples = 12\nvalue = [7, 8]"] ;
804 -> 805 ;
806 [label="gini = 0.5\nsamples = 13\nvalue = [14, 11]"] ;
804 -> 806 ;
807 [label="ELO_DIFF <= 3.8\ngini = 0.5\nsamples = 35\nvalue = [29, 26]"] ;
803 -> 807 ;
808 [label="gini = 0.5\nsamples = 21\nvalue = [14, 18]"] ;
807 -> 808 ;
809 [label="gini = 0.5\nsamples = 14\nvalue = [15, 8]"] ;
807 -> 809 ;
810 [label="HOME_AWAY_GOAL_DIFF <= 3.5\ngini = 0.5\nsamples = 26\nvalue = [19, 26]"] ;
802 -> 810 ;
811 [label="gini = 0.5\nsamples = 7\nvalue = [7, 9]"] ;
810 -> 811 ;
812 [label="gini = 0.5\nsamples = 19\nvalue = [12, 17]"] ;
810 -> 812 ;
813 [label="RECENT_PERF_DIFF <= 3.9\ngini = 0.5\nsamples = 98\nvalue = [73, 88]"] ;
789 -> 813 ;
814 [label="ELO_DIFF <= 3.9\ngini = 0.5\nsamples = 53\nvalue = [36, 54]"] ;
813 -> 814 ;
815 [label="ELO_DIFF <= 3.8\ngini = 0.5\nsamples = 40\nvalue = [24, 43]"] ;
814 -> 815 ;
816 [label="gini = 0.5\nsamples = 18\nvalue = [13, 15]"] ;
815 -> 816 ;
817 [label="gini = 0.4\nsamples = 22\nvalue = [11, 28]"] ;
815 -> 817 ;
818 [label="gini = 0.5\nsamples = 13\nvalue = [12, 11]"] ;
814 -> 818 ;
819 [label="ELO_DIFF <= 3.9\ngini = 0.5\nsamples = 45\nvalue = [37, 34]"] ;
813 -> 819 ;
820 [label="ELO_DIFF <= 3.8\ngini = 0.5\nsamples = 30\nvalue = [30, 24]"] ;
819 -> 820 ;
821 [label="gini = 0.5\nsamples = 14\nvalue = [14, 15]"] ;
820 -> 821 ;
822 [label="gini = 0.5\nsamples = 16\nvalue = [16, 9]"] ;
820 -> 822 ;
823 [label="gini = 0.5\nsamples = 15\nvalue = [7, 10]"] ;
819 -> 823 ;
824 [label="HOME_AWAY_GOAL_DIFF <= 3.3\ngini = 0.5\nsamples = 156\nvalue = [107, 127]"] ;
788 -> 824 ;
825 [label="RECENT_PERF_DIFF <= 3.1\ngini = 0.4\nsamples = 31\nvalue = [31, 15]"] ;
824 -> 825 ;
826 [label="ELO_DIFF <= 4.1\ngini = 0.4\nsamples = 13\nvalue = [13, 5]"] ;
825 -> 826 ;
827 [label="gini = 0.5\nsamples = 8\nvalue = [6, 4]"] ;
826 -> 827 ;
828 [label="gini = 0.2\nsamples = 5\nvalue = [7, 1]"] ;
826 -> 828 ;
829 [label="ELO_DIFF <= 4.1\ngini = 0.5\nsamples = 18\nvalue = [18, 10]"] ;
825 -> 829 ;
830 [label="gini = 0.4\nsamples = 11\nvalue = [12, 5]"] ;
829 -> 830 ;
831 [label="gini = 0.5\nsamples = 7\nvalue = [6, 5]"] ;
829 -> 831 ;
832 [label="ELO_DIFF <= 4.1\ngini = 0.5\nsamples = 125\nvalue = [76, 112]"] ;
824 -> 832 ;
833 [label="HOME_AWAY_GOAL_DIFF <= 3.9\ngini = 0.5\nsamples = 63\nvalue = [41, 63]"] ;
832 -> 833 ;
834 [label="RECENT_PERF_DIFF <= 3.5\ngini = 0.5\nsamples = 36\nvalue = [25, 35]"] ;
833 -> 834 ;
835 [label="gini = 0.5\nsamples = 14\nvalue = [8, 10]"] ;
834 -> 835 ;
836 [label="HOME_AWAY_GOAL_DIFF <= 3.7\ngini = 0.5\nsamples = 22\nvalue = [17, 25]"] ;
834 -> 836 ;
837 [label="gini = 0.5\nsamples = 11\nvalue = [9, 13]"] ;
836 -> 837 ;
838 [label="gini = 0.5\nsamples = 11\nvalue = [8, 12]"] ;
836 -> 838 ;
839 [label="gini = 0.5\nsamples = 27\nvalue = [16, 28]"] ;
833 -> 839 ;
840 [label="RECENT_PERF_DIFF <= 3.5\ngini = 0.5\nsamples = 62\nvalue = [35, 49]"] ;
832 -> 840 ;
841 [label="gini = 0.5\nsamples = 12\nvalue = [9, 7]"] ;
840 -> 841 ;
842 [label="RECENT_PERF_DIFF <= 3.9\ngini = 0.5\nsamples = 50\nvalue = [26, 42]"] ;
840 -> 842 ;
843 [label="RECENT_PERF_DIFF <= 3.7\ngini = 0.5\nsamples = 35\nvalue = [19, 33]"] ;
842 -> 843 ;
844 [label="gini = 0.5\nsamples = 17\nvalue = [9, 14]"] ;
843 -> 844 ;
845 [label="gini = 0.5\nsamples = 18\nvalue = [10, 19]"] ;
843 -> 845 ;
846 [label="gini = 0.5\nsamples = 15\nvalue = [7, 9]"] ;
842 -> 846 ;
847 [label="RECENT_PERF_DIFF <= 5.1\ngini = 0.5\nsamples = 355\nvalue = [335, 266]"] ;
787 -> 847 ;
848 [label="ELO_DIFF <= 3.8\ngini = 0.5\nsamples = 328\nvalue = [301, 247]"] ;
847 -> 848 ;
849 [label="RECENT_PERF_DIFF <= 4.9\ngini = 0.5\nsamples = 55\nvalue = [45, 47]"] ;
848 -> 849 ;
850 [label="RECENT_PERF_DIFF <= 4.3\ngini = 0.5\nsamples = 48\nvalue = [44, 36]"] ;
849 -> 850 ;
851 [label="gini = 0.4\nsamples = 18\nvalue = [23, 11]"] ;
850 -> 851 ;
852 [label="RECENT_PERF_DIFF <= 4.7\ngini = 0.5\nsamples = 30\nvalue = [21, 25]"] ;
850 -> 852 ;
853 [label="HOME_AWAY_GOAL_DIFF <= 4.5\ngini = 0.5\nsamples = 26\nvalue = [16, 21]"] ;
852 -> 853 ;
854 [label="gini = 0.5\nsamples = 16\nvalue = [9, 13]"] ;
853 -> 854 ;
855 [label="gini = 0.5\nsamples = 10\nvalue = [7, 8]"] ;
853 -> 855 ;
856 [label="gini = 0.5\nsamples = 4\nvalue = [5, 4]"] ;
852 -> 856 ;
857 [label="gini = 0.2\nsamples = 7\nvalue = [1, 11]"] ;
849 -> 857 ;
858 [label="RECENT_PERF_DIFF <= 4.3\ngini = 0.5\nsamples = 273\nvalue = [256, 200]"] ;
848 -> 858 ;
859 [label="ELO_DIFF <= 3.9\ngini = 0.5\nsamples = 71\nvalue = [60, 63]"] ;
858 -> 859 ;
860 [label="gini = 0.5\nsamples = 11\nvalue = [7, 13]"] ;
859 -> 860 ;
861 [label="ELO_DIFF <= 4.0\ngini = 0.5\nsamples = 60\nvalue = [53, 50]"] ;
859 -> 861 ;
862 [label="gini = 0.5\nsamples = 23\nvalue = [21, 11]"] ;
861 -> 862 ;
863 [label="ELO_DIFF <= 4.1\ngini = 0.5\nsamples = 37\nvalue = [32, 39]"] ;
861 -> 863 ;
864 [label="gini = 0.5\nsamples = 22\nvalue = [21, 23]"] ;
863 -> 864 ;
865 [label="gini = 0.5\nsamples = 15\nvalue = [11, 16]"] ;
863 -> 865 ;
866 [label="RECENT_PERF_DIFF <= 4.5\ngini = 0.5\nsamples = 202\nvalue = [196, 137]"] ;
858 -> 866 ;
867 [label="ELO_DIFF <= 4.0\ngini = 0.5\nsamples = 67\nvalue = [63, 36]"] ;
866 -> 867 ;
868 [label="ELO_DIFF <= 3.9\ngini = 0.5\nsamples = 36\nvalue = [27, 23]"] ;
867 -> 868 ;
869 [label="gini = 0.5\nsamples = 19\nvalue = [14, 14]"] ;
868 -> 869 ;
870 [label="gini = 0.5\nsamples = 17\nvalue = [13, 9]"] ;
868 -> 870 ;
871 [label="ELO_DIFF <= 4.1\ngini = 0.4\nsamples = 31\nvalue = [36, 13]"] ;
867 -> 871 ;
872 [label="gini = 0.3\nsamples = 16\nvalue = [22, 4]"] ;
871 -> 872 ;
873 [label="gini = 0.5\nsamples = 15\nvalue = [14, 9]"] ;
871 -> 873 ;
874 [label="RECENT_PERF_DIFF <= 4.9\ngini = 0.5\nsamples = 135\nvalue = [133, 101]"] ;
866 -> 874 ;
875 [label="RECENT_PERF_DIFF <= 4.7\ngini = 0.5\nsamples = 104\nvalue = [107, 78]"] ;
874 -> 875 ;
876 [label="ELO_DIFF <= 3.9\ngini = 0.5\nsamples = 48\nvalue = [46, 37]"] ;
875 -> 876 ;
877 [label="gini = 0.4\nsamples = 9\nvalue = [13, 5]"] ;
876 -> 877 ;
878 [label="ELO_DIFF <= 4.0\ngini = 0.5\nsamples = 39\nvalue = [33, 32]"] ;
876 -> 878 ;
879 [label="gini = 0.5\nsamples = 11\nvalue = [8, 9]"] ;
878 -> 879 ;
880 [label="ELO_DIFF <= 4.1\ngini = 0.5\nsamples = 28\nvalue = [25, 23]"] ;
878 -> 880 ;
881 [label="gini = 0.5\nsamples = 10\nvalue = [11, 9]"] ;
880 -> 881 ;
882 [label="gini = 0.5\nsamples = 18\nvalue = [14, 14]"] ;
880 -> 882 ;
883 [label="ELO_DIFF <= 4.1\ngini = 0.5\nsamples = 56\nvalue = [61, 41]"] ;
875 -> 883 ;
884 [label="ELO_DIFF <= 3.9\ngini = 0.5\nsamples = 35\nvalue = [35, 32]"] ;
883 -> 884 ;
885 [label="gini = 0.5\nsamples = 15\nvalue = [19, 12]"] ;
884 -> 885 ;
886 [label="ELO_DIFF <= 4.0\ngini = 0.5\nsamples = 20\nvalue = [16, 20]"] ;
884 -> 886 ;
887 [label="gini = 0.5\nsamples = 5\nvalue = [3, 5]"] ;
886 -> 887 ;
888 [label="gini = 0.5\nsamples = 15\nvalue = [13, 15]"] ;
886 -> 888 ;
889 [label="gini = 0.4\nsamples = 21\nvalue = [26, 9]"] ;
883 -> 889 ;
890 [label="ELO_DIFF <= 4.0\ngini = 0.5\nsamples = 31\nvalue = [26, 23]"] ;
874 -> 890 ;
891 [label="ELO_DIFF <= 3.9\ngini = 0.5\nsamples = 12\nvalue = [8, 11]"] ;
890 -> 891 ;
892 [label="gini = 0.5\nsamples = 6\nvalue = [7, 6]"] ;
891 -> 892 ;
893 [label="gini = 0.3\nsamples = 6\nvalue = [1, 5]"] ;
891 -> 893 ;
894 [label="ELO_DIFF <= 4.1\ngini = 0.5\nsamples = 19\nvalue = [18, 12]"] ;
890 -> 894 ;
895 [label="gini = 0.4\nsamples = 5\nvalue = [5, 2]"] ;
894 -> 895 ;
896 [label="gini = 0.5\nsamples = 14\nvalue = [13, 10]"] ;
894 -> 896 ;
897 [label="ELO_DIFF <= 3.8\ngini = 0.5\nsamples = 27\nvalue = [34, 19]"] ;
847 -> 897 ;
898 [label="gini = 0.0\nsamples = 6\nvalue = [11, 0]"] ;
897 -> 898 ;
899 [label="ELO_DIFF <= 4.1\ngini = 0.5\nsamples = 21\nvalue = [23, 19]"] ;
897 -> 899 ;
900 [label="ELO_DIFF <= 4.0\ngini = 0.5\nsamples = 19\nvalue = [19, 19]"] ;
899 -> 900 ;
901 [label="ELO_DIFF <= 3.9\ngini = 0.5\nsamples = 11\nvalue = [14, 10]"] ;
900 -> 901 ;
902 [label="gini = 0.5\nsamples = 7\nvalue = [9, 7]"] ;
901 -> 902 ;
903 [label="gini = 0.5\nsamples = 4\nvalue = [5, 3]"] ;
901 -> 903 ;
904 [label="gini = 0.5\nsamples = 8\nvalue = [5, 9]"] ;
900 -> 904 ;
905 [label="gini = 0.0\nsamples = 2\nvalue = [4, 0]"] ;
899 -> 905 ;
906 [label="ELO_DIFF <= 4.3\ngini = 0.5\nsamples = 668\nvalue = [496, 525]"] ;
786 -> 906 ;
907 [label="RECENT_PERF_DIFF <= 4.7\ngini = 0.5\nsamples = 134\nvalue = [88, 120]"] ;
906 -> 907 ;
908 [label="HOME_AWAY_GOAL_DIFF <= 3.1\ngini = 0.5\nsamples = 110\nvalue = [75, 90]"] ;
907 -> 908 ;
909 [label="gini = 0.3\nsamples = 3\nvalue = [1, 5]"] ;
908 -> 909 ;
910 [label="HOME_AWAY_GOAL_DIFF <= 3.3\ngini = 0.5\nsamples = 107\nvalue = [74, 85]"] ;
908 -> 910 ;
911 [label="gini = 0.5\nsamples = 7\nvalue = [7, 6]"] ;
910 -> 911 ;
912 [label="HOME_AWAY_GOAL_DIFF <= 4.1\ngini = 0.5\nsamples = 100\nvalue = [67, 79]"] ;
910 -> 912 ;
913 [label="RECENT_PERF_DIFF <= 3.9\ngini = 0.5\nsamples = 40\nvalue = [27, 35]"] ;
912 -> 913 ;
914 [label="HOME_AWAY_GOAL_DIFF <= 3.7\ngini = 0.5\nsamples = 34\nvalue = [26, 29]"] ;
913 -> 914 ;
915 [label="HOME_AWAY_GOAL_DIFF <= 3.5\ngini = 0.5\nsamples = 14\nvalue = [11, 15]"] ;
914 -> 915 ;
916 [label="gini = 0.5\nsamples = 7\nvalue = [5, 7]"] ;
915 -> 916 ;
917 [label="gini = 0.5\nsamples = 7\nvalue = [6, 8]"] ;
915 -> 917 ;
918 [label="gini = 0.5\nsamples = 20\nvalue = [15, 14]"] ;
914 -> 918 ;
919 [label="gini = 0.2\nsamples = 6\nvalue = [1, 6]"] ;
913 -> 919 ;
920 [label="RECENT_PERF_DIFF <= 4.5\ngini = 0.5\nsamples = 60\nvalue = [40, 44]"] ;
912 -> 920 ;
921 [label="RECENT_PERF_DIFF <= 4.3\ngini = 0.5\nsamples = 44\nvalue = [27, 29]"] ;
920 -> 921 ;
922 [label="gini = 0.5\nsamples = 27\nvalue = [14, 16]"] ;
921 -> 922 ;
923 [label="gini = 0.5\nsamples = 17\nvalue = [13, 13]"] ;
921 -> 923 ;
924 [label="gini = 0.5\nsamples = 16\nvalue = [13, 15]"] ;
920 -> 924 ;
925 [label="RECENT_PERF_DIFF <= 4.9\ngini = 0.4\nsamples = 24\nvalue = [13, 30]"] ;
907 -> 925 ;
926 [label="gini = 0.4\nsamples = 14\nvalue = [6, 18]"] ;
925 -> 926 ;
927 [label="RECENT_PERF_DIFF <= 5.1\ngini = 0.5\nsamples = 10\nvalue = [7, 12]"] ;
925 -> 927 ;
928 [label="gini = 0.5\nsamples = 7\nvalue = [6, 7]"] ;
927 -> 928 ;
929 [label="gini = 0.3\nsamples = 3\nvalue = [1, 5]"] ;
927 -> 929 ;
930 [label="RECENT_PERF_DIFF <= 3.1\ngini = 0.5\nsamples = 534\nvalue = [408, 405]"] ;
906 -> 930 ;
931 [label="ELO_DIFF <= 4.5\ngini = 0.5\nsamples = 21\nvalue = [12, 23]"] ;
930 -> 931 ;
932 [label="ELO_DIFF <= 4.4\ngini = 0.5\nsamples = 9\nvalue = [7, 6]"] ;
931 -> 932 ;
933 [label="gini = 0.4\nsamples = 6\nvalue = [2, 5]"] ;
932 -> 933 ;
934 [label="gini = 0.3\nsamples = 3\nvalue = [5, 1]"] ;
932 -> 934 ;
935 [label="ELO_DIFF <= 4.6\ngini = 0.4\nsamples = 12\nvalue = [5, 17]"] ;
931 -> 935 ;
936 [label="gini = 0.2\nsamples = 5\nvalue = [1, 9]"] ;
935 -> 936 ;
937 [label="gini = 0.4\nsamples = 7\nvalue = [4, 8]"] ;
935 -> 937 ;
938 [label="HOME_AWAY_GOAL_DIFF <= 5.1\ngini = 0.5\nsamples = 513\nvalue = [396, 382]"] ;
930 -> 938 ;
939 [label="ELO_DIFF <= 4.5\ngini = 0.5\nsamples = 491\nvalue = [383, 359]"] ;
938 -> 939 ;
940 [label="RECENT_PERF_DIFF <= 4.5\ngini = 0.5\nsamples = 251\nvalue = [189, 196]"] ;
939 -> 940 ;
941 [label="RECENT_PERF_DIFF <= 3.3\ngini = 0.5\nsamples = 188\nvalue = [127, 153]"] ;
940 -> 941 ;
942 [label="ELO_DIFF <= 4.4\ngini = 0.5\nsamples = 11\nvalue = [9, 5]"] ;
941 -> 942 ;
943 [label="gini = 0.5\nsamples = 5\nvalue = [3, 3]"] ;
942 -> 943 ;
944 [label="gini = 0.4\nsamples = 6\nvalue = [6, 2]"] ;
942 -> 944 ;
945 [label="HOME_AWAY_GOAL_DIFF <= 3.5\ngini = 0.5\nsamples = 177\nvalue = [118, 148]"] ;
941 -> 945 ;
946 [label="ELO_DIFF <= 4.4\ngini = 0.4\nsamples = 17\nvalue = [8, 17]"] ;
945 -> 946 ;
947 [label="gini = 0.5\nsamples = 9\nvalue = [6, 6]"] ;
946 -> 947 ;
948 [label="gini = 0.3\nsamples = 8\nvalue = [2, 11]"] ;
946 -> 948 ;
949 [label="ELO_DIFF <= 4.4\ngini = 0.5\nsamples = 160\nvalue = [110, 131]"] ;
945 -> 949 ;
950 [label="RECENT_PERF_DIFF <= 3.7\ngini = 0.5\nsamples = 80\nvalue = [55, 57]"] ;
949 -> 950 ;
951 [label="gini = 0.4\nsamples = 18\nvalue = [19, 7]"] ;
950 -> 951 ;
952 [label="HOME_AWAY_GOAL_DIFF <= 4.1\ngini = 0.5\nsamples = 62\nvalue = [36, 50]"] ;
950 -> 952 ;
953 [label="HOME_AWAY_GOAL_DIFF <= 3.9\ngini = 0.4\nsamples = 22\nvalue = [10, 21]"] ;
952 -> 953 ;
954 [label="gini = 0.5\nsamples = 15\nvalue = [8, 14]"] ;
953 -> 954 ;
955 [label="gini = 0.3\nsamples = 7\nvalue = [2, 7]"] ;
953 -> 955 ;
956 [label="RECENT_PERF_DIFF <= 4.3\ngini = 0.5\nsamples = 40\nvalue = [26, 29]"] ;
952 -> 956 ;
957 [label="gini = 0.5\nsamples = 20\nvalue = [13, 16]"] ;
956 -> 957 ;
958 [label="gini = 0.5\nsamples = 20\nvalue = [13, 13]"] ;
956 -> 958 ;
959 [label="RECENT_PERF_DIFF <= 4.3\ngini = 0.5\nsamples = 80\nvalue = [55, 74]"] ;
949 -> 959 ;
960 [label="RECENT_PERF_DIFF <= 4.1\ngini = 0.5\nsamples = 64\nvalue = [48, 57]"] ;
959 -> 960 ;
961 [label="RECENT_PERF_DIFF <= 3.9\ngini = 0.5\nsamples = 44\nvalue = [30, 41]"] ;
960 -> 961 ;
962 [label="HOME_AWAY_GOAL_DIFF <= 3.7\ngini = 0.5\nsamples = 32\nvalue = [24, 28]"] ;
961 -> 962 ;
963 [label="gini = 0.5\nsamples = 14\nvalue = [9, 13]"] ;
962 -> 963 ;
964 [label="gini = 0.5\nsamples = 18\nvalue = [15, 15]"] ;
962 -> 964 ;
965 [label="gini = 0.4\nsamples = 12\nvalue = [6, 13]"] ;
961 -> 965 ;
966 [label="gini = 0.5\nsamples = 20\nvalue = [18, 16]"] ;
960 -> 966 ;
967 [label="gini = 0.4\nsamples = 16\nvalue = [7, 17]"] ;
959 -> 967 ;
968 [label="HOME_AWAY_GOAL_DIFF <= 4.7\ngini = 0.5\nsamples = 63\nvalue = [62, 43]"] ;
940 -> 968 ;
969 [label="ELO_DIFF <= 4.4\ngini = 0.4\nsamples = 28\nvalue = [34, 17]"] ;
968 -> 969 ;
970 [label="gini = 0.4\nsamples = 17\nvalue = [19, 9]"] ;
969 -> 970 ;
971 [label="gini = 0.5\nsamples = 11\nvalue = [15, 8]"] ;
969 -> 971 ;
972 [label="HOME_AWAY_GOAL_DIFF <= 4.9\ngini = 0.5\nsamples = 35\nvalue = [28, 26]"] ;
968 -> 972 ;
973 [label="ELO_DIFF <= 4.4\ngini = 0.5\nsamples = 19\nvalue = [16, 12]"] ;
972 -> 973 ;
974 [label="gini = 0.5\nsamples = 12\nvalue = [10, 6]"] ;
973 -> 974 ;
975 [label="gini = 0.5\nsamples = 7\nvalue = [6, 6]"] ;
973 -> 975 ;
976 [label="ELO_DIFF <= 4.4\ngini = 0.5\nsamples = 16\nvalue = [12, 14]"] ;
972 -> 976 ;
977 [label="gini = 0.5\nsamples = 7\nvalue = [5, 5]"] ;
976 -> 977 ;
978 [label="gini = 0.5\nsamples = 9\nvalue = [7, 9]"] ;
976 -> 978 ;
979 [label="ELO_DIFF <= 4.6\ngini = 0.5\nsamples = 240\nvalue = [194, 163]"] ;
939 -> 979 ;
980 [label="HOME_AWAY_GOAL_DIFF <= 3.3\ngini = 0.5\nsamples = 133\nvalue = [111, 90]"] ;
979 -> 980 ;
981 [label="gini = 0.5\nsamples = 7\nvalue = [4, 7]"] ;
980 -> 981 ;
982 [label="RECENT_PERF_DIFF <= 4.7\ngini = 0.5\nsamples = 126\nvalue = [107, 83]"] ;
980 -> 982 ;
983 [label="RECENT_PERF_DIFF <= 3.9\ngini = 0.5\nsamples = 106\nvalue = [93, 68]"] ;
982 -> 983 ;
984 [label="HOME_AWAY_GOAL_DIFF <= 3.5\ngini = 0.5\nsamples = 46\nvalue = [35, 32]"] ;
983 -> 984 ;
985 [label="gini = 0.5\nsamples = 12\nvalue = [9, 9]"] ;
984 -> 985 ;
986 [label="RECENT_PERF_DIFF <= 3.7\ngini = 0.5\nsamples = 34\nvalue = [26, 23]"] ;
984 -> 986 ;
987 [label="gini = 0.5\nsamples = 10\nvalue = [7, 5]"] ;
986 -> 987 ;
988 [label="gini = 0.5\nsamples = 24\nvalue = [19, 18]"] ;
986 -> 988 ;
989 [label="HOME_AWAY_GOAL_DIFF <= 4.5\ngini = 0.5\nsamples = 60\nvalue = [58, 36]"] ;
983 -> 989 ;
990 [label="HOME_AWAY_GOAL_DIFF <= 4.3\ngini = 0.5\nsamples = 46\nvalue = [44, 30]"] ;
989 -> 990 ;
991 [label="RECENT_PERF_DIFF <= 4.1\ngini = 0.5\nsamples = 33\nvalue = [31, 18]"] ;
990 -> 991 ;
992 [label="gini = 0.5\nsamples = 14\nvalue = [15, 8]"] ;
991 -> 992 ;
993 [label="gini = 0.5\nsamples = 19\nvalue = [16, 10]"] ;
991 -> 993 ;
994 [label="gini = 0.5\nsamples = 13\nvalue = [13, 12]"] ;
990 -> 994 ;
995 [label="gini = 0.4\nsamples = 14\nvalue = [14, 6]"] ;
989 -> 995 ;
996 [label="HOME_AWAY_GOAL_DIFF <= 4.9\ngini = 0.5\nsamples = 20\nvalue = [14, 15]"] ;
982 -> 996 ;
997 [label="gini = 0.5\nsamples = 12\nvalue = [8, 9]"] ;
996 -> 997 ;
998 [label="gini = 0.5\nsamples = 8\nvalue = [6, 6]"] ;
996 -> 998 ;
999 [label="RECENT_PERF_DIFF <= 4.5\ngini = 0.5\nsamples = 107\nvalue = [83, 73]"] ;
979 -> 999 ;
1000 [label="HOME_AWAY_GOAL_DIFF <= 3.9\ngini = 0.5\nsamples = 65\nvalue = [55, 38]"] ;
999 -> 1000 ;
1001 [label="HOME_AWAY_GOAL_DIFF <= 3.7\ngini = 0.5\nsamples = 32\nvalue = [22, 24]"] ;
1000 -> 1001 ;
1002 [label="HOME_AWAY_GOAL_DIFF <= 3.5\ngini = 0.5\nsamples = 24\nvalue = [16, 19]"] ;
1001 -> 1002 ;
1003 [label="HOME_AWAY_GOAL_DIFF <= 3.3\ngini = 0.5\nsamples = 14\nvalue = [10, 10]"] ;
1002 -> 1003 ;
1004 [label="gini = 0.5\nsamples = 6\nvalue = [3, 4]"] ;
1003 -> 1004 ;
1005 [label="gini = 0.5\nsamples = 8\nvalue = [7, 6]"] ;
1003 -> 1005 ;
1006 [label="gini = 0.5\nsamples = 10\nvalue = [6, 9]"] ;
1002 -> 1006 ;
1007 [label="gini = 0.5\nsamples = 8\nvalue = [6, 5]"] ;
1001 -> 1007 ;
1008 [label="HOME_AWAY_GOAL_DIFF <= 4.3\ngini = 0.4\nsamples = 33\nvalue = [33, 14]"] ;
1000 -> 1008 ;
1009 [label="RECENT_PERF_DIFF <= 4.1\ngini = 0.3\nsamples = 19\nvalue = [22, 6]"] ;
1008 -> 1009 ;
1010 [label="gini = 0.3\nsamples = 8\nvalue = [10, 2]"] ;
1009 -> 1010 ;
1011 [label="gini = 0.4\nsamples = 11\nvalue = [12, 4]"] ;
1009 -> 1011 ;
1012 [label="gini = 0.5\nsamples = 14\nvalue = [11, 8]"] ;
1008 -> 1012 ;
1013 [label="HOME_AWAY_GOAL_DIFF <= 4.9\ngini = 0.5\nsamples = 42\nvalue = [28, 35]"] ;
999 -> 1013 ;
1014 [label="RECENT_PERF_DIFF <= 4.7\ngini = 0.5\nsamples = 30\nvalue = [19, 28]"] ;
1013 -> 1014 ;
1015 [label="gini = 0.5\nsamples = 19\nvalue = [11, 14]"] ;
1014 -> 1015 ;
1016 [label="gini = 0.5\nsamples = 11\nvalue = [8, 14]"] ;
1014 -> 1016 ;
1017 [label="gini = 0.5\nsamples = 12\nvalue = [9, 7]"] ;
1013 -> 1017 ;
1018 [label="ELO_DIFF <= 4.4\ngini = 0.5\nsamples = 22\nvalue = [13, 23]"] ;
938 -> 1018 ;
1019 [label="gini = 0.5\nsamples = 4\nvalue = [4, 4]"] ;
1018 -> 1019 ;
1020 [label="ELO_DIFF <= 4.5\ngini = 0.4\nsamples = 18\nvalue = [9, 19]"] ;
1018 -> 1020 ;
1021 [label="gini = 0.4\nsamples = 7\nvalue = [3, 9]"] ;
1020 -> 1021 ;
1022 [label="ELO_DIFF <= 4.6\ngini = 0.5\nsamples = 11\nvalue = [6, 10]"] ;
1020 -> 1022 ;
1023 [label="gini = 0.4\nsamples = 5\nvalue = [2, 4]"] ;
1022 -> 1023 ;
1024 [label="gini = 0.5\nsamples = 6\nvalue = [4, 6]"] ;
1022 -> 1024 ;
1025 [label="RECENT_PERF_DIFF <= 3.7\ngini = 0.5\nsamples = 1143\nvalue = [679, 1148]"] ;
785 -> 1025 ;
1026 [label="HOME_AWAY_GOAL_DIFF <= 3.5\ngini = 0.5\nsamples = 208\nvalue = [160, 179]"] ;
1025 -> 1026 ;
1027 [label="HOME_AWAY_GOAL_DIFF <= 3.1\ngini = 0.5\nsamples = 132\nvalue = [96, 117]"] ;
1026 -> 1027 ;
1028 [label="ELO_DIFF <= 5.5\ngini = 0.5\nsamples = 28\nvalue = [23, 26]"] ;
1027 -> 1028 ;
1029 [label="ELO_DIFF <= 5.1\ngini = 0.5\nsamples = 24\nvalue = [17, 24]"] ;
1028 -> 1029 ;
1030 [label="ELO_DIFF <= 4.8\ngini = 0.5\nsamples = 16\nvalue = [14, 13]"] ;
1029 -> 1030 ;
1031 [label="gini = 0.3\nsamples = 6\nvalue = [2, 7]"] ;
1030 -> 1031 ;
1032 [label="ELO_DIFF <= 4.9\ngini = 0.4\nsamples = 10\nvalue = [12, 6]"] ;
1030 -> 1032 ;
1033 [label="gini = 0.5\nsamples = 2\nvalue = [2, 2]"] ;
1032 -> 1033 ;
1034 [label="ELO_DIFF <= 5.0\ngini = 0.4\nsamples = 8\nvalue = [10, 4]"] ;
1032 -> 1034 ;
1035 [label="gini = 0.4\nsamples = 3\nvalue = [6, 2]"] ;
1034 -> 1035 ;
1036 [label="gini = 0.4\nsamples = 5\nvalue = [4, 2]"] ;
1034 -> 1036 ;
1037 [label="ELO_DIFF <= 5.2\ngini = 0.3\nsamples = 8\nvalue = [3, 11]"] ;
1029 -> 1037 ;
1038 [label="gini = 0.0\nsamples = 3\nvalue = [0, 6]"] ;
1037 -> 1038 ;
1039 [label="ELO_DIFF <= 5.3\ngini = 0.5\nsamples = 5\nvalue = [3, 5]"] ;
1037 -> 1039 ;
1040 [label="gini = 0.4\nsamples = 3\nvalue = [1, 2]"] ;
1039 -> 1040 ;
1041 [label="gini = 0.5\nsamples = 2\nvalue = [2, 3]"] ;
1039 -> 1041 ;
1042 [label="ELO_DIFF <= 6.1\ngini = 0.4\nsamples = 4\nvalue = [6, 2]"] ;
1028 -> 1042 ;
1043 [label="ELO_DIFF <= 5.9\ngini = 0.2\nsamples = 3\nvalue = [6, 1]"] ;
1042 -> 1043 ;
1044 [label="ELO_DIFF <= 5.7\ngini = 0.4\nsamples = 2\nvalue = [2, 1]"] ;
1043 -> 1044 ;
1045 [label="gini = 0.0\nsamples = 1\nvalue = [2, 0]"] ;
1044 -> 1045 ;
1046 [label="gini = 0.0\nsamples = 1\nvalue = [0, 1]"] ;
1044 -> 1046 ;
1047 [label="gini = 0.0\nsamples = 1\nvalue = [4, 0]"] ;
1043 -> 1047 ;
1048 [label="gini = 0.0\nsamples = 1\nvalue = [0, 1]"] ;
1042 -> 1048 ;
1049 [label="ELO_DIFF <= 5.3\ngini = 0.5\nsamples = 104\nvalue = [73, 91]"] ;
1027 -> 1049 ;
1050 [label="HOME_AWAY_GOAL_DIFF <= 3.3\ngini = 0.5\nsamples = 62\nvalue = [56, 52]"] ;
1049 -> 1050 ;
1051 [label="ELO_DIFF <= 5.1\ngini = 0.5\nsamples = 23\nvalue = [19, 20]"] ;
1050 -> 1051 ;
1052 [label="ELO_DIFF <= 5.0\ngini = 0.4\nsamples = 15\nvalue = [18, 6]"] ;
1051 -> 1052 ;
1053 [label="ELO_DIFF <= 4.9\ngini = 0.3\nsamples = 10\nvalue = [13, 3]"] ;
1052 -> 1053 ;
1054 [label="ELO_DIFF <= 4.8\ngini = 0.4\nsamples = 8\nvalue = [9, 3]"] ;
1053 -> 1054 ;
1055 [label="gini = 0.3\nsamples = 5\nvalue = [7, 2]"] ;
1054 -> 1055 ;
1056 [label="gini = 0.4\nsamples = 3\nvalue = [2, 1]"] ;
1054 -> 1056 ;
1057 [label="gini = 0.0\nsamples = 2\nvalue = [4, 0]"] ;
1053 -> 1057 ;
1058 [label="gini = 0.5\nsamples = 5\nvalue = [5, 3]"] ;
1052 -> 1058 ;
1059 [label="ELO_DIFF <= 5.2\ngini = 0.1\nsamples = 8\nvalue = [1, 14]"] ;
1051 -> 1059 ;
1060 [label="gini = 0.0\nsamples = 5\nvalue = [0, 10]"] ;
1059 -> 1060 ;
1061 [label="gini = 0.3\nsamples = 3\nvalue = [1, 4]"] ;
1059 -> 1061 ;
1062 [label="ELO_DIFF <= 5.1\ngini = 0.5\nsamples = 39\nvalue = [37, 32]"] ;
1050 -> 1062 ;
1063 [label="ELO_DIFF <= 5.0\ngini = 0.5\nsamples = 28\nvalue = [20, 31]"] ;
1062 -> 1063 ;
1064 [label="ELO_DIFF <= 4.9\ngini = 0.5\nsamples = 22\nvalue = [18, 24]"] ;
1063 -> 1064 ;
1065 [label="ELO_DIFF <= 4.8\ngini = 0.5\nsamples = 17\nvalue = [12, 19]"] ;
1064 -> 1065 ;
1066 [label="gini = 0.5\nsamples = 7\nvalue = [6, 9]"] ;
1065 -> 1066 ;
1067 [label="gini = 0.5\nsamples = 10\nvalue = [6, 10]"] ;
1065 -> 1067 ;
1068 [label="gini = 0.5\nsamples = 5\nvalue = [6, 5]"] ;
1064 -> 1068 ;
1069 [label="gini = 0.3\nsamples = 6\nvalue = [2, 7]"] ;
1063 -> 1069 ;
1070 [label="ELO_DIFF <= 5.2\ngini = 0.1\nsamples = 11\nvalue = [17, 1]"] ;
1062 -> 1070 ;
1071 [label="gini = 0.0\nsamples = 3\nvalue = [7, 0]"] ;
1070 -> 1071 ;
1072 [label="gini = 0.2\nsamples = 8\nvalue = [10, 1]"] ;
1070 -> 1072 ;
1073 [label="HOME_AWAY_GOAL_DIFF <= 3.3\ngini = 0.4\nsamples = 42\nvalue = [17, 39]"] ;
1049 -> 1073 ;
1074 [label="ELO_DIFF <= 6.9\ngini = 0.5\nsamples = 19\nvalue = [11, 17]"] ;
1073 -> 1074 ;
1075 [label="ELO_DIFF <= 6.5\ngini = 0.5\nsamples = 18\nvalue = [11, 16]"] ;
1074 -> 1075 ;
1076 [label="ELO_DIFF <= 6.0\ngini = 0.5\nsamples = 17\nvalue = [10, 16]"] ;
1075 -> 1076 ;
1077 [label="ELO_DIFF <= 5.8\ngini = 0.5\nsamples = 13\nvalue = [9, 12]"] ;
1076 -> 1077 ;
1078 [label="ELO_DIFF <= 5.4\ngini = 0.5\nsamples = 12\nvalue = [8, 12]"] ;
1077 -> 1078 ;
1079 [label="gini = 0.4\nsamples = 3\nvalue = [1, 3]"] ;
1078 -> 1079 ;
1080 [label="ELO_DIFF <= 5.5\ngini = 0.5\nsamples = 9\nvalue = [7, 9]"] ;
1078 -> 1080 ;
1081 [label="gini = 0.5\nsamples = 3\nvalue = [3, 2]"] ;
1080 -> 1081 ;
1082 [label="ELO_DIFF <= 5.6\ngini = 0.5\nsamples = 6\nvalue = [4, 7]"] ;
1080 -> 1082 ;
1083 [label="gini = 0.3\nsamples = 3\nvalue = [1, 4]"] ;
1082 -> 1083 ;
1084 [label="gini = 0.5\nsamples = 3\nvalue = [3, 3]"] ;
1082 -> 1084 ;
1085 [label="gini = 0.0\nsamples = 1\nvalue = [1, 0]"] ;
1077 -> 1085 ;
1086 [label="ELO_DIFF <= 6.1\ngini = 0.3\nsamples = 4\nvalue = [1, 4]"] ;
1076 -> 1086 ;
1087 [label="gini = 0.4\nsamples = 3\nvalue = [1, 3]"] ;
1086 -> 1087 ;
1088 [label="gini = 0.0\nsamples = 1\nvalue = [0, 1]"] ;
1086 -> 1088 ;
1089 [label="gini = 0.0\nsamples = 1\nvalue = [1, 0]"] ;
1075 -> 1089 ;
1090 [label="gini = 0.0\nsamples = 1\nvalue = [0, 1]"] ;
1074 -> 1090 ;
1091 [label="ELO_DIFF <= 6.0\ngini = 0.3\nsamples = 23\nvalue = [6, 22]"] ;
1073 -> 1091 ;
1092 [label="ELO_DIFF <= 5.8\ngini = 0.2\nsamples = 17\nvalue = [2, 19]"] ;
1091 -> 1092 ;
1093 [label="ELO_DIFF <= 5.5\ngini = 0.1\nsamples = 12\nvalue = [1, 14]"] ;
1092 -> 1093 ;
1094 [label="ELO_DIFF <= 5.4\ngini = 0.2\nsamples = 5\nvalue = [1, 6]"] ;
1093 -> 1094 ;
1095 [label="gini = 0.0\nsamples = 1\nvalue = [0, 1]"] ;
1094 -> 1095 ;
1096 [label="gini = 0.3\nsamples = 4\nvalue = [1, 5]"] ;
1094 -> 1096 ;
1097 [label="gini = 0.0\nsamples = 7\nvalue = [0, 8]"] ;
1093 -> 1097 ;
1098 [label="ELO_DIFF <= 5.9\ngini = 0.3\nsamples = 5\nvalue = [1, 5]"] ;
1092 -> 1098 ;
1099 [label="gini = 0.3\nsamples = 4\nvalue = [1, 4]"] ;
1098 -> 1099 ;
1100 [label="gini = 0.0\nsamples = 1\nvalue = [0, 1]"] ;
1098 -> 1100 ;
1101 [label="ELO_DIFF <= 6.3\ngini = 0.5\nsamples = 6\nvalue = [4, 3]"] ;
1091 -> 1101 ;
1102 [label="ELO_DIFF <= 6.1\ngini = 0.5\nsamples = 4\nvalue = [2, 2]"] ;
1101 -> 1102 ;
1103 [label="gini = 0.5\nsamples = 2\nvalue = [1, 1]"] ;
1102 -> 1103 ;
1104 [label="gini = 0.5\nsamples = 2\nvalue = [1, 1]"] ;
1102 -> 1104 ;
1105 [label="gini = 0.4\nsamples = 2\nvalue = [2, 1]"] ;
1101 -> 1105 ;
1106 [label="ELO_DIFF <= 5.0\ngini = 0.5\nsamples = 76\nvalue = [64, 62]"] ;
1026 -> 1106 ;
1107 [label="ELO_DIFF <= 4.8\ngini = 0.4\nsamples = 32\nvalue = [14, 31]"] ;
1106 -> 1107 ;
1108 [label="gini = 0.5\nsamples = 14\nvalue = [8, 10]"] ;
1107 -> 1108 ;
1109 [label="ELO_DIFF <= 4.9\ngini = 0.3\nsamples = 18\nvalue = [6, 21]"] ;
1107 -> 1109 ;
1110 [label="gini = 0.3\nsamples = 12\nvalue = [3, 17]"] ;
1109 -> 1110 ;
1111 [label="gini = 0.5\nsamples = 6\nvalue = [3, 4]"] ;
1109 -> 1111 ;
1112 [label="ELO_DIFF <= 5.9\ngini = 0.5\nsamples = 44\nvalue = [50, 31]"] ;
1106 -> 1112 ;
1113 [label="ELO_DIFF <= 5.7\ngini = 0.4\nsamples = 39\nvalue = [50, 24]"] ;
1112 -> 1113 ;
1114 [label="ELO_DIFF <= 5.6\ngini = 0.4\nsamples = 35\nvalue = [47, 20]"] ;
1113 -> 1114 ;
1115 [label="ELO_DIFF <= 5.4\ngini = 0.4\nsamples = 32\nvalue = [43, 20]"] ;
1114 -> 1115 ;
1116 [label="ELO_DIFF <= 5.1\ngini = 0.4\nsamples = 23\nvalue = [32, 12]"] ;
1115 -> 1116 ;
1117 [label="gini = 0.5\nsamples = 5\nvalue = [3, 3]"] ;
1116 -> 1117 ;
1118 [label="ELO_DIFF <= 5.3\ngini = 0.4\nsamples = 18\nvalue = [29, 9]"] ;
1116 -> 1118 ;
1119 [label="ELO_DIFF <= 5.2\ngini = 0.4\nsamples = 14\nvalue = [21, 7]"] ;
1118 -> 1119 ;
1120 [label="gini = 0.4\nsamples = 8\nvalue = [12, 4]"] ;
1119 -> 1120 ;
1121 [label="gini = 0.4\nsamples = 6\nvalue = [9, 3]"] ;
1119 -> 1121 ;
1122 [label="gini = 0.3\nsamples = 4\nvalue = [8, 2]"] ;
1118 -> 1122 ;
1123 [label="ELO_DIFF <= 5.5\ngini = 0.5\nsamples = 9\nvalue = [11, 8]"] ;
1115 -> 1123 ;
1124 [label="gini = 0.5\nsamples = 5\nvalue = [5, 5]"] ;
1123 -> 1124 ;
1125 [label="gini = 0.4\nsamples = 4\nvalue = [6, 3]"] ;
1123 -> 1125 ;
1126 [label="gini = 0.0\nsamples = 3\nvalue = [4, 0]"] ;
1114 -> 1126 ;
1127 [label="ELO_DIFF <= 5.8\ngini = 0.5\nsamples = 4\nvalue = [3, 4]"] ;
1113 -> 1127 ;
1128 [label="gini = 0.0\nsamples = 2\nvalue = [0, 4]"] ;
1127 -> 1128 ;
1129 [label="gini = 0.0\nsamples = 2\nvalue = [3, 0]"] ;
1127 -> 1129 ;
1130 [label="gini = 0.0\nsamples = 5\nvalue = [0, 7]"] ;
1112 -> 1130 ;
1131 [label="ELO_DIFF <= 6.3\ngini = 0.5\nsamples = 935\nvalue = [519, 969]"] ;
1025 -> 1131 ;
1132 [label="RECENT_PERF_DIFF <= 5.1\ngini = 0.5\nsamples = 855\nvalue = [509, 856]"] ;
1131 -> 1132 ;
1133 [label="ELO_DIFF <= 5.1\ngini = 0.5\nsamples = 779\nvalue = [451, 794]"] ;
1132 -> 1133 ;
1134 [label="ELO_DIFF <= 4.8\ngini = 0.5\nsamples = 318\nvalue = [203, 311]"] ;
1133 -> 1134 ;
1135 [label="HOME_AWAY_GOAL_DIFF <= 4.5\ngini = 0.4\nsamples = 86\nvalue = [44, 86]"] ;
1134 -> 1135 ;
1136 [label="RECENT_PERF_DIFF <= 4.3\ngini = 0.4\nsamples = 53\nvalue = [23, 60]"] ;
1135 -> 1136 ;
1137 [label="HOME_AWAY_GOAL_DIFF <= 3.9\ngini = 0.5\nsamples = 40\nvalue = [21, 37]"] ;
1136 -> 1137 ;
1138 [label="gini = 0.5\nsamples = 8\nvalue = [5, 5]"] ;
1137 -> 1138 ;
1139 [label="RECENT_PERF_DIFF <= 4.1\ngini = 0.4\nsamples = 32\nvalue = [16, 32]"] ;
1137 -> 1139 ;
1140 [label="gini = 0.4\nsamples = 15\nvalue = [6, 16]"] ;
1139 -> 1140 ;
1141 [label="gini = 0.5\nsamples = 17\nvalue = [10, 16]"] ;
1139 -> 1141 ;
1142 [label="gini = 0.1\nsamples = 13\nvalue = [2, 23]"] ;
1136 -> 1142 ;
1143 [label="RECENT_PERF_DIFF <= 4.9\ngini = 0.5\nsamples = 33\nvalue = [21, 26]"] ;
1135 -> 1143 ;
1144 [label="RECENT_PERF_DIFF <= 4.7\ngini = 0.5\nsamples = 28\nvalue = [20, 20]"] ;
1143 -> 1144 ;
1145 [label="gini = 0.5\nsamples = 18\nvalue = [11, 15]"] ;
1144 -> 1145 ;
1146 [label="gini = 0.5\nsamples = 10\nvalue = [9, 5]"] ;
1144 -> 1146 ;
1147 [label="gini = 0.2\nsamples = 5\nvalue = [1, 6]"] ;
1143 -> 1147 ;
1148 [label="HOME_AWAY_GOAL_DIFF <= 4.3\ngini = 0.5\nsamples = 232\nvalue = [159, 225]"] ;
1134 -> 1148 ;
1149 [label="RECENT_PERF_DIFF <= 3.9\ngini = 0.5\nsamples = 105\nvalue = [61, 111]"] ;
1148 -> 1149 ;
1150 [label="ELO_DIFF <= 4.9\ngini = 0.5\nsamples = 29\nvalue = [26, 30]"] ;
1149 -> 1150 ;
1151 [label="gini = 0.4\nsamples = 11\nvalue = [4, 12]"] ;
1150 -> 1151 ;
1152 [label="ELO_DIFF <= 5.0\ngini = 0.5\nsamples = 18\nvalue = [22, 18]"] ;
1150 -> 1152 ;
1153 [label="gini = 0.5\nsamples = 10\nvalue = [15, 9]"] ;
1152 -> 1153 ;
1154 [label="gini = 0.5\nsamples = 8\nvalue = [7, 9]"] ;
1152 -> 1154 ;
1155 [label="ELO_DIFF <= 4.9\ngini = 0.4\nsamples = 76\nvalue = [35, 81]"] ;
1149 -> 1155 ;
1156 [label="RECENT_PERF_DIFF <= 4.1\ngini = 0.4\nsamples = 33\nvalue = [16, 36]"] ;
1155 -> 1156 ;
1157 [label="gini = 0.4\nsamples = 19\nvalue = [9, 18]"] ;
1156 -> 1157 ;
1158 [label="gini = 0.4\nsamples = 14\nvalue = [7, 18]"] ;
1156 -> 1158 ;
1159 [label="HOME_AWAY_GOAL_DIFF <= 4.1\ngini = 0.4\nsamples = 43\nvalue = [19, 45]"] ;
1155 -> 1159 ;
1160 [label="ELO_DIFF <= 5.0\ngini = 0.4\nsamples = 24\nvalue = [9, 29]"] ;
1159 -> 1160 ;
1161 [label="gini = 0.4\nsamples = 15\nvalue = [7, 19]"] ;
1160 -> 1161 ;
1162 [label="gini = 0.3\nsamples = 9\nvalue = [2, 10]"] ;
1160 -> 1162 ;
1163 [label="ELO_DIFF <= 5.0\ngini = 0.5\nsamples = 19\nvalue = [10, 16]"] ;
1159 -> 1163 ;
1164 [label="gini = 0.5\nsamples = 7\nvalue = [3, 5]"] ;
1163 -> 1164 ;
1165 [label="gini = 0.5\nsamples = 12\nvalue = [7, 11]"] ;
1163 -> 1165 ;
1166 [label="ELO_DIFF <= 4.9\ngini = 0.5\nsamples = 127\nvalue = [98, 114]"] ;
1148 -> 1166 ;
1167 [label="RECENT_PERF_DIFF <= 4.7\ngini = 0.5\nsamples = 44\nvalue = [41, 40]"] ;
1166 -> 1167 ;
1168 [label="RECENT_PERF_DIFF <= 4.5\ngini = 0.5\nsamples = 29\nvalue = [34, 24]"] ;
1167 -> 1168 ;
1169 [label="gini = 0.5\nsamples = 14\nvalue = [18, 15]"] ;
1168 -> 1169 ;
1170 [label="gini = 0.5\nsamples = 15\nvalue = [16, 9]"] ;
1168 -> 1170 ;
1171 [label="HOME_AWAY_GOAL_DIFF <= 4.9\ngini = 0.4\nsamples = 15\nvalue = [7, 16]"] ;
1167 -> 1171 ;
1172 [label="gini = 0.3\nsamples = 10\nvalue = [3, 14]"] ;
1171 -> 1172 ;
1173 [label="gini = 0.4\nsamples = 5\nvalue = [4, 2]"] ;
1171 -> 1173 ;
1174 [label="HOME_AWAY_GOAL_DIFF <= 4.5\ngini = 0.5\nsamples = 83\nvalue = [57, 74]"] ;
1166 -> 1174 ;
1175 [label="ELO_DIFF <= 5.0\ngini = 0.5\nsamples = 24\nvalue = [23, 14]"] ;
1174 -> 1175 ;
1176 [label="gini = 0.5\nsamples = 15\nvalue = [14, 11]"] ;
1175 -> 1176 ;
1177 [label="gini = 0.4\nsamples = 9\nvalue = [9, 3]"] ;
1175 -> 1177 ;
1178 [label="HOME_AWAY_GOAL_DIFF <= 4.9\ngini = 0.5\nsamples = 59\nvalue = [34, 60]"] ;
1174 -> 1178 ;
1179 [label="ELO_DIFF <= 5.0\ngini = 0.5\nsamples = 49\nvalue = [28, 48]"] ;
1178 -> 1179 ;
1180 [label="HOME_AWAY_GOAL_DIFF <= 4.7\ngini = 0.4\nsamples = 27\nvalue = [13, 29]"] ;
1179 -> 1180 ;
1181 [label="gini = 0.4\nsamples = 16\nvalue = [6, 16]"] ;
1180 -> 1181 ;
1182 [label="gini = 0.5\nsamples = 11\nvalue = [7, 13]"] ;
1180 -> 1182 ;
1183 [label="HOME_AWAY_GOAL_DIFF <= 4.7\ngini = 0.5\nsamples = 22\nvalue = [15, 19]"] ;
1179 -> 1183 ;
1184 [label="gini = 0.5\nsamples = 16\nvalue = [12, 16]"] ;
1183 -> 1184 ;
1185 [label="gini = 0.5\nsamples = 6\nvalue = [3, 3]"] ;
1183 -> 1185 ;
1186 [label="ELO_DIFF <= 5.0\ngini = 0.4\nsamples = 10\nvalue = [6, 12]"] ;
1178 -> 1186 ;
1187 [label="gini = 0.0\nsamples = 3\nvalue = [0, 5]"] ;
1186 -> 1187 ;
1188 [label="gini = 0.5\nsamples = 7\nvalue = [6, 7]"] ;
1186 -> 1188 ;
1189 [label="RECENT_PERF_DIFF <= 4.9\ngini = 0.4\nsamples = 461\nvalue = [248, 483]"] ;
1133 -> 1189 ;
1190 [label="RECENT_PERF_DIFF <= 4.5\ngini = 0.5\nsamples = 399\nvalue = [222, 411]"] ;
1189 -> 1190 ;
1191 [label="HOME_AWAY_GOAL_DIFF <= 4.3\ngini = 0.5\nsamples = 256\nvalue = [148, 261]"] ;
1190 -> 1191 ;
1192 [label="HOME_AWAY_GOAL_DIFF <= 4.1\ngini = 0.5\nsamples = 186\nvalue = [102, 192]"] ;
1191 -> 1192 ;
1193 [label="RECENT_PERF_DIFF <= 3.9\ngini = 0.4\nsamples = 113\nvalue = [59, 114]"] ;
1192 -> 1193 ;
1194 [label="ELO_DIFF <= 6.2\ngini = 0.5\nsamples = 41\nvalue = [22, 41]"] ;
1193 -> 1194 ;
1195 [label="ELO_DIFF <= 5.2\ngini = 0.5\nsamples = 40\nvalue = [22, 40]"] ;
1194 -> 1195 ;
1196 [label="gini = 0.4\nsamples = 9\nvalue = [4, 10]"] ;
1195 -> 1196 ;
1197 [label="ELO_DIFF <= 5.3\ngini = 0.5\nsamples = 31\nvalue = [18, 30]"] ;
1195 -> 1197 ;
1198 [label="gini = 0.5\nsamples = 9\nvalue = [7, 8]"] ;
1197 -> 1198 ;
1199 [label="ELO_DIFF <= 5.6\ngini = 0.4\nsamples = 22\nvalue = [11, 22]"] ;
1197 -> 1199 ;
1200 [label="ELO_DIFF <= 5.5\ngini = 0.4\nsamples = 10\nvalue = [4, 11]"] ;
1199 -> 1200 ;
1201 [label="ELO_DIFF <= 5.4\ngini = 0.4\nsamples = 8\nvalue = [4, 8]"] ;
1200 -> 1201 ;
1202 [label="gini = 0.3\nsamples = 4\nvalue = [1, 4]"] ;
1201 -> 1202 ;
1203 [label="gini = 0.5\nsamples = 4\nvalue = [3, 4]"] ;
1201 -> 1203 ;
1204 [label="gini = 0.0\nsamples = 2\nvalue = [0, 3]"] ;
1200 -> 1204 ;
1205 [label="ELO_DIFF <= 5.9\ngini = 0.5\nsamples = 12\nvalue = [7, 11]"] ;
1199 -> 1205 ;
1206 [label="ELO_DIFF <= 5.8\ngini = 0.5\nsamples = 5\nvalue = [3, 2]"] ;
1205 -> 1206 ;
1207 [label="ELO_DIFF <= 5.7\ngini = 0.5\nsamples = 4\nvalue = [2, 2]"] ;
1206 -> 1207 ;
1208 [label="gini = 0.5\nsamples = 2\nvalue = [1, 1]"] ;
1207 -> 1208 ;
1209 [label="gini = 0.5\nsamples = 2\nvalue = [1, 1]"] ;
1207 -> 1209 ;
1210 [label="gini = 0.0\nsamples = 1\nvalue = [1, 0]"] ;
1206 -> 1210 ;
1211 [label="ELO_DIFF <= 6.0\ngini = 0.4\nsamples = 7\nvalue = [4, 9]"] ;
1205 -> 1211 ;
1212 [label="gini = 0.0\nsamples = 1\nvalue = [0, 1]"] ;
1211 -> 1212 ;
1213 [label="ELO_DIFF <= 6.1\ngini = 0.4\nsamples = 6\nvalue = [4, 8]"] ;
1211 -> 1213 ;
1214 [label="gini = 0.4\nsamples = 3\nvalue = [1, 3]"] ;
1213 -> 1214 ;
1215 [label="gini = 0.5\nsamples = 3\nvalue = [3, 5]"] ;
1213 -> 1215 ;
1216 [label="gini = 0.0\nsamples = 1\nvalue = [0, 1]"] ;
1194 -> 1216 ;
1217 [label="ELO_DIFF <= 5.2\ngini = 0.4\nsamples = 72\nvalue = [37, 73]"] ;
1193 -> 1217 ;
1218 [label="gini = 0.5\nsamples = 10\nvalue = [9, 7]"] ;
1217 -> 1218 ;
1219 [label="ELO_DIFF <= 5.6\ngini = 0.4\nsamples = 62\nvalue = [28, 66]"] ;
1217 -> 1219 ;
1220 [label="ELO_DIFF <= 5.5\ngini = 0.3\nsamples = 40\nvalue = [12, 43]"] ;
1219 -> 1220 ;
1221 [label="ELO_DIFF <= 5.3\ngini = 0.3\nsamples = 30\nvalue = [8, 32]"] ;
1220 -> 1221 ;
1222 [label="gini = 0.4\nsamples = 8\nvalue = [2, 6]"] ;
1221 -> 1222 ;
1223 [label="ELO_DIFF <= 5.4\ngini = 0.3\nsamples = 22\nvalue = [6, 26]"] ;
1221 -> 1223 ;
1224 [label="gini = 0.3\nsamples = 10\nvalue = [2, 11]"] ;
1223 -> 1224 ;
1225 [label="gini = 0.3\nsamples = 12\nvalue = [4, 15]"] ;
1223 -> 1225 ;
1226 [label="gini = 0.4\nsamples = 10\nvalue = [4, 11]"] ;
1220 -> 1226 ;
1227 [label="ELO_DIFF <= 5.7\ngini = 0.5\nsamples = 22\nvalue = [16, 23]"] ;
1219 -> 1227 ;
1228 [label="gini = 0.4\nsamples = 4\nvalue = [6, 2]"] ;
1227 -> 1228 ;
1229 [label="ELO_DIFF <= 5.9\ngini = 0.4\nsamples = 18\nvalue = [10, 21]"] ;
1227 -> 1229 ;
1230 [label="gini = 0.0\nsamples = 3\nvalue = [0, 6]"] ;
1229 -> 1230 ;
1231 [label="ELO_DIFF <= 6.2\ngini = 0.5\nsamples = 15\nvalue = [10, 15]"] ;
1229 -> 1231 ;
1232 [label="ELO_DIFF <= 6.1\ngini = 0.5\nsamples = 12\nvalue = [7, 12]"] ;
1231 -> 1232 ;
1233 [label="ELO_DIFF <= 6.0\ngini = 0.5\nsamples = 8\nvalue = [6, 8]"] ;
1232 -> 1233 ;
1234 [label="gini = 0.5\nsamples = 5\nvalue = [4, 5]"] ;
1233 -> 1234 ;
