digraph Tree {
node [shape=box, style="rounded", color="black", fontname="helvetica"] ;
edge [fontname="helvetica"] ;
0 [label="ELO_DIFF <= 4.0\ngini = 0.5\nsamples = 3759\nvalue = [3068, 2902]"] ;
1 [label="HOME_AWAY_GOAL_DIFF <= 4.0\ngini = 0.4\nsamples = 1824\nvalue = [2005, 923]"] ;
0 -> 1 [labeldistance=2.5, labelangle=45, headlabel="True"] ;
2 [label="RECENT_PERF_DIFF <= 2.2\ngini = 0.4\nsamples = 1220\nvalue = [1411, 535]"] ;
1 -> 2 ;
3 [label="RECENT_PERF_DIFF <= 1.3\ngini = 0.3\nsamples = 157\nvalue = [195, 48]"] ;
2 -> 3 ;
4 [label="RECENT_PERF_DIFF <= 0.5\ngini = 0.1\nsamples = 16\nvalue = [27, 2]"] ;
3 -> 4 ;
5 [label="HOME_AWAY_GOAL_DIFF <= 0.2\ngini = 0.5\nsamples = 2\nvalue = [1, 1]"] ;
4 -> 5 ;
6 [label="gini = 0.0\nsamples = 1\nvalue = [1, 0]"] ;
5 -> 6 ;
7 [label="gini = 0.0\nsamples = 1\nvalue = [0, 1]"] ;
5 -> 7 ;
8 [label="HOME_AWAY_GOAL_DIFF <= 1.1\ngini = 0.1\nsamples = 14\nvalue = [26, 1]"] ;
4 -> 8 ;
9 [label="gini = 0.0\nsamples = 8\nvalue = [13, 0]"] ;
8 -> 9 ;
10 [label="ELO_DIFF <= 3.6\ngini = 0.1\nsamples = 6\nvalue = [13, 1]"] ;
8 -> 10 ;
11 [label="gini = 0.0\nsamples = 5\nvalue = [13, 0]"] ;
10 -> 11 ;
12 [label="gini = 0.0\nsamples = 1\nvalue = [0, 1]"] ;
10 -> 12 ;
13 [label="HOME_AWAY_GOAL_DIFF <= 1.5\ngini = 0.3\nsamples = 141\nvalue = [168, 46]"] ;
3 -> 13 ;
14 [label="ELO_DIFF <= 2.0\ngini = 0.5\nsamples = 11\nvalue = [14, 9]"] ;
13 -> 14 ;
15 [label="gini = 0.0\nsamples = 3\nvalue = [7, 0]"] ;
14 -> 15 ;
16 [label="ELO_DIFF <= 2.7\ngini = 0.5\nsamples = 8\nvalue = [7, 9]"] ;
14 -> 16 ;
17 [label="ELO_DIFF <= 2.1\ngini = 0.4\nsamples = 3\nvalue = [2, 6]"] ;
16 -> 17 ;
18 [label="gini = 0.0\nsamples = 1\nvalue = [0, 2]"] ;
17 -> 18 ;
19 [label="gini = 0.4\nsamples = 2\nvalue = [2, 4]"] ;
17 -> 19 ;
20 [label="ELO_DIFF <= 3.4\ngini = 0.5\nsamples = 5\nvalue = [5, 3]"] ;
16 -> 20 ;
21 [label="ELO_DIFF <= 3.2\ngini = 0.4\nsamples = 3\nvalue = [4, 2]"] ;
20 -> 21 ;
22 [label="gini = 0.5\nsamples = 2\nvalue = [3, 2]"] ;
21 -> 22 ;
23 [label="gini = 0.0\nsamples = 1\nvalue = [1, 0]"] ;
21 -> 23 ;
24 [label="gini = 0.5\nsamples = 2\nvalue = [1, 1]"] ;
20 -> 24 ;
25 [label="HOME_AWAY_GOAL_DIFF <= 1.7\ngini = 0.3\nsamples = 130\nvalue = [154, 37]"] ;
13 -> 25 ;
26 [label="ELO_DIFF <= 2.3\ngini = 0.2\nsamples = 18\nvalue = [24, 3]"] ;
25 -> 26 ;
27 [label="gini = 0.0\nsamples = 12\nvalue = [17, 0]"] ;
26 -> 27 ;
28 [label="ELO_DIFF <= 2.5\ngini = 0.4\nsamples = 6\nvalue = [7, 3]"] ;
26 -> 28 ;
29 [label="gini = 0.0\nsamples = 1\nvalue = [0, 2]"] ;
28 -> 29 ;
30 [label="ELO_DIFF <= 3.8\ngini = 0.2\nsamples = 5\nvalue = [7, 1]"] ;
28 -> 30 ;
31 [label="ELO_DIFF <= 3.2\ngini = 0.4\nsamples = 3\nvalue = [3, 1]"] ;
30 -> 31 ;
32 [label="gini = 0.0\nsamples = 2\nvalue = [3, 0]"] ;
31 -> 32 ;
33 [label="gini = 0.0\nsamples = 1\nvalue = [0, 1]"] ;
31 -> 33 ;
34 [label="gini = 0.0\nsamples = 2\nvalue = [4, 0]"] ;
30 -> 34 ;
35 [label="ELO_DIFF <= 2.0\ngini = 0.3\nsamples = 112\nvalue = [130, 34]"] ;
25 -> 35 ;
36 [label="ELO_DIFF <= 1.4\ngini = 0.2\nsamples = 36\nvalue = [49, 6]"] ;
35 -> 36 ;
37 [label="ELO_DIFF <= 0.8\ngini = 0.1\nsamples = 15\nvalue = [21, 1]"] ;
36 -> 37 ;
38 [label="RECENT_PERF_DIFF <= 2.0\ngini = 0.3\nsamples = 3\nvalue = [4, 1]"] ;
37 -> 38 ;
39 [label="gini = 0.0\nsamples = 1\nvalue = [3, 0]"] ;
38 -> 39 ;
40 [label="ELO_DIFF <= 0.5\ngini = 0.5\nsamples = 2\nvalue = [1, 1]"] ;
38 -> 40 ;
41 [label="gini = 0.0\nsamples = 1\nvalue = [1, 0]"] ;
40 -> 41 ;
42 [label="gini = 0.0\nsamples = 1\nvalue = [0, 1]"] ;
40 -> 42 ;
43 [label="gini = 0.0\nsamples = 12\nvalue = [17, 0]"] ;
37 -> 43 ;
44 [label="HOME_AWAY_GOAL_DIFF <= 1.9\ngini = 0.3\nsamples = 21\nvalue = [28, 5]"] ;
36 -> 44 ;
45 [label="ELO_DIFF <= 1.6\ngini = 0.5\nsamples = 9\nvalue = [9, 5]"] ;
44 -> 45 ;
46 [label="gini = 0.0\nsamples = 1\nvalue = [0, 3]"] ;
45 -> 46 ;
47 [label="ELO_DIFF <= 1.7\ngini = 0.3\nsamples = 8\nvalue = [9, 2]"] ;
45 -> 47 ;
48 [label="gini = 0.0\nsamples = 4\nvalue = [5, 0]"] ;
47 -> 48 ;
49 [label="ELO_DIFF <= 1.8\ngini = 0.4\nsamples = 4\nvalue = [4, 2]"] ;
47 -> 49 ;
50 [label="gini = 0.4\nsamples = 2\nvalue = [1, 2]"] ;
49 -> 50 ;
51 [label="gini = 0.0\nsamples = 2\nvalue = [3, 0]"] ;
49 -> 51 ;
52 [label="gini = 0.0\nsamples = 12\nvalue = [19, 0]"] ;
44 -> 52 ;
53 [label="RECENT_PERF_DIFF <= 2.0\ngini = 0.4\nsamples = 76\nvalue = [81, 28]"] ;
35 -> 53 ;
54 [label="ELO_DIFF <= 2.4\ngini = 0.3\nsamples = 44\nvalue = [48, 12]"] ;
53 -> 54 ;
55 [label="gini = 0.0\nsamples = 6\nvalue = [11, 0]"] ;
54 -> 55 ;
56 [label="RECENT_PERF_DIFF <= 1.9\ngini = 0.4\nsamples = 38\nvalue = [37, 12]"] ;
54 -> 56 ;
57 [label="ELO_DIFF <= 2.8\ngini = 0.3\nsamples = 14\nvalue = [14, 4]"] ;
56 -> 57 ;
58 [label="ELO_DIFF <= 2.5\ngini = 0.5\nsamples = 6\nvalue = [4, 4]"] ;
57 -> 58 ;
59 [label="gini = 0.5\nsamples = 3\nvalue = [3, 2]"] ;
58 -> 59 ;
60 [label="ELO_DIFF <= 2.6\ngini = 0.4\nsamples = 3\nvalue = [1, 2]"] ;
58 -> 60 ;
61 [label="gini = 0.0\nsamples = 1\nvalue = [0, 1]"] ;
60 -> 61 ;
62 [label="gini = 0.5\nsamples = 2\nvalue = [1, 1]"] ;
60 -> 62 ;
63 [label="gini = 0.0\nsamples = 8\nvalue = [10, 0]"] ;
57 -> 63 ;
64 [label="ELO_DIFF <= 2.5\ngini = 0.4\nsamples = 24\nvalue = [23, 8]"] ;
56 -> 64 ;
65 [label="gini = 0.4\nsamples = 2\nvalue = [1, 2]"] ;
64 -> 65 ;
66 [label="ELO_DIFF <= 3.1\ngini = 0.3\nsamples = 22\nvalue = [22, 6]"] ;
64 -> 66 ;
67 [label="ELO_DIFF <= 2.6\ngini = 0.2\nsamples = 7\nvalue = [10, 1]"] ;
66 -> 67 ;
68 [label="gini = 0.4\nsamples = 2\nvalue = [2, 1]"] ;
67 -> 68 ;
69 [label="gini = 0.0\nsamples = 5\nvalue = [8, 0]"] ;
67 -> 69 ;
70 [label="ELO_DIFF <= 3.2\ngini = 0.4\nsamples = 15\nvalue = [12, 5]"] ;
66 -> 70 ;
71 [label="gini = 0.0\nsamples = 1\nvalue = [0, 1]"] ;
70 -> 71 ;
72 [label="ELO_DIFF <= 3.8\ngini = 0.4\nsamples = 14\nvalue = [12, 4]"] ;
70 -> 72 ;
73 [label="ELO_DIFF <= 3.5\ngini = 0.3\nsamples = 10\nvalue = [9, 2]"] ;
72 -> 73 ;
74 [label="ELO_DIFF <= 3.3\ngini = 0.4\nsamples = 7\nvalue = [5, 2]"] ;
73 -> 74 ;
75 [label="gini = 0.0\nsamples = 2\nvalue = [2, 0]"] ;
74 -> 75 ;
76 [label="ELO_DIFF <= 3.4\ngini = 0.5\nsamples = 5\nvalue = [3, 2]"] ;
74 -> 76 ;
77 [label="gini = 0.4\nsamples = 3\nvalue = [2, 1]"] ;
76 -> 77 ;
78 [label="gini = 0.5\nsamples = 2\nvalue = [1, 1]"] ;
76 -> 78 ;
79 [label="gini = 0.0\nsamples = 3\nvalue = [4, 0]"] ;
73 -> 79 ;
80 [label="ELO_DIFF <= 3.9\ngini = 0.5\nsamples = 4\nvalue = [3, 2]"] ;
72 -> 80 ;
81 [label="gini = 0.5\nsamples = 2\nvalue = [1, 1]"] ;
80 -> 81 ;
82 [label="gini = 0.4\nsamples = 2\nvalue = [2, 1]"] ;
80 -> 82 ;
83 [label="ELO_DIFF <= 2.4\ngini = 0.4\nsamples = 32\nvalue = [33, 16]"] ;
53 -> 83 ;
84 [label="gini = 0.0\nsamples = 2\nvalue = [0, 3]"] ;
83 -> 84 ;
85 [label="ELO_DIFF <= 3.8\ngini = 0.4\nsamples = 30\nvalue = [33, 13]"] ;
83 -> 85 ;
86 [label="ELO_DIFF <= 3.4\ngini = 0.4\nsamples = 29\nvalue = [33, 11]"] ;
85 -> 86 ;
87 [label="ELO_DIFF <= 3.2\ngini = 0.4\nsamples = 25\nvalue = [27, 11]"] ;
86 -> 87 ;
88 [label="ELO_DIFF <= 2.7\ngini = 0.3\nsamples = 21\nvalue = [25, 6]"] ;
87 -> 88 ;
89 [label="ELO_DIFF <= 2.5\ngini = 0.2\nsamples = 8\nvalue = [10, 1]"] ;
88 -> 89 ;
90 [label="gini = 0.3\nsamples = 4\nvalue = [5, 1]"] ;
89 -> 90 ;
91 [label="gini = 0.0\nsamples = 4\nvalue = [5, 0]"] ;
89 -> 91 ;
92 [label="ELO_DIFF <= 2.8\ngini = 0.4\nsamples = 13\nvalue = [15, 5]"] ;
88 -> 92 ;
93 [label="gini = 0.4\nsamples = 3\nvalue = [1, 3]"] ;
92 -> 93 ;
94 [label="ELO_DIFF <= 3.0\ngini = 0.2\nsamples = 10\nvalue = [14, 2]"] ;
92 -> 94 ;
95 [label="gini = 0.0\nsamples = 1\nvalue = [1, 0]"] ;
94 -> 95 ;
96 [label="ELO_DIFF <= 3.1\ngini = 0.2\nsamples = 9\nvalue = [13, 2]"] ;
94 -> 96 ;
97 [label="gini = 0.3\nsamples = 4\nvalue = [5, 1]"] ;
96 -> 97 ;
98 [label="gini = 0.2\nsamples = 5\nvalue = [8, 1]"] ;
96 -> 98 ;
99 [label="ELO_DIFF <= 3.3\ngini = 0.4\nsamples = 4\nvalue = [2, 5]"] ;
87 -> 99 ;
100 [label="gini = 0.4\nsamples = 2\nvalue = [1, 2]"] ;
99 -> 100 ;
101 [label="gini = 0.4\nsamples = 2\nvalue = [1, 3]"] ;
99 -> 101 ;
102 [label="gini = 0.0\nsamples = 4\nvalue = [6, 0]"] ;
86 -> 102 ;
103 [label="gini = 0.0\nsamples = 1\nvalue = [0, 2]"] ;
85 -> 103 ;
104 [label="HOME_AWAY_GOAL_DIFF <= 3.6\ngini = 0.4\nsamples = 1063\nvalue = [1216, 487]"] ;
2 -> 104 ;
105 [label="ELO_DIFF <= 2.1\ngini = 0.4\nsamples = 781\nvalue = [875, 373]"] ;
104 -> 105 ;
106 [label="RECENT_PERF_DIFF <= 3.4\ngini = 0.2\nsamples = 166\nvalue = [235, 37]"] ;
105 -> 106 ;
107 [label="RECENT_PERF_DIFF <= 3.2\ngini = 0.2\nsamples = 146\nvalue = [210, 27]"] ;
106 -> 107 ;
108 [label="ELO_DIFF <= 0.8\ngini = 0.2\nsamples = 121\nvalue = [166, 19]"] ;
107 -> 108 ;
109 [label="HOME_AWAY_GOAL_DIFF <= 2.4\ngini = 0.5\nsamples = 4\nvalue = [4, 3]"] ;
108 -> 109 ;
110 [label="gini = 0.0\nsamples = 1\nvalue = [0, 3]"] ;
109 -> 110 ;
111 [label="gini = 0.0\nsamples = 3\nvalue = [4, 0]"] ;
109 -> 111 ;
112 [label="RECENT_PERF_DIFF <= 2.4\ngini = 0.2\nsamples = 117\nvalue = [162, 16]"] ;
108 -> 112 ;
113 [label="ELO_DIFF <= 2.0\ngini = 0.1\nsamples = 17\nvalue = [26, 1]"] ;
112 -> 113 ;
114 [label="gini = 0.0\nsamples = 12\nvalue = [19, 0]"] ;
113 -> 114 ;
115 [label="gini = 0.2\nsamples = 5\nvalue = [7, 1]"] ;
113 -> 115 ;
116 [label="RECENT_PERF_DIFF <= 2.6\ngini = 0.2\nsamples = 100\nvalue = [136, 15]"] ;
112 -> 116 ;
117 [label="ELO_DIFF <= 1.4\ngini = 0.2\nsamples = 25\nvalue = [32, 4]"] ;
116 -> 117 ;
118 [label="ELO_DIFF <= 1.2\ngini = 0.5\nsamples = 7\nvalue = [5, 3]"] ;
117 -> 118 ;
119 [label="gini = 0.0\nsamples = 3\nvalue = [3, 0]"] ;
118 -> 119 ;
120 [label="ELO_DIFF <= 1.3\ngini = 0.5\nsamples = 4\nvalue = [2, 3]"] ;
118 -> 120 ;
121 [label="gini = 0.0\nsamples = 1\nvalue = [0, 1]"] ;
120 -> 121 ;
122 [label="gini = 0.5\nsamples = 3\nvalue = [2, 2]"] ;
120 -> 122 ;
123 [label="ELO_DIFF <= 2.0\ngini = 0.1\nsamples = 18\nvalue = [27, 1]"] ;
117 -> 123 ;
124 [label="gini = 0.0\nsamples = 15\nvalue = [24, 0]"] ;
123 -> 124 ;
125 [label="gini = 0.4\nsamples = 3\nvalue = [3, 1]"] ;
123 -> 125 ;
126 [label="ELO_DIFF <= 2.0\ngini = 0.2\nsamples = 75\nvalue = [104, 11]"] ;
116 -> 126 ;
127 [label="ELO_DIFF <= 1.8\ngini = 0.2\nsamples = 65\nvalue = [89, 11]"] ;
126 -> 127 ;
128 [label="HOME_AWAY_GOAL_DIFF <= 3.0\ngini = 0.1\nsamples = 42\nvalue = [60, 5]"] ;
127 -> 128 ;
129 [label="ELO_DIFF <= 1.4\ngini = 0.2\nsamples = 30\nvalue = [42, 5]"] ;
128 -> 129 ;
130 [label="RECENT_PERF_DIFF <= 2.8\ngini = 0.1\nsamples = 15\nvalue = [21, 1]"] ;
129 -> 130 ;
131 [label="ELO_DIFF <= 1.2\ngini = 0.2\nsamples = 9\nvalue = [11, 1]"] ;
130 -> 131 ;
132 [label="ELO_DIFF <= 1.0\ngini = 0.4\nsamples = 3\nvalue = [3, 1]"] ;
131 -> 132 ;
133 [label="gini = 0.0\nsamples = 1\nvalue = [1, 0]"] ;
132 -> 133 ;
134 [label="gini = 0.4\nsamples = 2\nvalue = [2, 1]"] ;
132 -> 134 ;
135 [label="gini = 0.0\nsamples = 6\nvalue = [8, 0]"] ;
131 -> 135 ;
136 [label="gini = 0.0\nsamples = 6\nvalue = [10, 0]"] ;
130 -> 136 ;
137 [label="ELO_DIFF <= 1.6\ngini = 0.3\nsamples = 15\nvalue = [21, 4]"] ;
129 -> 137 ;
138 [label="gini = 0.4\nsamples = 2\nvalue = [1, 2]"] ;
137 -> 138 ;
139 [label="ELO_DIFF <= 1.7\ngini = 0.2\nsamples = 13\nvalue = [20, 2]"] ;
137 -> 139 ;
140 [label="gini = 0.0\nsamples = 7\nvalue = [13, 0]"] ;
139 -> 140 ;
141 [label="RECENT_PERF_DIFF <= 2.8\ngini = 0.3\nsamples = 6\nvalue = [7, 2]"] ;
139 -> 141 ;
142 [label="gini = 0.0\nsamples = 3\nvalue = [5, 0]"] ;
141 -> 142 ;
143 [label="gini = 0.5\nsamples = 3\nvalue = [2, 2]"] ;
141 -> 143 ;
144 [label="gini = 0.0\nsamples = 12\nvalue = [18, 0]"] ;
128 -> 144 ;
145 [label="RECENT_PERF_DIFF <= 3.0\ngini = 0.3\nsamples = 23\nvalue = [29, 6]"] ;
127 -> 145 ;
146 [label="HOME_AWAY_GOAL_DIFF <= 2.8\ngini = 0.2\nsamples = 14\nvalue = [18, 2]"] ;
145 -> 146 ;
147 [label="ELO_DIFF <= 1.9\ngini = 0.4\nsamples = 5\nvalue = [4, 2]"] ;
146 -> 147 ;
148 [label="gini = 0.0\nsamples = 4\nvalue = [4, 0]"] ;
147 -> 148 ;
149 [label="gini = 0.0\nsamples = 1\nvalue = [0, 2]"] ;
147 -> 149 ;
150 [label="gini = 0.0\nsamples = 9\nvalue = [14, 0]"] ;
146 -> 150 ;
151 [label="ELO_DIFF <= 1.9\ngini = 0.4\nsamples = 9\nvalue = [11, 4]"] ;
145 -> 151 ;
152 [label="gini = 0.5\nsamples = 6\nvalue = [7, 4]"] ;
151 -> 152 ;
153 [label="gini = 0.0\nsamples = 3\nvalue = [4, 0]"] ;
151 -> 153 ;
154 [label="gini = 0.0\nsamples = 10\nvalue = [15, 0]"] ;
126 -> 154 ;
155 [label="ELO_DIFF <= 1.4\ngini = 0.3\nsamples = 25\nvalue = [44, 8]"] ;
107 -> 155 ;
156 [label="gini = 0.0\nsamples = 7\nvalue = [14, 0]"] ;
155 -> 156 ;
157 [label="ELO_DIFF <= 1.9\ngini = 0.3\nsamples = 18\nvalue = [30, 8]"] ;
155 -> 157 ;
158 [label="ELO_DIFF <= 1.8\ngini = 0.5\nsamples = 7\nvalue = [9, 7]"] ;
157 -> 158 ;
159 [label="ELO_DIFF <= 1.6\ngini = 0.5\nsamples = 4\nvalue = [5, 3]"] ;
158 -> 159 ;
160 [label="gini = 0.5\nsamples = 3\nvalue = [4, 3]"] ;
159 -> 160 ;
161 [label="gini = 0.0\nsamples = 1\nvalue = [1, 0]"] ;
159 -> 161 ;
162 [label="gini = 0.5\nsamples = 3\nvalue = [4, 4]"] ;
158 -> 162 ;
163 [label="ELO_DIFF <= 2.0\ngini = 0.1\nsamples = 11\nvalue = [21, 1]"] ;
157 -> 163 ;
164 [label="gini = 0.0\nsamples = 4\nvalue = [7, 0]"] ;
163 -> 164 ;
165 [label="gini = 0.1\nsamples = 7\nvalue = [14, 1]"] ;
163 -> 165 ;
166 [label="ELO_DIFF <= 2.0\ngini = 0.4\nsamples = 20\nvalue = [25, 10]"] ;
106 -> 166 ;
167 [label="ELO_DIFF <= 1.1\ngini = 0.3\nsamples = 15\nvalue = [21, 6]"] ;
166 -> 167 ;
168 [label="gini = 0.5\nsamples = 2\nvalue = [3, 2]"] ;
167 -> 168 ;
169 [label="ELO_DIFF <= 1.8\ngini = 0.3\nsamples = 13\nvalue = [18, 4]"] ;
167 -> 169 ;
170 [label="gini = 0.0\nsamples = 6\nvalue = [8, 0]"] ;
169 -> 170 ;
171 [label="ELO_DIFF <= 1.9\ngini = 0.4\nsamples = 7\nvalue = [10, 4]"] ;
169 -> 171 ;
172 [label="gini = 0.4\nsamples = 4\nvalue = [6, 3]"] ;
171 -> 172 ;
173 [label="gini = 0.3\nsamples = 3\nvalue = [4, 1]"] ;
171 -> 173 ;
174 [label="gini = 0.5\nsamples = 5\nvalue = [4, 4]"] ;
166 -> 174 ;
175 [label="RECENT_PERF_DIFF <= 3.4\ngini = 0.5\nsamples = 615\nvalue = [640, 336]"] ;
105 -> 175 ;
176 [label="ELO_DIFF <= 3.8\ngini = 0.5\nsamples = 500\nvalue = [505, 278]"] ;
175 -> 176 ;
177 [label="RECENT_PERF_DIFF <= 3.2\ngini = 0.4\nsamples = 430\nvalue = [450, 231]"] ;
176 -> 177 ;
178 [label="RECENT_PERF_DIFF <= 2.4\ngini = 0.5\nsamples = 323\nvalue = [331, 179]"] ;
177 -> 178 ;
179 [label="ELO_DIFF <= 2.4\ngini = 0.5\nsamples = 41\nvalue = [34, 22]"] ;
178 -> 179 ;
180 [label="ELO_DIFF <= 2.3\ngini = 0.5\nsamples = 7\nvalue = [4, 6]"] ;
179 -> 180 ;
181 [label="gini = 0.0\nsamples = 1\nvalue = [0, 1]"] ;
180 -> 181 ;
182 [label="gini = 0.5\nsamples = 6\nvalue = [4, 5]"] ;
180 -> 182 ;
183 [label="ELO_DIFF <= 2.6\ngini = 0.5\nsamples = 34\nvalue = [30, 16]"] ;
179 -> 183 ;
184 [label="gini = 0.2\nsamples = 5\nvalue = [8, 1]"] ;
183 -> 184 ;
185 [label="ELO_DIFF <= 2.7\ngini = 0.5\nsamples = 29\nvalue = [22, 15]"] ;
183 -> 185 ;
186 [label="gini = 0.0\nsamples = 2\nvalue = [0, 3]"] ;
185 -> 186 ;
187 [label="ELO_DIFF <= 3.0\ngini = 0.5\nsamples = 27\nvalue = [22, 12]"] ;
185 -> 187 ;
188 [label="ELO_DIFF <= 2.8\ngini = 0.5\nsamples = 10\nvalue = [9, 7]"] ;
187 -> 188 ;
189 [label="gini = 0.4\nsamples = 6\nvalue = [7, 3]"] ;
188 -> 189 ;
190 [label="gini = 0.4\nsamples = 4\nvalue = [2, 4]"] ;
188 -> 190 ;
191 [label="ELO_DIFF <= 3.2\ngini = 0.4\nsamples = 17\nvalue = [13, 5]"] ;
187 -> 191 ;
192 [label="ELO_DIFF <= 3.1\ngini = 0.3\nsamples = 6\nvalue = [5, 1]"] ;
191 -> 192 ;
193 [label="gini = 0.4\nsamples = 3\nvalue = [2, 1]"] ;
192 -> 193 ;
194 [label="gini = 0.0\nsamples = 3\nvalue = [3, 0]"] ;
192 -> 194 ;
195 [label="ELO_DIFF <= 3.5\ngini = 0.4\nsamples = 11\nvalue = [8, 4]"] ;
191 -> 195 ;
196 [label="ELO_DIFF <= 3.4\ngini = 0.4\nsamples = 7\nvalue = [5, 2]"] ;
195 -> 196 ;
197 [label="gini = 0.4\nsamples = 6\nvalue = [4, 2]"] ;
196 -> 197 ;
198 [label="gini = 0.0\nsamples = 1\nvalue = [1, 0]"] ;
196 -> 198 ;
199 [label="gini = 0.5\nsamples = 4\nvalue = [3, 2]"] ;
195 -> 199 ;
200 [label="RECENT_PERF_DIFF <= 3.0\ngini = 0.5\nsamples = 282\nvalue = [297, 157]"] ;
178 -> 200 ;
201 [label="ELO_DIFF <= 2.5\ngini = 0.4\nsamples = 199\nvalue = [215, 109]"] ;
200 -> 201 ;
202 [label="ELO_DIFF <= 2.4\ngini = 0.3\nsamples = 32\nvalue = [45, 9]"] ;
201 -> 202 ;
203 [label="ELO_DIFF <= 2.3\ngini = 0.2\nsamples = 18\nvalue = [26, 4]"] ;
202 -> 203 ;
204 [label="RECENT_PERF_DIFF <= 2.6\ngini = 0.3\nsamples = 7\nvalue = [10, 2]"] ;
203 -> 204 ;
205 [label="gini = 0.0\nsamples = 4\nvalue = [9, 0]"] ;
204 -> 205 ;
206 [label="RECENT_PERF_DIFF <= 2.8\ngini = 0.4\nsamples = 3\nvalue = [1, 2]"] ;
204 -> 206 ;
207 [label="gini = 0.0\nsamples = 1\nvalue = [0, 1]"] ;
206 -> 207 ;
208 [label="gini = 0.5\nsamples = 2\nvalue = [1, 1]"] ;
206 -> 208 ;
209 [label="RECENT_PERF_DIFF <= 2.8\ngini = 0.2\nsamples = 11\nvalue = [16, 2]"] ;
203 -> 209 ;
210 [label="gini = 0.0\nsamples = 7\nvalue = [12, 0]"] ;
209 -> 210 ;
211 [label="gini = 0.4\nsamples = 4\nvalue = [4, 2]"] ;
209 -> 211 ;
212 [label="RECENT_PERF_DIFF <= 2.8\ngini = 0.3\nsamples = 14\nvalue = [19, 5]"] ;
202 -> 212 ;
213 [label="RECENT_PERF_DIFF <= 2.6\ngini = 0.4\nsamples = 12\nvalue = [14, 5]"] ;
212 -> 213 ;
214 [label="gini = 0.3\nsamples = 6\nvalue = [7, 2]"] ;
213 -> 214 ;
215 [label="gini = 0.4\nsamples = 6\nvalue = [7, 3]"] ;
213 -> 215 ;
216 [label="gini = 0.0\nsamples = 2\nvalue = [5, 0]"] ;
212 -> 216 ;
217 [label="RECENT_PERF_DIFF <= 2.6\ngini = 0.5\nsamples = 167\nvalue = [170, 100]"] ;
201 -> 217 ;
218 [label="ELO_DIFF <= 3.5\ngini = 0.5\nsamples = 46\nvalue = [38, 29]"] ;
217 -> 218 ;
219 [label="ELO_DIFF <= 3.1\ngini = 0.5\nsamples = 39\nvalue = [28, 28]"] ;
218 -> 219 ;
220 [label="ELO_DIFF <= 3.0\ngini = 0.5\nsamples = 26\nvalue = [22, 13]"] ;
219 -> 220 ;
221 [label="ELO_DIFF <= 2.7\ngini = 0.5\nsamples = 25\nvalue = [19, 13]"] ;
220 -> 221 ;
222 [label="ELO_DIFF <= 2.6\ngini = 0.5\nsamples = 14\nvalue = [11, 6]"] ;
221 -> 222 ;
223 [label="gini = 0.5\nsamples = 9\nvalue = [7, 4]"] ;
222 -> 223 ;
224 [label="gini = 0.4\nsamples = 5\nvalue = [4, 2]"] ;
222 -> 224 ;
225 [label="ELO_DIFF <= 2.8\ngini = 0.5\nsamples = 11\nvalue = [8, 7]"] ;
221 -> 225 ;
226 [label="gini = 0.5\nsamples = 6\nvalue = [4, 5]"] ;
225 -> 226 ;
227 [label="gini = 0.4\nsamples = 5\nvalue = [4, 2]"] ;
225 -> 227 ;
228 [label="gini = 0.0\nsamples = 1\nvalue = [3, 0]"] ;
220 -> 228 ;
229 [label="ELO_DIFF <= 3.4\ngini = 0.4\nsamples = 13\nvalue = [6, 15]"] ;
219 -> 229 ;
230 [label="ELO_DIFF <= 3.3\ngini = 0.5\nsamples = 11\nvalue = [6, 10]"] ;
229 -> 230 ;
231 [label="ELO_DIFF <= 3.2\ngini = 0.4\nsamples = 5\nvalue = [2, 5]"] ;
230 -> 231 ;
232 [label="gini = 0.4\nsamples = 3\nvalue = [1, 2]"] ;
231 -> 232 ;
233 [label="gini = 0.4\nsamples = 2\nvalue = [1, 3]"] ;
231 -> 233 ;
234 [label="gini = 0.5\nsamples = 6\nvalue = [4, 5]"] ;
230 -> 234 ;
235 [label="gini = 0.0\nsamples = 2\nvalue = [0, 5]"] ;
229 -> 235 ;
236 [label="ELO_DIFF <= 3.7\ngini = 0.2\nsamples = 7\nvalue = [10, 1]"] ;
218 -> 236 ;
237 [label="gini = 0.0\nsamples = 2\nvalue = [2, 0]"] ;
236 -> 237 ;
238 [label="gini = 0.2\nsamples = 5\nvalue = [8, 1]"] ;
236 -> 238 ;
239 [label="ELO_DIFF <= 2.8\ngini = 0.5\nsamples = 121\nvalue = [132, 71]"] ;
217 -> 239 ;
240 [label="ELO_DIFF <= 2.7\ngini = 0.5\nsamples = 29\nvalue = [22, 21]"] ;
239 -> 240 ;
241 [label="HOME_AWAY_GOAL_DIFF <= 2.8\ngini = 0.5\nsamples = 22\nvalue = [18, 14]"] ;
240 -> 241 ;
242 [label="ELO_DIFF <= 2.6\ngini = 0.5\nsamples = 11\nvalue = [11, 7]"] ;
241 -> 242 ;
243 [label="gini = 0.5\nsamples = 7\nvalue = [8, 5]"] ;
242 -> 243 ;
244 [label="gini = 0.5\nsamples = 4\nvalue = [3, 2]"] ;
242 -> 244 ;
245 [label="ELO_DIFF <= 2.6\ngini = 0.5\nsamples = 11\nvalue = [7, 7]"] ;
241 -> 245 ;
246 [label="gini = 0.5\nsamples = 4\nvalue = [3, 2]"] ;
245 -> 246 ;
247 [label="gini = 0.5\nsamples = 7\nvalue = [4, 5]"] ;
245 -> 247 ;
248 [label="RECENT_PERF_DIFF <= 2.8\ngini = 0.5\nsamples = 7\nvalue = [4, 7]"] ;
240 -> 248 ;
249 [label="gini = 0.3\nsamples = 5\nvalue = [2, 7]"] ;
248 -> 249 ;
250 [label="gini = 0.0\nsamples = 2\nvalue = [2, 0]"] ;
248 -> 250 ;
251 [label="RECENT_PERF_DIFF <= 2.8\ngini = 0.4\nsamples = 92\nvalue = [110, 50]"] ;
239 -> 251 ;
252 [label="ELO_DIFF <= 3.2\ngini = 0.4\nsamples = 48\nvalue = [56, 25]"] ;
251 -> 252 ;
253 [label="ELO_DIFF <= 3.1\ngini = 0.2\nsamples = 18\nvalue = [25, 3]"] ;
252 -> 253 ;
254 [label="ELO_DIFF <= 3.0\ngini = 0.2\nsamples = 16\nvalue = [21, 3]"] ;
253 -> 254 ;
255 [label="gini = 0.2\nsamples = 5\nvalue = [7, 1]"] ;
254 -> 255 ;
256 [label="gini = 0.2\nsamples = 11\nvalue = [14, 2]"] ;
254 -> 256 ;
257 [label="gini = 0.0\nsamples = 2\nvalue = [4, 0]"] ;
253 -> 257 ;
258 [label="ELO_DIFF <= 3.5\ngini = 0.5\nsamples = 30\nvalue = [31, 22]"] ;
252 -> 258 ;
259 [label="ELO_DIFF <= 3.3\ngini = 0.5\nsamples = 20\nvalue = [17, 16]"] ;
258 -> 259 ;
260 [label="gini = 0.5\nsamples = 9\nvalue = [11, 6]"] ;
259 -> 260 ;
261 [label="ELO_DIFF <= 3.4\ngini = 0.5\nsamples = 11\nvalue = [6, 10]"] ;
259 -> 261 ;
262 [label="gini = 0.5\nsamples = 8\nvalue = [5, 7]"] ;
261 -> 262 ;
263 [label="gini = 0.4\nsamples = 3\nvalue = [1, 3]"] ;
261 -> 263 ;
264 [label="ELO_DIFF <= 3.7\ngini = 0.4\nsamples = 10\nvalue = [14, 6]"] ;
258 -> 264 ;
265 [label="gini = 0.0\nsamples = 3\nvalue = [6, 0]"] ;
264 -> 265 ;
266 [label="gini = 0.5\nsamples = 7\nvalue = [8, 6]"] ;
264 -> 266 ;
267 [label="ELO_DIFF <= 3.1\ngini = 0.4\nsamples = 44\nvalue = [54, 25]"] ;
251 -> 267 ;
268 [label="ELO_DIFF <= 3.0\ngini = 0.2\nsamples = 11\nvalue = [15, 2]"] ;
267 -> 268 ;
269 [label="gini = 0.4\nsamples = 5\nvalue = [6, 2]"] ;
268 -> 269 ;
270 [label="gini = 0.0\nsamples = 6\nvalue = [9, 0]"] ;
268 -> 270 ;
271 [label="ELO_DIFF <= 3.2\ngini = 0.5\nsamples = 33\nvalue = [39, 23]"] ;
267 -> 271 ;
272 [label="gini = 0.3\nsamples = 5\nvalue = [1, 5]"] ;
271 -> 272 ;
273 [label="ELO_DIFF <= 3.5\ngini = 0.4\nsamples = 28\nvalue = [38, 18]"] ;
271 -> 273 ;
274 [label="ELO_DIFF <= 3.4\ngini = 0.4\nsamples = 16\nvalue = [25, 9]"] ;
273 -> 274 ;
275 [label="gini = 0.4\nsamples = 6\nvalue = [8, 4]"] ;
274 -> 275 ;
276 [label="gini = 0.4\nsamples = 10\nvalue = [17, 5]"] ;
274 -> 276 ;
277 [label="ELO_DIFF <= 3.7\ngini = 0.5\nsamples = 12\nvalue = [13, 9]"] ;
273 -> 277 ;
278 [label="gini = 0.4\nsamples = 4\nvalue = [3, 6]"] ;
277 -> 278 ;
279 [label="gini = 0.4\nsamples = 8\nvalue = [10, 3]"] ;
277 -> 279 ;
280 [label="ELO_DIFF <= 2.8\ngini = 0.5\nsamples = 83\nvalue = [82, 48]"] ;
200 -> 280 ;
281 [label="ELO_DIFF <= 2.4\ngini = 0.5\nsamples = 27\nvalue = [21, 23]"] ;
280 -> 281 ;
282 [label="ELO_DIFF <= 2.3\ngini = 0.4\nsamples = 8\nvalue = [9, 4]"] ;
281 -> 282 ;
283 [label="gini = 0.5\nsamples = 5\nvalue = [5, 3]"] ;
282 -> 283 ;
284 [label="gini = 0.3\nsamples = 3\nvalue = [4, 1]"] ;
282 -> 284 ;
285 [label="ELO_DIFF <= 2.6\ngini = 0.5\nsamples = 19\nvalue = [12, 19]"] ;
281 -> 285 ;
286 [label="ELO_DIFF <= 2.5\ngini = 0.4\nsamples = 9\nvalue = [4, 9]"] ;
285 -> 286 ;
287 [label="gini = 0.5\nsamples = 7\nvalue = [4, 6]"] ;
286 -> 287 ;
288 [label="gini = 0.0\nsamples = 2\nvalue = [0, 3]"] ;
286 -> 288 ;
289 [label="ELO_DIFF <= 2.7\ngini = 0.5\nsamples = 10\nvalue = [8, 10]"] ;
285 -> 289 ;
290 [label="gini = 0.5\nsamples = 6\nvalue = [5, 7]"] ;
289 -> 290 ;
291 [label="gini = 0.5\nsamples = 4\nvalue = [3, 3]"] ;
289 -> 291 ;
292 [label="ELO_DIFF <= 3.4\ngini = 0.4\nsamples = 56\nvalue = [61, 25]"] ;
280 -> 292 ;
293 [label="ELO_DIFF <= 3.1\ngini = 0.3\nsamples = 35\nvalue = [40, 11]"] ;
292 -> 293 ;
294 [label="ELO_DIFF <= 3.0\ngini = 0.4\nsamples = 17\nvalue = [19, 9]"] ;
293 -> 294 ;
295 [label="gini = 0.4\nsamples = 8\nvalue = [9, 4]"] ;
294 -> 295 ;
296 [label="gini = 0.4\nsamples = 9\nvalue = [10, 5]"] ;
294 -> 296 ;
297 [label="ELO_DIFF <= 3.2\ngini = 0.2\nsamples = 18\nvalue = [21, 2]"] ;
293 -> 297 ;
298 [label="gini = 0.3\nsamples = 5\nvalue = [5, 1]"] ;
297 -> 298 ;
299 [label="ELO_DIFF <= 3.3\ngini = 0.1\nsamples = 13\nvalue = [16, 1]"] ;
297 -> 299 ;
300 [label="gini = 0.0\nsamples = 6\nvalue = [9, 0]"] ;
299 -> 300 ;
301 [label="gini = 0.2\nsamples = 7\nvalue = [7, 1]"] ;
299 -> 301 ;
302 [label="ELO_DIFF <= 3.5\ngini = 0.5\nsamples = 21\nvalue = [21, 14]"] ;
292 -> 302 ;
303 [label="gini = 0.2\nsamples = 3\nvalue = [1, 7]"] ;
302 -> 303 ;
304 [label="ELO_DIFF <= 3.7\ngini = 0.4\nsamples = 18\nvalue = [20, 7]"] ;
302 -> 304 ;
305 [label="gini = 0.4\nsamples = 9\nvalue = [11, 4]"] ;
304 -> 305 ;
306 [label="gini = 0.4\nsamples = 9\nvalue = [9, 3]"] ;
304 -> 306 ;
307 [label="ELO_DIFF <= 3.5\ngini = 0.4\nsamples = 107\nvalue = [119, 52]"] ;
177 -> 307 ;
308 [label="ELO_DIFF <= 3.4\ngini = 0.4\nsamples = 85\nvalue = [100, 37]"] ;
307 -> 308 ;
309 [label="ELO_DIFF <= 3.1\ngini = 0.4\nsamples = 77\nvalue = [88, 35]"] ;
308 -> 309 ;
310 [label="ELO_DIFF <= 2.5\ngini = 0.4\nsamples = 52\nvalue = [64, 20]"] ;
309 -> 310 ;
311 [label="ELO_DIFF <= 2.3\ngini = 0.5\nsamples = 16\nvalue = [16, 9]"] ;
310 -> 311 ;
312 [label="gini = 0.3\nsamples = 3\nvalue = [4, 1]"] ;
311 -> 312 ;
313 [label="ELO_DIFF <= 2.4\ngini = 0.5\nsamples = 13\nvalue = [12, 8]"] ;
311 -> 313 ;
314 [label="gini = 0.5\nsamples = 6\nvalue = [4, 4]"] ;
313 -> 314 ;
315 [label="gini = 0.4\nsamples = 7\nvalue = [8, 4]"] ;
313 -> 315 ;
316 [label="ELO_DIFF <= 2.6\ngini = 0.3\nsamples = 36\nvalue = [48, 11]"] ;
310 -> 316 ;
317 [label="gini = 0.0\nsamples = 3\nvalue = [5, 0]"] ;
316 -> 317 ;
318 [label="ELO_DIFF <= 3.0\ngini = 0.3\nsamples = 33\nvalue = [43, 11]"] ;
316 -> 318 ;
319 [label="ELO_DIFF <= 2.7\ngini = 0.3\nsamples = 26\nvalue = [33, 8]"] ;
318 -> 319 ;
320 [label="gini = 0.3\nsamples = 11\nvalue = [15, 4]"] ;
319 -> 320 ;
321 [label="ELO_DIFF <= 2.8\ngini = 0.3\nsamples = 15\nvalue = [18, 4]"] ;
319 -> 321 ;
322 [label="gini = 0.2\nsamples = 5\nvalue = [6, 1]"] ;
321 -> 322 ;
323 [label="gini = 0.3\nsamples = 10\nvalue = [12, 3]"] ;
321 -> 323 ;
324 [label="gini = 0.4\nsamples = 7\nvalue = [10, 3]"] ;
318 -> 324 ;
325 [label="ELO_DIFF <= 3.3\ngini = 0.5\nsamples = 25\nvalue = [24, 15]"] ;
309 -> 325 ;
326 [label="ELO_DIFF <= 3.2\ngini = 0.5\nsamples = 18\nvalue = [16, 9]"] ;
325 -> 326 ;
327 [label="gini = 0.5\nsamples = 9\nvalue = [6, 4]"] ;
326 -> 327 ;
328 [label="gini = 0.4\nsamples = 9\nvalue = [10, 5]"] ;
326 -> 328 ;
329 [label="gini = 0.5\nsamples = 7\nvalue = [8, 6]"] ;
325 -> 329 ;
330 [label="gini = 0.2\nsamples = 8\nvalue = [12, 2]"] ;
308 -> 330 ;
331 [label="ELO_DIFF <= 3.7\ngini = 0.5\nsamples = 22\nvalue = [19, 15]"] ;
307 -> 331 ;
332 [label="gini = 0.5\nsamples = 11\nvalue = [10, 6]"] ;
331 -> 332 ;
333 [label="gini = 0.5\nsamples = 11\nvalue = [9, 9]"] ;
331 -> 333 ;
334 [label="HOME_AWAY_GOAL_DIFF <= 3.2\ngini = 0.5\nsamples = 70\nvalue = [55, 47]"] ;
176 -> 334 ;
335 [label="ELO_DIFF <= 3.9\ngini = 0.5\nsamples = 46\nvalue = [40, 27]"] ;
334 -> 335 ;
336 [label="RECENT_PERF_DIFF <= 2.4\ngini = 0.5\nsamples = 22\nvalue = [15, 13]"] ;
335 -> 336 ;
337 [label="gini = 0.4\nsamples = 5\nvalue = [5, 2]"] ;
336 -> 337 ;
338 [label="HOME_AWAY_GOAL_DIFF <= 2.6\ngini = 0.5\nsamples = 17\nvalue = [10, 11]"] ;
336 -> 338 ;
339 [label="gini = 0.4\nsamples = 5\nvalue = [2, 4]"] ;
338 -> 339 ;
340 [label="RECENT_PERF_DIFF <= 2.8\ngini = 0.5\nsamples = 12\nvalue = [8, 7]"] ;
338 -> 340 ;
341 [label="gini = 0.5\nsamples = 5\nvalue = [3, 3]"] ;
340 -> 341 ;
342 [label="gini = 0.5\nsamples = 7\nvalue = [5, 4]"] ;
340 -> 342 ;
343 [label="RECENT_PERF_DIFF <= 3.0\ngini = 0.5\nsamples = 24\nvalue = [25, 14]"] ;
335 -> 343 ;
344 [label="HOME_AWAY_GOAL_DIFF <= 2.6\ngini = 0.4\nsamples = 13\nvalue = [13, 5]"] ;
343 -> 344 ;
345 [label="gini = 0.4\nsamples = 4\nvalue = [3, 1]"] ;
344 -> 345 ;
346 [label="HOME_AWAY_GOAL_DIFF <= 2.8\ngini = 0.4\nsamples = 9\nvalue = [10, 4]"] ;
344 -> 346 ;
347 [label="gini = 0.4\nsamples = 3\nvalue = [2, 1]"] ;
346 -> 347 ;
348 [label="gini = 0.4\nsamples = 6\nvalue = [8, 3]"] ;
346 -> 348 ;
349 [label="gini = 0.5\nsamples = 11\nvalue = [12, 9]"] ;
343 -> 349 ;
350 [label="ELO_DIFF <= 3.9\ngini = 0.5\nsamples = 24\nvalue = [15, 20]"] ;
334 -> 350 ;
351 [label="gini = 0.4\nsamples = 8\nvalue = [4, 10]"] ;
350 -> 351 ;
352 [label="gini = 0.5\nsamples = 16\nvalue = [11, 10]"] ;
350 -> 352 ;
353 [label="ELO_DIFF <= 3.4\ngini = 0.4\nsamples = 115\nvalue = [135, 58]"] ;
175 -> 353 ;
354 [label="ELO_DIFF <= 2.3\ngini = 0.3\nsamples = 66\nvalue = [87, 23]"] ;
353 -> 354 ;
355 [label="gini = 0.5\nsamples = 3\nvalue = [2, 2]"] ;
354 -> 355 ;
356 [label="ELO_DIFF <= 2.4\ngini = 0.3\nsamples = 63\nvalue = [85, 21]"] ;
354 -> 356 ;
357 [label="gini = 0.0\nsamples = 4\nvalue = [5, 0]"] ;
356 -> 357 ;
358 [label="ELO_DIFF <= 2.7\ngini = 0.3\nsamples = 59\nvalue = [80, 21]"] ;
356 -> 358 ;
359 [label="ELO_DIFF <= 2.6\ngini = 0.4\nsamples = 18\nvalue = [21, 7]"] ;
358 -> 359 ;
360 [label="ELO_DIFF <= 2.5\ngini = 0.4\nsamples = 10\nvalue = [11, 4]"] ;
359 -> 360 ;
361 [label="gini = 0.4\nsamples = 5\nvalue = [6, 2]"] ;
360 -> 361 ;
362 [label="gini = 0.4\nsamples = 5\nvalue = [5, 2]"] ;
360 -> 362 ;
363 [label="gini = 0.4\nsamples = 8\nvalue = [10, 3]"] ;
359 -> 363 ;
364 [label="ELO_DIFF <= 3.0\ngini = 0.3\nsamples = 41\nvalue = [59, 14]"] ;
358 -> 364 ;
365 [label="ELO_DIFF <= 2.8\ngini = 0.2\nsamples = 7\nvalue = [10, 1]"] ;
364 -> 365 ;
366 [label="gini = 0.0\nsamples = 1\nvalue = [2, 0]"] ;
365 -> 366 ;
367 [label="gini = 0.2\nsamples = 6\nvalue = [8, 1]"] ;
365 -> 367 ;
368 [label="ELO_DIFF <= 3.1\ngini = 0.3\nsamples = 34\nvalue = [49, 13]"] ;
364 -> 368 ;
369 [label="gini = 0.4\nsamples = 9\nvalue = [13, 4]"] ;
368 -> 369 ;
370 [label="ELO_DIFF <= 3.2\ngini = 0.3\nsamples = 25\nvalue = [36, 9]"] ;
368 -> 370 ;
371 [label="gini = 0.2\nsamples = 4\nvalue = [7, 1]"] ;
370 -> 371 ;
372 [label="ELO_DIFF <= 3.3\ngini = 0.3\nsamples = 21\nvalue = [29, 8]"] ;
370 -> 372 ;
373 [label="gini = 0.3\nsamples = 10\nvalue = [12, 3]"] ;
372 -> 373 ;
374 [label="gini = 0.4\nsamples = 11\nvalue = [17, 5]"] ;
372 -> 374 ;
375 [label="ELO_DIFF <= 3.7\ngini = 0.5\nsamples = 49\nvalue = [48, 35]"] ;
353 -> 375 ;
376 [label="ELO_DIFF <= 3.5\ngini = 0.4\nsamples = 18\nvalue = [18, 9]"] ;
375 -> 376 ;
377 [label="gini = 0.5\nsamples = 12\nvalue = [11, 6]"] ;
376 -> 377 ;
378 [label="gini = 0.4\nsamples = 6\nvalue = [7, 3]"] ;
376 -> 378 ;
379 [label="ELO_DIFF <= 3.8\ngini = 0.5\nsamples = 31\nvalue = [30, 26]"] ;
375 -> 379 ;
380 [label="gini = 0.5\nsamples = 15\nvalue = [17, 13]"] ;
379 -> 380 ;
381 [label="ELO_DIFF <= 3.9\ngini = 0.5\nsamples = 16\nvalue = [13, 13]"] ;
379 -> 381 ;
382 [label="gini = 0.5\nsamples = 9\nvalue = [6, 8]"] ;
381 -> 382 ;
383 [label="gini = 0.5\nsamples = 7\nvalue = [7, 5]"] ;
381 -> 383 ;
384 [label="RECENT_PERF_DIFF <= 3.8\ngini = 0.4\nsamples = 282\nvalue = [341, 114]"] ;
104 -> 384 ;
385 [label="ELO_DIFF <= 2.4\ngini = 0.4\nsamples = 151\nvalue = [171, 61]"] ;
384 -> 385 ;
386 [label="gini = 0.0\nsamples = 24\nvalue = [34, 0]"] ;
385 -> 386 ;
387 [label="ELO_DIFF <= 3.4\ngini = 0.4\nsamples = 127\nvalue = [137, 61]"] ;
385 -> 387 ;
388 [label="ELO_DIFF <= 2.7\ngini = 0.4\nsamples = 71\nvalue = [84, 27]"] ;
387 -> 388 ;
389 [label="ELO_DIFF <= 2.6\ngini = 0.5\nsamples = 18\nvalue = [20, 11]"] ;
388 -> 389 ;
390 [label="ELO_DIFF <= 2.5\ngini = 0.3\nsamples = 9\nvalue = [14, 4]"] ;
389 -> 390 ;
391 [label="gini = 0.4\nsamples = 6\nvalue = [10, 3]"] ;
390 -> 391 ;
392 [label="gini = 0.3\nsamples = 3\nvalue = [4, 1]"] ;
390 -> 392 ;
393 [label="gini = 0.5\nsamples = 9\nvalue = [6, 7]"] ;
389 -> 393 ;
394 [label="ELO_DIFF <= 3.0\ngini = 0.3\nsamples = 53\nvalue = [64, 16]"] ;
388 -> 394 ;
395 [label="ELO_DIFF <= 2.8\ngini = 0.1\nsamples = 14\nvalue = [19, 1]"] ;
394 -> 395 ;
396 [label="gini = 0.2\nsamples = 6\nvalue = [7, 1]"] ;
395 -> 396 ;
397 [label="gini = 0.0\nsamples = 8\nvalue = [12, 0]"] ;
395 -> 397 ;
398 [label="ELO_DIFF <= 3.3\ngini = 0.4\nsamples = 39\nvalue = [45, 15]"] ;
394 -> 398 ;
399 [label="ELO_DIFF <= 3.2\ngini = 0.4\nsamples = 27\nvalue = [30, 12]"] ;
398 -> 399 ;
400 [label="ELO_DIFF <= 3.1\ngini = 0.3\nsamples = 15\nvalue = [17, 4]"] ;
399 -> 400 ;
401 [label="gini = 0.4\nsamples = 8\nvalue = [8, 4]"] ;
400 -> 401 ;
402 [label="gini = 0.0\nsamples = 7\nvalue = [9, 0]"] ;
400 -> 402 ;
403 [label="gini = 0.5\nsamples = 12\nvalue = [13, 8]"] ;
399 -> 403 ;
404 [label="gini = 0.3\nsamples = 12\nvalue = [15, 3]"] ;
398 -> 404 ;
405 [label="ELO_DIFF <= 3.5\ngini = 0.5\nsamples = 56\nvalue = [53, 34]"] ;
387 -> 405 ;
406 [label="gini = 0.5\nsamples = 9\nvalue = [4, 6]"] ;
405 -> 406 ;
407 [label="ELO_DIFF <= 3.8\ngini = 0.5\nsamples = 47\nvalue = [49, 28]"] ;
405 -> 407 ;
408 [label="ELO_DIFF <= 3.7\ngini = 0.5\nsamples = 27\nvalue = [27, 19]"] ;
407 -> 408 ;
409 [label="gini = 0.5\nsamples = 17\nvalue = [19, 10]"] ;
408 -> 409 ;
410 [label="gini = 0.5\nsamples = 10\nvalue = [8, 9]"] ;
408 -> 410 ;
411 [label="ELO_DIFF <= 3.9\ngini = 0.4\nsamples = 20\nvalue = [22, 9]"] ;
407 -> 411 ;
412 [label="gini = 0.4\nsamples = 11\nvalue = [17, 5]"] ;
411 -> 412 ;
413 [label="gini = 0.5\nsamples = 9\nvalue = [5, 4]"] ;
411 -> 413 ;
414 [label="ELO_DIFF <= 3.4\ngini = 0.4\nsamples = 131\nvalue = [170, 53]"] ;
384 -> 414 ;
415 [label="ELO_DIFF <= 1.7\ngini = 0.3\nsamples = 74\nvalue = [104, 19]"] ;
414 -> 415 ;
416 [label="ELO_DIFF <= 1.6\ngini = 0.4\nsamples = 8\nvalue = [8, 4]"] ;
415 -> 416 ;
417 [label="ELO_DIFF <= 1.4\ngini = 0.3\nsamples = 7\nvalue = [8, 2]"] ;
416 -> 417 ;
418 [label="ELO_DIFF <= 1.2\ngini = 0.4\nsamples = 4\nvalue = [4, 2]"] ;
417 -> 418 ;
419 [label="gini = 0.0\nsamples = 1\nvalue = [1, 0]"] ;
418 -> 419 ;
420 [label="ELO_DIFF <= 1.3\ngini = 0.5\nsamples = 3\nvalue = [3, 2]"] ;
418 -> 420 ;
421 [label="gini = 0.0\nsamples = 1\nvalue = [0, 1]"] ;
420 -> 421 ;
422 [label="gini = 0.4\nsamples = 2\nvalue = [3, 1]"] ;
420 -> 422 ;
423 [label="gini = 0.0\nsamples = 3\nvalue = [4, 0]"] ;
417 -> 423 ;
424 [label="gini = 0.0\nsamples = 1\nvalue = [0, 2]"] ;
416 -> 424 ;
425 [label="ELO_DIFF <= 3.2\ngini = 0.2\nsamples = 66\nvalue = [96, 15]"] ;
415 -> 425 ;
426 [label="ELO_DIFF <= 2.6\ngini = 0.2\nsamples = 48\nvalue = [71, 8]"] ;
425 -> 426 ;
427 [label="ELO_DIFF <= 2.4\ngini = 0.3\nsamples = 23\nvalue = [28, 6]"] ;
426 -> 427 ;
428 [label="ELO_DIFF <= 2.0\ngini = 0.2\nsamples = 14\nvalue = [21, 2]"] ;
427 -> 428 ;
429 [label="gini = 0.0\nsamples = 8\nvalue = [11, 0]"] ;
428 -> 429 ;
430 [label="ELO_DIFF <= 2.2\ngini = 0.3\nsamples = 6\nvalue = [10, 2]"] ;
428 -> 430 ;
431 [label="gini = 0.5\nsamples = 2\nvalue = [2, 2]"] ;
430 -> 431 ;
432 [label="gini = 0.0\nsamples = 4\nvalue = [8, 0]"] ;
430 -> 432 ;
433 [label="ELO_DIFF <= 2.5\ngini = 0.5\nsamples = 9\nvalue = [7, 4]"] ;
427 -> 433 ;
434 [label="gini = 0.4\nsamples = 3\nvalue = [1, 3]"] ;
433 -> 434 ;
435 [label="gini = 0.2\nsamples = 6\nvalue = [6, 1]"] ;
433 -> 435 ;
436 [label="ELO_DIFF <= 2.8\ngini = 0.1\nsamples = 25\nvalue = [43, 2]"] ;
426 -> 436 ;
437 [label="gini = 0.0\nsamples = 10\nvalue = [18, 0]"] ;
436 -> 437 ;
438 [label="ELO_DIFF <= 3.1\ngini = 0.1\nsamples = 15\nvalue = [25, 2]"] ;
436 -> 438 ;
439 [label="ELO_DIFF <= 3.0\ngini = 0.2\nsamples = 11\nvalue = [18, 2]"] ;
438 -> 439 ;
440 [label="gini = 0.2\nsamples = 5\nvalue = [8, 1]"] ;
439 -> 440 ;
441 [label="gini = 0.2\nsamples = 6\nvalue = [10, 1]"] ;
439 -> 441 ;
442 [label="gini = 0.0\nsamples = 4\nvalue = [7, 0]"] ;
438 -> 442 ;
443 [label="ELO_DIFF <= 3.3\ngini = 0.3\nsamples = 18\nvalue = [25, 7]"] ;
425 -> 443 ;
444 [label="gini = 0.4\nsamples = 11\nvalue = [18, 6]"] ;
443 -> 444 ;
445 [label="gini = 0.2\nsamples = 7\nvalue = [7, 1]"] ;
443 -> 445 ;
446 [label="ELO_DIFF <= 3.5\ngini = 0.4\nsamples = 57\nvalue = [66, 34]"] ;
414 -> 446 ;
447 [label="gini = 0.5\nsamples = 7\nvalue = [7, 6]"] ;
446 -> 447 ;
448 [label="ELO_DIFF <= 3.9\ngini = 0.4\nsamples = 50\nvalue = [59, 28]"] ;
446 -> 448 ;
449 [label="ELO_DIFF <= 3.7\ngini = 0.4\nsamples = 40\nvalue = [46, 23]"] ;
448 -> 449 ;
450 [label="gini = 0.4\nsamples = 11\nvalue = [12, 5]"] ;
449 -> 450 ;
451 [label="ELO_DIFF <= 3.8\ngini = 0.5\nsamples = 29\nvalue = [34, 18]"] ;
449 -> 451 ;
452 [label="gini = 0.4\nsamples = 12\nvalue = [16, 8]"] ;
451 -> 452 ;
453 [label="gini = 0.5\nsamples = 17\nvalue = [18, 10]"] ;
451 -> 453 ;
454 [label="gini = 0.4\nsamples = 10\nvalue = [13, 5]"] ;
448 -> 454 ;
455 [label="ELO_DIFF <= 3.2\ngini = 0.5\nsamples = 604\nvalue = [594, 388]"] ;
1 -> 455 ;
456 [label="ELO_DIFF <= 2.0\ngini = 0.4\nsamples = 226\nvalue = [272, 101]"] ;
455 -> 456 ;
457 [label="ELO_DIFF <= 1.8\ngini = 0.2\nsamples = 39\nvalue = [54, 8]"] ;
456 -> 457 ;
458 [label="ELO_DIFF <= 1.6\ngini = 0.3\nsamples = 16\nvalue = [21, 5]"] ;
457 -> 458 ;
459 [label="gini = 0.0\nsamples = 5\nvalue = [9, 0]"] ;
458 -> 459 ;
460 [label="RECENT_PERF_DIFF <= 5.1\ngini = 0.4\nsamples = 11\nvalue = [12, 5]"] ;
458 -> 460 ;
461 [label="RECENT_PERF_DIFF <= 4.2\ngini = 0.1\nsamples = 8\nvalue = [12, 1]"] ;
460 -> 461 ;
462 [label="gini = 0.2\nsamples = 5\nvalue = [8, 1]"] ;
461 -> 462 ;
463 [label="gini = 0.0\nsamples = 3\nvalue = [4, 0]"] ;
461 -> 463 ;
464 [label="gini = 0.0\nsamples = 3\nvalue = [0, 4]"] ;
460 -> 464 ;
465 [label="ELO_DIFF <= 1.9\ngini = 0.2\nsamples = 23\nvalue = [33, 3]"] ;
457 -> 465 ;
466 [label="RECENT_PERF_DIFF <= 4.2\ngini = 0.2\nsamples = 12\nvalue = [17, 2]"] ;
465 -> 466 ;
467 [label="gini = 0.0\nsamples = 1\nvalue = [0, 1]"] ;
466 -> 467 ;
468 [label="RECENT_PERF_DIFF <= 4.6\ngini = 0.1\nsamples = 11\nvalue = [17, 1]"] ;
466 -> 468 ;
469 [label="RECENT_PERF_DIFF <= 4.4\ngini = 0.1\nsamples = 8\nvalue = [13, 1]"] ;
468 -> 469 ;
470 [label="gini = 0.0\nsamples = 2\nvalue = [2, 0]"] ;
469 -> 470 ;
471 [label="gini = 0.2\nsamples = 6\nvalue = [11, 1]"] ;
469 -> 471 ;
472 [label="gini = 0.0\nsamples = 3\nvalue = [4, 0]"] ;
468 -> 472 ;
473 [label="RECENT_PERF_DIFF <= 4.9\ngini = 0.1\nsamples = 11\nvalue = [16, 1]"] ;
465 -> 473 ;
474 [label="gini = 0.0\nsamples = 9\nvalue = [14, 0]"] ;
473 -> 474 ;
475 [label="gini = 0.4\nsamples = 2\nvalue = [2, 1]"] ;
473 -> 475 ;
476 [label="HOME_AWAY_GOAL_DIFF <= 4.2\ngini = 0.4\nsamples = 187\nvalue = [218, 93]"] ;
456 -> 476 ;
477 [label="ELO_DIFF <= 2.6\ngini = 0.3\nsamples = 38\nvalue = [53, 13]"] ;
476 -> 477 ;
478 [label="ELO_DIFF <= 2.4\ngini = 0.1\nsamples = 16\nvalue = [32, 2]"] ;
477 -> 478 ;
479 [label="ELO_DIFF <= 2.3\ngini = 0.2\nsamples = 10\nvalue = [18, 2]"] ;
478 -> 479 ;
480 [label="gini = 0.0\nsamples = 5\nvalue = [8, 0]"] ;
479 -> 480 ;
481 [label="gini = 0.3\nsamples = 5\nvalue = [10, 2]"] ;
479 -> 481 ;
482 [label="gini = 0.0\nsamples = 6\nvalue = [14, 0]"] ;
478 -> 482 ;
483 [label="ELO_DIFF <= 2.7\ngini = 0.5\nsamples = 22\nvalue = [21, 11]"] ;
477 -> 483 ;
484 [label="gini = 0.3\nsamples = 4\nvalue = [2, 7]"] ;
483 -> 484 ;
485 [label="ELO_DIFF <= 3.0\ngini = 0.3\nsamples = 18\nvalue = [19, 4]"] ;
483 -> 485 ;
486 [label="ELO_DIFF <= 2.8\ngini = 0.2\nsamples = 9\nvalue = [11, 1]"] ;
485 -> 486 ;
487 [label="gini = 0.3\nsamples = 5\nvalue = [5, 1]"] ;
486 -> 487 ;
488 [label="gini = 0.0\nsamples = 4\nvalue = [6, 0]"] ;
486 -> 488 ;
489 [label="ELO_DIFF <= 3.1\ngini = 0.4\nsamples = 9\nvalue = [8, 3]"] ;
485 -> 489 ;
490 [label="gini = 0.4\nsamples = 5\nvalue = [4, 2]"] ;
489 -> 490 ;
491 [label="gini = 0.3\nsamples = 4\nvalue = [4, 1]"] ;
489 -> 491 ;
492 [label="ELO_DIFF <= 2.1\ngini = 0.4\nsamples = 149\nvalue = [165, 80]"] ;
476 -> 492 ;
493 [label="RECENT_PERF_DIFF <= 5.8\ngini = 0.4\nsamples = 7\nvalue = [4, 10]"] ;
492 -> 493 ;
494 [label="RECENT_PERF_DIFF <= 4.6\ngini = 0.4\nsamples = 6\nvalue = [3, 10]"] ;
493 -> 494 ;
495 [label="RECENT_PERF_DIFF <= 4.4\ngini = 0.5\nsamples = 4\nvalue = [3, 4]"] ;
494 -> 495 ;
496 [label="gini = 0.0\nsamples = 1\nvalue = [0, 2]"] ;
495 -> 496 ;
497 [label="gini = 0.5\nsamples = 3\nvalue = [3, 2]"] ;
495 -> 497 ;
498 [label="gini = 0.0\nsamples = 2\nvalue = [0, 6]"] ;
494 -> 498 ;
499 [label="gini = 0.0\nsamples = 1\nvalue = [1, 0]"] ;
493 -> 499 ;
500 [label="ELO_DIFF <= 2.5\ngini = 0.4\nsamples = 142\nvalue = [161, 70]"] ;
492 -> 500 ;
501 [label="RECENT_PERF_DIFF <= 6.2\ngini = 0.3\nsamples = 28\nvalue = [33, 8]"] ;
500 -> 501 ;
502 [label="HOME_AWAY_GOAL_DIFF <= 5.0\ngini = 0.3\nsamples = 27\nvalue = [33, 7]"] ;
501 -> 502 ;
503 [label="ELO_DIFF <= 2.4\ngini = 0.3\nsamples = 21\nvalue = [24, 7]"] ;
502 -> 503 ;
504 [label="ELO_DIFF <= 2.3\ngini = 0.4\nsamples = 16\nvalue = [15, 7]"] ;
503 -> 504 ;
505 [label="HOME_AWAY_GOAL_DIFF <= 4.4\ngini = 0.3\nsamples = 6\nvalue = [7, 2]"] ;
504 -> 505 ;
506 [label="gini = 0.0\nsamples = 3\nvalue = [3, 0]"] ;
505 -> 506 ;
507 [label="HOME_AWAY_GOAL_DIFF <= 4.6\ngini = 0.4\nsamples = 3\nvalue = [4, 2]"] ;
505 -> 507 ;
508 [label="gini = 0.4\nsamples = 2\nvalue = [1, 2]"] ;
507 -> 508 ;
509 [label="gini = 0.0\nsamples = 1\nvalue = [3, 0]"] ;
507 -> 509 ;
510 [label="RECENT_PERF_DIFF <= 4.8\ngini = 0.5\nsamples = 10\nvalue = [8, 5]"] ;
504 -> 510 ;
511 [label="HOME_AWAY_GOAL_DIFF <= 4.4\ngini = 0.3\nsamples = 7\nvalue = [7, 2]"] ;
510 -> 511 ;
512 [label="gini = 0.4\nsamples = 2\nvalue = [2, 1]"] ;
511 -> 512 ;
513 [label="RECENT_PERF_DIFF <= 4.6\ngini = 0.3\nsamples = 5\nvalue = [5, 1]"] ;
511 -> 513 ;
514 [label="gini = 0.0\nsamples = 3\nvalue = [3, 0]"] ;
513 -> 514 ;
515 [label="gini = 0.4\nsamples = 2\nvalue = [2, 1]"] ;
513 -> 515 ;
516 [label="gini = 0.4\nsamples = 3\nvalue = [1, 3]"] ;
510 -> 516 ;
517 [label="gini = 0.0\nsamples = 5\nvalue = [9, 0]"] ;
503 -> 517 ;
518 [label="gini = 0.0\nsamples = 6\nvalue = [9, 0]"] ;
502 -> 518 ;
519 [label="gini = 0.0\nsamples = 1\nvalue = [0, 1]"] ;
501 -> 519 ;
520 [label="RECENT_PERF_DIFF <= 6.0\ngini = 0.4\nsamples = 114\nvalue = [128, 62]"] ;
500 -> 520 ;
521 [label="ELO_DIFF <= 2.6\ngini = 0.4\nsamples = 112\nvalue = [128, 60]"] ;
520 -> 521 ;
522 [label="HOME_AWAY_GOAL_DIFF <= 5.6\ngini = 0.5\nsamples = 14\nvalue = [9, 14]"] ;
521 -> 522 ;
523 [label="RECENT_PERF_DIFF <= 4.6\ngini = 0.4\nsamples = 13\nvalue = [7, 14]"] ;
522 -> 523 ;
524 [label="RECENT_PERF_DIFF <= 4.4\ngini = 0.4\nsamples = 4\nvalue = [4, 2]"] ;
523 -> 524 ;
525 [label="gini = 0.5\nsamples = 2\nvalue = [2, 2]"] ;
524 -> 525 ;
526 [label="gini = 0.0\nsamples = 2\nvalue = [2, 0]"] ;
524 -> 526 ;
527 [label="HOME_AWAY_GOAL_DIFF <= 5.2\ngini = 0.3\nsamples = 9\nvalue = [3, 12]"] ;
523 -> 527 ;
528 [label="RECENT_PERF_DIFF <= 5.0\ngini = 0.4\nsamples = 7\nvalue = [3, 10]"] ;
527 -> 528 ;
529 [label="RECENT_PERF_DIFF <= 4.8\ngini = 0.3\nsamples = 6\nvalue = [2, 10]"] ;
528 -> 529 ;
530 [label="gini = 0.2\nsamples = 3\nvalue = [1, 6]"] ;
529 -> 530 ;
531 [label="gini = 0.3\nsamples = 3\nvalue = [1, 4]"] ;
529 -> 531 ;
532 [label="gini = 0.0\nsamples = 1\nvalue = [1, 0]"] ;
528 -> 532 ;
533 [label="gini = 0.0\nsamples = 2\nvalue = [0, 2]"] ;
527 -> 533 ;
534 [label="gini = 0.0\nsamples = 1\nvalue = [2, 0]"] ;
522 -> 534 ;
535 [label="RECENT_PERF_DIFF <= 5.2\ngini = 0.4\nsamples = 98\nvalue = [119, 46]"] ;
521 -> 535 ;
536 [label="ELO_DIFF <= 2.7\ngini = 0.4\nsamples = 85\nvalue = [99, 44]"] ;
535 -> 536 ;
537 [label="RECENT_PERF_DIFF <= 4.6\ngini = 0.3\nsamples = 7\nvalue = [10, 2]"] ;
536 -> 537 ;
538 [label="gini = 0.0\nsamples = 3\nvalue = [5, 0]"] ;
537 -> 538 ;
539 [label="RECENT_PERF_DIFF <= 4.8\ngini = 0.4\nsamples = 4\nvalue = [5, 2]"] ;
537 -> 539 ;
540 [label="gini = 0.0\nsamples = 1\nvalue = [0, 2]"] ;
539 -> 540 ;
541 [label="gini = 0.0\nsamples = 3\nvalue = [5, 0]"] ;
539 -> 541 ;
542 [label="RECENT_PERF_DIFF <= 5.0\ngini = 0.4\nsamples = 78\nvalue = [89, 42]"] ;
536 -> 542 ;
543 [label="ELO_DIFF <= 3.0\ngini = 0.4\nsamples = 67\nvalue = [79, 31]"] ;
542 -> 543 ;
544 [label="ELO_DIFF <= 2.8\ngini = 0.3\nsamples = 35\nvalue = [44, 12]"] ;
543 -> 544 ;
545 [label="RECENT_PERF_DIFF <= 4.8\ngini = 0.4\nsamples = 10\nvalue = [13, 4]"] ;
544 -> 545 ;
546 [label="HOME_AWAY_GOAL_DIFF <= 4.6\ngini = 0.4\nsamples = 7\nvalue = [9, 4]"] ;
545 -> 546 ;
547 [label="RECENT_PERF_DIFF <= 4.4\ngini = 0.2\nsamples = 5\nvalue = [7, 1]"] ;
546 -> 547 ;
548 [label="gini = 0.0\nsamples = 1\nvalue = [2, 0]"] ;
547 -> 548 ;
549 [label="gini = 0.3\nsamples = 4\nvalue = [5, 1]"] ;
547 -> 549 ;
550 [label="gini = 0.5\nsamples = 2\nvalue = [2, 3]"] ;
546 -> 550 ;
551 [label="gini = 0.0\nsamples = 3\nvalue = [4, 0]"] ;
545 -> 551 ;
552 [label="RECENT_PERF_DIFF <= 4.4\ngini = 0.3\nsamples = 25\nvalue = [31, 8]"] ;
544 -> 552 ;
553 [label="gini = 0.4\nsamples = 7\nvalue = [6, 2]"] ;
552 -> 553 ;
554 [label="HOME_AWAY_GOAL_DIFF <= 4.8\ngini = 0.3\nsamples = 18\nvalue = [25, 6]"] ;
552 -> 554 ;
555 [label="RECENT_PERF_DIFF <= 4.6\ngini = 0.3\nsamples = 12\nvalue = [15, 3]"] ;
554 -> 555 ;
556 [label="gini = 0.3\nsamples = 7\nvalue = [9, 2]"] ;
555 -> 556 ;
557 [label="gini = 0.2\nsamples = 5\nvalue = [6, 1]"] ;
555 -> 557 ;
558 [label="gini = 0.4\nsamples = 6\nvalue = [10, 3]"] ;
554 -> 558 ;
559 [label="ELO_DIFF <= 3.1\ngini = 0.5\nsamples = 32\nvalue = [35, 19]"] ;
543 -> 559 ;
560 [label="HOME_AWAY_GOAL_DIFF <= 4.8\ngini = 0.5\nsamples = 15\nvalue = [9, 10]"] ;
559 -> 560 ;
561 [label="HOME_AWAY_GOAL_DIFF <= 4.6\ngini = 0.5\nsamples = 12\nvalue = [6, 10]"] ;
560 -> 561 ;
562 [label="HOME_AWAY_GOAL_DIFF <= 4.4\ngini = 0.5\nsamples = 10\nvalue = [6, 7]"] ;
561 -> 562 ;
563 [label="gini = 0.5\nsamples = 6\nvalue = [4, 3]"] ;
562 -> 563 ;
564 [label="gini = 0.4\nsamples = 4\nvalue = [2, 4]"] ;
562 -> 564 ;
565 [label="gini = 0.0\nsamples = 2\nvalue = [0, 3]"] ;
561 -> 565 ;
566 [label="gini = 0.0\nsamples = 3\nvalue = [3, 0]"] ;
560 -> 566 ;
567 [label="RECENT_PERF_DIFF <= 4.6\ngini = 0.4\nsamples = 17\nvalue = [26, 9]"] ;
559 -> 567 ;
568 [label="RECENT_PERF_DIFF <= 4.4\ngini = 0.5\nsamples = 11\nvalue = [15, 9]"] ;
567 -> 568 ;
569 [label="gini = 0.5\nsamples = 4\nvalue = [6, 4]"] ;
568 -> 569 ;
570 [label="gini = 0.5\nsamples = 7\nvalue = [9, 5]"] ;
568 -> 570 ;
571 [label="gini = 0.0\nsamples = 6\nvalue = [11, 0]"] ;
567 -> 571 ;
572 [label="ELO_DIFF <= 2.8\ngini = 0.5\nsamples = 11\nvalue = [10, 11]"] ;
542 -> 572 ;
573 [label="gini = 0.0\nsamples = 2\nvalue = [0, 6]"] ;
572 -> 573 ;
574 [label="ELO_DIFF <= 3.1\ngini = 0.4\nsamples = 9\nvalue = [10, 5]"] ;
572 -> 574 ;
575 [label="ELO_DIFF <= 3.0\ngini = 0.4\nsamples = 6\nvalue = [7, 3]"] ;
574 -> 575 ;
576 [label="gini = 0.4\nsamples = 4\nvalue = [5, 2]"] ;
575 -> 576 ;
577 [label="gini = 0.4\nsamples = 2\nvalue = [2, 1]"] ;
575 -> 577 ;
578 [label="gini = 0.5\nsamples = 3\nvalue = [3, 2]"] ;
574 -> 578 ;
579 [label="RECENT_PERF_DIFF <= 5.6\ngini = 0.2\nsamples = 13\nvalue = [20, 2]"] ;
535 -> 579 ;
580 [label="gini = 0.0\nsamples = 7\nvalue = [11, 0]"] ;
579 -> 580 ;
581 [label="ELO_DIFF <= 3.0\ngini = 0.3\nsamples = 6\nvalue = [9, 2]"] ;
579 -> 581 ;
582 [label="gini = 0.0\nsamples = 2\nvalue = [6, 0]"] ;
581 -> 582 ;
583 [label="HOME_AWAY_GOAL_DIFF <= 5.8\ngini = 0.5\nsamples = 4\nvalue = [3, 2]"] ;
581 -> 583 ;
584 [label="gini = 0.4\nsamples = 3\nvalue = [3, 1]"] ;
583 -> 584 ;
585 [label="gini = 0.0\nsamples = 1\nvalue = [0, 1]"] ;
583 -> 585 ;
586 [label="gini = 0.0\nsamples = 2\nvalue = [0, 2]"] ;
520 -> 586 ;
587 [label="RECENT_PERF_DIFF <= 4.4\ngini = 0.5\nsamples = 378\nvalue = [322, 287]"] ;
455 -> 587 ;
588 [label="ELO_DIFF <= 3.7\ngini = 0.5\nsamples = 141\nvalue = [107, 116]"] ;
587 -> 588 ;
589 [label="ELO_DIFF <= 3.5\ngini = 0.5\nsamples = 74\nvalue = [53, 70]"] ;
588 -> 589 ;
590 [label="ELO_DIFF <= 3.3\ngini = 0.5\nsamples = 51\nvalue = [39, 43]"] ;
589 -> 590 ;
591 [label="RECENT_PERF_DIFF <= 4.2\ngini = 0.5\nsamples = 15\nvalue = [14, 14]"] ;
590 -> 591 ;
592 [label="gini = 0.5\nsamples = 11\nvalue = [14, 9]"] ;
591 -> 592 ;
593 [label="gini = 0.0\nsamples = 4\nvalue = [0, 5]"] ;
591 -> 593 ;
594 [label="ELO_DIFF <= 3.4\ngini = 0.5\nsamples = 36\nvalue = [25, 29]"] ;
590 -> 594 ;
595 [label="RECENT_PERF_DIFF <= 4.2\ngini = 0.5\nsamples = 17\nvalue = [12, 14]"] ;
594 -> 595 ;
596 [label="gini = 0.5\nsamples = 9\nvalue = [6, 7]"] ;
595 -> 596 ;
597 [label="gini = 0.5\nsamples = 8\nvalue = [6, 7]"] ;
595 -> 597 ;
598 [label="HOME_AWAY_GOAL_DIFF <= 4.2\ngini = 0.5\nsamples = 19\nvalue = [13, 15]"] ;
594 -> 598 ;
599 [label="gini = 0.5\nsamples = 8\nvalue = [5, 6]"] ;
598 -> 599 ;
600 [label="gini = 0.5\nsamples = 11\nvalue = [8, 9]"] ;
598 -> 600 ;
601 [label="HOME_AWAY_GOAL_DIFF <= 4.2\ngini = 0.4\nsamples = 23\nvalue = [14, 27]"] ;
589 -> 601 ;
602 [label="gini = 0.4\nsamples = 13\nvalue = [7, 17]"] ;
601 -> 602 ;
603 [label="gini = 0.5\nsamples = 10\nvalue = [7, 10]"] ;
601 -> 603 ;
604 [label="HOME_AWAY_GOAL_DIFF <= 4.2\ngini = 0.5\nsamples = 67\nvalue = [54, 46]"] ;
588 -> 604 ;
605 [label="ELO_DIFF <= 3.8\ngini = 0.5\nsamples = 37\nvalue = [31, 27]"] ;
604 -> 605 ;
606 [label="gini = 0.5\nsamples = 9\nvalue = [8, 5]"] ;
605 -> 606 ;
607 [label="ELO_DIFF <= 3.9\ngini = 0.5\nsamples = 28\nvalue = [23, 22]"] ;
605 -> 607 ;
608 [label="gini = 0.5\nsamples = 16\nvalue = [14, 12]"] ;
607 -> 608 ;
609 [label="gini = 0.5\nsamples = 12\nvalue = [9, 10]"] ;
607 -> 609 ;
610 [label="ELO_DIFF <= 3.9\ngini = 0.5\nsamples = 30\nvalue = [23, 19]"] ;
604 -> 610 ;
611 [label="ELO_DIFF <= 3.8\ngini = 0.5\nsamples = 21\nvalue = [19, 12]"] ;
610 -> 611 ;
612 [label="gini = 0.5\nsamples = 9\nvalue = [6, 4]"] ;
611 -> 612 ;
613 [label="gini = 0.5\nsamples = 12\nvalue = [13, 8]"] ;
611 -> 613 ;
614 [label="gini = 0.5\nsamples = 9\nvalue = [4, 7]"] ;
610 -> 614 ;
615 [label="HOME_AWAY_GOAL_DIFF <= 6.5\ngini = 0.5\nsamples = 237\nvalue = [215, 171]"] ;
587 -> 615 ;
616 [label="RECENT_PERF_DIFF <= 6.3\ngini = 0.5\nsamples = 235\nvalue = [215, 169]"] ;
615 -> 616 ;
617 [label="HOME_AWAY_GOAL_DIFF <= 5.4\ngini = 0.5\nsamples = 234\nvalue = [213, 169]"] ;
616 -> 617 ;
618 [label="HOME_AWAY_GOAL_DIFF <= 5.2\ngini = 0.5\nsamples = 190\nvalue = [176, 132]"] ;
617 -> 618 ;
619 [label="RECENT_PERF_DIFF <= 4.8\ngini = 0.5\nsamples = 169\nvalue = [154, 122]"] ;
618 -> 619 ;
620 [label="RECENT_PERF_DIFF <= 4.6\ngini = 0.5\nsamples = 104\nvalue = [98, 72]"] ;
619 -> 620 ;
621 [label="ELO_DIFF <= 3.3\ngini = 0.5\nsamples = 64\nvalue = [62, 51]"] ;
620 -> 621 ;
622 [label="gini = 0.5\nsamples = 5\nvalue = [4, 7]"] ;
621 -> 622 ;
623 [label="ELO_DIFF <= 3.7\ngini = 0.5\nsamples = 59\nvalue = [58, 44]"] ;
621 -> 623 ;
624 [label="ELO_DIFF <= 3.5\ngini = 0.5\nsamples = 28\nvalue = [32, 18]"] ;
623 -> 624 ;
625 [label="ELO_DIFF <= 3.4\ngini = 0.5\nsamples = 19\nvalue = [21, 13]"] ;
624 -> 625 ;
626 [label="gini = 0.5\nsamples = 13\nvalue = [14, 8]"] ;
625 -> 626 ;
627 [label="gini = 0.5\nsamples = 6\nvalue = [7, 5]"] ;
625 -> 627 ;
628 [label="gini = 0.4\nsamples = 9\nvalue = [11, 5]"] ;
624 -> 628 ;
629 [label="ELO_DIFF <= 3.9\ngini = 0.5\nsamples = 31\nvalue = [26, 26]"] ;
623 -> 629 ;
630 [label="ELO_DIFF <= 3.8\ngini = 0.5\nsamples = 17\nvalue = [13, 19]"] ;
629 -> 630 ;
631 [label="gini = 0.5\nsamples = 8\nvalue = [6, 11]"] ;
630 -> 631 ;
632 [label="gini = 0.5\nsamples = 9\nvalue = [7, 8]"] ;
630 -> 632 ;
633 [label="gini = 0.5\nsamples = 14\nvalue = [13, 7]"] ;
629 -> 633 ;
634 [label="ELO_DIFF <= 3.7\ngini = 0.5\nsamples = 40\nvalue = [36, 21]"] ;
620 -> 634 ;
635 [label="ELO_DIFF <= 3.5\ngini = 0.4\nsamples = 20\nvalue = [22, 7]"] ;
634 -> 635 ;
636 [label="ELO_DIFF <= 3.4\ngini = 0.4\nsamples = 15\nvalue = [14, 6]"] ;
635 -> 636 ;
637 [label="ELO_DIFF <= 3.3\ngini = 0.4\nsamples = 10\nvalue = [9, 3]"] ;
636 -> 637 ;
638 [label="gini = 0.4\nsamples = 5\nvalue = [5, 2]"] ;
637 -> 638 ;
639 [label="gini = 0.3\nsamples = 5\nvalue = [4, 1]"] ;
637 -> 639 ;
640 [label="gini = 0.5\nsamples = 5\nvalue = [5, 3]"] ;
636 -> 640 ;
641 [label="gini = 0.2\nsamples = 5\nvalue = [8, 1]"] ;
635 -> 641 ;
642 [label="ELO_DIFF <= 3.8\ngini = 0.5\nsamples = 20\nvalue = [14, 14]"] ;
634 -> 642 ;
643 [label="gini = 0.5\nsamples = 7\nvalue = [5, 7]"] ;
642 -> 643 ;
644 [label="ELO_DIFF <= 3.9\ngini = 0.5\nsamples = 13\nvalue = [9, 7]"] ;
642 -> 644 ;
645 [label="gini = 0.4\nsamples = 8\nvalue = [6, 3]"] ;
644 -> 645 ;
646 [label="gini = 0.5\nsamples = 5\nvalue = [3, 4]"] ;
644 -> 646 ;
647 [label="HOME_AWAY_GOAL_DIFF <= 5.0\ngini = 0.5\nsamples = 65\nvalue = [56, 50]"] ;
619 -> 647 ;
648 [label="ELO_DIFF <= 3.8\ngini = 0.5\nsamples = 38\nvalue = [32, 34]"] ;
647 -> 648 ;
649 [label="ELO_DIFF <= 3.7\ngini = 0.5\nsamples = 25\nvalue = [22, 19]"] ;
648 -> 649 ;
650 [label="ELO_DIFF <= 3.5\ngini = 0.5\nsamples = 20\nvalue = [16, 18]"] ;
649 -> 650 ;
651 [label="ELO_DIFF <= 3.3\ngini = 0.5\nsamples = 15\nvalue = [14, 13]"] ;
650 -> 651 ;
652 [label="gini = 0.4\nsamples = 2\nvalue = [1, 3]"] ;
651 -> 652 ;
653 [label="ELO_DIFF <= 3.4\ngini = 0.5\nsamples = 13\nvalue = [13, 10]"] ;
651 -> 653 ;
654 [label="gini = 0.5\nsamples = 7\nvalue = [8, 7]"] ;
653 -> 654 ;
655 [label="gini = 0.5\nsamples = 6\nvalue = [5, 3]"] ;
653 -> 655 ;
656 [label="gini = 0.4\nsamples = 5\nvalue = [2, 5]"] ;
650 -> 656 ;
657 [label="gini = 0.2\nsamples = 5\nvalue = [6, 1]"] ;
649 -> 657 ;
658 [label="ELO_DIFF <= 3.9\ngini = 0.5\nsamples = 13\nvalue = [10, 15]"] ;
648 -> 658 ;
659 [label="gini = 0.2\nsamples = 4\nvalue = [1, 7]"] ;
658 -> 659 ;
660 [label="gini = 0.5\nsamples = 9\nvalue = [9, 8]"] ;
658 -> 660 ;
661 [label="ELO_DIFF <= 3.9\ngini = 0.5\nsamples = 27\nvalue = [24, 16]"] ;
647 -> 661 ;
662 [label="ELO_DIFF <= 3.5\ngini = 0.4\nsamples = 20\nvalue = [21, 10]"] ;
661 -> 662 ;
663 [label="ELO_DIFF <= 3.3\ngini = 0.5\nsamples = 9\nvalue = [5, 7]"] ;
662 -> 663 ;
664 [label="gini = 0.0\nsamples = 2\nvalue = [3, 0]"] ;
663 -> 664 ;
665 [label="ELO_DIFF <= 3.4\ngini = 0.3\nsamples = 7\nvalue = [2, 7]"] ;
663 -> 665 ;
666 [label="gini = 0.0\nsamples = 2\nvalue = [0, 3]"] ;
665 -> 666 ;
667 [label="gini = 0.4\nsamples = 5\nvalue = [2, 4]"] ;
665 -> 667 ;
668 [label="ELO_DIFF <= 3.7\ngini = 0.3\nsamples = 11\nvalue = [16, 3]"] ;
662 -> 668 ;
669 [label="gini = 0.0\nsamples = 4\nvalue = [6, 0]"] ;
668 -> 669 ;
670 [label="ELO_DIFF <= 3.8\ngini = 0.4\nsamples = 7\nvalue = [10, 3]"] ;
668 -> 670 ;
671 [label="gini = 0.5\nsamples = 3\nvalue = [3, 2]"] ;
670 -> 671 ;
672 [label="gini = 0.2\nsamples = 4\nvalue = [7, 1]"] ;
670 -> 672 ;
673 [label="gini = 0.4\nsamples = 7\nvalue = [3, 6]"] ;
661 -> 673 ;
674 [label="ELO_DIFF <= 3.3\ngini = 0.4\nsamples = 21\nvalue = [22, 10]"] ;
618 -> 674 ;
675 [label="gini = 0.0\nsamples = 2\nvalue = [4, 0]"] ;
674 -> 675 ;
676 [label="ELO_DIFF <= 3.4\ngini = 0.5\nsamples = 19\nvalue = [18, 10]"] ;
674 -> 676 ;
677 [label="gini = 0.5\nsamples = 4\nvalue = [3, 3]"] ;
676 -> 677 ;
678 [label="ELO_DIFF <= 3.7\ngini = 0.4\nsamples = 15\nvalue = [15, 7]"] ;
676 -> 678 ;
679 [label="ELO_DIFF <= 3.5\ngini = 0.4\nsamples = 8\nvalue = [9, 3]"] ;
678 -> 679 ;
680 [label="gini = 0.4\nsamples = 4\nvalue = [5, 2]"] ;
679 -> 680 ;
681 [label="gini = 0.3\nsamples = 4\nvalue = [4, 1]"] ;
679 -> 681 ;
682 [label="ELO_DIFF <= 3.9\ngini = 0.5\nsamples = 7\nvalue = [6, 4]"] ;
678 -> 682 ;
683 [label="ELO_DIFF <= 3.8\ngini = 0.5\nsamples = 5\nvalue = [3, 3]"] ;
682 -> 683 ;
684 [label="gini = 0.5\nsamples = 3\nvalue = [2, 2]"] ;
683 -> 684 ;
685 [label="gini = 0.5\nsamples = 2\nvalue = [1, 1]"] ;
683 -> 685 ;
686 [label="gini = 0.4\nsamples = 2\nvalue = [3, 1]"] ;
682 -> 686 ;
687 [label="ELO_DIFF <= 3.4\ngini = 0.5\nsamples = 44\nvalue = [37, 37]"] ;
617 -> 687 ;
688 [label="HOME_AWAY_GOAL_DIFF <= 6.1\ngini = 0.5\nsamples = 9\nvalue = [6, 10]"] ;
687 -> 688 ;
689 [label="HOME_AWAY_GOAL_DIFF <= 5.8\ngini = 0.5\nsamples = 8\nvalue = [6, 8]"] ;
688 -> 689 ;
690 [label="ELO_DIFF <= 3.3\ngini = 0.4\nsamples = 6\nvalue = [4, 8]"] ;
689 -> 690 ;
691 [label="gini = 0.0\nsamples = 1\nvalue = [0, 1]"] ;
690 -> 691 ;
692 [label="HOME_AWAY_GOAL_DIFF <= 5.6\ngini = 0.5\nsamples = 5\nvalue = [4, 7]"] ;
690 -> 692 ;
693 [label="gini = 0.5\nsamples = 3\nvalue = [3, 4]"] ;
692 -> 693 ;
694 [label="gini = 0.4\nsamples = 2\nvalue = [1, 3]"] ;
692 -> 694 ;
695 [label="gini = 0.0\nsamples = 2\nvalue = [2, 0]"] ;
689 -> 695 ;
696 [label="gini = 0.0\nsamples = 1\nvalue = [0, 2]"] ;
688 -> 696 ;
697 [label="HOME_AWAY_GOAL_DIFF <= 5.6\ngini = 0.5\nsamples = 35\nvalue = [31, 27]"] ;
687 -> 697 ;
698 [label="ELO_DIFF <= 3.9\ngini = 0.5\nsamples = 14\nvalue = [11, 14]"] ;
697 -> 698 ;
699 [label="ELO_DIFF <= 3.5\ngini = 0.5\nsamples = 13\nvalue = [11, 12]"] ;
698 -> 699 ;
700 [label="gini = 0.0\nsamples = 1\nvalue = [0, 1]"] ;
699 -> 700 ;
701 [label="ELO_DIFF <= 3.8\ngini = 0.5\nsamples = 12\nvalue = [11, 11]"] ;
699 -> 701 ;
702 [label="ELO_DIFF <= 3.7\ngini = 0.5\nsamples = 8\nvalue = [8, 7]"] ;
701 -> 702 ;
703 [label="gini = 0.5\nsamples = 6\nvalue = [7, 6]"] ;
702 -> 703 ;
704 [label="gini = 0.5\nsamples = 2\nvalue = [1, 1]"] ;
702 -> 704 ;
705 [label="gini = 0.5\nsamples = 4\nvalue = [3, 4]"] ;
701 -> 705 ;
706 [label="gini = 0.0\nsamples = 1\nvalue = [0, 2]"] ;
698 -> 706 ;
707 [label="ELO_DIFF <= 3.7\ngini = 0.5\nsamples = 21\nvalue = [20, 13]"] ;
697 -> 707 ;
708 [label="ELO_DIFF <= 3.5\ngini = 0.3\nsamples = 7\nvalue = [7, 2]"] ;
707 -> 708 ;
709 [label="gini = 0.0\nsamples = 1\nvalue = [1, 0]"] ;
708 -> 709 ;
710 [label="HOME_AWAY_GOAL_DIFF <= 5.8\ngini = 0.4\nsamples = 6\nvalue = [6, 2]"] ;
708 -> 710 ;
711 [label="gini = 0.0\nsamples = 2\nvalue = [4, 0]"] ;
710 -> 711 ;
712 [label="gini = 0.5\nsamples = 4\nvalue = [2, 2]"] ;
710 -> 712 ;
713 [label="RECENT_PERF_DIFF <= 5.8\ngini = 0.5\nsamples = 14\nvalue = [13, 11]"] ;
707 -> 713 ;
714 [label="ELO_DIFF <= 3.8\ngini = 0.5\nsamples = 9\nvalue = [5, 8]"] ;
713 -> 714 ;
715 [label="gini = 0.4\nsamples = 6\nvalue = [3, 6]"] ;
714 -> 715 ;
716 [label="gini = 0.5\nsamples = 3\nvalue = [2, 2]"] ;
714 -> 716 ;
717 [label="ELO_DIFF <= 3.8\ngini = 0.4\nsamples = 5\nvalue = [8, 3]"] ;
713 -> 717 ;
718 [label="gini = 0.0\nsamples = 1\nvalue = [2, 0]"] ;
717 -> 718 ;
719 [label="RECENT_PERF_DIFF <= 6.0\ngini = 0.4\nsamples = 4\nvalue = [6, 3]"] ;
717 -> 719 ;
720 [label="gini = 0.4\nsamples = 2\nvalue = [4, 2]"] ;
719 -> 720 ;
721 [label="ELO_DIFF <= 3.9\ngini = 0.4\nsamples = 2\nvalue = [2, 1]"] ;
719 -> 721 ;
722 [label="gini = 0.0\nsamples = 1\nvalue = [0, 1]"] ;
721 -> 722 ;
723 [label="gini = 0.0\nsamples = 1\nvalue = [2, 0]"] ;
721 -> 723 ;
724 [label="gini = 0.0\nsamples = 1\nvalue = [2, 0]"] ;
616 -> 724 ;
725 [label="gini = 0.0\nsamples = 2\nvalue = [0, 2]"] ;
615 -> 725 ;
726 [label="RECENT_PERF_DIFF <= 5.0\ngini = 0.5\nsamples = 1935\nvalue = [1063, 1979]"] ;
0 -> 726 [labeldistance=2.5, labelangle=-45, headlabel="False"] ;
727 [label="ELO_DIFF <= 5.0\ngini = 0.5\nsamples = 1383\nvalue = [832, 1325]"] ;
726 -> 727 ;
728 [label="ELO_DIFF <= 4.3\ngini = 0.5\nsamples = 863\nvalue = [608, 727]"] ;
727 -> 728 ;
729 [label="ELO_DIFF <= 4.1\ngini = 0.5\nsamples = 337\nvalue = [272, 260]"] ;
728 -> 729 ;
730 [label="HOME_AWAY_GOAL_DIFF <= 4.0\ngini = 0.5\nsamples = 129\nvalue = [112, 101]"] ;
729 -> 730 ;
731 [label="HOME_AWAY_GOAL_DIFF <= 2.2\ngini = 0.5\nsamples = 67\nvalue = [45, 61]"] ;
730 -> 731 ;
732 [label="RECENT_PERF_DIFF <= 1.9\ngini = 0.3\nsamples = 7\nvalue = [9, 2]"] ;
731 -> 732 ;
733 [label="gini = 0.0\nsamples = 1\nvalue = [0, 1]"] ;
732 -> 733 ;
734 [label="RECENT_PERF_DIFF <= 2.0\ngini = 0.2\nsamples = 6\nvalue = [9, 1]"] ;
732 -> 734 ;
735 [label="gini = 0.0\nsamples = 2\nvalue = [3, 0]"] ;
734 -> 735 ;
736 [label="gini = 0.2\nsamples = 4\nvalue = [6, 1]"] ;
734 -> 736 ;
737 [label="HOME_AWAY_GOAL_DIFF <= 3.4\ngini = 0.5\nsamples = 60\nvalue = [36, 59]"] ;
731 -> 737 ;
738 [label="HOME_AWAY_GOAL_DIFF <= 3.0\ngini = 0.4\nsamples = 27\nvalue = [13, 27]"] ;
737 -> 738 ;
739 [label="RECENT_PERF_DIFF <= 2.8\ngini = 0.5\nsamples = 7\nvalue = [5, 5]"] ;
738 -> 739 ;
740 [label="HOME_AWAY_GOAL_DIFF <= 2.4\ngini = 0.3\nsamples = 4\nvalue = [1, 4]"] ;
739 -> 740 ;
741 [label="gini = 0.4\nsamples = 2\nvalue = [1, 2]"] ;
740 -> 741 ;
742 [label="gini = 0.0\nsamples = 2\nvalue = [0, 2]"] ;
740 -> 742 ;
743 [label="gini = 0.3\nsamples = 3\nvalue = [4, 1]"] ;
739 -> 743 ;
744 [label="RECENT_PERF_DIFF <= 3.2\ngini = 0.4\nsamples = 20\nvalue = [8, 22]"] ;
738 -> 744 ;
745 [label="gini = 0.4\nsamples = 9\nvalue = [4, 11]"] ;
744 -> 745 ;
746 [label="gini = 0.4\nsamples = 11\nvalue = [4, 11]"] ;
744 -> 746 ;
747 [label="HOME_AWAY_GOAL_DIFF <= 3.6\ngini = 0.5\nsamples = 33\nvalue = [23, 32]"] ;
737 -> 747 ;
748 [label="gini = 0.5\nsamples = 12\nvalue = [10, 11]"] ;
747 -> 748 ;
749 [label="RECENT_PERF_DIFF <= 3.8\ngini = 0.5\nsamples = 21\nvalue = [13, 21]"] ;
747 -> 749 ;
750 [label="gini = 0.4\nsamples = 8\nvalue = [3, 9]"] ;
749 -> 750 ;
751 [label="gini = 0.5\nsamples = 13\nvalue = [10, 12]"] ;
749 -> 751 ;
752 [label="RECENT_PERF_DIFF <= 4.4\ngini = 0.5\nsamples = 62\nvalue = [67, 40]"] ;
730 -> 752 ;
753 [label="RECENT_PERF_DIFF <= 4.2\ngini = 0.4\nsamples = 29\nvalue = [35, 11]"] ;
752 -> 753 ;
754 [label="gini = 0.4\nsamples = 22\nvalue = [28, 10]"] ;
753 -> 754 ;
755 [label="gini = 0.2\nsamples = 7\nvalue = [7, 1]"] ;
753 -> 755 ;
756 [label="HOME_AWAY_GOAL_DIFF <= 4.8\ngini = 0.5\nsamples = 33\nvalue = [32, 29]"] ;
752 -> 756 ;
757 [label="HOME_AWAY_GOAL_DIFF <= 4.6\ngini = 0.5\nsamples = 26\nvalue = [21, 27]"] ;
756 -> 757 ;
758 [label="gini = 0.5\nsamples = 16\nvalue = [14, 18]"] ;
757 -> 758 ;
759 [label="gini = 0.5\nsamples = 10\nvalue = [7, 9]"] ;
757 -> 759 ;
760 [label="gini = 0.3\nsamples = 7\nvalue = [11, 2]"] ;
756 -> 760 ;
761 [label="RECENT_PERF_DIFF <= 2.0\ngini = 0.5\nsamples = 208\nvalue = [160, 159]"] ;
729 -> 761 ;
762 [label="HOME_AWAY_GOAL_DIFF <= 1.9\ngini = 0.3\nsamples = 4\nvalue = [1, 5]"] ;
761 -> 762 ;
763 [label="gini = 0.4\nsamples = 2\nvalue = [1, 2]"] ;
762 -> 763 ;
764 [label="gini = 0.0\nsamples = 2\nvalue = [0, 3]"] ;
762 -> 764 ;
765 [label="HOME_AWAY_GOAL_DIFF <= 4.6\ngini = 0.5\nsamples = 204\nvalue = [159, 154]"] ;
761 -> 765 ;
766 [label="HOME_AWAY_GOAL_DIFF <= 4.0\ngini = 0.5\nsamples = 170\nvalue = [137, 125]"] ;
765 -> 766 ;
767 [label="ELO_DIFF <= 4.2\ngini = 0.5\nsamples = 123\nvalue = [90, 95]"] ;
766 -> 767 ;
768 [label="RECENT_PERF_DIFF <= 3.8\ngini = 0.5\nsamples = 61\nvalue = [43, 44]"] ;
767 -> 768 ;
769 [label="HOME_AWAY_GOAL_DIFF <= 2.4\ngini = 0.5\nsamples = 50\nvalue = [37, 30]"] ;
768 -> 769 ;
770 [label="HOME_AWAY_GOAL_DIFF <= 2.2\ngini = 0.4\nsamples = 4\nvalue = [1, 3]"] ;
769 -> 770 ;
771 [label="gini = 0.5\nsamples = 2\nvalue = [1, 1]"] ;
770 -> 771 ;
772 [label="gini = 0.0\nsamples = 2\nvalue = [0, 2]"] ;
770 -> 772 ;
773 [label="RECENT_PERF_DIFF <= 3.6\ngini = 0.5\nsamples = 46\nvalue = [36, 27]"] ;
769 -> 773 ;
774 [label="RECENT_PERF_DIFF <= 2.8\ngini = 0.5\nsamples = 34\nvalue = [27, 18]"] ;
773 -> 774 ;
775 [label="HOME_AWAY_GOAL_DIFF <= 2.6\ngini = 0.5\nsamples = 5\nvalue = [4, 4]"] ;
774 -> 775 ;
776 [label="gini = 0.5\nsamples = 3\nvalue = [3, 3]"] ;
775 -> 776 ;
777 [label="gini = 0.5\nsamples = 2\nvalue = [1, 1]"] ;
775 -> 777 ;
778 [label="HOME_AWAY_GOAL_DIFF <= 3.0\ngini = 0.5\nsamples = 29\nvalue = [23, 14]"] ;
774 -> 778 ;
779 [label="gini = 0.3\nsamples = 3\nvalue = [4, 1]"] ;
778 -> 779 ;
780 [label="RECENT_PERF_DIFF <= 3.2\ngini = 0.5\nsamples = 26\nvalue = [19, 13]"] ;
778 -> 780 ;
781 [label="gini = 0.5\nsamples = 5\nvalue = [3, 4]"] ;
780 -> 781 ;
782 [label="RECENT_PERF_DIFF <= 3.4\ngini = 0.5\nsamples = 21\nvalue = [16, 9]"] ;
780 -> 782 ;
783 [label="gini = 0.5\nsamples = 7\nvalue = [5, 3]"] ;
782 -> 783 ;
784 [label="gini = 0.5\nsamples = 14\nvalue = [11, 6]"] ;
782 -> 784 ;
785 [label="gini = 0.5\nsamples = 12\nvalue = [9, 9]"] ;
773 -> 785 ;
786 [label="gini = 0.4\nsamples = 11\nvalue = [6, 14]"] ;
768 -> 786 ;
787 [label="RECENT_PERF_DIFF <= 2.3\ngini = 0.5\nsamples = 62\nvalue = [47, 51]"] ;
767 -> 787 ;
788 [label="gini = 0.0\nsamples = 1\nvalue = [2, 0]"] ;
787 -> 788 ;
789 [label="RECENT_PERF_DIFF <= 3.6\ngini = 0.5\nsamples = 61\nvalue = [45, 51]"] ;
787 -> 789 ;
790 [label="RECENT_PERF_DIFF <= 3.2\ngini = 0.5\nsamples = 34\nvalue = [21, 30]"] ;
789 -> 790 ;
791 [label="HOME_AWAY_GOAL_DIFF <= 2.8\ngini = 0.5\nsamples = 18\nvalue = [12, 13]"] ;
790 -> 791 ;
792 [label="HOME_AWAY_GOAL_DIFF <= 2.6\ngini = 0.4\nsamples = 6\nvalue = [3, 7]"] ;
791 -> 792 ;
793 [label="gini = 0.4\nsamples = 3\nvalue = [1, 2]"] ;
792 -> 793 ;
794 [label="gini = 0.4\nsamples = 3\nvalue = [2, 5]"] ;
792 -> 794 ;
795 [label="RECENT_PERF_DIFF <= 3.0\ngini = 0.5\nsamples = 12\nvalue = [9, 6]"] ;
791 -> 795 ;
796 [label="gini = 0.3\nsamples = 6\nvalue = [5, 1]"] ;
795 -> 796 ;
797 [label="gini = 0.5\nsamples = 6\nvalue = [4, 5]"] ;
795 -> 797 ;
798 [label="RECENT_PERF_DIFF <= 3.4\ngini = 0.5\nsamples = 16\nvalue = [9, 17]"] ;
790 -> 798 ;
799 [label="gini = 0.4\nsamples = 11\nvalue = [5, 12]"] ;
798 -> 799 ;
800 [label="gini = 0.5\nsamples = 5\nvalue = [4, 5]"] ;
798 -> 800 ;
801 [label="HOME_AWAY_GOAL_DIFF <= 3.8\ngini = 0.5\nsamples = 27\nvalue = [24, 21]"] ;
789 -> 801 ;
802 [label="gini = 0.5\nsamples = 14\nvalue = [12, 11]"] ;
801 -> 802 ;
803 [label="gini = 0.5\nsamples = 13\nvalue = [12, 10]"] ;
801 -> 803 ;
804 [label="RECENT_PERF_DIFF <= 4.4\ngini = 0.5\nsamples = 47\nvalue = [47, 30]"] ;
766 -> 804 ;
805 [label="RECENT_PERF_DIFF <= 4.2\ngini = 0.5\nsamples = 29\nvalue = [33, 18]"] ;
804 -> 805 ;
806 [label="ELO_DIFF <= 4.2\ngini = 0.5\nsamples = 14\nvalue = [17, 9]"] ;
805 -> 806 ;
807 [label="gini = 0.5\nsamples = 6\nvalue = [7, 7]"] ;
806 -> 807 ;
808 [label="gini = 0.3\nsamples = 8\nvalue = [10, 2]"] ;
806 -> 808 ;
809 [label="ELO_DIFF <= 4.2\ngini = 0.5\nsamples = 15\nvalue = [16, 9]"] ;
805 -> 809 ;
810 [label="gini = 0.5\nsamples = 11\nvalue = [12, 8]"] ;
809 -> 810 ;
811 [label="gini = 0.3\nsamples = 4\nvalue = [4, 1]"] ;
809 -> 811 ;
812 [label="ELO_DIFF <= 4.2\ngini = 0.5\nsamples = 18\nvalue = [14, 12]"] ;
804 -> 812 ;
813 [label="gini = 0.5\nsamples = 11\nvalue = [8, 7]"] ;
812 -> 813 ;
814 [label="gini = 0.5\nsamples = 7\nvalue = [6, 5]"] ;
812 -> 814 ;
815 [label="HOME_AWAY_GOAL_DIFF <= 4.8\ngini = 0.5\nsamples = 34\nvalue = [22, 29]"] ;
765 -> 815 ;
816 [label="ELO_DIFF <= 4.2\ngini = 0.5\nsamples = 13\nvalue = [7, 13]"] ;
815 -> 816 ;
817 [label="gini = 0.3\nsamples = 7\nvalue = [2, 8]"] ;
816 -> 817 ;
818 [label="gini = 0.5\nsamples = 6\nvalue = [5, 5]"] ;
816 -> 818 ;
819 [label="ELO_DIFF <= 4.2\ngini = 0.5\nsamples = 21\nvalue = [15, 16]"] ;
815 -> 819 ;
820 [label="gini = 0.4\nsamples = 8\nvalue = [7, 3]"] ;
819 -> 820 ;
821 [label="gini = 0.5\nsamples = 13\nvalue = [8, 13]"] ;
819 -> 821 ;
822 [label="HOME_AWAY_GOAL_DIFF <= 4.2\ngini = 0.5\nsamples = 526\nvalue = [336, 467]"] ;
728 -> 822 ;
823 [label="HOME_AWAY_GOAL_DIFF <= 2.6\ngini = 0.5\nsamples = 308\nvalue = [219, 251]"] ;
822 -> 823 ;
824 [label="ELO_DIFF <= 4.8\ngini = 0.4\nsamples = 25\nvalue = [10, 26]"] ;
823 -> 824 ;
825 [label="RECENT_PERF_DIFF <= 2.4\ngini = 0.4\nsamples = 18\nvalue = [8, 16]"] ;
824 -> 825 ;
826 [label="HOME_AWAY_GOAL_DIFF <= 2.0\ngini = 0.5\nsamples = 8\nvalue = [5, 4]"] ;
825 -> 826 ;
827 [label="HOME_AWAY_GOAL_DIFF <= 1.9\ngini = 0.4\nsamples = 3\nvalue = [1, 3]"] ;
826 -> 827 ;
828 [label="gini = 0.0\nsamples = 1\nvalue = [0, 1]"] ;
827 -> 828 ;
829 [label="gini = 0.4\nsamples = 2\nvalue = [1, 2]"] ;
827 -> 829 ;
830 [label="RECENT_PERF_DIFF <= 2.2\ngini = 0.3\nsamples = 5\nvalue = [4, 1]"] ;
826 -> 830 ;
831 [label="gini = 0.0\nsamples = 2\nvalue = [2, 0]"] ;
830 -> 831 ;
832 [label="ELO_DIFF <= 4.6\ngini = 0.4\nsamples = 3\nvalue = [2, 1]"] ;
830 -> 832 ;
833 [label="gini = 0.5\nsamples = 2\nvalue = [1, 1]"] ;
832 -> 833 ;
834 [label="gini = 0.0\nsamples = 1\nvalue = [1, 0]"] ;
832 -> 834 ;
835 [label="ELO_DIFF <= 4.6\ngini = 0.3\nsamples = 10\nvalue = [3, 12]"] ;
825 -> 835 ;
836 [label="ELO_DIFF <= 4.5\ngini = 0.2\nsamples = 7\nvalue = [1, 9]"] ;
835 -> 836 ;
837 [label="gini = 0.3\nsamples = 5\nvalue = [1, 5]"] ;
836 -> 837 ;
838 [label="gini = 0.0\nsamples = 2\nvalue = [0, 4]"] ;
836 -> 838 ;
839 [label="gini = 0.5\nsamples = 3\nvalue = [2, 3]"] ;
835 -> 839 ;
840 [label="HOME_AWAY_GOAL_DIFF <= 2.0\ngini = 0.3\nsamples = 7\nvalue = [2, 10]"] ;
824 -> 840 ;
841 [label="HOME_AWAY_GOAL_DIFF <= 1.9\ngini = 0.4\nsamples = 3\nvalue = [2, 4]"] ;
840 -> 841 ;
842 [label="gini = 0.0\nsamples = 1\nvalue = [0, 4]"] ;
841 -> 842 ;
843 [label="gini = 0.0\nsamples = 2\nvalue = [2, 0]"] ;
841 -> 843 ;
844 [label="gini = 0.0\nsamples = 4\nvalue = [0, 6]"] ;
840 -> 844 ;
845 [label="HOME_AWAY_GOAL_DIFF <= 3.0\ngini = 0.5\nsamples = 283\nvalue = [209, 225]"] ;
823 -> 845 ;
846 [label="HOME_AWAY_GOAL_DIFF <= 2.8\ngini = 0.4\nsamples = 33\nvalue = [37, 18]"] ;
845 -> 846 ;
847 [label="ELO_DIFF <= 4.5\ngini = 0.3\nsamples = 12\nvalue = [16, 4]"] ;
846 -> 847 ;
848 [label="gini = 0.5\nsamples = 5\nvalue = [5, 3]"] ;
847 -> 848 ;
849 [label="ELO_DIFF <= 4.8\ngini = 0.2\nsamples = 7\nvalue = [11, 1]"] ;
847 -> 849 ;
850 [label="gini = 0.0\nsamples = 4\nvalue = [8, 0]"] ;
849 -> 850 ;
851 [label="ELO_DIFF <= 4.9\ngini = 0.4\nsamples = 3\nvalue = [3, 1]"] ;
849 -> 851 ;
852 [label="gini = 0.4\nsamples = 2\nvalue = [2, 1]"] ;
851 -> 852 ;
853 [label="gini = 0.0\nsamples = 1\nvalue = [1, 0]"] ;
851 -> 853 ;
854 [label="ELO_DIFF <= 4.9\ngini = 0.5\nsamples = 21\nvalue = [21, 14]"] ;
846 -> 854 ;
855 [label="ELO_DIFF <= 4.6\ngini = 0.5\nsamples = 19\nvalue = [18, 14]"] ;
854 -> 855 ;
856 [label="ELO_DIFF <= 4.5\ngini = 0.4\nsamples = 8\nvalue = [11, 4]"] ;
855 -> 856 ;
857 [label="gini = 0.0\nsamples = 1\nvalue = [2, 0]"] ;
856 -> 857 ;
858 [label="gini = 0.4\nsamples = 7\nvalue = [9, 4]"] ;
856 -> 858 ;
859 [label="ELO_DIFF <= 4.7\ngini = 0.5\nsamples = 11\nvalue = [7, 10]"] ;
855 -> 859 ;
860 [label="gini = 0.0\nsamples = 2\nvalue = [0, 5]"] ;
859 -> 860 ;
861 [label="ELO_DIFF <= 4.8\ngini = 0.5\nsamples = 9\nvalue = [7, 5]"] ;
859 -> 861 ;
862 [label="gini = 0.4\nsamples = 6\nvalue = [6, 3]"] ;
861 -> 862 ;
863 [label="gini = 0.4\nsamples = 3\nvalue = [1, 2]"] ;
861 -> 863 ;
864 [label="gini = 0.0\nsamples = 2\nvalue = [3, 0]"] ;
854 -> 864 ;
865 [label="RECENT_PERF_DIFF <= 3.6\ngini = 0.5\nsamples = 250\nvalue = [172, 207]"] ;
845 -> 865 ;
866 [label="ELO_DIFF <= 4.8\ngini = 0.5\nsamples = 87\nvalue = [53, 76]"] ;
865 -> 866 ;
867 [label="ELO_DIFF <= 4.7\ngini = 0.5\nsamples = 59\nvalue = [35, 56]"] ;
866 -> 867 ;
868 [label="ELO_DIFF <= 4.5\ngini = 0.5\nsamples = 50\nvalue = [32, 44]"] ;
867 -> 868 ;
869 [label="RECENT_PERF_DIFF <= 3.4\ngini = 0.5\nsamples = 17\nvalue = [12, 15]"] ;
868 -> 869 ;
870 [label="RECENT_PERF_DIFF <= 3.2\ngini = 0.4\nsamples = 10\nvalue = [4, 11]"] ;
869 -> 870 ;
871 [label="gini = 0.3\nsamples = 5\nvalue = [2, 8]"] ;
870 -> 871 ;
872 [label="gini = 0.5\nsamples = 5\nvalue = [2, 3]"] ;
870 -> 872 ;
873 [label="gini = 0.4\nsamples = 7\nvalue = [8, 4]"] ;
869 -> 873 ;
874 [label="ELO_DIFF <= 4.6\ngini = 0.5\nsamples = 33\nvalue = [20, 29]"] ;
868 -> 874 ;
875 [label="RECENT_PERF_DIFF <= 3.4\ngini = 0.5\nsamples = 17\nvalue = [10, 14]"] ;
874 -> 875 ;
876 [label="HOME_AWAY_GOAL_DIFF <= 3.2\ngini = 0.5\nsamples = 10\nvalue = [7, 6]"] ;
875 -> 876 ;
877 [label="gini = 0.4\nsamples = 3\nvalue = [1, 2]"] ;
876 -> 877 ;
878 [label="gini = 0.5\nsamples = 7\nvalue = [6, 4]"] ;
876 -> 878 ;
879 [label="gini = 0.4\nsamples = 7\nvalue = [3, 8]"] ;
875 -> 879 ;
880 [label="RECENT_PERF_DIFF <= 3.4\ngini = 0.5\nsamples = 16\nvalue = [10, 15]"] ;
874 -> 880 ;
881 [label="RECENT_PERF_DIFF <= 3.2\ngini = 0.4\nsamples = 8\nvalue = [3, 10]"] ;
880 -> 881 ;
882 [label="gini = 0.5\nsamples = 4\nvalue = [3, 3]"] ;
881 -> 882 ;
883 [label="gini = 0.0\nsamples = 4\nvalue = [0, 7]"] ;
881 -> 883 ;
884 [label="gini = 0.5\nsamples = 8\nvalue = [7, 5]"] ;
880 -> 884 ;
885 [label="HOME_AWAY_GOAL_DIFF <= 3.2\ngini = 0.3\nsamples = 9\nvalue = [3, 12]"] ;
867 -> 885 ;
886 [label="gini = 0.5\nsamples = 6\nvalue = [3, 4]"] ;
885 -> 886 ;
887 [label="gini = 0.0\nsamples = 3\nvalue = [0, 8]"] ;
885 -> 887 ;
888 [label="RECENT_PERF_DIFF <= 3.4\ngini = 0.5\nsamples = 28\nvalue = [18, 20]"] ;
866 -> 888 ;
889 [label="ELO_DIFF <= 4.9\ngini = 0.4\nsamples = 13\nvalue = [13, 5]"] ;
888 -> 889 ;
890 [label="RECENT_PERF_DIFF <= 3.2\ngini = 0.2\nsamples = 6\nvalue = [6, 1]"] ;
889 -> 890 ;
891 [label="gini = 0.0\nsamples = 2\nvalue = [3, 0]"] ;
890 -> 891 ;
892 [label="gini = 0.4\nsamples = 4\nvalue = [3, 1]"] ;
890 -> 892 ;
893 [label="RECENT_PERF_DIFF <= 3.2\ngini = 0.5\nsamples = 7\nvalue = [7, 4]"] ;
889 -> 893 ;
894 [label="gini = 0.4\nsamples = 4\nvalue = [2, 4]"] ;
893 -> 894 ;
895 [label="gini = 0.0\nsamples = 3\nvalue = [5, 0]"] ;
893 -> 895 ;
896 [label="ELO_DIFF <= 4.9\ngini = 0.4\nsamples = 15\nvalue = [5, 15]"] ;
888 -> 896 ;
897 [label="gini = 0.2\nsamples = 7\nvalue = [1, 7]"] ;
896 -> 897 ;
898 [label="gini = 0.4\nsamples = 8\nvalue = [4, 8]"] ;
896 -> 898 ;
899 [label="ELO_DIFF <= 4.5\ngini = 0.5\nsamples = 163\nvalue = [119, 131]"] ;
865 -> 899 ;
900 [label="RECENT_PERF_DIFF <= 4.0\ngini = 0.5\nsamples = 37\nvalue = [39, 24]"] ;
899 -> 900 ;
901 [label="HOME_AWAY_GOAL_DIFF <= 3.8\ngini = 0.5\nsamples = 28\nvalue = [27, 21]"] ;
900 -> 901 ;
902 [label="gini = 0.5\nsamples = 14\nvalue = [14, 11]"] ;
901 -> 902 ;
903 [label="gini = 0.5\nsamples = 14\nvalue = [13, 10]"] ;
901 -> 903 ;
904 [label="gini = 0.3\nsamples = 9\nvalue = [12, 3]"] ;
900 -> 904 ;
905 [label="ELO_DIFF <= 4.8\ngini = 0.5\nsamples = 126\nvalue = [80, 107]"] ;
899 -> 905 ;
906 [label="RECENT_PERF_DIFF <= 4.0\ngini = 0.5\nsamples = 86\nvalue = [60, 69]"] ;
905 -> 906 ;
907 [label="RECENT_PERF_DIFF <= 3.8\ngini = 0.5\nsamples = 54\nvalue = [40, 44]"] ;
906 -> 907 ;
908 [label="ELO_DIFF <= 4.6\ngini = 0.5\nsamples = 25\nvalue = [18, 21]"] ;
907 -> 908 ;
909 [label="gini = 0.4\nsamples = 7\nvalue = [8, 3]"] ;
908 -> 909 ;
910 [label="ELO_DIFF <= 4.7\ngini = 0.5\nsamples = 18\nvalue = [10, 18]"] ;
908 -> 910 ;
911 [label="gini = 0.3\nsamples = 10\nvalue = [3, 13]"] ;
910 -> 911 ;
912 [label="gini = 0.5\nsamples = 8\nvalue = [7, 5]"] ;
910 -> 912 ;
913 [label="ELO_DIFF <= 4.6\ngini = 0.5\nsamples = 29\nvalue = [22, 23]"] ;
907 -> 913 ;
914 [label="gini = 0.4\nsamples = 11\nvalue = [7, 15]"] ;
913 -> 914 ;
915 [label="ELO_DIFF <= 4.7\ngini = 0.5\nsamples = 18\nvalue = [15, 8]"] ;
913 -> 915 ;
916 [label="gini = 0.3\nsamples = 6\nvalue = [7, 2]"] ;
915 -> 916 ;
917 [label="gini = 0.5\nsamples = 12\nvalue = [8, 6]"] ;
915 -> 917 ;
918 [label="ELO_DIFF <= 4.6\ngini = 0.5\nsamples = 32\nvalue = [20, 25]"] ;
906 -> 918 ;
919 [label="gini = 0.4\nsamples = 12\nvalue = [4, 13]"] ;
918 -> 919 ;
920 [label="ELO_DIFF <= 4.7\ngini = 0.5\nsamples = 20\nvalue = [16, 12]"] ;
918 -> 920 ;
921 [label="gini = 0.5\nsamples = 10\nvalue = [8, 5]"] ;
920 -> 921 ;
922 [label="gini = 0.5\nsamples = 10\nvalue = [8, 7]"] ;
920 -> 922 ;
923 [label="ELO_DIFF <= 4.9\ngini = 0.5\nsamples = 40\nvalue = [20, 38]"] ;
905 -> 923 ;
924 [label="RECENT_PERF_DIFF <= 3.8\ngini = 0.4\nsamples = 23\nvalue = [8, 24]"] ;
923 -> 924 ;
925 [label="gini = 0.2\nsamples = 10\nvalue = [1, 10]"] ;
924 -> 925 ;
926 [label="HOME_AWAY_GOAL_DIFF <= 4.0\ngini = 0.4\nsamples = 13\nvalue = [7, 14]"] ;
924 -> 926 ;
927 [label="gini = 0.5\nsamples = 9\nvalue = [6, 8]"] ;
926 -> 927 ;
928 [label="gini = 0.2\nsamples = 4\nvalue = [1, 6]"] ;
926 -> 928 ;
929 [label="HOME_AWAY_GOAL_DIFF <= 4.0\ngini = 0.5\nsamples = 17\nvalue = [12, 14]"] ;
923 -> 929 ;
930 [label="HOME_AWAY_GOAL_DIFF <= 3.8\ngini = 0.5\nsamples = 13\nvalue = [7, 11]"] ;
929 -> 930 ;
931 [label="gini = 0.5\nsamples = 5\nvalue = [4, 3]"] ;
930 -> 931 ;
932 [label="gini = 0.4\nsamples = 8\nvalue = [3, 8]"] ;
930 -> 932 ;
933 [label="gini = 0.5\nsamples = 4\nvalue = [5, 3]"] ;
929 -> 933 ;
934 [label="ELO_DIFF <= 4.5\ngini = 0.5\nsamples = 218\nvalue = [117, 216]"] ;
822 -> 934 ;
935 [label="HOME_AWAY_GOAL_DIFF <= 4.6\ngini = 0.4\nsamples = 48\nvalue = [20, 60]"] ;
934 -> 935 ;
936 [label="RECENT_PERF_DIFF <= 4.4\ngini = 0.3\nsamples = 32\nvalue = [13, 45]"] ;
935 -> 936 ;
937 [label="gini = 0.3\nsamples = 17\nvalue = [7, 26]"] ;
936 -> 937 ;
938 [label="gini = 0.4\nsamples = 15\nvalue = [6, 19]"] ;
936 -> 938 ;
939 [label="HOME_AWAY_GOAL_DIFF <= 4.8\ngini = 0.4\nsamples = 16\nvalue = [7, 15]"] ;
935 -> 939 ;
940 [label="gini = 0.4\nsamples = 8\nvalue = [3, 7]"] ;
939 -> 940 ;
941 [label="gini = 0.4\nsamples = 8\nvalue = [4, 8]"] ;
939 -> 941 ;
942 [label="ELO_DIFF <= 4.9\ngini = 0.5\nsamples = 170\nvalue = [97, 156]"] ;
934 -> 942 ;
943 [label="HOME_AWAY_GOAL_DIFF <= 4.8\ngini = 0.5\nsamples = 145\nvalue = [91, 130]"] ;
942 -> 943 ;
944 [label="HOME_AWAY_GOAL_DIFF <= 4.6\ngini = 0.5\nsamples = 112\nvalue = [70, 96]"] ;
943 -> 944 ;
945 [label="ELO_DIFF <= 4.8\ngini = 0.5\nsamples = 86\nvalue = [53, 76]"] ;
944 -> 945 ;
946 [label="RECENT_PERF_DIFF <= 4.4\ngini = 0.5\nsamples = 73\nvalue = [45, 69]"] ;
945 -> 946 ;
947 [label="ELO_DIFF <= 4.7\ngini = 0.5\nsamples = 39\nvalue = [25, 38]"] ;
946 -> 947 ;
948 [label="ELO_DIFF <= 4.6\ngini = 0.5\nsamples = 27\nvalue = [22, 24]"] ;
947 -> 948 ;
949 [label="gini = 0.5\nsamples = 15\nvalue = [13, 15]"] ;
948 -> 949 ;
950 [label="gini = 0.5\nsamples = 12\nvalue = [9, 9]"] ;
948 -> 950 ;
951 [label="gini = 0.3\nsamples = 12\nvalue = [3, 14]"] ;
947 -> 951 ;
952 [label="ELO_DIFF <= 4.7\ngini = 0.5\nsamples = 34\nvalue = [20, 31]"] ;
946 -> 952 ;
953 [label="ELO_DIFF <= 4.6\ngini = 0.4\nsamples = 21\nvalue = [8, 24]"] ;
952 -> 953 ;
954 [label="gini = 0.4\nsamples = 12\nvalue = [5, 14]"] ;
953 -> 954 ;
955 [label="gini = 0.4\nsamples = 9\nvalue = [3, 10]"] ;
953 -> 955 ;
956 [label="gini = 0.5\nsamples = 13\nvalue = [12, 7]"] ;
952 -> 956 ;
957 [label="RECENT_PERF_DIFF <= 4.4\ngini = 0.5\nsamples = 13\nvalue = [8, 7]"] ;
945 -> 957 ;
958 [label="gini = 0.5\nsamples = 5\nvalue = [3, 3]"] ;
957 -> 958 ;
959 [label="gini = 0.5\nsamples = 8\nvalue = [5, 4]"] ;
957 -> 959 ;
960 [label="ELO_DIFF <= 4.6\ngini = 0.5\nsamples = 26\nvalue = [17, 20]"] ;
944 -> 960 ;
961 [label="gini = 0.4\nsamples = 3\nvalue = [2, 1]"] ;
960 -> 961 ;
962 [label="ELO_DIFF <= 4.7\ngini = 0.5\nsamples = 23\nvalue = [15, 19]"] ;
960 -> 962 ;
963 [label="gini = 0.5\nsamples = 8\nvalue = [5, 5]"] ;
962 -> 963 ;
964 [label="ELO_DIFF <= 4.8\ngini = 0.5\nsamples = 15\nvalue = [10, 14]"] ;
962 -> 964 ;
965 [label="gini = 0.5\nsamples = 10\nvalue = [7, 9]"] ;
964 -> 965 ;
966 [label="gini = 0.5\nsamples = 5\nvalue = [3, 5]"] ;
964 -> 966 ;
967 [label="ELO_DIFF <= 4.7\ngini = 0.5\nsamples = 33\nvalue = [21, 34]"] ;
943 -> 967 ;
968 [label="ELO_DIFF <= 4.6\ngini = 0.5\nsamples = 9\nvalue = [9, 7]"] ;
967 -> 968 ;
969 [label="gini = 0.5\nsamples = 7\nvalue = [6, 6]"] ;
968 -> 969 ;
970 [label="gini = 0.4\nsamples = 2\nvalue = [3, 1]"] ;
968 -> 970 ;
971 [label="ELO_DIFF <= 4.8\ngini = 0.4\nsamples = 24\nvalue = [12, 27]"] ;
967 -> 971 ;
972 [label="gini = 0.3\nsamples = 10\nvalue = [4, 16]"] ;
971 -> 972 ;
973 [label="gini = 0.5\nsamples = 14\nvalue = [8, 11]"] ;
971 -> 973 ;
974 [label="HOME_AWAY_GOAL_DIFF <= 4.8\ngini = 0.3\nsamples = 25\nvalue = [6, 26]"] ;
942 -> 974 ;
975 [label="RECENT_PERF_DIFF <= 4.4\ngini = 0.3\nsamples = 18\nvalue = [5, 18]"] ;
974 -> 975 ;
976 [label="gini = 0.0\nsamples = 1\nvalue = [0, 1]"] ;
975 -> 976 ;
977 [label="HOME_AWAY_GOAL_DIFF <= 4.6\ngini = 0.4\nsamples = 17\nvalue = [5, 17]"] ;
975 -> 977 ;
978 [label="gini = 0.3\nsamples = 8\nvalue = [2, 7]"] ;
977 -> 978 ;
979 [label="gini = 0.4\nsamples = 9\nvalue = [3, 10]"] ;
977 -> 979 ;
980 [label="gini = 0.2\nsamples = 7\nvalue = [1, 8]"] ;
974 -> 980 ;
981 [label="HOME_AWAY_GOAL_DIFF <= 3.2\ngini = 0.4\nsamples = 520\nvalue = [224, 598]"] ;
727 -> 981 ;
982 [label="RECENT_PERF_DIFF <= 1.9\ngini = 0.5\nsamples = 47\nvalue = [28, 46]"] ;
981 -> 982 ;
983 [label="gini = 0.0\nsamples = 2\nvalue = [0, 2]"] ;
982 -> 983 ;
984 [label="RECENT_PERF_DIFF <= 2.0\ngini = 0.5\nsamples = 45\nvalue = [28, 44]"] ;
982 -> 984 ;
985 [label="gini = 0.0\nsamples = 1\nvalue = [2, 0]"] ;
984 -> 985 ;
986 [label="ELO_DIFF <= 5.5\ngini = 0.5\nsamples = 44\nvalue = [26, 44]"] ;
984 -> 986 ;
987 [label="RECENT_PERF_DIFF <= 2.6\ngini = 0.5\nsamples = 25\nvalue = [20, 16]"] ;
986 -> 987 ;
988 [label="RECENT_PERF_DIFF <= 2.4\ngini = 0.4\nsamples = 6\nvalue = [3, 7]"] ;
987 -> 988 ;
989 [label="ELO_DIFF <= 5.2\ngini = 0.5\nsamples = 4\nvalue = [2, 3]"] ;
988 -> 989 ;
990 [label="gini = 0.0\nsamples = 1\nvalue = [1, 0]"] ;
989 -> 990 ;
991 [label="ELO_DIFF <= 5.3\ngini = 0.4\nsamples = 3\nvalue = [1, 3]"] ;
989 -> 991 ;
992 [label="gini = 0.4\nsamples = 2\nvalue = [1, 2]"] ;
991 -> 992 ;
993 [label="gini = 0.0\nsamples = 1\nvalue = [0, 1]"] ;
991 -> 993 ;
994 [label="ELO_DIFF <= 5.2\ngini = 0.3\nsamples = 2\nvalue = [1, 4]"] ;
988 -> 994 ;
995 [label="gini = 0.0\nsamples = 1\nvalue = [1, 0]"] ;
994 -> 995 ;
996 [label="gini = 0.0\nsamples = 1\nvalue = [0, 4]"] ;
994 -> 996 ;
997 [label="ELO_DIFF <= 5.2\ngini = 0.5\nsamples = 19\nvalue = [17, 9]"] ;
987 -> 997 ;
998 [label="HOME_AWAY_GOAL_DIFF <= 3.0\ngini = 0.3\nsamples = 4\nvalue = [4, 1]"] ;
997 -> 998 ;
999 [label="gini = 0.0\nsamples = 1\nvalue = [2, 0]"] ;
998 -> 999 ;
1000 [label="gini = 0.4\nsamples = 3\nvalue = [2, 1]"] ;
998 -> 1000 ;
1001 [label="HOME_AWAY_GOAL_DIFF <= 3.0\ngini = 0.5\nsamples = 15\nvalue = [13, 8]"] ;
997 -> 1001 ;
1002 [label="ELO_DIFF <= 5.4\ngini = 0.4\nsamples = 10\nvalue = [11, 5]"] ;
1001 -> 1002 ;
1003 [label="HOME_AWAY_GOAL_DIFF <= 2.8\ngini = 0.5\nsamples = 9\nvalue = [8, 5]"] ;
1002 -> 1003 ;
1004 [label="ELO_DIFF <= 5.3\ngini = 0.4\nsamples = 5\nvalue = [5, 2]"] ;
1003 -> 1004 ;
1005 [label="gini = 0.0\nsamples = 2\nvalue = [3, 0]"] ;
1004 -> 1005 ;
1006 [label="gini = 0.5\nsamples = 3\nvalue = [2, 2]"] ;
1004 -> 1006 ;
1007 [label="ELO_DIFF <= 5.3\ngini = 0.5\nsamples = 4\nvalue = [3, 3]"] ;
1003 -> 1007 ;
1008 [label="gini = 0.0\nsamples = 1\nvalue = [0, 1]"] ;
1007 -> 1008 ;
1009 [label="gini = 0.5\nsamples = 3\nvalue = [3, 2]"] ;
1007 -> 1009 ;
1010 [label="gini = 0.0\nsamples = 1\nvalue = [3, 0]"] ;
1002 -> 1010 ;
1011 [label="ELO_DIFF <= 5.3\ngini = 0.5\nsamples = 5\nvalue = [2, 3]"] ;
1001 -> 1011 ;
1012 [label="gini = 0.4\nsamples = 3\nvalue = [1, 2]"] ;
1011 -> 1012 ;
1013 [label="gini = 0.5\nsamples = 2\nvalue = [1, 1]"] ;
1011 -> 1013 ;
1014 [label="HOME_AWAY_GOAL_DIFF <= 3.0\ngini = 0.3\nsamples = 19\nvalue = [6, 28]"] ;
986 -> 1014 ;
1015 [label="RECENT_PERF_DIFF <= 2.5\ngini = 0.2\nsamples = 13\nvalue = [2, 21]"] ;
1014 -> 1015 ;
1016 [label="ELO_DIFF <= 5.9\ngini = 0.5\nsamples = 3\nvalue = [2, 2]"] ;
1015 -> 1016 ;
1017 [label="gini = 0.0\nsamples = 1\nvalue = [0, 1]"] ;
1016 -> 1017 ;
1018 [label="ELO_DIFF <= 6.2\ngini = 0.4\nsamples = 2\nvalue = [2, 1]"] ;
1016 -> 1018 ;
1019 [label="gini = 0.0\nsamples = 1\nvalue = [2, 0]"] ;
1018 -> 1019 ;
1020 [label="gini = 0.0\nsamples = 1\nvalue = [0, 1]"] ;
1018 -> 1020 ;
1021 [label="gini = 0.0\nsamples = 10\nvalue = [0, 19]"] ;
1015 -> 1021 ;
1022 [label="ELO_DIFF <= 5.6\ngini = 0.5\nsamples = 6\nvalue = [4, 7]"] ;
1014 -> 1022 ;
1023 [label="gini = 0.5\nsamples = 3\nvalue = [4, 3]"] ;
1022 -> 1023 ;
1024 [label="gini = 0.0\nsamples = 3\nvalue = [0, 4]"] ;
1022 -> 1024 ;
1025 [label="RECENT_PERF_DIFF <= 4.8\ngini = 0.4\nsamples = 473\nvalue = [196, 552]"] ;
981 -> 1025 ;
1026 [label="RECENT_PERF_DIFF <= 4.0\ngini = 0.4\nsamples = 409\nvalue = [161, 481]"] ;
1025 -> 1026 ;
1027 [label="HOME_AWAY_GOAL_DIFF <= 3.8\ngini = 0.4\nsamples = 142\nvalue = [58, 159]"] ;
1026 -> 1027 ;
1028 [label="ELO_DIFF <= 6.3\ngini = 0.4\nsamples = 92\nvalue = [34, 102]"] ;
1027 -> 1028 ;
1029 [label="HOME_AWAY_GOAL_DIFF <= 3.4\ngini = 0.4\nsamples = 85\nvalue = [34, 93]"] ;
1028 -> 1029 ;
1030 [label="ELO_DIFF <= 5.4\ngini = 0.4\nsamples = 24\nvalue = [10, 22]"] ;
1029 -> 1030 ;
1031 [label="ELO_DIFF <= 5.2\ngini = 0.5\nsamples = 10\nvalue = [9, 6]"] ;
1030 -> 1031 ;
1032 [label="gini = 0.4\nsamples = 3\nvalue = [1, 3]"] ;
1031 -> 1032 ;
1033 [label="ELO_DIFF <= 5.3\ngini = 0.4\nsamples = 7\nvalue = [8, 3]"] ;
1031 -> 1033 ;
1034 [label="gini = 0.5\nsamples = 4\nvalue = [3, 2]"] ;
1033 -> 1034 ;
1035 [label="gini = 0.3\nsamples = 3\nvalue = [5, 1]"] ;
1033 -> 1035 ;
1036 [label="ELO_DIFF <= 5.7\ngini = 0.1\nsamples = 14\nvalue = [1, 16]"] ;
1030 -> 1036 ;
1037 [label="gini = 0.0\nsamples = 7\nvalue = [0, 9]"] ;
1036 -> 1037 ;
1038 [label="ELO_DIFF <= 5.9\ngini = 0.2\nsamples = 7\nvalue = [1, 7]"] ;
1036 -> 1038 ;
1039 [label="gini = 0.4\nsamples = 3\nvalue = [1, 2]"] ;
1038 -> 1039 ;
1040 [label="gini = 0.0\nsamples = 4\nvalue = [0, 5]"] ;
1038 -> 1040 ;
1041 [label="RECENT_PERF_DIFF <= 3.6\ngini = 0.4\nsamples = 61\nvalue = [24, 71]"] ;
1029 -> 1041 ;
1042 [label="ELO_DIFF <= 5.5\ngini = 0.3\nsamples = 30\nvalue = [10, 35]"] ;
1041 -> 1042 ;
1043 [label="ELO_DIFF <= 5.2\ngini = 0.2\nsamples = 18\nvalue = [3, 24]"] ;
1042 -> 1043 ;
1044 [label="gini = 0.4\nsamples = 9\nvalue = [3, 7]"] ;
1043 -> 1044 ;
1045 [label="gini = 0.0\nsamples = 9\nvalue = [0, 17]"] ;
1043 -> 1045 ;
1046 [label="ELO_DIFF <= 5.6\ngini = 0.5\nsamples = 12\nvalue = [7, 11]"] ;
1042 -> 1046 ;
1047 [label="gini = 0.0\nsamples = 2\nvalue = [4, 0]"] ;
1046 -> 1047 ;
1048 [label="ELO_DIFF <= 6.0\ngini = 0.3\nsamples = 10\nvalue = [3, 11]"] ;
1046 -> 1048 ;
1049 [label="gini = 0.0\nsamples = 4\nvalue = [0, 5]"] ;
1048 -> 1049 ;
1050 [label="ELO_DIFF <= 6.1\ngini = 0.4\nsamples = 6\nvalue = [3, 6]"] ;
1048 -> 1050 ;
1051 [label="gini = 0.4\nsamples = 2\nvalue = [2, 1]"] ;
1050 -> 1051 ;
1052 [label="ELO_DIFF <= 6.2\ngini = 0.3\nsamples = 4\nvalue = [1, 5]"] ;
1050 -> 1052 ;
1053 [label="gini = 0.0\nsamples = 2\nvalue = [0, 4]"] ;
1052 -> 1053 ;
1054 [label="gini = 0.5\nsamples = 2\nvalue = [1, 1]"] ;
1052 -> 1054 ;
1055 [label="ELO_DIFF <= 5.9\ngini = 0.4\nsamples = 31\nvalue = [14, 36]"] ;
1041 -> 1055 ;
1056 [label="ELO_DIFF <= 5.2\ngini = 0.3\nsamples = 26\nvalue = [8, 35]"] ;
1055 -> 1056 ;
1057 [label="gini = 0.5\nsamples = 6\nvalue = [5, 5]"] ;
1056 -> 1057 ;
1058 [label="ELO_DIFF <= 5.3\ngini = 0.2\nsamples = 20\nvalue = [3, 30]"] ;
1056 -> 1058 ;
1059 [label="gini = 0.0\nsamples = 4\nvalue = [0, 6]"] ;
1058 -> 1059 ;
1060 [label="ELO_DIFF <= 5.4\ngini = 0.2\nsamples = 16\nvalue = [3, 24]"] ;
1058 -> 1060 ;
1061 [label="gini = 0.3\nsamples = 6\nvalue = [2, 8]"] ;
1060 -> 1061 ;
1062 [label="ELO_DIFF <= 5.5\ngini = 0.1\nsamples = 10\nvalue = [1, 16]"] ;
1060 -> 1062 ;
1063 [label="gini = 0.0\nsamples = 5\nvalue = [0, 7]"] ;
1062 -> 1063 ;
1064 [label="ELO_DIFF <= 5.7\ngini = 0.2\nsamples = 5\nvalue = [1, 9]"] ;
1062 -> 1064 ;
1065 [label="gini = 0.2\nsamples = 4\nvalue = [1, 8]"] ;
1064 -> 1065 ;
1066 [label="gini = 0.0\nsamples = 1\nvalue = [0, 1]"] ;
1064 -> 1066 ;
1067 [label="ELO_DIFF <= 6.0\ngini = 0.2\nsamples = 5\nvalue = [6, 1]"] ;
1055 -> 1067 ;
1068 [label="gini = 0.0\nsamples = 1\nvalue = [2, 0]"] ;
1067 -> 1068 ;
1069 [label="ELO_DIFF <= 6.1\ngini = 0.3\nsamples = 4\nvalue = [4, 1]"] ;
1067 -> 1069 ;
1070 [label="gini = 0.4\nsamples = 2\nvalue = [2, 1]"] ;
1069 -> 1070 ;
1071 [label="gini = 0.0\nsamples = 2\nvalue = [2, 0]"] ;
1069 -> 1071 ;
1072 [label="gini = 0.0\nsamples = 7\nvalue = [0, 9]"] ;
1028 -> 1072 ;
1073 [label="ELO_DIFF <= 6.1\ngini = 0.4\nsamples = 50\nvalue = [24, 57]"] ;
1027 -> 1073 ;
1074 [label="ELO_DIFF <= 5.2\ngini = 0.5\nsamples = 42\nvalue = [24, 45]"] ;
1073 -> 1074 ;
1075 [label="gini = 0.4\nsamples = 7\nvalue = [3, 10]"] ;
1074 -> 1075 ;
1076 [label="ELO_DIFF <= 5.6\ngini = 0.5\nsamples = 35\nvalue = [21, 35]"] ;
1074 -> 1076 ;
1077 [label="ELO_DIFF <= 5.3\ngini = 0.5\nsamples = 19\nvalue = [14, 19]"] ;
1076 -> 1077 ;
1078 [label="gini = 0.5\nsamples = 7\nvalue = [5, 5]"] ;
1077 -> 1078 ;
1079 [label="ELO_DIFF <= 5.4\ngini = 0.5\nsamples = 12\nvalue = [9, 14]"] ;
1077 -> 1079 ;
1080 [label="gini = 0.4\nsamples = 4\nvalue = [2, 4]"] ;
1079 -> 1080 ;
1081 [label="ELO_DIFF <= 5.5\ngini = 0.5\nsamples = 8\nvalue = [7, 10]"] ;
1079 -> 1081 ;
1082 [label="gini = 0.5\nsamples = 5\nvalue = [4, 5]"] ;
1081 -> 1082 ;
1083 [label="gini = 0.5\nsamples = 3\nvalue = [3, 5]"] ;
1081 -> 1083 ;
1084 [label="ELO_DIFF <= 5.7\ngini = 0.4\nsamples = 16\nvalue = [7, 16]"] ;
1076 -> 1084 ;
1085 [label="gini = 0.0\nsamples = 2\nvalue = [0, 5]"] ;
1084 -> 1085 ;
1086 [label="ELO_DIFF <= 5.9\ngini = 0.5\nsamples = 14\nvalue = [7, 11]"] ;
1084 -> 1086 ;
1087 [label="gini = 0.4\nsamples = 4\nvalue = [1, 3]"] ;
1086 -> 1087 ;
1088 [label="ELO_DIFF <= 6.0\ngini = 0.5\nsamples = 10\nvalue = [6, 8]"] ;
1086 -> 1088 ;
1089 [label="gini = 0.5\nsamples = 7\nvalue = [4, 6]"] ;
1088 -> 1089 ;
1090 [label="gini = 0.5\nsamples = 3\nvalue = [2, 2]"] ;
1088 -> 1090 ;
1091 [label="gini = 0.0\nsamples = 8\nvalue = [0, 12]"] ;
1073 -> 1091 ;
1092 [label="HOME_AWAY_GOAL_DIFF <= 4.4\ngini = 0.4\nsamples = 267\nvalue = [103, 322]"] ;
1026 -> 1092 ;
1093 [label="HOME_AWAY_GOAL_DIFF <= 4.2\ngini = 0.3\nsamples = 109\nvalue = [38, 141]"] ;
1092 -> 1093 ;
1094 [label="ELO_DIFF <= 6.3\ngini = 0.3\nsamples = 56\nvalue = [20, 76]"] ;
1093 -> 1094 ;
1095 [label="ELO_DIFF <= 5.7\ngini = 0.4\nsamples = 53\nvalue = [20, 68]"] ;
1094 -> 1095 ;
1096 [label="ELO_DIFF <= 5.6\ngini = 0.3\nsamples = 35\nvalue = [10, 50]"] ;
1095 -> 1096 ;
1097 [label="ELO_DIFF <= 5.3\ngini = 0.3\nsamples = 32\nvalue = [10, 45]"] ;
1096 -> 1097 ;
1098 [label="ELO_DIFF <= 5.2\ngini = 0.3\nsamples = 16\nvalue = [5, 19]"] ;
1097 -> 1098 ;
1099 [label="gini = 0.3\nsamples = 11\nvalue = [3, 13]"] ;
1098 -> 1099 ;
1100 [label="gini = 0.4\nsamples = 5\nvalue = [2, 6]"] ;
1098 -> 1100 ;
1101 [label="ELO_DIFF <= 5.5\ngini = 0.3\nsamples = 16\nvalue = [5, 26]"] ;
1097 -> 1101 ;
1102 [label="ELO_DIFF <= 5.4\ngini = 0.3\nsamples = 9\nvalue = [3, 14]"] ;
1101 -> 1102 ;
1103 [label="gini = 0.2\nsamples = 3\nvalue = [1, 6]"] ;
1102 -> 1103 ;
1104 [label="gini = 0.3\nsamples = 6\nvalue = [2, 8]"] ;
1102 -> 1104 ;
1105 [label="gini = 0.2\nsamples = 7\nvalue = [2, 12]"] ;
1101 -> 1105 ;
1106 [label="gini = 0.0\nsamples = 3\nvalue = [0, 5]"] ;
1096 -> 1106 ;
1107 [label="ELO_DIFF <= 6.2\ngini = 0.5\nsamples = 18\nvalue = [10, 18]"] ;
1095 -> 1107 ;
1108 [label="ELO_DIFF <= 6.1\ngini = 0.4\nsamples = 16\nvalue = [8, 17]"] ;
1107 -> 1108 ;
1109 [label="ELO_DIFF <= 6.0\ngini = 0.5\nsamples = 14\nvalue = [8, 13]"] ;
1108 -> 1109 ;
1110 [label="ELO_DIFF <= 5.9\ngini = 0.5\nsamples = 8\nvalue = [5, 7]"] ;
1109 -> 1110 ;
1111 [label="gini = 0.5\nsamples = 5\nvalue = [3, 5]"] ;
1110 -> 1111 ;
1112 [label="gini = 0.5\nsamples = 3\nvalue = [2, 2]"] ;
1110 -> 1112 ;
1113 [label="gini = 0.4\nsamples = 6\nvalue = [3, 6]"] ;
1109 -> 1113 ;
1114 [label="gini = 0.0\nsamples = 2\nvalue = [0, 4]"] ;
1108 -> 1114 ;
1115 [label="gini = 0.4\nsamples = 2\nvalue = [2, 1]"] ;
1107 -> 1115 ;
1116 [label="gini = 0.0\nsamples = 3\nvalue = [0, 8]"] ;
1094 -> 1116 ;
1117 [label="ELO_DIFF <= 6.0\ngini = 0.3\nsamples = 53\nvalue = [18, 65]"] ;
1093 -> 1117 ;
1118 [label="ELO_DIFF <= 5.9\ngini = 0.4\nsamples = 38\nvalue = [17, 45]"] ;
1117 -> 1118 ;
1119 [label="ELO_DIFF <= 5.3\ngini = 0.4\nsamples = 35\nvalue = [14, 44]"] ;
1118 -> 1119 ;
1120 [label="ELO_DIFF <= 5.2\ngini = 0.2\nsamples = 11\nvalue = [3, 18]"] ;
1119 -> 1120 ;
1121 [label="gini = 0.5\nsamples = 5\nvalue = [3, 5]"] ;
1120 -> 1121 ;
1122 [label="gini = 0.0\nsamples = 6\nvalue = [0, 13]"] ;
1120 -> 1122 ;
1123 [label="ELO_DIFF <= 5.4\ngini = 0.4\nsamples = 24\nvalue = [11, 26]"] ;
1119 -> 1123 ;
1124 [label="gini = 0.0\nsamples = 3\nvalue = [4, 0]"] ;
1123 -> 1124 ;
1125 [label="ELO_DIFF <= 5.5\ngini = 0.3\nsamples = 21\nvalue = [7, 26]"] ;
1123 -> 1125 ;
1126 [label="gini = 0.2\nsamples = 10\nvalue = [2, 12]"] ;
1125 -> 1126 ;
1127 [label="ELO_DIFF <= 5.6\ngini = 0.4\nsamples = 11\nvalue = [5, 14]"] ;
1125 -> 1127 ;
1128 [label="gini = 0.4\nsamples = 6\nvalue = [3, 6]"] ;
1127 -> 1128 ;
1129 [label="ELO_DIFF <= 5.7\ngini = 0.3\nsamples = 5\nvalue = [2, 8]"] ;
1127 -> 1129 ;
1130 [label="gini = 0.0\nsamples = 1\nvalue = [0, 1]"] ;
1129 -> 1130 ;
1131 [label="gini = 0.3\nsamples = 4\nvalue = [2, 7]"] ;
1129 -> 1131 ;
1132 [label="gini = 0.4\nsamples = 3\nvalue = [3, 1]"] ;
1118 -> 1132 ;
1133 [label="ELO_DIFF <= 6.4\ngini = 0.1\nsamples = 15\nvalue = [1, 20]"] ;
1117 -> 1133 ;
1134 [label="ELO_DIFF <= 6.3\ngini = 0.2\nsamples = 6\nvalue = [1, 6]"] ;
1133 -> 1134 ;
1135 [label="gini = 0.0\nsamples = 5\nvalue = [0, 6]"] ;
1134 -> 1135 ;
1136 [label="gini = 0.0\nsamples = 1\nvalue = [1, 0]"] ;
1134 -> 1136 ;
1137 [label="gini = 0.0\nsamples = 9\nvalue = [0, 14]"] ;
1133 -> 1137 ;
1138 [label="ELO_DIFF <= 5.5\ngini = 0.4\nsamples = 158\nvalue = [65, 181]"] ;
1092 -> 1138 ;
1139 [label="HOME_AWAY_GOAL_DIFF <= 4.6\ngini = 0.4\nsamples = 54\nvalue = [30, 58]"] ;
1138 -> 1139 ;
1140 [label="ELO_DIFF <= 5.4\ngini = 0.5\nsamples = 25\nvalue = [19, 26]"] ;
1139 -> 1140 ;
1141 [label="ELO_DIFF <= 5.2\ngini = 0.4\nsamples = 18\nvalue = [10, 22]"] ;
1140 -> 1141 ;
1142 [label="gini = 0.5\nsamples = 4\nvalue = [3, 4]"] ;
1141 -> 1142 ;
1143 [label="ELO_DIFF <= 5.3\ngini = 0.4\nsamples = 14\nvalue = [7, 18]"] ;
1141 -> 1143 ;
1144 [label="gini = 0.3\nsamples = 6\nvalue = [2, 7]"] ;
1143 -> 1144 ;
1145 [label="gini = 0.4\nsamples = 8\nvalue = [5, 11]"] ;
1143 -> 1145 ;
1146 [label="gini = 0.4\nsamples = 7\nvalue = [9, 4]"] ;
1140 -> 1146 ;
1147 [label="ELO_DIFF <= 5.2\ngini = 0.4\nsamples = 29\nvalue = [11, 32]"] ;
1139 -> 1147 ;
1148 [label="gini = 0.3\nsamples = 10\nvalue = [3, 13]"] ;
1147 -> 1148 ;
1149 [label="ELO_DIFF <= 5.3\ngini = 0.4\nsamples = 19\nvalue = [8, 19]"] ;
1147 -> 1149 ;
1150 [label="gini = 0.5\nsamples = 6\nvalue = [4, 3]"] ;
1149 -> 1150 ;
1151 [label="ELO_DIFF <= 5.4\ngini = 0.3\nsamples = 13\nvalue = [4, 16]"] ;
1149 -> 1151 ;
1152 [label="gini = 0.3\nsamples = 6\nvalue = [2, 8]"] ;
1151 -> 1152 ;
1153 [label="gini = 0.3\nsamples = 7\nvalue = [2, 8]"] ;
1151 -> 1153 ;
1154 [label="RECENT_PERF_DIFF <= 4.6\ngini = 0.3\nsamples = 104\nvalue = [35, 123]"] ;
1138 -> 1154 ;
1155 [label="ELO_DIFF <= 6.5\ngini = 0.4\nsamples = 56\nvalue = [20, 66]"] ;
1154 -> 1155 ;
1156 [label="ELO_DIFF <= 6.2\ngini = 0.3\nsamples = 44\nvalue = [13, 57]"] ;
1155 -> 1156 ;
1157 [label="ELO_DIFF <= 6.1\ngini = 0.4\nsamples = 31\nvalue = [12, 40]"] ;
1156 -> 1157 ;
1158 [label="ELO_DIFF <= 5.6\ngini = 0.3\nsamples = 26\nvalue = [9, 35]"] ;
1157 -> 1158 ;
1159 [label="gini = 0.4\nsamples = 11\nvalue = [5, 13]"] ;
1158 -> 1159 ;
1160 [label="ELO_DIFF <= 5.7\ngini = 0.3\nsamples = 15\nvalue = [4, 22]"] ;
1158 -> 1160 ;
1161 [label="gini = 0.0\nsamples = 2\nvalue = [0, 3]"] ;
1160 -> 1161 ;
1162 [label="ELO_DIFF <= 5.9\ngini = 0.3\nsamples = 13\nvalue = [4, 19]"] ;
1160 -> 1162 ;
1163 [label="gini = 0.4\nsamples = 7\nvalue = [3, 10]"] ;
1162 -> 1163 ;
1164 [label="ELO_DIFF <= 6.0\ngini = 0.2\nsamples = 6\nvalue = [1, 9]"] ;
1162 -> 1164 ;
1165 [label="gini = 0.0\nsamples = 1\nvalue = [0, 3]"] ;
1164 -> 1165 ;
1166 [label="gini = 0.2\nsamples = 5\nvalue = [1, 6]"] ;
1164 -> 1166 ;
1167 [label="gini = 0.5\nsamples = 5\nvalue = [3, 5]"] ;
1157 -> 1167 ;
1168 [label="ELO_DIFF <= 6.3\ngini = 0.1\nsamples = 13\nvalue = [1, 17]"] ;
1156 -> 1168 ;
1169 [label="gini = 0.0\nsamples = 6\nvalue = [0, 9]"] ;
1168 -> 1169 ;
1170 [label="gini = 0.2\nsamples = 7\nvalue = [1, 8]"] ;
1168 -> 1170 ;
1171 [label="ELO_DIFF <= 6.9\ngini = 0.5\nsamples = 12\nvalue = [7, 9]"] ;
1155 -> 1171 ;
1172 [label="ELO_DIFF <= 6.8\ngini = 0.5\nsamples = 9\nvalue = [6, 5]"] ;
1171 -> 1172 ;
1173 [label="ELO_DIFF <= 6.7\ngini = 0.5\nsamples = 8\nvalue = [4, 5]"] ;
1172 -> 1173 ;
1174 [label="gini = 0.5\nsamples = 7\nvalue = [4, 4]"] ;
1173 -> 1174 ;
1175 [label="gini = 0.0\nsamples = 1\nvalue = [0, 1]"] ;
1173 -> 1175 ;
1176 [label="gini = 0.0\nsamples = 1\nvalue = [2, 0]"] ;
1172 -> 1176 ;
1177 [label="ELO_DIFF <= 7.1\ngini = 0.3\nsamples = 3\nvalue = [1, 4]"] ;
1171 -> 1177 ;
1178 [label="gini = 0.0\nsamples = 2\nvalue = [0, 4]"] ;
1177 -> 1178 ;
1179 [label="gini = 0.0\nsamples = 1\nvalue = [1, 0]"] ;
1177 -> 1179 ;
1180 [label="ELO_DIFF <= 6.2\ngini = 0.3\nsamples = 48\nvalue = [15, 57]"] ;
1154 -> 1180 ;
1181 [label="ELO_DIFF <= 6.0\ngini = 0.4\nsamples = 29\nvalue = [11, 33]"] ;
1180 -> 1181 ;
1182 [label="ELO_DIFF <= 5.9\ngini = 0.3\nsamples = 23\nvalue = [6, 30]"] ;
1181 -> 1182 ;
1183 [label="ELO_DIFF <= 5.7\ngini = 0.3\nsamples = 16\nvalue = [5, 20]"] ;
1182 -> 1183 ;
1184 [label="ELO_DIFF <= 5.6\ngini = 0.2\nsamples = 10\nvalue = [2, 13]"] ;
1183 -> 1184 ;
1185 [label="gini = 0.2\nsamples = 6\nvalue = [1, 8]"] ;
1184 -> 1185 ;
1186 [label="gini = 0.3\nsamples = 4\nvalue = [1, 5]"] ;
1184 -> 1186 ;
1187 [label="gini = 0.4\nsamples = 6\nvalue = [3, 7]"] ;
1183 -> 1187 ;
1188 [label="gini = 0.2\nsamples = 7\nvalue = [1, 10]"] ;
1182 -> 1188 ;
1189 [label="ELO_DIFF <= 6.1\ngini = 0.5\nsamples = 6\nvalue = [5, 3]"] ;
1181 -> 1189 ;
1190 [label="gini = 0.4\nsamples = 4\nvalue = [4, 2]"] ;
1189 -> 1190 ;
1191 [label="gini = 0.5\nsamples = 2\nvalue = [1, 1]"] ;
1189 -> 1191 ;
1192 [label="ELO_DIFF <= 7.1\ngini = 0.2\nsamples = 19\nvalue = [4, 24]"] ;
1180 -> 1192 ;
1193 [label="ELO_DIFF <= 6.6\ngini = 0.2\nsamples = 16\nvalue = [3, 22]"] ;
1192 -> 1193 ;
1194 [label="ELO_DIFF <= 6.4\ngini = 0.3\nsamples = 11\nvalue = [3, 14]"] ;
1193 -> 1194 ;
1195 [label="ELO_DIFF <= 6.3\ngini = 0.1\nsamples = 8\nvalue = [1, 12]"] ;
1194 -> 1195 ;
1196 [label="gini = 0.2\nsamples = 7\nvalue = [1, 9]"] ;
1195 -> 1196 ;
1197 [label="gini = 0.0\nsamples = 1\nvalue = [0, 3]"] ;
1195 -> 1197 ;
1198 [label="gini = 0.5\nsamples = 3\nvalue = [2, 2]"] ;
1194 -> 1198 ;
1199 [label="gini = 0.0\nsamples = 5\nvalue = [0, 8]"] ;
1193 -> 1199 ;
1200 [label="ELO_DIFF <= 7.2\ngini = 0.4\nsamples = 3\nvalue = [1, 2]"] ;
1192 -> 1200 ;
1201 [label="gini = 0.0\nsamples = 1\nvalue = [1, 0]"] ;
1200 -> 1201 ;
1202 [label="gini = 0.0\nsamples = 2\nvalue = [0, 2]"] ;
1200 -> 1202 ;
1203 [label="ELO_DIFF <= 6.7\ngini = 0.4\nsamples = 64\nvalue = [35, 71]"] ;
1025 -> 1203 ;
1204 [label="ELO_DIFF <= 6.4\ngini = 0.5\nsamples = 60\nvalue = [35, 66]"] ;
1203 -> 1204 ;
1205 [label="ELO_DIFF <= 5.7\ngini = 0.4\nsamples = 56\nvalue = [30, 64]"] ;
1204 -> 1205 ;
1206 [label="ELO_DIFF <= 5.5\ngini = 0.5\nsamples = 34\nvalue = [22, 35]"] ;
1205 -> 1206 ;
1207 [label="ELO_DIFF <= 5.3\ngini = 0.4\nsamples = 23\nvalue = [12, 31]"] ;
1206 -> 1207 ;
1208 [label="ELO_DIFF <= 5.2\ngini = 0.5\nsamples = 12\nvalue = [9, 13]"] ;
1207 -> 1208 ;
1209 [label="gini = 0.4\nsamples = 6\nvalue = [4, 8]"] ;
1208 -> 1209 ;
1210 [label="gini = 0.5\nsamples = 6\nvalue = [5, 5]"] ;
1208 -> 1210 ;
1211 [label="ELO_DIFF <= 5.4\ngini = 0.2\nsamples = 11\nvalue = [3, 18]"] ;
1207 -> 1211 ;
1212 [label="gini = 0.3\nsamples = 3\nvalue = [1, 5]"] ;
1211 -> 1212 ;
1213 [label="gini = 0.2\nsamples = 8\nvalue = [2, 13]"] ;
1211 -> 1213 ;
1214 [label="ELO_DIFF <= 5.6\ngini = 0.4\nsamples = 11\nvalue = [10, 4]"] ;
1206 -> 1214 ;
1215 [label="gini = 0.5\nsamples = 7\nvalue = [4, 3]"] ;
1214 -> 1215 ;
1216 [label="gini = 0.2\nsamples = 4\nvalue = [6, 1]"] ;
1214 -> 1216 ;
1217 [label="ELO_DIFF <= 6.3\ngini = 0.3\nsamples = 22\nvalue = [8, 29]"] ;
1205 -> 1217 ;
1218 [label="ELO_DIFF <= 6.0\ngini = 0.4\nsamples = 17\nvalue = [7, 21]"] ;
1217 -> 1218 ;
1219 [label="ELO_DIFF <= 5.9\ngini = 0.3\nsamples = 8\nvalue = [2, 11]"] ;
1218 -> 1219 ;
1220 [label="gini = 0.0\nsamples = 2\nvalue = [0, 2]"] ;
1219 -> 1220 ;
1221 [label="gini = 0.3\nsamples = 6\nvalue = [2, 9]"] ;
1219 -> 1221 ;
1222 [label="ELO_DIFF <= 6.1\ngini = 0.4\nsamples = 9\nvalue = [5, 10]"] ;
1218 -> 1222 ;
1223 [label="gini = 0.0\nsamples = 1\nvalue = [1, 0]"] ;
1222 -> 1223 ;
1224 [label="ELO_DIFF <= 6.2\ngini = 0.4\nsamples = 8\nvalue = [4, 10]"] ;
1222 -> 1224 ;
1225 [label="gini = 0.4\nsamples = 6\nvalue = [3, 7]"] ;
1224 -> 1225 ;
1226 [label="gini = 0.4\nsamples = 2\nvalue = [1, 3]"] ;
1224 -> 1226 ;
1227 [label="gini = 0.2\nsamples = 5\nvalue = [1, 8]"] ;
1217 -> 1227 ;
1228 [label="ELO_DIFF <= 6.6\ngini = 0.4\nsamples = 4\nvalue = [5, 2]"] ;
1204 -> 1228 ;
1229 [label="gini = 0.0\nsamples = 2\nvalue = [3, 0]"] ;
1228 -> 1229 ;
1230 [label="gini = 0.5\nsamples = 2\nvalue = [2, 2]"] ;
1228 -> 1230 ;
1231 [label="gini = 0.0\nsamples = 4\nvalue = [0, 5]"] ;
1203 -> 1231 ;
1232 [label="ELO_DIFF <= 5.3\ngini = 0.4\nsamples = 552\nvalue = [231, 654]"] ;
726 -> 1232 ;
1233 [label="ELO_DIFF <= 4.9\ngini = 0.5\nsamples = 268\nvalue = [150, 281]"] ;
1232 -> 1233 ;
1234 [label="RECENT_PERF_DIFF <= 6.0\ngini = 0.5\nsamples = 202\nvalue = [120, 208]"] ;
1233 -> 1234 ;
1235 [label="ELO_DIFF <= 4.1\ngini = 0.5\nsamples = 180\nvalue = [112, 178]"] ;
1234 -> 1235 ;
