digraph Tree {
node [shape=box, style="rounded", color="black", fontname="helvetica"] ;
edge [fontname="helvetica"] ;
0 [label="HOME_AWAY_GOAL_DIFF <= 4.7\ngini = 0.4\nsamples = 97\nvalue = [48, 103]"] ;
1 [label="HOME_AWAY_GOAL_DIFF <= 0.8\ngini = 0.3\nsamples = 32\nvalue = [46, 8]"] ;
0 -> 1 [labeldistance=2.5, labelangle=45, headlabel="True"] ;
2 [label="gini = 0.0\nsamples = 10\nvalue = [18, 0]"] ;
1 -> 2 ;
3 [label="RECENT_PERF_DIFF <= 3.1\ngini = 0.3\nsamples = 22\nvalue = [28, 8]"] ;
1 -> 3 ;
4 [label="HOME_AWAY_GOAL_DIFF <= 1.9\ngini = 0.5\nsamples = 6\nvalue = [3, 5]"] ;
3 -> 4 ;
5 [label="gini = 0.0\nsamples = 1\nvalue = [0, 2]"] ;
4 -> 5 ;
6 [label="RECENT_PERF_DIFF <= 2.8\ngini = 0.5\nsamples = 5\nvalue = [3, 3]"] ;
4 -> 6 ;
7 [label="HOME_AWAY_GOAL_DIFF <= 2.4\ngini = 0.4\nsamples = 4\nvalue = [3, 1]"] ;
6 -> 7 ;
8 [label="gini = 0.0\nsamples = 1\nvalue = [1, 0]"] ;
7 -> 8 ;
9 [label="ELO_DIFF <= 5.4\ngini = 0.4\nsamples = 3\nvalue = [2, 1]"] ;
7 -> 9 ;
10 [label="gini = 0.0\nsamples = 2\nvalue = [2, 0]"] ;
9 -> 10 ;
11 [label="gini = 0.0\nsamples = 1\nvalue = [0, 1]"] ;
9 -> 11 ;
12 [label="gini = 0.0\nsamples = 1\nvalue = [0, 2]"] ;
6 -> 12 ;
13 [label="ELO_DIFF <= 6.1\ngini = 0.2\nsamples = 16\nvalue = [25, 3]"] ;
3 -> 13 ;
14 [label="RECENT_PERF_DIFF <= 3.3\ngini = 0.5\nsamples = 3\nvalue = [2, 2]"] ;
13 -> 14 ;
15 [label="ELO_DIFF <= 4.6\ngini = 0.4\nsamples = 2\nvalue = [2, 1]"] ;
14 -> 15 ;
16 [label="gini = 0.0\nsamples = 1\nvalue = [2, 0]"] ;
15 -> 16 ;
17 [label="gini = 0.0\nsamples = 1\nvalue = [0, 1]"] ;
15 -> 17 ;
18 [label="gini = 0.0\nsamples = 1\nvalue = [0, 1]"] ;
14 -> 18 ;
19 [label="RECENT_PERF_DIFF <= 3.3\ngini = 0.1\nsamples = 13\nvalue = [23, 1]"] ;
13 -> 19 ;
20 [label="gini = 0.0\nsamples = 11\nvalue = [21, 0]"] ;
19 -> 20 ;
21 [label="RECENT_PERF_DIFF <= 4.0\ngini = 0.4\nsamples = 2\nvalue = [2, 1]"] ;
19 -> 21 ;
22 [label="gini = 0.0\nsamples = 1\nvalue = [0, 1]"] ;
21 -> 22 ;
23 [label="gini = 0.0\nsamples = 1\nvalue = [2, 0]"] ;
21 -> 23 ;
24 [label="ELO_DIFF <= 5.4\ngini = 0.0\nsamples = 65\nvalue = [2, 95]"] ;
0 -> 24 [labeldistance=2.5, labelangle=-45, headlabel="False"] ;
25 [label="gini = 0.0\nsamples = 40\nvalue = [0, 55]"] ;
24 -> 25 ;
26 [label="RECENT_PERF_DIFF <= 5.6\ngini = 0.1\nsamples = 25\nvalue = [2, 40]"] ;
24 -> 26 ;
27 [label="gini = 0.0\nsamples = 1\nvalue = [2, 0]"] ;
26 -> 27 ;
28 [label="gini = 0.0\nsamples = 24\nvalue = [0, 40]"] ;
26 -> 28 ;
}