digraph Tree {
node [shape=box, style="rounded", color="black", fontname="helvetica"] ;
edge [fontname="helvetica"] ;
0 [label="HOME_AWAY_GOAL_DIFF <= -3.5\ngini = 0.5\nsamples = 188\nvalue = [183, 117]"] ;
1 [label="ELO_DIFF <= -4.5\ngini = 0.3\nsamples = 43\nvalue = [56, 16]"] ;
0 -> 1 [labeldistance=2.5, labelangle=45, headlabel="True"] ;
2 [label="gini = 0.0\nsamples = 16\nvalue = [29, 0]"] ;
1 -> 2 ;
3 [label="RECENT_PERF_DIFF <= -9.5\ngini = 0.5\nsamples = 27\nvalue = [27, 16]"] ;
1 -> 3 ;
4 [label="gini = 0.0\nsamples = 2\nvalue = [5, 0]"] ;
3 -> 4 ;
5 [label="RECENT_PERF_DIFF <= -6.5\ngini = 0.5\nsamples = 25\nvalue = [22, 16]"] ;
3 -> 5 ;
6 [label="RECENT_PERF_DIFF <= -7.5\ngini = 0.5\nsamples = 8\nvalue = [4, 6]"] ;
5 -> 6 ;
7 [label="HOME_AWAY_GOAL_DIFF <= -8.5\ngini = 0.4\nsamples = 4\nvalue = [3, 1]"] ;
6 -> 7 ;
8 [label="ELO_DIFF <= 7.0\ngini = 0.5\nsamples = 2\nvalue = [1, 1]"] ;
7 -> 8 ;
9 [label="gini = 0.0\nsamples = 1\nvalue = [1, 0]"] ;
8 -> 9 ;
10 [label="gini = 0.0\nsamples = 1\nvalue = [0, 1]"] ;
8 -> 10 ;
11 [label="gini = 0.0\nsamples = 2\nvalue = [2, 0]"] ;
7 -> 11 ;
12 [label="ELO_DIFF <= 14.0\ngini = 0.3\nsamples = 4\nvalue = [1, 5]"] ;
6 -> 12 ;
13 [label="gini = 0.0\nsamples = 3\nvalue = [0, 5]"] ;
12 -> 13 ;
14 [label="gini = 0.0\nsamples = 1\nvalue = [1, 0]"] ;
12 -> 14 ;
15 [label="ELO_DIFF <= -2.5\ngini = 0.5\nsamples = 17\nvalue = [18, 10]"] ;
5 -> 15 ;
16 [label="gini = 0.0\nsamples = 3\nvalue = [0, 4]"] ;
15 -> 16 ;
17 [label="RECENT_PERF_DIFF <= -5.5\ngini = 0.4\nsamples = 14\nvalue = [18, 6]"] ;
15 -> 17 ;
18 [label="gini = 0.0\nsamples = 3\nvalue = [3, 0]"] ;
17 -> 18 ;
19 [label="HOME_AWAY_GOAL_DIFF <= -4.5\ngini = 0.4\nsamples = 11\nvalue = [15, 6]"] ;
17 -> 19 ;
20 [label="ELO_DIFF <= -0.5\ngini = 0.3\nsamples = 5\nvalue = [7, 2]"] ;
19 -> 20 ;
21 [label="gini = 0.0\nsamples = 3\nvalue = [7, 0]"] ;
20 -> 21 ;
22 [label="gini = 0.0\nsamples = 2\nvalue = [0, 2]"] ;
20 -> 22 ;
23 [label="ELO_DIFF <= 8.0\ngini = 0.4\nsamples = 6\nvalue = [8, 4]"] ;
19 -> 23 ;
24 [label="ELO_DIFF <= 4.0\ngini = 0.3\nsamples = 4\nvalue = [7, 2]"] ;
23 -> 24 ;
25 [label="ELO_DIFF <= 2.5\ngini = 0.5\nsamples = 3\nvalue = [2, 2]"] ;
24 -> 25 ;
26 [label="gini = 0.0\nsamples = 1\nvalue = [1, 0]"] ;
25 -> 26 ;
27 [label="gini = 0.4\nsamples = 2\nvalue = [1, 2]"] ;
25 -> 27 ;
28 [label="gini = 0.0\nsamples = 1\nvalue = [5, 0]"] ;
24 -> 28 ;
29 [label="ELO_DIFF <= 12.0\ngini = 0.4\nsamples = 2\nvalue = [1, 2]"] ;
23 -> 29 ;
30 [label="gini = 0.0\nsamples = 1\nvalue = [0, 2]"] ;
29 -> 30 ;
31 [label="gini = 0.0\nsamples = 1\nvalue = [1, 0]"] ;
29 -> 31 ;
32 [label="ELO_DIFF <= -2.5\ngini = 0.5\nsamples = 145\nvalue = [127, 101]"] ;
0 -> 32 [labeldistance=2.5, labelangle=-45, headlabel="False"] ;
33 [label="RECENT_PERF_DIFF <= 5.5\ngini = 0.5\nsamples = 52\nvalue = [49, 28]"] ;
32 -> 33 ;
34 [label="RECENT_PERF_DIFF <= -2.5\ngini = 0.5\nsamples = 48\nvalue = [38, 27]"] ;
33 -> 34 ;
35 [label="gini = 0.0\nsamples = 5\nvalue = [7, 0]"] ;
34 -> 35 ;
36 [label="ELO_DIFF <= -15.0\ngini = 0.5\nsamples = 43\nvalue = [31, 27]"] ;
34 -> 36 ;
37 [label="gini = 0.0\nsamples = 2\nvalue = [0, 3]"] ;
36 -> 37 ;
38 [label="ELO_DIFF <= -12.5\ngini = 0.5\nsamples = 41\nvalue = [31, 24]"] ;
36 -> 38 ;
39 [label="HOME_AWAY_GOAL_DIFF <= 2.5\ngini = 0.2\nsamples = 4\nvalue = [6, 1]"] ;
38 -> 39 ;
40 [label="gini = 0.0\nsamples = 3\nvalue = [6, 0]"] ;
39 -> 40 ;
41 [label="gini = 0.0\nsamples = 1\nvalue = [0, 1]"] ;
39 -> 41 ;
42 [label="ELO_DIFF <= -9.5\ngini = 0.5\nsamples = 37\nvalue = [25, 23]"] ;
38 -> 42 ;
43 [label="RECENT_PERF_DIFF <= -0.5\ngini = 0.5\nsamples = 9\nvalue = [4, 7]"] ;
42 -> 43 ;
44 [label="HOME_AWAY_GOAL_DIFF <= -1.5\ngini = 0.5\nsamples = 6\nvalue = [4, 4]"] ;
43 -> 44 ;
45 [label="ELO_DIFF <= -11.0\ngini = 0.4\nsamples = 2\nvalue = [1, 2]"] ;
44 -> 45 ;
46 [label="gini = 0.0\nsamples = 1\nvalue = [1, 0]"] ;
45 -> 46 ;
47 [label="gini = 0.0\nsamples = 1\nvalue = [0, 2]"] ;
45 -> 47 ;
48 [label="ELO_DIFF <= -11.5\ngini = 0.5\nsamples = 4\nvalue = [3, 2]"] ;
44 -> 48 ;
49 [label="gini = 0.0\nsamples = 1\nvalue = [0, 1]"] ;
48 -> 49 ;
50 [label="ELO_DIFF <= -10.5\ngini = 0.4\nsamples = 3\nvalue = [3, 1]"] ;
48 -> 50 ;
51 [label="gini = 0.0\nsamples = 1\nvalue = [2, 0]"] ;
50 -> 51 ;
52 [label="gini = 0.5\nsamples = 2\nvalue = [1, 1]"] ;
50 -> 52 ;
53 [label="gini = 0.0\nsamples = 3\nvalue = [0, 3]"] ;
43 -> 53 ;
54 [label="HOME_AWAY_GOAL_DIFF <= 4.5\ngini = 0.5\nsamples = 28\nvalue = [21, 16]"] ;
42 -> 54 ;
55 [label="HOME_AWAY_GOAL_DIFF <= 1.5\ngini = 0.5\nsamples = 25\nvalue = [21, 13]"] ;
54 -> 55 ;
56 [label="RECENT_PERF_DIFF <= -0.5\ngini = 0.4\nsamples = 16\nvalue = [13, 5]"] ;
55 -> 56 ;
57 [label="RECENT_PERF_DIFF <= -1.5\ngini = 0.5\nsamples = 9\nvalue = [6, 4]"] ;
56 -> 57 ;
58 [label="ELO_DIFF <= -4.5\ngini = 0.3\nsamples = 5\nvalue = [5, 1]"] ;
57 -> 58 ;
59 [label="gini = 0.0\nsamples = 4\nvalue = [5, 0]"] ;
58 -> 59 ;
60 [label="gini = 0.0\nsamples = 1\nvalue = [0, 1]"] ;
58 -> 60 ;
61 [label="ELO_DIFF <= -5.5\ngini = 0.4\nsamples = 4\nvalue = [1, 3]"] ;
57 -> 61 ;
62 [label="gini = 0.0\nsamples = 3\nvalue = [0, 3]"] ;
61 -> 62 ;
63 [label="gini = 0.0\nsamples = 1\nvalue = [1, 0]"] ;
61 -> 63 ;
64 [label="ELO_DIFF <= -6.5\ngini = 0.2\nsamples = 7\nvalue = [7, 1]"] ;
56 -> 64 ;
65 [label="ELO_DIFF <= -7.5\ngini = 0.5\nsamples = 2\nvalue = [1, 1]"] ;
64 -> 65 ;
66 [label="gini = 0.0\nsamples = 1\nvalue = [1, 0]"] ;
65 -> 66 ;
67 [label="gini = 0.0\nsamples = 1\nvalue = [0, 1]"] ;
65 -> 67 ;
68 [label="gini = 0.0\nsamples = 5\nvalue = [6, 0]"] ;
64 -> 68 ;
69 [label="HOME_AWAY_GOAL_DIFF <= 2.5\ngini = 0.5\nsamples = 9\nvalue = [8, 8]"] ;
55 -> 69 ;
70 [label="gini = 0.0\nsamples = 1\nvalue = [0, 2]"] ;
69 -> 70 ;
71 [label="HOME_AWAY_GOAL_DIFF <= 3.5\ngini = 0.5\nsamples = 8\nvalue = [8, 6]"] ;
69 -> 71 ;
72 [label="ELO_DIFF <= -6.0\ngini = 0.5\nsamples = 3\nvalue = [2, 3]"] ;
71 -> 72 ;
73 [label="ELO_DIFF <= -8.0\ngini = 0.4\nsamples = 2\nvalue = [2, 1]"] ;
72 -> 73 ;
74 [label="gini = 0.0\nsamples = 1\nvalue = [0, 1]"] ;
73 -> 74 ;
75 [label="gini = 0.0\nsamples = 1\nvalue = [2, 0]"] ;
73 -> 75 ;
76 [label="gini = 0.0\nsamples = 1\nvalue = [0, 2]"] ;
72 -> 76 ;
77 [label="ELO_DIFF <= -4.0\ngini = 0.4\nsamples = 5\nvalue = [6, 3]"] ;
71 -> 77 ;
78 [label="gini = 0.0\nsamples = 4\nvalue = [6, 0]"] ;
77 -> 78 ;
79 [label="gini = 0.0\nsamples = 1\nvalue = [0, 3]"] ;
77 -> 79 ;
80 [label="gini = 0.0\nsamples = 3\nvalue = [0, 3]"] ;
54 -> 80 ;
81 [label="RECENT_PERF_DIFF <= 7.0\ngini = 0.2\nsamples = 4\nvalue = [11, 1]"] ;
33 -> 81 ;
82 [label="gini = 0.0\nsamples = 3\nvalue = [11, 0]"] ;
81 -> 82 ;
83 [label="gini = 0.0\nsamples = 1\nvalue = [0, 1]"] ;
81 -> 83 ;
84 [label="HOME_AWAY_GOAL_DIFF <= 5.5\ngini = 0.5\nsamples = 93\nvalue = [78, 73]"] ;
32 -> 84 ;
85 [label="HOME_AWAY_GOAL_DIFF <= -2.5\ngini = 0.5\nsamples = 89\nvalue = [72, 73]"] ;
84 -> 85 ;
86 [label="ELO_DIFF <= 1.5\ngini = 0.5\nsamples = 6\nvalue = [4, 7]"] ;
85 -> 86 ;
87 [label="gini = 0.0\nsamples = 3\nvalue = [0, 5]"] ;
86 -> 87 ;
88 [label="ELO_DIFF <= 4.0\ngini = 0.4\nsamples = 3\nvalue = [4, 2]"] ;
86 -> 88 ;
89 [label="gini = 0.0\nsamples = 1\nvalue = [3, 0]"] ;
88 -> 89 ;
90 [label="ELO_DIFF <= 8.0\ngini = 0.4\nsamples = 2\nvalue = [1, 2]"] ;
88 -> 90 ;
91 [label="gini = 0.0\nsamples = 1\nvalue = [0, 2]"] ;
90 -> 91 ;
92 [label="gini = 0.0\nsamples = 1\nvalue = [1, 0]"] ;
90 -> 92 ;
93 [label="ELO_DIFF <= 2.5\ngini = 0.5\nsamples = 83\nvalue = [68, 66]"] ;
85 -> 93 ;
94 [label="HOME_AWAY_GOAL_DIFF <= 0.5\ngini = 0.5\nsamples = 30\nvalue = [22, 32]"] ;
93 -> 94 ;
95 [label="ELO_DIFF <= 1.5\ngini = 0.4\nsamples = 14\nvalue = [8, 20]"] ;
94 -> 95 ;
96 [label="RECENT_PERF_DIFF <= -1.5\ngini = 0.5\nsamples = 11\nvalue = [8, 14]"] ;
95 -> 96 ;
97 [label="ELO_DIFF <= -1.5\ngini = 0.5\nsamples = 5\nvalue = [6, 4]"] ;
96 -> 97 ;
98 [label="gini = 0.3\nsamples = 2\nvalue = [1, 4]"] ;
97 -> 98 ;
99 [label="gini = 0.0\nsamples = 3\nvalue = [5, 0]"] ;
97 -> 99 ;
100 [label="HOME_AWAY_GOAL_DIFF <= -0.5\ngini = 0.3\nsamples = 6\nvalue = [2, 10]"] ;
96 -> 100 ;
101 [label="gini = 0.0\nsamples = 1\nvalue = [0, 4]"] ;
100 -> 101 ;
102 [label="ELO_DIFF <= 0.0\ngini = 0.4\nsamples = 5\nvalue = [2, 6]"] ;
100 -> 102 ;
103 [label="gini = 0.4\nsamples = 3\nvalue = [2, 1]"] ;
102 -> 103 ;
104 [label="gini = 0.0\nsamples = 2\nvalue = [0, 5]"] ;
102 -> 104 ;
105 [label="gini = 0.0\nsamples = 3\nvalue = [0, 6]"] ;
95 -> 105 ;
106 [label="RECENT_PERF_DIFF <= 3.5\ngini = 0.5\nsamples = 16\nvalue = [14, 12]"] ;
94 -> 106 ;
107 [label="RECENT_PERF_DIFF <= 2.5\ngini = 0.5\nsamples = 12\nvalue = [10, 10]"] ;
106 -> 107 ;
108 [label="RECENT_PERF_DIFF <= 1.5\ngini = 0.5\nsamples = 11\nvalue = [10, 8]"] ;
107 -> 108 ;
109 [label="ELO_DIFF <= 0.5\ngini = 0.5\nsamples = 7\nvalue = [7, 6]"] ;
108 -> 109 ;
110 [label="ELO_DIFF <= -0.5\ngini = 0.5\nsamples = 6\nvalue = [7, 4]"] ;
109 -> 110 ;
111 [label="ELO_DIFF <= -1.5\ngini = 0.5\nsamples = 5\nvalue = [6, 4]"] ;
110 -> 111 ;
112 [label="gini = 0.4\nsamples = 3\nvalue = [5, 2]"] ;
111 -> 112 ;
113 [label="gini = 0.4\nsamples = 2\nvalue = [1, 2]"] ;
111 -> 113 ;
114 [label="gini = 0.0\nsamples = 1\nvalue = [1, 0]"] ;
110 -> 114 ;
115 [label="gini = 0.0\nsamples = 1\nvalue = [0, 2]"] ;
109 -> 115 ;
116 [label="ELO_DIFF <= 1.0\ngini = 0.5\nsamples = 4\nvalue = [3, 2]"] ;
108 -> 116 ;
117 [label="ELO_DIFF <= -1.0\ngini = 0.4\nsamples = 3\nvalue = [3, 1]"] ;
116 -> 117 ;
118 [label="gini = 0.5\nsamples = 2\nvalue = [1, 1]"] ;
117 -> 118 ;
119 [label="gini = 0.0\nsamples = 1\nvalue = [2, 0]"] ;
117 -> 119 ;
120 [label="gini = 0.0\nsamples = 1\nvalue = [0, 1]"] ;
116 -> 120 ;
121 [label="gini = 0.0\nsamples = 1\nvalue = [0, 2]"] ;
107 -> 121 ;
122 [label="ELO_DIFF <= 1.5\ngini = 0.4\nsamples = 4\nvalue = [4, 2]"] ;
106 -> 122 ;
123 [label="gini = 0.0\nsamples = 2\nvalue = [3, 0]"] ;
122 -> 123 ;
124 [label="RECENT_PERF_DIFF <= 4.5\ngini = 0.4\nsamples = 2\nvalue = [1, 2]"] ;
122 -> 124 ;
125 [label="gini = 0.0\nsamples = 1\nvalue = [1, 0]"] ;
124 -> 125 ;
126 [label="gini = 0.0\nsamples = 1\nvalue = [0, 2]"] ;
124 -> 126 ;
127 [label="HOME_AWAY_GOAL_DIFF <= 1.5\ngini = 0.5\nsamples = 53\nvalue = [46, 34]"] ;
93 -> 127 ;
128 [label="HOME_AWAY_GOAL_DIFF <= -1.5\ngini = 0.5\nsamples = 35\nvalue = [34, 18]"] ;
127 -> 128 ;
129 [label="ELO_DIFF <= 5.5\ngini = 0.5\nsamples = 7\nvalue = [4, 6]"] ;
128 -> 129 ;
130 [label="gini = 0.0\nsamples = 2\nvalue = [3, 0]"] ;
129 -> 130 ;
131 [label="ELO_DIFF <= 7.5\ngini = 0.2\nsamples = 5\nvalue = [1, 6]"] ;
129 -> 131 ;
132 [label="gini = 0.4\nsamples = 2\nvalue = [1, 2]"] ;
131 -> 132 ;
133 [label="gini = 0.0\nsamples = 3\nvalue = [0, 4]"] ;
131 -> 133 ;
134 [label="ELO_DIFF <= 4.0\ngini = 0.4\nsamples = 28\nvalue = [30, 12]"] ;
128 -> 134 ;
135 [label="gini = 0.0\nsamples = 1\nvalue = [0, 1]"] ;
134 -> 135 ;
136 [label="ELO_DIFF <= 13.0\ngini = 0.4\nsamples = 27\nvalue = [30, 11]"] ;
134 -> 136 ;
137 [label="RECENT_PERF_DIFF <= 0.5\ngini = 0.3\nsamples = 20\nvalue = [24, 7]"] ;
136 -> 137 ;
138 [label="HOME_AWAY_GOAL_DIFF <= -0.5\ngini = 0.2\nsamples = 13\nvalue = [19, 3]"] ;
137 -> 138 ;
139 [label="ELO_DIFF <= 6.5\ngini = 0.3\nsamples = 7\nvalue = [10, 2]"] ;
138 -> 139 ;
140 [label="ELO_DIFF <= 5.5\ngini = 0.5\nsamples = 3\nvalue = [3, 2]"] ;
139 -> 140 ;
141 [label="gini = 0.0\nsamples = 2\nvalue = [3, 0]"] ;
140 -> 141 ;
142 [label="gini = 0.0\nsamples = 1\nvalue = [0, 2]"] ;
140 -> 142 ;
143 [label="gini = 0.0\nsamples = 4\nvalue = [7, 0]"] ;
139 -> 143 ;
144 [label="ELO_DIFF <= 7.0\ngini = 0.2\nsamples = 6\nvalue = [9, 1]"] ;
138 -> 144 ;
145 [label="gini = 0.0\nsamples = 3\nvalue = [5, 0]"] ;
144 -> 145 ;
146 [label="ELO_DIFF <= 9.5\ngini = 0.3\nsamples = 3\nvalue = [4, 1]"] ;
144 -> 146 ;
147 [label="gini = 0.0\nsamples = 1\nvalue = [0, 1]"] ;
146 -> 147 ;
148 [label="gini = 0.0\nsamples = 2\nvalue = [4, 0]"] ;
146 -> 148 ;
149 [label="ELO_DIFF <= 11.0\ngini = 0.5\nsamples = 7\nvalue = [5, 4]"] ;
137 -> 149 ;
150 [label="ELO_DIFF <= 5.5\ngini = 0.5\nsamples = 5\nvalue = [3, 4]"] ;
149 -> 150 ;
151 [label="gini = 0.0\nsamples = 1\nvalue = [0, 1]"] ;
150 -> 151 ;
152 [label="ELO_DIFF <= 8.0\ngini = 0.5\nsamples = 4\nvalue = [3, 3]"] ;
150 -> 152 ;
153 [label="gini = 0.5\nsamples = 2\nvalue = [1, 1]"] ;
152 -> 153 ;
154 [label="gini = 0.5\nsamples = 2\nvalue = [2, 2]"] ;
152 -> 154 ;
155 [label="gini = 0.0\nsamples = 2\nvalue = [2, 0]"] ;
149 -> 155 ;
156 [label="HOME_AWAY_GOAL_DIFF <= -0.5\ngini = 0.5\nsamples = 7\nvalue = [6, 4]"] ;
136 -> 156 ;
157 [label="gini = 0.0\nsamples = 1\nvalue = [0, 2]"] ;
156 -> 157 ;
158 [label="ELO_DIFF <= 14.5\ngini = 0.4\nsamples = 6\nvalue = [6, 2]"] ;
156 -> 158 ;
159 [label="gini = 0.0\nsamples = 1\nvalue = [0, 1]"] ;
158 -> 159 ;
160 [label="HOME_AWAY_GOAL_DIFF <= 0.5\ngini = 0.2\nsamples = 5\nvalue = [6, 1]"] ;
158 -> 160 ;
161 [label="gini = 0.0\nsamples = 2\nvalue = [2, 0]"] ;
160 -> 161 ;
162 [label="ELO_DIFF <= 18.5\ngini = 0.3\nsamples = 3\nvalue = [4, 1]"] ;
160 -> 162 ;
163 [label="gini = 0.0\nsamples = 2\nvalue = [4, 0]"] ;
162 -> 163 ;
164 [label="gini = 0.0\nsamples = 1\nvalue = [0, 1]"] ;
162 -> 164 ;
165 [label="HOME_AWAY_GOAL_DIFF <= 2.5\ngini = 0.5\nsamples = 18\nvalue = [12, 16]"] ;
127 -> 165 ;
166 [label="ELO_DIFF <= 4.0\ngini = 0.4\nsamples = 6\nvalue = [3, 7]"] ;
165 -> 166 ;
167 [label="gini = 0.0\nsamples = 1\nvalue = [3, 0]"] ;
166 -> 167 ;
168 [label="gini = 0.0\nsamples = 5\nvalue = [0, 7]"] ;
166 -> 168 ;
169 [label="ELO_DIFF <= 12.5\ngini = 0.5\nsamples = 12\nvalue = [9, 9]"] ;
165 -> 169 ;
170 [label="HOME_AWAY_GOAL_DIFF <= 4.5\ngini = 0.5\nsamples = 9\nvalue = [5, 9]"] ;
169 -> 170 ;
171 [label="ELO_DIFF <= 6.5\ngini = 0.3\nsamples = 7\nvalue = [2, 7]"] ;
170 -> 171 ;
172 [label="RECENT_PERF_DIFF <= 3.5\ngini = 0.5\nsamples = 3\nvalue = [2, 2]"] ;
171 -> 172 ;
173 [label="ELO_DIFF <= 3.5\ngini = 0.4\nsamples = 2\nvalue = [1, 2]"] ;
172 -> 173 ;
174 [label="gini = 0.0\nsamples = 1\nvalue = [0, 2]"] ;
173 -> 174 ;
175 [label="gini = 0.0\nsamples = 1\nvalue = [1, 0]"] ;
173 -> 175 ;
176 [label="gini = 0.0\nsamples = 1\nvalue = [1, 0]"] ;
172 -> 176 ;
177 [label="gini = 0.0\nsamples = 4\nvalue = [0, 5]"] ;
171 -> 177 ;
178 [label="ELO_DIFF <= 7.5\ngini = 0.5\nsamples = 2\nvalue = [3, 2]"] ;
170 -> 178 ;
179 [label="gini = 0.0\nsamples = 1\nvalue = [3, 0]"] ;
178 -> 179 ;
180 [label="gini = 0.0\nsamples = 1\nvalue = [0, 2]"] ;
178 -> 180 ;
181 [label="gini = 0.0\nsamples = 3\nvalue = [4, 0]"] ;
169 -> 181 ;
182 [label="gini = 0.0\nsamples = 4\nvalue = [6, 0]"] ;
84 -> 182 ;
}