digraph Tree {
node [shape=box, style="rounded", color="black", fontname="helvetica"] ;
edge [fontname="helvetica"] ;
0 [label="RECENT_PERF_DIFF <= 4.0\ngini = 0.5\nsamples = 3961\nvalue = [3419, 2842]"] ;
1 [label="ELO_DIFF <= 3.2\ngini = 0.5\nsamples = 2068\nvalue = [1984, 1291]"] ;
0 -> 1 [labeldistance=2.5, labelangle=45, headlabel="True"] ;
2 [label="HOME_AWAY_GOAL_DIFF <= 1.9\ngini = 0.4\nsamples = 691\nvalue = [802, 297]"] ;
1 -> 2 ;
3 [label="RECENT_PERF_DIFF <= 1.5\ngini = 0.2\nsamples = 44\nvalue = [71, 9]"] ;
2 -> 3 ;
4 [label="ELO_DIFF <= 2.2\ngini = 0.1\nsamples = 18\nvalue = [23, 1]"] ;
3 -> 4 ;
5 [label="gini = 0.0\nsamples = 9\nvalue = [12, 0]"] ;
4 -> 5 ;
6 [label="HOME_AWAY_GOAL_DIFF <= 1.0\ngini = 0.2\nsamples = 9\nvalue = [11, 1]"] ;
4 -> 6 ;
7 [label="ELO_DIFF <= 2.5\ngini = 0.4\nsamples = 3\nvalue = [2, 1]"] ;
6 -> 7 ;
8 [label="gini = 0.0\nsamples = 1\nvalue = [0, 1]"] ;
7 -> 8 ;
9 [label="gini = 0.0\nsamples = 2\nvalue = [2, 0]"] ;
7 -> 9 ;
10 [label="gini = 0.0\nsamples = 6\nvalue = [9, 0]"] ;
6 -> 10 ;
11 [label="RECENT_PERF_DIFF <= 1.7\ngini = 0.2\nsamples = 26\nvalue = [48, 8]"] ;
3 -> 11 ;
12 [label="ELO_DIFF <= 2.7\ngini = 0.2\nsamples = 11\nvalue = [19, 3]"] ;
11 -> 12 ;
13 [label="gini = 0.0\nsamples = 9\nvalue = [17, 0]"] ;
12 -> 13 ;
14 [label="ELO_DIFF <= 3.1\ngini = 0.5\nsamples = 2\nvalue = [2, 3]"] ;
12 -> 14 ;
15 [label="gini = 0.0\nsamples = 1\nvalue = [0, 3]"] ;
14 -> 15 ;
16 [label="gini = 0.0\nsamples = 1\nvalue = [2, 0]"] ;
14 -> 16 ;
17 [label="ELO_DIFF <= 2.3\ngini = 0.3\nsamples = 15\nvalue = [29, 5]"] ;
11 -> 17 ;
18 [label="ELO_DIFF <= 1.9\ngini = 0.5\nsamples = 4\nvalue = [5, 5]"] ;
17 -> 18 ;
19 [label="gini = 0.0\nsamples = 2\nvalue = [5, 0]"] ;
18 -> 19 ;
20 [label="gini = 0.0\nsamples = 2\nvalue = [0, 5]"] ;
18 -> 20 ;
21 [label="gini = 0.0\nsamples = 11\nvalue = [24, 0]"] ;
17 -> 21 ;
22 [label="RECENT_PERF_DIFF <= 2.2\ngini = 0.4\nsamples = 647\nvalue = [731, 288]"] ;
2 -> 22 ;
23 [label="HOME_AWAY_GOAL_DIFF <= 2.0\ngini = 0.5\nsamples = 37\nvalue = [30, 26]"] ;
22 -> 23 ;
24 [label="ELO_DIFF <= 1.2\ngini = 0.5\nsamples = 20\nvalue = [17, 11]"] ;
23 -> 24 ;
25 [label="gini = 0.0\nsamples = 4\nvalue = [7, 0]"] ;
24 -> 25 ;
26 [label="ELO_DIFF <= 1.8\ngini = 0.5\nsamples = 16\nvalue = [10, 11]"] ;
24 -> 26 ;
27 [label="gini = 0.0\nsamples = 2\nvalue = [0, 2]"] ;
26 -> 27 ;
28 [label="ELO_DIFF <= 1.9\ngini = 0.5\nsamples = 14\nvalue = [10, 9]"] ;
26 -> 28 ;
29 [label="gini = 0.0\nsamples = 2\nvalue = [2, 0]"] ;
28 -> 29 ;
30 [label="ELO_DIFF <= 2.2\ngini = 0.5\nsamples = 12\nvalue = [8, 9]"] ;
28 -> 30 ;
31 [label="ELO_DIFF <= 2.1\ngini = 0.4\nsamples = 3\nvalue = [1, 3]"] ;
30 -> 31 ;
32 [label="gini = 0.4\nsamples = 2\nvalue = [1, 2]"] ;
31 -> 32 ;
33 [label="gini = 0.0\nsamples = 1\nvalue = [0, 1]"] ;
31 -> 33 ;
34 [label="ELO_DIFF <= 2.5\ngini = 0.5\nsamples = 9\nvalue = [7, 6]"] ;
30 -> 34 ;
35 [label="gini = 0.0\nsamples = 2\nvalue = [3, 0]"] ;
34 -> 35 ;
36 [label="ELO_DIFF <= 2.8\ngini = 0.5\nsamples = 7\nvalue = [4, 6]"] ;
34 -> 36 ;
37 [label="gini = 0.0\nsamples = 1\nvalue = [0, 2]"] ;
36 -> 37 ;
38 [label="ELO_DIFF <= 3.0\ngini = 0.5\nsamples = 6\nvalue = [4, 4]"] ;
36 -> 38 ;
39 [label="gini = 0.0\nsamples = 2\nvalue = [2, 0]"] ;
38 -> 39 ;
40 [label="ELO_DIFF <= 3.1\ngini = 0.4\nsamples = 4\nvalue = [2, 4]"] ;
38 -> 40 ;
41 [label="gini = 0.4\nsamples = 2\nvalue = [1, 2]"] ;
40 -> 41 ;
42 [label="gini = 0.4\nsamples = 2\nvalue = [1, 2]"] ;
40 -> 42 ;
43 [label="ELO_DIFF <= 2.4\ngini = 0.5\nsamples = 17\nvalue = [13, 15]"] ;
23 -> 43 ;
44 [label="ELO_DIFF <= 1.7\ngini = 0.2\nsamples = 6\nvalue = [9, 1]"] ;
43 -> 44 ;
45 [label="ELO_DIFF <= 1.5\ngini = 0.4\nsamples = 2\nvalue = [3, 1]"] ;
44 -> 45 ;
46 [label="gini = 0.0\nsamples = 1\nvalue = [3, 0]"] ;
45 -> 46 ;
47 [label="gini = 0.0\nsamples = 1\nvalue = [0, 1]"] ;
45 -> 47 ;
48 [label="gini = 0.0\nsamples = 4\nvalue = [6, 0]"] ;
44 -> 48 ;
49 [label="ELO_DIFF <= 3.0\ngini = 0.3\nsamples = 11\nvalue = [4, 14]"] ;
43 -> 49 ;
50 [label="ELO_DIFF <= 2.7\ngini = 0.2\nsamples = 6\nvalue = [1, 11]"] ;
49 -> 50 ;
51 [label="ELO_DIFF <= 2.6\ngini = 0.5\nsamples = 2\nvalue = [1, 1]"] ;
50 -> 51 ;
52 [label="gini = 0.0\nsamples = 1\nvalue = [0, 1]"] ;
51 -> 52 ;
53 [label="gini = 0.0\nsamples = 1\nvalue = [1, 0]"] ;
51 -> 53 ;
54 [label="gini = 0.0\nsamples = 4\nvalue = [0, 10]"] ;
50 -> 54 ;
55 [label="ELO_DIFF <= 3.1\ngini = 0.5\nsamples = 5\nvalue = [3, 3]"] ;
49 -> 55 ;
56 [label="gini = 0.5\nsamples = 4\nvalue = [2, 3]"] ;
55 -> 56 ;
57 [label="gini = 0.0\nsamples = 1\nvalue = [1, 0]"] ;
55 -> 57 ;
58 [label="RECENT_PERF_DIFF <= 3.4\ngini = 0.4\nsamples = 610\nvalue = [701, 262]"] ;
22 -> 58 ;
59 [label="ELO_DIFF <= 2.6\ngini = 0.4\nsamples = 373\nvalue = [439, 149]"] ;
58 -> 59 ;
60 [label="RECENT_PERF_DIFF <= 3.0\ngini = 0.3\nsamples = 167\nvalue = [203, 54]"] ;
59 -> 60 ;
61 [label="ELO_DIFF <= 1.4\ngini = 0.3\nsamples = 101\nvalue = [122, 26]"] ;
60 -> 61 ;
62 [label="gini = 0.0\nsamples = 12\nvalue = [16, 0]"] ;
61 -> 62 ;
63 [label="HOME_AWAY_GOAL_DIFF <= 2.8\ngini = 0.3\nsamples = 89\nvalue = [106, 26]"] ;
61 -> 63 ;
64 [label="ELO_DIFF <= 1.6\ngini = 0.3\nsamples = 59\nvalue = [64, 18]"] ;
63 -> 64 ;
65 [label="RECENT_PERF_DIFF <= 2.5\ngini = 0.4\nsamples = 3\nvalue = [1, 2]"] ;
64 -> 65 ;
66 [label="gini = 0.0\nsamples = 1\nvalue = [1, 0]"] ;
65 -> 66 ;
67 [label="gini = 0.0\nsamples = 2\nvalue = [0, 2]"] ;
65 -> 67 ;
68 [label="HOME_AWAY_GOAL_DIFF <= 2.4\ngini = 0.3\nsamples = 56\nvalue = [63, 16]"] ;
64 -> 68 ;
69 [label="ELO_DIFF <= 2.3\ngini = 0.3\nsamples = 17\nvalue = [18, 4]"] ;
68 -> 69 ;
70 [label="ELO_DIFF <= 1.9\ngini = 0.4\nsamples = 10\nvalue = [9, 4]"] ;
69 -> 70 ;
71 [label="gini = 0.0\nsamples = 3\nvalue = [3, 0]"] ;
70 -> 71 ;
72 [label="ELO_DIFF <= 2.2\ngini = 0.5\nsamples = 7\nvalue = [6, 4]"] ;
70 -> 72 ;
73 [label="ELO_DIFF <= 2.1\ngini = 0.5\nsamples = 4\nvalue = [2, 2]"] ;
72 -> 73 ;
74 [label="gini = 0.4\nsamples = 3\nvalue = [2, 1]"] ;
73 -> 74 ;
75 [label="gini = 0.0\nsamples = 1\nvalue = [0, 1]"] ;
73 -> 75 ;
76 [label="gini = 0.4\nsamples = 3\nvalue = [4, 2]"] ;
72 -> 76 ;
77 [label="gini = 0.0\nsamples = 7\nvalue = [9, 0]"] ;
69 -> 77 ;
78 [label="HOME_AWAY_GOAL_DIFF <= 2.6\ngini = 0.3\nsamples = 39\nvalue = [45, 12]"] ;
68 -> 78 ;
79 [label="ELO_DIFF <= 1.9\ngini = 0.4\nsamples = 16\nvalue = [17, 5]"] ;
78 -> 79 ;
80 [label="gini = 0.0\nsamples = 2\nvalue = [5, 0]"] ;
79 -> 80 ;
81 [label="ELO_DIFF <= 2.1\ngini = 0.4\nsamples = 14\nvalue = [12, 5]"] ;
79 -> 81 ;
82 [label="gini = 0.0\nsamples = 1\nvalue = [0, 1]"] ;
81 -> 82 ;
83 [label="ELO_DIFF <= 2.3\ngini = 0.4\nsamples = 13\nvalue = [12, 4]"] ;
81 -> 83 ;
84 [label="gini = 0.2\nsamples = 6\nvalue = [7, 1]"] ;
83 -> 84 ;
85 [label="ELO_DIFF <= 2.5\ngini = 0.5\nsamples = 7\nvalue = [5, 3]"] ;
83 -> 85 ;
86 [label="gini = 0.5\nsamples = 5\nvalue = [3, 2]"] ;
85 -> 86 ;
87 [label="gini = 0.4\nsamples = 2\nvalue = [2, 1]"] ;
85 -> 87 ;
88 [label="ELO_DIFF <= 2.4\ngini = 0.3\nsamples = 23\nvalue = [28, 7]"] ;
78 -> 88 ;
89 [label="ELO_DIFF <= 2.2\ngini = 0.4\nsamples = 16\nvalue = [18, 7]"] ;
88 -> 89 ;
90 [label="ELO_DIFF <= 1.8\ngini = 0.3\nsamples = 10\nvalue = [12, 3]"] ;
89 -> 90 ;
91 [label="ELO_DIFF <= 1.7\ngini = 0.4\nsamples = 5\nvalue = [4, 2]"] ;
90 -> 91 ;
92 [label="gini = 0.0\nsamples = 2\nvalue = [2, 0]"] ;
91 -> 92 ;
93 [label="gini = 0.5\nsamples = 3\nvalue = [2, 2]"] ;
91 -> 93 ;
94 [label="ELO_DIFF <= 1.9\ngini = 0.2\nsamples = 5\nvalue = [8, 1]"] ;
90 -> 94 ;
95 [label="gini = 0.0\nsamples = 2\nvalue = [5, 0]"] ;
94 -> 95 ;
96 [label="ELO_DIFF <= 2.1\ngini = 0.4\nsamples = 3\nvalue = [3, 1]"] ;
94 -> 96 ;
97 [label="gini = 0.0\nsamples = 1\nvalue = [0, 1]"] ;
96 -> 97 ;
98 [label="gini = 0.0\nsamples = 2\nvalue = [3, 0]"] ;
96 -> 98 ;
99 [label="ELO_DIFF <= 2.3\ngini = 0.5\nsamples = 6\nvalue = [6, 4]"] ;
89 -> 99 ;
100 [label="gini = 0.5\nsamples = 2\nvalue = [2, 2]"] ;
99 -> 100 ;
101 [label="gini = 0.4\nsamples = 4\nvalue = [4, 2]"] ;
99 -> 101 ;
102 [label="gini = 0.0\nsamples = 7\nvalue = [10, 0]"] ;
88 -> 102 ;
103 [label="ELO_DIFF <= 2.1\ngini = 0.3\nsamples = 30\nvalue = [42, 8]"] ;
63 -> 103 ;
104 [label="gini = 0.0\nsamples = 10\nvalue = [16, 0]"] ;
103 -> 104 ;
105 [label="ELO_DIFF <= 2.3\ngini = 0.4\nsamples = 20\nvalue = [26, 8]"] ;
103 -> 105 ;
106 [label="gini = 0.5\nsamples = 4\nvalue = [4, 4]"] ;
105 -> 106 ;
107 [label="ELO_DIFF <= 2.5\ngini = 0.3\nsamples = 16\nvalue = [22, 4]"] ;
105 -> 107 ;
108 [label="ELO_DIFF <= 2.4\ngini = 0.3\nsamples = 12\nvalue = [15, 4]"] ;
107 -> 108 ;
109 [label="gini = 0.3\nsamples = 6\nvalue = [9, 2]"] ;
108 -> 109 ;
110 [label="gini = 0.4\nsamples = 6\nvalue = [6, 2]"] ;
108 -> 110 ;
111 [label="gini = 0.0\nsamples = 4\nvalue = [7, 0]"] ;
107 -> 111 ;
112 [label="HOME_AWAY_GOAL_DIFF <= 3.2\ngini = 0.4\nsamples = 66\nvalue = [81, 28]"] ;
60 -> 112 ;
113 [label="ELO_DIFF <= 1.9\ngini = 0.4\nsamples = 30\nvalue = [37, 13]"] ;
112 -> 113 ;
114 [label="ELO_DIFF <= 1.4\ngini = 0.5\nsamples = 7\nvalue = [4, 7]"] ;
113 -> 114 ;
115 [label="ELO_DIFF <= 0.6\ngini = 0.4\nsamples = 4\nvalue = [4, 2]"] ;
114 -> 115 ;
116 [label="gini = 0.0\nsamples = 1\nvalue = [2, 0]"] ;
115 -> 116 ;
117 [label="ELO_DIFF <= 0.9\ngini = 0.5\nsamples = 3\nvalue = [2, 2]"] ;
115 -> 117 ;
118 [label="gini = 0.0\nsamples = 1\nvalue = [0, 2]"] ;
117 -> 118 ;
119 [label="gini = 0.0\nsamples = 2\nvalue = [2, 0]"] ;
117 -> 119 ;
120 [label="gini = 0.0\nsamples = 3\nvalue = [0, 5]"] ;
114 -> 120 ;
121 [label="ELO_DIFF <= 2.3\ngini = 0.3\nsamples = 23\nvalue = [33, 6]"] ;
113 -> 121 ;
122 [label="gini = 0.0\nsamples = 7\nvalue = [13, 0]"] ;
121 -> 122 ;
123 [label="ELO_DIFF <= 2.5\ngini = 0.4\nsamples = 16\nvalue = [20, 6]"] ;
121 -> 123 ;
124 [label="ELO_DIFF <= 2.4\ngini = 0.4\nsamples = 12\nvalue = [16, 5]"] ;
123 -> 124 ;
125 [label="gini = 0.4\nsamples = 7\nvalue = [10, 3]"] ;
124 -> 125 ;
126 [label="gini = 0.4\nsamples = 5\nvalue = [6, 2]"] ;
124 -> 126 ;
127 [label="gini = 0.3\nsamples = 4\nvalue = [4, 1]"] ;
123 -> 127 ;
128 [label="ELO_DIFF <= 1.1\ngini = 0.4\nsamples = 36\nvalue = [44, 15]"] ;
112 -> 128 ;
129 [label="gini = 0.0\nsamples = 2\nvalue = [4, 0]"] ;
128 -> 129 ;
130 [label="ELO_DIFF <= 1.4\ngini = 0.4\nsamples = 34\nvalue = [40, 15]"] ;
128 -> 130 ;
131 [label="gini = 0.0\nsamples = 1\nvalue = [0, 2]"] ;
130 -> 131 ;
132 [label="ELO_DIFF <= 2.4\ngini = 0.4\nsamples = 33\nvalue = [40, 13]"] ;
130 -> 132 ;
133 [label="ELO_DIFF <= 1.6\ngini = 0.4\nsamples = 23\nvalue = [24, 10]"] ;
132 -> 133 ;
134 [label="gini = 0.0\nsamples = 2\nvalue = [3, 0]"] ;
133 -> 134 ;
135 [label="ELO_DIFF <= 1.7\ngini = 0.4\nsamples = 21\nvalue = [21, 10]"] ;
133 -> 135 ;
136 [label="gini = 0.0\nsamples = 1\nvalue = [0, 2]"] ;
135 -> 136 ;
137 [label="ELO_DIFF <= 1.9\ngini = 0.4\nsamples = 20\nvalue = [21, 8]"] ;
135 -> 137 ;
138 [label="gini = 0.0\nsamples = 3\nvalue = [6, 0]"] ;
137 -> 138 ;
139 [label="ELO_DIFF <= 2.2\ngini = 0.5\nsamples = 17\nvalue = [15, 8]"] ;
137 -> 139 ;
140 [label="ELO_DIFF <= 2.1\ngini = 0.4\nsamples = 8\nvalue = [7, 3]"] ;
139 -> 140 ;
141 [label="gini = 0.4\nsamples = 3\nvalue = [2, 1]"] ;
140 -> 141 ;
142 [label="gini = 0.4\nsamples = 5\nvalue = [5, 2]"] ;
140 -> 142 ;
143 [label="ELO_DIFF <= 2.3\ngini = 0.5\nsamples = 9\nvalue = [8, 5]"] ;
139 -> 143 ;
144 [label="gini = 0.5\nsamples = 4\nvalue = [4, 3]"] ;
143 -> 144 ;
145 [label="gini = 0.4\nsamples = 5\nvalue = [4, 2]"] ;
143 -> 145 ;
146 [label="ELO_DIFF <= 2.5\ngini = 0.3\nsamples = 10\nvalue = [16, 3]"] ;
132 -> 146 ;
147 [label="gini = 0.3\nsamples = 6\nvalue = [11, 2]"] ;
146 -> 147 ;
148 [label="gini = 0.3\nsamples = 4\nvalue = [5, 1]"] ;
146 -> 148 ;
149 [label="RECENT_PERF_DIFF <= 2.4\ngini = 0.4\nsamples = 206\nvalue = [236, 95]"] ;
59 -> 149 ;
150 [label="ELO_DIFF <= 2.9\ngini = 0.5\nsamples = 19\nvalue = [14, 14]"] ;
149 -> 150 ;
151 [label="ELO_DIFF <= 2.7\ngini = 0.3\nsamples = 10\nvalue = [3, 11]"] ;
150 -> 151 ;
152 [label="gini = 0.4\nsamples = 3\nvalue = [1, 2]"] ;
151 -> 152 ;
153 [label="ELO_DIFF <= 2.8\ngini = 0.3\nsamples = 7\nvalue = [2, 9]"] ;
151 -> 153 ;
154 [label="gini = 0.2\nsamples = 5\nvalue = [1, 7]"] ;
153 -> 154 ;
155 [label="gini = 0.4\nsamples = 2\nvalue = [1, 2]"] ;
153 -> 155 ;
156 [label="ELO_DIFF <= 3.0\ngini = 0.3\nsamples = 9\nvalue = [11, 3]"] ;
150 -> 156 ;
157 [label="gini = 0.0\nsamples = 3\nvalue = [5, 0]"] ;
156 -> 157 ;
158 [label="ELO_DIFF <= 3.1\ngini = 0.4\nsamples = 6\nvalue = [6, 3]"] ;
156 -> 158 ;
159 [label="gini = 0.5\nsamples = 4\nvalue = [4, 3]"] ;
158 -> 159 ;
160 [label="gini = 0.0\nsamples = 2\nvalue = [2, 0]"] ;
158 -> 160 ;
161 [label="RECENT_PERF_DIFF <= 3.0\ngini = 0.4\nsamples = 187\nvalue = [222, 81]"] ;
149 -> 161 ;
162 [label="HOME_AWAY_GOAL_DIFF <= 2.6\ngini = 0.4\nsamples = 105\nvalue = [114, 48]"] ;
161 -> 162 ;
163 [label="ELO_DIFF <= 3.1\ngini = 0.4\nsamples = 23\nvalue = [30, 9]"] ;
162 -> 163 ;
164 [label="ELO_DIFF <= 3.0\ngini = 0.4\nsamples = 20\nvalue = [25, 9]"] ;
163 -> 164 ;
165 [label="ELO_DIFF <= 2.8\ngini = 0.3\nsamples = 15\nvalue = [21, 5]"] ;
164 -> 165 ;
166 [label="ELO_DIFF <= 2.7\ngini = 0.4\nsamples = 9\nvalue = [11, 4]"] ;
165 -> 166 ;
167 [label="gini = 0.4\nsamples = 4\nvalue = [5, 2]"] ;
166 -> 167 ;
168 [label="gini = 0.4\nsamples = 5\nvalue = [6, 2]"] ;
166 -> 168 ;
169 [label="ELO_DIFF <= 2.9\ngini = 0.2\nsamples = 6\nvalue = [10, 1]"] ;
165 -> 169 ;
170 [label="gini = 0.2\nsamples = 5\nvalue = [9, 1]"] ;
169 -> 170 ;
171 [label="gini = 0.0\nsamples = 1\nvalue = [1, 0]"] ;
169 -> 171 ;
172 [label="gini = 0.5\nsamples = 5\nvalue = [4, 4]"] ;
164 -> 172 ;
173 [label="gini = 0.0\nsamples = 3\nvalue = [5, 0]"] ;
163 -> 173 ;
174 [label="HOME_AWAY_GOAL_DIFF <= 2.8\ngini = 0.4\nsamples = 82\nvalue = [84, 39]"] ;
162 -> 174 ;
175 [label="ELO_DIFF <= 3.0\ngini = 0.4\nsamples = 44\nvalue = [46, 20]"] ;
174 -> 175 ;
176 [label="ELO_DIFF <= 2.9\ngini = 0.5\nsamples = 29\nvalue = [25, 13]"] ;
175 -> 176 ;
177 [label="ELO_DIFF <= 2.8\ngini = 0.5\nsamples = 19\nvalue = [16, 9]"] ;
176 -> 177 ;
178 [label="ELO_DIFF <= 2.7\ngini = 0.4\nsamples = 15\nvalue = [14, 7]"] ;
177 -> 178 ;
179 [label="gini = 0.5\nsamples = 5\nvalue = [5, 3]"] ;
178 -> 179 ;
180 [label="gini = 0.4\nsamples = 10\nvalue = [9, 4]"] ;
178 -> 180 ;
181 [label="gini = 0.5\nsamples = 4\nvalue = [2, 2]"] ;
177 -> 181 ;
182 [label="gini = 0.4\nsamples = 10\nvalue = [9, 4]"] ;
176 -> 182 ;
183 [label="ELO_DIFF <= 3.1\ngini = 0.4\nsamples = 15\nvalue = [21, 7]"] ;
175 -> 183 ;
184 [label="gini = 0.4\nsamples = 8\nvalue = [11, 4]"] ;
183 -> 184 ;
185 [label="gini = 0.4\nsamples = 7\nvalue = [10, 3]"] ;
183 -> 185 ;
186 [label="ELO_DIFF <= 2.8\ngini = 0.4\nsamples = 38\nvalue = [38, 19]"] ;
174 -> 186 ;
187 [label="ELO_DIFF <= 2.7\ngini = 0.4\nsamples = 6\nvalue = [3, 6]"] ;
186 -> 187 ;
188 [label="gini = 0.4\nsamples = 3\nvalue = [3, 1]"] ;
187 -> 188 ;
189 [label="gini = 0.0\nsamples = 3\nvalue = [0, 5]"] ;
187 -> 189 ;
190 [label="ELO_DIFF <= 3.1\ngini = 0.4\nsamples = 32\nvalue = [35, 13]"] ;
186 -> 190 ;
191 [label="ELO_DIFF <= 2.9\ngini = 0.3\nsamples = 22\nvalue = [28, 6]"] ;
190 -> 191 ;
192 [label="gini = 0.0\nsamples = 5\nvalue = [10, 0]"] ;
191 -> 192 ;
193 [label="ELO_DIFF <= 3.0\ngini = 0.4\nsamples = 17\nvalue = [18, 6]"] ;
191 -> 193 ;
194 [label="gini = 0.4\nsamples = 10\nvalue = [11, 5]"] ;
193 -> 194 ;
195 [label="gini = 0.2\nsamples = 7\nvalue = [7, 1]"] ;
193 -> 195 ;
196 [label="gini = 0.5\nsamples = 10\nvalue = [7, 7]"] ;
190 -> 196 ;
197 [label="HOME_AWAY_GOAL_DIFF <= 3.2\ngini = 0.4\nsamples = 82\nvalue = [108, 33]"] ;
161 -> 197 ;
198 [label="ELO_DIFF <= 2.8\ngini = 0.3\nsamples = 39\nvalue = [48, 14]"] ;
197 -> 198 ;
199 [label="ELO_DIFF <= 2.7\ngini = 0.2\nsamples = 10\nvalue = [12, 2]"] ;
198 -> 199 ;
200 [label="gini = 0.3\nsamples = 7\nvalue = [7, 2]"] ;
199 -> 200 ;
201 [label="gini = 0.0\nsamples = 3\nvalue = [5, 0]"] ;
199 -> 201 ;
202 [label="ELO_DIFF <= 3.0\ngini = 0.4\nsamples = 29\nvalue = [36, 12]"] ;
198 -> 202 ;
203 [label="ELO_DIFF <= 2.9\ngini = 0.4\nsamples = 17\nvalue = [17, 8]"] ;
202 -> 203 ;
204 [label="gini = 0.4\nsamples = 12\nvalue = [12, 6]"] ;
203 -> 204 ;
205 [label="gini = 0.4\nsamples = 5\nvalue = [5, 2]"] ;
203 -> 205 ;
206 [label="ELO_DIFF <= 3.1\ngini = 0.3\nsamples = 12\nvalue = [19, 4]"] ;
202 -> 206 ;
207 [label="gini = 0.3\nsamples = 8\nvalue = [13, 3]"] ;
206 -> 207 ;
208 [label="gini = 0.2\nsamples = 4\nvalue = [6, 1]"] ;
206 -> 208 ;
209 [label="ELO_DIFF <= 3.0\ngini = 0.4\nsamples = 43\nvalue = [60, 19]"] ;
197 -> 209 ;
210 [label="ELO_DIFF <= 2.9\ngini = 0.4\nsamples = 28\nvalue = [37, 15]"] ;
209 -> 210 ;
211 [label="ELO_DIFF <= 2.8\ngini = 0.4\nsamples = 19\nvalue = [26, 8]"] ;
210 -> 211 ;
212 [label="ELO_DIFF <= 2.7\ngini = 0.4\nsamples = 6\nvalue = [9, 3]"] ;
211 -> 212 ;
213 [label="gini = 0.4\nsamples = 2\nvalue = [3, 1]"] ;
212 -> 213 ;
214 [label="gini = 0.4\nsamples = 4\nvalue = [6, 2]"] ;
212 -> 214 ;
215 [label="gini = 0.4\nsamples = 13\nvalue = [17, 5]"] ;
211 -> 215 ;
216 [label="gini = 0.5\nsamples = 9\nvalue = [11, 7]"] ;
210 -> 216 ;
217 [label="ELO_DIFF <= 3.1\ngini = 0.3\nsamples = 15\nvalue = [23, 4]"] ;
209 -> 217 ;
218 [label="gini = 0.2\nsamples = 4\nvalue = [7, 1]"] ;
217 -> 218 ;
219 [label="gini = 0.3\nsamples = 11\nvalue = [16, 3]"] ;
217 -> 219 ;
220 [label="ELO_DIFF <= 2.5\ngini = 0.4\nsamples = 237\nvalue = [262, 113]"] ;
58 -> 220 ;
221 [label="ELO_DIFF <= 1.6\ngini = 0.3\nsamples = 79\nvalue = [113, 21]"] ;
220 -> 221 ;
222 [label="RECENT_PERF_DIFF <= 3.8\ngini = 0.1\nsamples = 15\nvalue = [24, 1]"] ;
221 -> 222 ;
223 [label="gini = 0.0\nsamples = 12\nvalue = [20, 0]"] ;
222 -> 223 ;
224 [label="ELO_DIFF <= 1.0\ngini = 0.3\nsamples = 3\nvalue = [4, 1]"] ;
222 -> 224 ;
225 [label="gini = 0.0\nsamples = 1\nvalue = [2, 0]"] ;
224 -> 225 ;
226 [label="gini = 0.4\nsamples = 2\nvalue = [2, 1]"] ;
224 -> 226 ;
227 [label="RECENT_PERF_DIFF <= 3.8\ngini = 0.3\nsamples = 64\nvalue = [89, 20]"] ;
221 -> 227 ;
228 [label="HOME_AWAY_GOAL_DIFF <= 3.6\ngini = 0.4\nsamples = 47\nvalue = [60, 18]"] ;
227 -> 228 ;
229 [label="ELO_DIFF <= 1.8\ngini = 0.4\nsamples = 24\nvalue = [34, 10]"] ;
228 -> 229 ;
230 [label="gini = 0.0\nsamples = 3\nvalue = [0, 5]"] ;
229 -> 230 ;
231 [label="ELO_DIFF <= 2.2\ngini = 0.2\nsamples = 21\nvalue = [34, 5]"] ;
229 -> 231 ;
232 [label="ELO_DIFF <= 1.9\ngini = 0.4\nsamples = 6\nvalue = [5, 2]"] ;
231 -> 232 ;
233 [label="gini = 0.0\nsamples = 1\nvalue = [1, 0]"] ;
232 -> 233 ;
234 [label="ELO_DIFF <= 2.1\ngini = 0.4\nsamples = 5\nvalue = [4, 2]"] ;
232 -> 234 ;
235 [label="gini = 0.4\nsamples = 3\nvalue = [2, 1]"] ;
234 -> 235 ;
236 [label="gini = 0.4\nsamples = 2\nvalue = [2, 1]"] ;
234 -> 236 ;
237 [label="ELO_DIFF <= 2.4\ngini = 0.2\nsamples = 15\nvalue = [29, 3]"] ;
231 -> 237 ;
238 [label="ELO_DIFF <= 2.3\ngini = 0.2\nsamples = 9\nvalue = [15, 2]"] ;
237 -> 238 ;
239 [label="gini = 0.2\nsamples = 5\nvalue = [9, 1]"] ;
238 -> 239 ;
240 [label="gini = 0.2\nsamples = 4\nvalue = [6, 1]"] ;
238 -> 240 ;
241 [label="gini = 0.1\nsamples = 6\nvalue = [14, 1]"] ;
237 -> 241 ;
242 [label="ELO_DIFF <= 2.1\ngini = 0.4\nsamples = 23\nvalue = [26, 8]"] ;
228 -> 242 ;
243 [label="gini = 0.0\nsamples = 6\nvalue = [12, 0]"] ;
242 -> 243 ;
244 [label="ELO_DIFF <= 2.2\ngini = 0.5\nsamples = 17\nvalue = [14, 8]"] ;
242 -> 244 ;
245 [label="gini = 0.5\nsamples = 4\nvalue = [3, 3]"] ;
244 -> 245 ;
246 [label="ELO_DIFF <= 2.3\ngini = 0.4\nsamples = 13\nvalue = [11, 5]"] ;
244 -> 246 ;
247 [label="gini = 0.3\nsamples = 5\nvalue = [5, 1]"] ;
246 -> 247 ;
248 [label="ELO_DIFF <= 2.4\ngini = 0.5\nsamples = 8\nvalue = [6, 4]"] ;
246 -> 248 ;
249 [label="gini = 0.5\nsamples = 3\nvalue = [2, 2]"] ;
248 -> 249 ;
250 [label="gini = 0.4\nsamples = 5\nvalue = [4, 2]"] ;
248 -> 250 ;
251 [label="ELO_DIFF <= 2.3\ngini = 0.1\nsamples = 17\nvalue = [29, 2]"] ;
227 -> 251 ;
252 [label="gini = 0.0\nsamples = 11\nvalue = [19, 0]"] ;
251 -> 252 ;
253 [label="ELO_DIFF <= 2.4\ngini = 0.3\nsamples = 6\nvalue = [10, 2]"] ;
251 -> 253 ;
254 [label="gini = 0.3\nsamples = 5\nvalue = [9, 2]"] ;
253 -> 254 ;
255 [label="gini = 0.0\nsamples = 1\nvalue = [1, 0]"] ;
253 -> 255 ;
256 [label="HOME_AWAY_GOAL_DIFF <= 3.8\ngini = 0.5\nsamples = 158\nvalue = [149, 92]"] ;
220 -> 256 ;
257 [label="RECENT_PERF_DIFF <= 3.6\ngini = 0.5\nsamples = 102\nvalue = [87, 66]"] ;
256 -> 257 ;
258 [label="ELO_DIFF <= 2.8\ngini = 0.5\nsamples = 50\nvalue = [49, 26]"] ;
257 -> 258 ;
259 [label="ELO_DIFF <= 2.6\ngini = 0.5\nsamples = 16\nvalue = [10, 12]"] ;
258 -> 259 ;
260 [label="gini = 0.5\nsamples = 4\nvalue = [4, 3]"] ;
259 -> 260 ;
261 [label="ELO_DIFF <= 2.7\ngini = 0.5\nsamples = 12\nvalue = [6, 9]"] ;
259 -> 261 ;
262 [label="gini = 0.5\nsamples = 6\nvalue = [3, 5]"] ;
261 -> 262 ;
263 [label="gini = 0.5\nsamples = 6\nvalue = [3, 4]"] ;
261 -> 263 ;
264 [label="ELO_DIFF <= 3.1\ngini = 0.4\nsamples = 34\nvalue = [39, 14]"] ;
258 -> 264 ;
265 [label="ELO_DIFF <= 3.0\ngini = 0.4\nsamples = 26\nvalue = [30, 12]"] ;
264 -> 265 ;
266 [label="ELO_DIFF <= 2.9\ngini = 0.4\nsamples = 13\nvalue = [16, 5]"] ;
265 -> 266 ;
267 [label="gini = 0.3\nsamples = 6\nvalue = [7, 2]"] ;
266 -> 267 ;
268 [label="gini = 0.4\nsamples = 7\nvalue = [9, 3]"] ;
266 -> 268 ;
269 [label="gini = 0.4\nsamples = 13\nvalue = [14, 7]"] ;
265 -> 269 ;
270 [label="gini = 0.3\nsamples = 8\nvalue = [9, 2]"] ;
264 -> 270 ;
271 [label="ELO_DIFF <= 2.8\ngini = 0.5\nsamples = 52\nvalue = [38, 40]"] ;
257 -> 271 ;
272 [label="ELO_DIFF <= 2.6\ngini = 0.5\nsamples = 19\nvalue = [16, 10]"] ;
271 -> 272 ;
273 [label="gini = 0.4\nsamples = 2\nvalue = [1, 2]"] ;
272 -> 273 ;
274 [label="ELO_DIFF <= 2.7\ngini = 0.5\nsamples = 17\nvalue = [15, 8]"] ;
272 -> 274 ;
275 [label="gini = 0.4\nsamples = 7\nvalue = [9, 3]"] ;
274 -> 275 ;
276 [label="gini = 0.5\nsamples = 10\nvalue = [6, 5]"] ;
274 -> 276 ;
277 [label="ELO_DIFF <= 3.1\ngini = 0.5\nsamples = 33\nvalue = [22, 30]"] ;
271 -> 277 ;
278 [label="ELO_DIFF <= 3.0\ngini = 0.5\nsamples = 23\nvalue = [13, 21]"] ;
277 -> 278 ;
279 [label="ELO_DIFF <= 2.9\ngini = 0.5\nsamples = 16\nvalue = [10, 13]"] ;
278 -> 279 ;
280 [label="gini = 0.5\nsamples = 6\nvalue = [3, 5]"] ;
279 -> 280 ;
281 [label="gini = 0.5\nsamples = 10\nvalue = [7, 8]"] ;
279 -> 281 ;
282 [label="gini = 0.4\nsamples = 7\nvalue = [3, 8]"] ;
278 -> 282 ;
283 [label="gini = 0.5\nsamples = 10\nvalue = [9, 9]"] ;
277 -> 283 ;
284 [label="ELO_DIFF <= 2.8\ngini = 0.4\nsamples = 56\nvalue = [62, 26]"] ;
256 -> 284 ;
285 [label="ELO_DIFF <= 2.7\ngini = 0.5\nsamples = 18\nvalue = [17, 14]"] ;
284 -> 285 ;
286 [label="ELO_DIFF <= 2.6\ngini = 0.4\nsamples = 11\nvalue = [10, 5]"] ;
285 -> 286 ;
287 [label="gini = 0.5\nsamples = 3\nvalue = [3, 2]"] ;
286 -> 287 ;
288 [label="gini = 0.4\nsamples = 8\nvalue = [7, 3]"] ;
286 -> 288 ;
289 [label="gini = 0.5\nsamples = 7\nvalue = [7, 9]"] ;
285 -> 289 ;
290 [label="ELO_DIFF <= 3.1\ngini = 0.3\nsamples = 38\nvalue = [45, 12]"] ;
284 -> 290 ;
291 [label="ELO_DIFF <= 3.0\ngini = 0.3\nsamples = 31\nvalue = [40, 9]"] ;
290 -> 291 ;
292 [label="ELO_DIFF <= 2.9\ngini = 0.4\nsamples = 19\nvalue = [20, 7]"] ;
291 -> 292 ;
293 [label="gini = 0.3\nsamples = 11\nvalue = [14, 3]"] ;
292 -> 293 ;
294 [label="gini = 0.5\nsamples = 8\nvalue = [6, 4]"] ;
292 -> 294 ;
295 [label="gini = 0.2\nsamples = 12\nvalue = [20, 2]"] ;
291 -> 295 ;
296 [label="gini = 0.5\nsamples = 7\nvalue = [5, 3]"] ;
290 -> 296 ;
297 [label="HOME_AWAY_GOAL_DIFF <= 2.6\ngini = 0.5\nsamples = 1377\nvalue = [1182, 994]"] ;
1 -> 297 ;
298 [label="HOME_AWAY_GOAL_DIFF <= 2.0\ngini = 0.5\nsamples = 164\nvalue = [172, 102]"] ;
297 -> 298 ;
299 [label="ELO_DIFF <= 5.1\ngini = 0.5\nsamples = 32\nvalue = [29, 27]"] ;
298 -> 299 ;
300 [label="ELO_DIFF <= 4.8\ngini = 0.5\nsamples = 30\nvalue = [29, 25]"] ;
299 -> 300 ;
301 [label="RECENT_PERF_DIFF <= 1.7\ngini = 0.5\nsamples = 28\nvalue = [26, 25]"] ;
300 -> 301 ;
302 [label="RECENT_PERF_DIFF <= 1.3\ngini = 0.3\nsamples = 11\nvalue = [14, 4]"] ;
301 -> 302 ;
303 [label="gini = 0.0\nsamples = 2\nvalue = [5, 0]"] ;
302 -> 303 ;
304 [label="RECENT_PERF_DIFF <= 1.5\ngini = 0.4\nsamples = 9\nvalue = [9, 4]"] ;
302 -> 304 ;
305 [label="ELO_DIFF <= 3.8\ngini = 0.4\nsamples = 5\nvalue = [6, 2]"] ;
304 -> 305 ;
306 [label="gini = 0.0\nsamples = 2\nvalue = [3, 0]"] ;
305 -> 306 ;
307 [label="ELO_DIFF <= 4.0\ngini = 0.5\nsamples = 3\nvalue = [3, 2]"] ;
305 -> 307 ;
308 [label="gini = 0.4\nsamples = 2\nvalue = [1, 2]"] ;
307 -> 308 ;
309 [label="gini = 0.0\nsamples = 1\nvalue = [2, 0]"] ;
307 -> 309 ;
310 [label="ELO_DIFF <= 3.7\ngini = 0.5\nsamples = 4\nvalue = [3, 2]"] ;
304 -> 310 ;
311 [label="gini = 0.0\nsamples = 1\nvalue = [2, 0]"] ;
310 -> 311 ;
312 [label="ELO_DIFF <= 4.0\ngini = 0.4\nsamples = 3\nvalue = [1, 2]"] ;
310 -> 312 ;
313 [label="gini = 0.0\nsamples = 1\nvalue = [0, 1]"] ;
312 -> 313 ;
314 [label="ELO_DIFF <= 4.4\ngini = 0.5\nsamples = 2\nvalue = [1, 1]"] ;
312 -> 314 ;
315 [label="gini = 0.0\nsamples = 1\nvalue = [1, 0]"] ;
314 -> 315 ;
316 [label="gini = 0.0\nsamples = 1\nvalue = [0, 1]"] ;
314 -> 316 ;
317 [label="RECENT_PERF_DIFF <= 1.9\ngini = 0.5\nsamples = 17\nvalue = [12, 21]"] ;
301 -> 317 ;
318 [label="ELO_DIFF <= 3.3\ngini = 0.4\nsamples = 7\nvalue = [5, 10]"] ;
317 -> 318 ;
319 [label="gini = 0.3\nsamples = 2\nvalue = [4, 1]"] ;
318 -> 319 ;
320 [label="ELO_DIFF <= 3.8\ngini = 0.2\nsamples = 5\nvalue = [1, 9]"] ;
318 -> 320 ;
321 [label="gini = 0.0\nsamples = 3\nvalue = [0, 6]"] ;
320 -> 321 ;
322 [label="ELO_DIFF <= 4.2\ngini = 0.4\nsamples = 2\nvalue = [1, 3]"] ;
320 -> 322 ;
323 [label="gini = 0.0\nsamples = 1\nvalue = [1, 0]"] ;
322 -> 323 ;
324 [label="gini = 0.0\nsamples = 1\nvalue = [0, 3]"] ;
322 -> 324 ;
325 [label="ELO_DIFF <= 3.5\ngini = 0.5\nsamples = 10\nvalue = [7, 11]"] ;
317 -> 325 ;
326 [label="ELO_DIFF <= 3.4\ngini = 0.2\nsamples = 4\nvalue = [1, 7]"] ;
325 -> 326 ;
327 [label="gini = 0.0\nsamples = 2\nvalue = [0, 4]"] ;
326 -> 327 ;
328 [label="gini = 0.4\nsamples = 2\nvalue = [1, 3]"] ;
326 -> 328 ;
329 [label="ELO_DIFF <= 3.9\ngini = 0.5\nsamples = 6\nvalue = [6, 4]"] ;
325 -> 329 ;
330 [label="gini = 0.0\nsamples = 2\nvalue = [3, 0]"] ;
329 -> 330 ;
331 [label="ELO_DIFF <= 4.3\ngini = 0.5\nsamples = 4\nvalue = [3, 4]"] ;
329 -> 331 ;
332 [label="gini = 0.0\nsamples = 1\nvalue = [0, 2]"] ;
331 -> 332 ;
333 [label="ELO_DIFF <= 4.5\ngini = 0.5\nsamples = 3\nvalue = [3, 2]"] ;
331 -> 333 ;
334 [label="gini = 0.0\nsamples = 1\nvalue = [2, 0]"] ;
333 -> 334 ;
335 [label="gini = 0.4\nsamples = 2\nvalue = [1, 2]"] ;
333 -> 335 ;
336 [label="gini = 0.0\nsamples = 2\nvalue = [3, 0]"] ;
300 -> 336 ;
337 [label="gini = 0.0\nsamples = 2\nvalue = [0, 2]"] ;
299 -> 337 ;
338 [label="ELO_DIFF <= 5.3\ngini = 0.5\nsamples = 132\nvalue = [143, 75]"] ;
298 -> 338 ;
339 [label="RECENT_PERF_DIFF <= 2.4\ngini = 0.4\nsamples = 125\nvalue = [141, 68]"] ;
338 -> 339 ;
340 [label="ELO_DIFF <= 4.7\ngini = 0.4\nsamples = 64\nvalue = [76, 33]"] ;
339 -> 340 ;
341 [label="HOME_AWAY_GOAL_DIFF <= 2.2\ngini = 0.4\nsamples = 53\nvalue = [67, 25]"] ;
340 -> 341 ;
342 [label="ELO_DIFF <= 3.4\ngini = 0.4\nsamples = 16\nvalue = [20, 8]"] ;
341 -> 342 ;
343 [label="gini = 0.0\nsamples = 3\nvalue = [5, 0]"] ;
342 -> 343 ;
344 [label="ELO_DIFF <= 4.3\ngini = 0.5\nsamples = 13\nvalue = [15, 8]"] ;
342 -> 344 ;
345 [label="ELO_DIFF <= 3.7\ngini = 0.5\nsamples = 10\nvalue = [11, 8]"] ;
344 -> 345 ;
346 [label="gini = 0.4\nsamples = 3\nvalue = [5, 2]"] ;
345 -> 346 ;
347 [label="ELO_DIFF <= 4.2\ngini = 0.5\nsamples = 7\nvalue = [6, 6]"] ;
345 -> 347 ;
348 [label="ELO_DIFF <= 4.0\ngini = 0.4\nsamples = 4\nvalue = [2, 4]"] ;
347 -> 348 ;
349 [label="gini = 0.5\nsamples = 3\nvalue = [2, 3]"] ;
348 -> 349 ;
350 [label="gini = 0.0\nsamples = 1\nvalue = [0, 1]"] ;
348 -> 350 ;
351 [label="gini = 0.4\nsamples = 3\nvalue = [4, 2]"] ;
347 -> 351 ;
352 [label="gini = 0.0\nsamples = 3\nvalue = [4, 0]"] ;
344 -> 352 ;
353 [label="ELO_DIFF <= 4.4\ngini = 0.4\nsamples = 37\nvalue = [47, 17]"] ;
341 -> 353 ;
354 [label="ELO_DIFF <= 3.3\ngini = 0.4\nsamples = 32\nvalue = [39, 17]"] ;
353 -> 354 ;
355 [label="gini = 0.5\nsamples = 4\nvalue = [5, 4]"] ;
354 -> 355 ;
356 [label="ELO_DIFF <= 3.4\ngini = 0.4\nsamples = 28\nvalue = [34, 13]"] ;
354 -> 356 ;
357 [label="gini = 0.0\nsamples = 1\nvalue = [4, 0]"] ;
356 -> 357 ;
358 [label="ELO_DIFF <= 3.8\ngini = 0.4\nsamples = 27\nvalue = [30, 13]"] ;
356 -> 358 ;
359 [label="ELO_DIFF <= 3.6\ngini = 0.5\nsamples = 10\nvalue = [9, 6]"] ;
358 -> 359 ;
360 [label="ELO_DIFF <= 3.5\ngini = 0.4\nsamples = 8\nvalue = [9, 3]"] ;
359 -> 360 ;
361 [label="gini = 0.5\nsamples = 3\nvalue = [3, 2]"] ;
360 -> 361 ;
362 [label="gini = 0.2\nsamples = 5\nvalue = [6, 1]"] ;
360 -> 362 ;
363 [label="gini = 0.0\nsamples = 2\nvalue = [0, 3]"] ;
359 -> 363 ;
364 [label="ELO_DIFF <= 3.9\ngini = 0.4\nsamples = 17\nvalue = [21, 7]"] ;
358 -> 364 ;
365 [label="gini = 0.0\nsamples = 4\nvalue = [7, 0]"] ;
364 -> 365 ;
366 [label="ELO_DIFF <= 4.2\ngini = 0.4\nsamples = 13\nvalue = [14, 7]"] ;
364 -> 366 ;
367 [label="ELO_DIFF <= 4.1\ngini = 0.5\nsamples = 6\nvalue = [3, 4]"] ;
366 -> 367 ;
368 [label="gini = 0.4\nsamples = 2\nvalue = [1, 2]"] ;
367 -> 368 ;
369 [label="gini = 0.5\nsamples = 4\nvalue = [2, 2]"] ;
367 -> 369 ;
370 [label="ELO_DIFF <= 4.3\ngini = 0.3\nsamples = 7\nvalue = [11, 3]"] ;
366 -> 370 ;
371 [label="gini = 0.3\nsamples = 4\nvalue = [5, 1]"] ;
370 -> 371 ;
372 [label="gini = 0.4\nsamples = 3\nvalue = [6, 2]"] ;
370 -> 372 ;
373 [label="gini = 0.0\nsamples = 5\nvalue = [8, 0]"] ;
353 -> 373 ;
374 [label="HOME_AWAY_GOAL_DIFF <= 2.2\ngini = 0.5\nsamples = 11\nvalue = [9, 8]"] ;
340 -> 374 ;
375 [label="ELO_DIFF <= 4.9\ngini = 0.5\nsamples = 4\nvalue = [2, 3]"] ;
374 -> 375 ;
376 [label="ELO_DIFF <= 4.8\ngini = 0.4\nsamples = 3\nvalue = [2, 1]"] ;
375 -> 376 ;
377 [label="gini = 0.0\nsamples = 1\nvalue = [1, 0]"] ;
376 -> 377 ;
378 [label="gini = 0.5\nsamples = 2\nvalue = [1, 1]"] ;
376 -> 378 ;
379 [label="gini = 0.0\nsamples = 1\nvalue = [0, 2]"] ;
375 -> 379 ;
380 [label="ELO_DIFF <= 4.8\ngini = 0.5\nsamples = 7\nvalue = [7, 5]"] ;
374 -> 380 ;
381 [label="gini = 0.0\nsamples = 1\nvalue = [0, 2]"] ;
380 -> 381 ;
382 [label="ELO_DIFF <= 5.0\ngini = 0.4\nsamples = 6\nvalue = [7, 3]"] ;
380 -> 382 ;
383 [label="gini = 0.0\nsamples = 1\nvalue = [2, 0]"] ;
382 -> 383 ;
384 [label="ELO_DIFF <= 5.2\ngini = 0.5\nsamples = 5\nvalue = [5, 3]"] ;
382 -> 384 ;
385 [label="gini = 0.5\nsamples = 3\nvalue = [3, 2]"] ;
384 -> 385 ;
386 [label="gini = 0.4\nsamples = 2\nvalue = [2, 1]"] ;
384 -> 386 ;
387 [label="ELO_DIFF <= 5.1\ngini = 0.5\nsamples = 61\nvalue = [65, 35]"] ;
339 -> 387 ;
388 [label="ELO_DIFF <= 4.9\ngini = 0.5\nsamples = 55\nvalue = [57, 34]"] ;
387 -> 388 ;
389 [label="ELO_DIFF <= 3.7\ngini = 0.5\nsamples = 52\nvalue = [57, 31]"] ;
388 -> 389 ;
390 [label="ELO_DIFF <= 3.6\ngini = 0.4\nsamples = 20\nvalue = [24, 8]"] ;
389 -> 390 ;
391 [label="ELO_DIFF <= 3.4\ngini = 0.4\nsamples = 17\nvalue = [17, 8]"] ;
390 -> 391 ;
392 [label="ELO_DIFF <= 3.3\ngini = 0.4\nsamples = 13\nvalue = [15, 5]"] ;
391 -> 392 ;
393 [label="gini = 0.4\nsamples = 6\nvalue = [6, 2]"] ;
392 -> 393 ;
394 [label="gini = 0.4\nsamples = 7\nvalue = [9, 3]"] ;
392 -> 394 ;
395 [label="ELO_DIFF <= 3.5\ngini = 0.5\nsamples = 4\nvalue = [2, 3]"] ;
391 -> 395 ;
396 [label="gini = 0.0\nsamples = 2\nvalue = [0, 2]"] ;
395 -> 396 ;
397 [label="gini = 0.4\nsamples = 2\nvalue = [2, 1]"] ;
395 -> 397 ;
398 [label="gini = 0.0\nsamples = 3\nvalue = [7, 0]"] ;
390 -> 398 ;
399 [label="ELO_DIFF <= 4.7\ngini = 0.5\nsamples = 32\nvalue = [33, 23]"] ;
389 -> 399 ;
400 [label="ELO_DIFF <= 4.4\ngini = 0.5\nsamples = 25\nvalue = [21, 19]"] ;
399 -> 400 ;
401 [label="ELO_DIFF <= 4.3\ngini = 0.5\nsamples = 19\nvalue = [18, 12]"] ;
400 -> 401 ;
402 [label="ELO_DIFF <= 4.2\ngini = 0.5\nsamples = 15\nvalue = [12, 12]"] ;
401 -> 402 ;
403 [label="ELO_DIFF <= 3.9\ngini = 0.5\nsamples = 12\nvalue = [11, 9]"] ;
402 -> 403 ;
404 [label="ELO_DIFF <= 3.8\ngini = 0.5\nsamples = 6\nvalue = [5, 7]"] ;
403 -> 404 ;
405 [label="gini = 0.4\nsamples = 2\nvalue = [1, 2]"] ;
404 -> 405 ;
406 [label="gini = 0.5\nsamples = 4\nvalue = [4, 5]"] ;
404 -> 406 ;
407 [label="ELO_DIFF <= 4.1\ngini = 0.4\nsamples = 6\nvalue = [6, 2]"] ;
403 -> 407 ;
408 [label="gini = 0.0\nsamples = 2\nvalue = [3, 0]"] ;
407 -> 408 ;
409 [label="gini = 0.5\nsamples = 4\nvalue = [3, 2]"] ;
407 -> 409 ;
410 [label="gini = 0.4\nsamples = 3\nvalue = [1, 3]"] ;
402 -> 410 ;
411 [label="gini = 0.0\nsamples = 4\nvalue = [6, 0]"] ;
401 -> 411 ;
412 [label="ELO_DIFF <= 4.6\ngini = 0.4\nsamples = 6\nvalue = [3, 7]"] ;
400 -> 412 ;
413 [label="gini = 0.0\nsamples = 3\nvalue = [0, 5]"] ;
412 -> 413 ;
414 [label="gini = 0.5\nsamples = 3\nvalue = [3, 2]"] ;
412 -> 414 ;
415 [label="ELO_DIFF <= 4.8\ngini = 0.4\nsamples = 7\nvalue = [12, 4]"] ;
399 -> 415 ;
416 [label="gini = 0.4\nsamples = 5\nvalue = [8, 3]"] ;
415 -> 416 ;
417 [label="gini = 0.3\nsamples = 2\nvalue = [4, 1]"] ;
415 -> 417 ;
418 [label="gini = 0.0\nsamples = 3\nvalue = [0, 3]"] ;
388 -> 418 ;
419 [label="ELO_DIFF <= 5.2\ngini = 0.2\nsamples = 6\nvalue = [8, 1]"] ;
387 -> 419 ;
420 [label="gini = 0.0\nsamples = 4\nvalue = [7, 0]"] ;
419 -> 420 ;
421 [label="gini = 0.5\nsamples = 2\nvalue = [1, 1]"] ;
419 -> 421 ;
422 [label="ELO_DIFF <= 5.5\ngini = 0.3\nsamples = 7\nvalue = [2, 7]"] ;
338 -> 422 ;
423 [label="RECENT_PERF_DIFF <= 2.3\ngini = 0.4\nsamples = 5\nvalue = [2, 5]"] ;
422 -> 423 ;
424 [label="gini = 0.0\nsamples = 2\nvalue = [0, 3]"] ;
423 -> 424 ;
425 [label="ELO_DIFF <= 5.4\ngini = 0.5\nsamples = 3\nvalue = [2, 2]"] ;
423 -> 425 ;
426 [label="gini = 0.4\nsamples = 2\nvalue = [1, 2]"] ;
425 -> 426 ;
427 [label="gini = 0.0\nsamples = 1\nvalue = [1, 0]"] ;
425 -> 427 ;
428 [label="gini = 0.0\nsamples = 2\nvalue = [0, 2]"] ;
422 -> 428 ;
429 [label="RECENT_PERF_DIFF <= 3.4\ngini = 0.5\nsamples = 1213\nvalue = [1010, 892]"] ;
297 -> 429 ;
430 [label="HOME_AWAY_GOAL_DIFF <= 2.8\ngini = 0.5\nsamples = 489\nvalue = [416, 337]"] ;
429 -> 430 ;
431 [label="ELO_DIFF <= 4.6\ngini = 0.5\nsamples = 72\nvalue = [50, 48]"] ;
430 -> 431 ;
432 [label="ELO_DIFF <= 3.3\ngini = 0.5\nsamples = 51\nvalue = [43, 29]"] ;
431 -> 432 ;
433 [label="gini = 0.4\nsamples = 8\nvalue = [13, 4]"] ;
432 -> 433 ;
434 [label="ELO_DIFF <= 3.4\ngini = 0.5\nsamples = 43\nvalue = [30, 25]"] ;
432 -> 434 ;
435 [label="gini = 0.0\nsamples = 2\nvalue = [0, 4]"] ;
434 -> 435 ;
436 [label="ELO_DIFF <= 3.7\ngini = 0.5\nsamples = 41\nvalue = [30, 21]"] ;
434 -> 436 ;
437 [label="ELO_DIFF <= 3.6\ngini = 0.5\nsamples = 11\nvalue = [11, 6]"] ;
436 -> 437 ;
438 [label="ELO_DIFF <= 3.5\ngini = 0.5\nsamples = 8\nvalue = [8, 5]"] ;
437 -> 438 ;
439 [label="gini = 0.5\nsamples = 3\nvalue = [3, 2]"] ;
438 -> 439 ;
440 [label="gini = 0.5\nsamples = 5\nvalue = [5, 3]"] ;
438 -> 440 ;
441 [label="gini = 0.4\nsamples = 3\nvalue = [3, 1]"] ;
437 -> 441 ;
442 [label="ELO_DIFF <= 4.1\ngini = 0.5\nsamples = 30\nvalue = [19, 15]"] ;
436 -> 442 ;
443 [label="ELO_DIFF <= 3.9\ngini = 0.5\nsamples = 15\nvalue = [8, 8]"] ;
442 -> 443 ;
444 [label="ELO_DIFF <= 3.8\ngini = 0.5\nsamples = 9\nvalue = [5, 4]"] ;
443 -> 444 ;
445 [label="gini = 0.5\nsamples = 6\nvalue = [3, 3]"] ;
444 -> 445 ;
446 [label="gini = 0.4\nsamples = 3\nvalue = [2, 1]"] ;
444 -> 446 ;
447 [label="gini = 0.5\nsamples = 6\nvalue = [3, 4]"] ;
443 -> 447 ;
448 [label="ELO_DIFF <= 4.4\ngini = 0.5\nsamples = 15\nvalue = [11, 7]"] ;
442 -> 448 ;
449 [label="ELO_DIFF <= 4.2\ngini = 0.5\nsamples = 12\nvalue = [9, 5]"] ;
448 -> 449 ;
450 [label="gini = 0.5\nsamples = 6\nvalue = [4, 3]"] ;
449 -> 450 ;
451 [label="ELO_DIFF <= 4.3\ngini = 0.4\nsamples = 6\nvalue = [5, 2]"] ;
449 -> 451 ;
452 [label="gini = 0.0\nsamples = 2\nvalue = [2, 0]"] ;
451 -> 452 ;
453 [label="gini = 0.5\nsamples = 4\nvalue = [3, 2]"] ;
451 -> 453 ;
454 [label="gini = 0.5\nsamples = 3\nvalue = [2, 2]"] ;
448 -> 454 ;
455 [label="ELO_DIFF <= 5.3\ngini = 0.4\nsamples = 21\nvalue = [7, 19]"] ;
431 -> 455 ;
456 [label="ELO_DIFF <= 5.0\ngini = 0.3\nsamples = 16\nvalue = [4, 17]"] ;
455 -> 456 ;
457 [label="ELO_DIFF <= 4.7\ngini = 0.4\nsamples = 8\nvalue = [3, 6]"] ;
456 -> 457 ;
458 [label="gini = 0.0\nsamples = 4\nvalue = [0, 4]"] ;
457 -> 458 ;
459 [label="ELO_DIFF <= 4.8\ngini = 0.5\nsamples = 4\nvalue = [3, 2]"] ;
457 -> 459 ;
460 [label="gini = 0.0\nsamples = 2\nvalue = [2, 0]"] ;
459 -> 460 ;
461 [label="ELO_DIFF <= 4.9\ngini = 0.4\nsamples = 2\nvalue = [1, 2]"] ;
459 -> 461 ;
462 [label="gini = 0.0\nsamples = 1\nvalue = [0, 2]"] ;
461 -> 462 ;
463 [label="gini = 0.0\nsamples = 1\nvalue = [1, 0]"] ;
461 -> 463 ;
464 [label="ELO_DIFF <= 5.1\ngini = 0.2\nsamples = 8\nvalue = [1, 11]"] ;
456 -> 464 ;
465 [label="gini = 0.3\nsamples = 5\nvalue = [1, 5]"] ;
464 -> 465 ;
466 [label="gini = 0.0\nsamples = 3\nvalue = [0, 6]"] ;
464 -> 466 ;
467 [label="ELO_DIFF <= 5.5\ngini = 0.5\nsamples = 5\nvalue = [3, 2]"] ;
455 -> 467 ;
468 [label="gini = 0.0\nsamples = 1\nvalue = [1, 0]"] ;
467 -> 468 ;
469 [label="ELO_DIFF <= 5.6\ngini = 0.5\nsamples = 4\nvalue = [2, 2]"] ;
467 -> 469 ;
470 [label="gini = 0.0\nsamples = 1\nvalue = [0, 1]"] ;
469 -> 470 ;
471 [label="ELO_DIFF <= 6.1\ngini = 0.4\nsamples = 3\nvalue = [2, 1]"] ;
469 -> 471 ;
472 [label="gini = 0.0\nsamples = 1\nvalue = [1, 0]"] ;
471 -> 472 ;
473 [label="ELO_DIFF <= 6.7\ngini = 0.5\nsamples = 2\nvalue = [1, 1]"] ;
471 -> 473 ;
474 [label="gini = 0.0\nsamples = 1\nvalue = [0, 1]"] ;
473 -> 474 ;
475 [label="gini = 0.0\nsamples = 1\nvalue = [1, 0]"] ;
473 -> 475 ;
476 [label="RECENT_PERF_DIFF <= 3.0\ngini = 0.5\nsamples = 417\nvalue = [366, 289]"] ;
430 -> 476 ;
477 [label="ELO_DIFF <= 6.7\ngini = 0.5\nsamples = 111\nvalue = [105, 73]"] ;
476 -> 477 ;
478 [label="ELO_DIFF <= 3.3\ngini = 0.5\nsamples = 110\nvalue = [105, 69]"] ;
477 -> 478 ;
479 [label="gini = 0.4\nsamples = 4\nvalue = [3, 6]"] ;
478 -> 479 ;
480 [label="ELO_DIFF <= 5.9\ngini = 0.5\nsamples = 106\nvalue = [102, 63]"] ;
478 -> 480 ;
481 [label="ELO_DIFF <= 5.8\ngini = 0.5\nsamples = 104\nvalue = [99, 63]"] ;
480 -> 481 ;
482 [label="ELO_DIFF <= 5.6\ngini = 0.5\nsamples = 103\nvalue = [99, 61]"] ;
481 -> 482 ;
483 [label="ELO_DIFF <= 5.2\ngini = 0.5\nsamples = 101\nvalue = [95, 61]"] ;
482 -> 483 ;
484 [label="ELO_DIFF <= 3.9\ngini = 0.5\nsamples = 89\nvalue = [87, 50]"] ;
483 -> 484 ;
485 [label="ELO_DIFF <= 3.7\ngini = 0.5\nsamples = 34\nvalue = [29, 23]"] ;
484 -> 485 ;
486 [label="ELO_DIFF <= 3.6\ngini = 0.4\nsamples = 17\nvalue = [18, 7]"] ;
485 -> 486 ;
487 [label="ELO_DIFF <= 3.5\ngini = 0.4\nsamples = 12\nvalue = [12, 6]"] ;
486 -> 487 ;
488 [label="ELO_DIFF <= 3.4\ngini = 0.4\nsamples = 7\nvalue = [9, 3]"] ;
487 -> 488 ;
489 [label="gini = 0.4\nsamples = 6\nvalue = [6, 3]"] ;
488 -> 489 ;
490 [label="gini = 0.0\nsamples = 1\nvalue = [3, 0]"] ;
488 -> 490 ;
491 [label="gini = 0.5\nsamples = 5\nvalue = [3, 3]"] ;
487 -> 491 ;
492 [label="gini = 0.2\nsamples = 5\nvalue = [6, 1]"] ;
486 -> 492 ;
493 [label="ELO_DIFF <= 3.8\ngini = 0.5\nsamples = 17\nvalue = [11, 16]"] ;
485 -> 493 ;
494 [label="gini = 0.5\nsamples = 11\nvalue = [8, 11]"] ;
493 -> 494 ;
495 [label="gini = 0.5\nsamples = 6\nvalue = [3, 5]"] ;
493 -> 495 ;
496 [label="ELO_DIFF <= 5.0\ngini = 0.4\nsamples = 55\nvalue = [58, 27]"] ;
484 -> 496 ;
497 [label="ELO_DIFF <= 4.9\ngini = 0.4\nsamples = 53\nvalue = [55, 27]"] ;
496 -> 497 ;
498 [label="ELO_DIFF <= 4.5\ngini = 0.4\nsamples = 47\nvalue = [51, 22]"] ;
497 -> 498 ;
499 [label="ELO_DIFF <= 4.4\ngini = 0.5\nsamples = 30\nvalue = [32, 17]"] ;
498 -> 499 ;
500 [label="ELO_DIFF <= 4.1\ngini = 0.4\nsamples = 28\nvalue = [31, 15]"] ;
499 -> 500 ;
501 [label="gini = 0.3\nsamples = 6\nvalue = [8, 2]"] ;
500 -> 501 ;
502 [label="ELO_DIFF <= 4.2\ngini = 0.5\nsamples = 22\nvalue = [23, 13]"] ;
500 -> 502 ;
503 [label="gini = 0.4\nsamples = 10\nvalue = [9, 4]"] ;
502 -> 503 ;
504 [label="ELO_DIFF <= 4.3\ngini = 0.5\nsamples = 12\nvalue = [14, 9]"] ;
502 -> 504 ;
505 [label="gini = 0.5\nsamples = 5\nvalue = [7, 5]"] ;
504 -> 505 ;
506 [label="gini = 0.5\nsamples = 7\nvalue = [7, 4]"] ;
504 -> 506 ;
507 [label="gini = 0.4\nsamples = 2\nvalue = [1, 2]"] ;
499 -> 507 ;
508 [label="ELO_DIFF <= 4.6\ngini = 0.3\nsamples = 17\nvalue = [19, 5]"] ;
498 -> 508 ;
509 [label="gini = 0.2\nsamples = 4\nvalue = [6, 1]"] ;
508 -> 509 ;
510 [label="ELO_DIFF <= 4.8\ngini = 0.4\nsamples = 13\nvalue = [13, 4]"] ;
508 -> 510 ;
511 [label="ELO_DIFF <= 4.7\ngini = 0.4\nsamples = 8\nvalue = [9, 3]"] ;
510 -> 511 ;
512 [label="gini = 0.4\nsamples = 4\nvalue = [3, 1]"] ;
511 -> 512 ;
513 [label="gini = 0.4\nsamples = 4\nvalue = [6, 2]"] ;
511 -> 513 ;
514 [label="gini = 0.3\nsamples = 5\nvalue = [4, 1]"] ;
510 -> 514 ;
515 [label="gini = 0.5\nsamples = 6\nvalue = [4, 5]"] ;
497 -> 515 ;
516 [label="gini = 0.0\nsamples = 2\nvalue = [3, 0]"] ;
496 -> 516 ;
517 [label="ELO_DIFF <= 5.3\ngini = 0.5\nsamples = 12\nvalue = [8, 11]"] ;
483 -> 517 ;
518 [label="gini = 0.0\nsamples = 5\nvalue = [0, 7]"] ;
517 -> 518 ;
519 [label="ELO_DIFF <= 5.5\ngini = 0.4\nsamples = 7\nvalue = [8, 4]"] ;
517 -> 519 ;
520 [label="ELO_DIFF <= 5.4\ngini = 0.3\nsamples = 5\nvalue = [8, 2]"] ;
519 -> 520 ;
521 [label="gini = 0.5\nsamples = 4\nvalue = [3, 2]"] ;
520 -> 521 ;
522 [label="gini = 0.0\nsamples = 1\nvalue = [5, 0]"] ;
520 -> 522 ;
523 [label="gini = 0.0\nsamples = 2\nvalue = [0, 2]"] ;
519 -> 523 ;
524 [label="gini = 0.0\nsamples = 2\nvalue = [4, 0]"] ;
482 -> 524 ;
525 [label="gini = 0.0\nsamples = 1\nvalue = [0, 2]"] ;
481 -> 525 ;
526 [label="gini = 0.0\nsamples = 2\nvalue = [3, 0]"] ;
480 -> 526 ;
527 [label="gini = 0.0\nsamples = 1\nvalue = [0, 4]"] ;
477 -> 527 ;
528 [label="RECENT_PERF_DIFF <= 3.2\ngini = 0.5\nsamples = 306\nvalue = [261, 216]"] ;
476 -> 528 ;
529 [label="ELO_DIFF <= 5.3\ngini = 0.5\nsamples = 144\nvalue = [117, 98]"] ;
528 -> 529 ;
530 [label="ELO_DIFF <= 3.4\ngini = 0.5\nsamples = 131\nvalue = [114, 83]"] ;
529 -> 530 ;
531 [label="ELO_DIFF <= 3.3\ngini = 0.4\nsamples = 13\nvalue = [8, 17]"] ;
530 -> 531 ;
532 [label="gini = 0.4\nsamples = 7\nvalue = [4, 12]"] ;
531 -> 532 ;
533 [label="gini = 0.5\nsamples = 6\nvalue = [4, 5]"] ;
531 -> 533 ;
534 [label="ELO_DIFF <= 3.8\ngini = 0.5\nsamples = 118\nvalue = [106, 66]"] ;
530 -> 534 ;
535 [label="ELO_DIFF <= 3.5\ngini = 0.4\nsamples = 41\nvalue = [47, 15]"] ;
534 -> 535 ;
536 [label="gini = 0.3\nsamples = 8\nvalue = [9, 2]"] ;
535 -> 536 ;
537 [label="ELO_DIFF <= 3.7\ngini = 0.4\nsamples = 33\nvalue = [38, 13]"] ;
535 -> 537 ;
538 [label="ELO_DIFF <= 3.6\ngini = 0.4\nsamples = 15\nvalue = [18, 7]"] ;
537 -> 538 ;
539 [label="gini = 0.4\nsamples = 8\nvalue = [12, 4]"] ;
538 -> 539 ;
540 [label="gini = 0.4\nsamples = 7\nvalue = [6, 3]"] ;
538 -> 540 ;
541 [label="gini = 0.4\nsamples = 18\nvalue = [20, 6]"] ;
537 -> 541 ;
542 [label="ELO_DIFF <= 4.8\ngini = 0.5\nsamples = 77\nvalue = [59, 51]"] ;
534 -> 542 ;
543 [label="ELO_DIFF <= 3.9\ngini = 0.5\nsamples = 60\nvalue = [39, 45]"] ;
542 -> 543 ;
544 [label="gini = 0.2\nsamples = 6\nvalue = [1, 7]"] ;
543 -> 544 ;
545 [label="ELO_DIFF <= 4.4\ngini = 0.5\nsamples = 54\nvalue = [38, 38]"] ;
543 -> 545 ;
546 [label="ELO_DIFF <= 4.3\ngini = 0.5\nsamples = 39\nvalue = [30, 24]"] ;
545 -> 546 ;
547 [label="ELO_DIFF <= 4.2\ngini = 0.5\nsamples = 33\nvalue = [22, 23]"] ;
546 -> 547 ;
548 [label="ELO_DIFF <= 4.1\ngini = 0.5\nsamples = 24\nvalue = [19, 14]"] ;
547 -> 548 ;
549 [label="gini = 0.5\nsamples = 11\nvalue = [6, 6]"] ;
548 -> 549 ;
550 [label="gini = 0.5\nsamples = 13\nvalue = [13, 8]"] ;
548 -> 550 ;
551 [label="gini = 0.4\nsamples = 9\nvalue = [3, 9]"] ;
547 -> 551 ;
552 [label="gini = 0.2\nsamples = 6\nvalue = [8, 1]"] ;
546 -> 552 ;
553 [label="ELO_DIFF <= 4.6\ngini = 0.5\nsamples = 15\nvalue = [8, 14]"] ;
545 -> 553 ;
554 [label="ELO_DIFF <= 4.5\ngini = 0.4\nsamples = 9\nvalue = [4, 9]"] ;
553 -> 554 ;
555 [label="gini = 0.4\nsamples = 4\nvalue = [2, 4]"] ;
554 -> 555 ;
556 [label="gini = 0.4\nsamples = 5\nvalue = [2, 5]"] ;
554 -> 556 ;
557 [label="gini = 0.5\nsamples = 6\nvalue = [4, 5]"] ;
553 -> 557 ;
558 [label="ELO_DIFF <= 4.9\ngini = 0.4\nsamples = 17\nvalue = [20, 6]"] ;
542 -> 558 ;
559 [label="gini = 0.0\nsamples = 3\nvalue = [6, 0]"] ;
558 -> 559 ;
560 [label="ELO_DIFF <= 5.0\ngini = 0.4\nsamples = 14\nvalue = [14, 6]"] ;
558 -> 560 ;
561 [label="gini = 0.3\nsamples = 4\nvalue = [4, 1]"] ;
560 -> 561 ;
562 [label="ELO_DIFF <= 5.2\ngini = 0.4\nsamples = 10\nvalue = [10, 5]"] ;
560 -> 562 ;
563 [label="ELO_DIFF <= 5.1\ngini = 0.4\nsamples = 7\nvalue = [7, 3]"] ;
562 -> 563 ;
564 [label="gini = 0.4\nsamples = 6\nvalue = [6, 3]"] ;
563 -> 564 ;
565 [label="gini = 0.0\nsamples = 1\nvalue = [1, 0]"] ;
563 -> 565 ;
566 [label="gini = 0.5\nsamples = 3\nvalue = [3, 2]"] ;
562 -> 566 ;
567 [label="ELO_DIFF <= 5.4\ngini = 0.3\nsamples = 13\nvalue = [3, 15]"] ;
529 -> 567 ;
568 [label="gini = 0.0\nsamples = 2\nvalue = [0, 4]"] ;
567 -> 568 ;
569 [label="ELO_DIFF <= 5.8\ngini = 0.3\nsamples = 11\nvalue = [3, 11]"] ;
567 -> 569 ;
570 [label="ELO_DIFF <= 5.6\ngini = 0.3\nsamples = 8\nvalue = [2, 9]"] ;
569 -> 570 ;
571 [label="ELO_DIFF <= 5.5\ngini = 0.3\nsamples = 6\nvalue = [2, 7]"] ;
570 -> 571 ;
572 [label="gini = 0.3\nsamples = 4\nvalue = [1, 4]"] ;
571 -> 572 ;
573 [label="gini = 0.4\nsamples = 2\nvalue = [1, 3]"] ;
571 -> 573 ;
574 [label="gini = 0.0\nsamples = 2\nvalue = [0, 2]"] ;
570 -> 574 ;
575 [label="ELO_DIFF <= 6.1\ngini = 0.4\nsamples = 3\nvalue = [1, 2]"] ;
569 -> 575 ;
576 [label="gini = 0.5\nsamples = 2\nvalue = [1, 1]"] ;
575 -> 576 ;
577 [label="gini = 0.0\nsamples = 1\nvalue = [0, 1]"] ;
575 -> 577 ;
578 [label="ELO_DIFF <= 6.2\ngini = 0.5\nsamples = 162\nvalue = [144, 118]"] ;
528 -> 578 ;
579 [label="ELO_DIFF <= 4.5\ngini = 0.5\nsamples = 160\nvalue = [144, 116]"] ;
578 -> 579 ;
580 [label="ELO_DIFF <= 4.3\ngini = 0.5\nsamples = 102\nvalue = [88, 80]"] ;
579 -> 580 ;
581 [label="ELO_DIFF <= 3.9\ngini = 0.5\nsamples = 91\nvalue = [80, 65]"] ;
580 -> 581 ;
582 [label="ELO_DIFF <= 3.8\ngini = 0.5\nsamples = 63\nvalue = [56, 40]"] ;
581 -> 582 ;
583 [label="ELO_DIFF <= 3.5\ngini = 0.5\nsamples = 50\nvalue = [41, 36]"] ;
582 -> 583 ;
584 [label="ELO_DIFF <= 3.3\ngini = 0.5\nsamples = 22\nvalue = [22, 14]"] ;
583 -> 584 ;
585 [label="gini = 0.5\nsamples = 9\nvalue = [5, 7]"] ;
584 -> 585 ;
586 [label="ELO_DIFF <= 3.4\ngini = 0.4\nsamples = 13\nvalue = [17, 7]"] ;
584 -> 586 ;
587 [label="gini = 0.4\nsamples = 8\nvalue = [11, 4]"] ;
586 -> 587 ;
588 [label="gini = 0.4\nsamples = 5\nvalue = [6, 3]"] ;
586 -> 588 ;
589 [label="ELO_DIFF <= 3.7\ngini = 0.5\nsamples = 28\nvalue = [19, 22]"] ;
583 -> 589 ;
590 [label="ELO_DIFF <= 3.6\ngini = 0.4\nsamples = 14\nvalue = [7, 14]"] ;
589 -> 590 ;
591 [label="gini = 0.5\nsamples = 9\nvalue = [5, 8]"] ;
590 -> 591 ;
592 [label="gini = 0.4\nsamples = 5\nvalue = [2, 6]"] ;
590 -> 592 ;
593 [label="gini = 0.5\nsamples = 14\nvalue = [12, 8]"] ;
589 -> 593 ;
594 [label="gini = 0.3\nsamples = 13\nvalue = [15, 4]"] ;
582 -> 594 ;
595 [label="ELO_DIFF <= 4.1\ngini = 0.5\nsamples = 28\nvalue = [24, 25]"] ;
581 -> 595 ;
596 [label="gini = 0.0\nsamples = 3\nvalue = [0, 3]"] ;
595 -> 596 ;
597 [label="ELO_DIFF <= 4.2\ngini = 0.5\nsamples = 25\nvalue = [24, 22]"] ;
595 -> 597 ;
598 [label="gini = 0.5\nsamples = 13\nvalue = [9, 11]"] ;
597 -> 598 ;
599 [label="gini = 0.5\nsamples = 12\nvalue = [15, 11]"] ;
597 -> 599 ;
600 [label="ELO_DIFF <= 4.4\ngini = 0.5\nsamples = 11\nvalue = [8, 15]"] ;
580 -> 600 ;
601 [label="gini = 0.4\nsamples = 5\nvalue = [3, 9]"] ;
600 -> 601 ;
602 [label="gini = 0.5\nsamples = 6\nvalue = [5, 6]"] ;
600 -> 602 ;
603 [label="ELO_DIFF <= 4.6\ngini = 0.5\nsamples = 58\nvalue = [56, 36]"] ;
579 -> 603 ;
604 [label="gini = 0.0\nsamples = 4\nvalue = [10, 0]"] ;
603 -> 604 ;
605 [label="ELO_DIFF <= 5.2\ngini = 0.5\nsamples = 54\nvalue = [46, 36]"] ;
603 -> 605 ;
606 [label="ELO_DIFF <= 5.0\ngini = 0.5\nsamples = 34\nvalue = [34, 21]"] ;
605 -> 606 ;
607 [label="ELO_DIFF <= 4.7\ngini = 0.5\nsamples = 23\nvalue = [19, 17]"] ;
606 -> 607 ;
608 [label="gini = 0.4\nsamples = 9\nvalue = [12, 5]"] ;
607 -> 608 ;
609 [label="ELO_DIFF <= 4.8\ngini = 0.5\nsamples = 14\nvalue = [7, 12]"] ;
607 -> 609 ;
610 [label="gini = 0.5\nsamples = 4\nvalue = [3, 3]"] ;
609 -> 610 ;
611 [label="ELO_DIFF <= 4.9\ngini = 0.4\nsamples = 10\nvalue = [4, 9]"] ;
609 -> 611 ;
612 [label="gini = 0.3\nsamples = 5\nvalue = [1, 4]"] ;
611 -> 612 ;
613 [label="gini = 0.5\nsamples = 5\nvalue = [3, 5]"] ;
611 -> 613 ;
614 [label="ELO_DIFF <= 5.1\ngini = 0.3\nsamples = 11\nvalue = [15, 4]"] ;
606 -> 614 ;
615 [label="gini = 0.4\nsamples = 6\nvalue = [8, 3]"] ;
614 -> 615 ;
616 [label="gini = 0.2\nsamples = 5\nvalue = [7, 1]"] ;
614 -> 616 ;
617 [label="ELO_DIFF <= 5.6\ngini = 0.5\nsamples = 20\nvalue = [12, 15]"] ;
605 -> 617 ;
618 [label="ELO_DIFF <= 5.3\ngini = 0.4\nsamples = 14\nvalue = [6, 13]"] ;
617 -> 618 ;
619 [label="gini = 0.0\nsamples = 3\nvalue = [0, 3]"] ;
618 -> 619 ;
620 [label="ELO_DIFF <= 5.4\ngini = 0.5\nsamples = 11\nvalue = [6, 10]"] ;
618 -> 620 ;
621 [label="gini = 0.5\nsamples = 5\nvalue = [4, 3]"] ;
620 -> 621 ;
622 [label="ELO_DIFF <= 5.5\ngini = 0.3\nsamples = 6\nvalue = [2, 7]"] ;
620 -> 622 ;
623 [label="gini = 0.3\nsamples = 3\nvalue = [1, 4]"] ;
622 -> 623 ;
624 [label="gini = 0.4\nsamples = 3\nvalue = [1, 3]"] ;
622 -> 624 ;
625 [label="ELO_DIFF <= 5.8\ngini = 0.4\nsamples = 6\nvalue = [6, 2]"] ;
617 -> 625 ;
626 [label="gini = 0.0\nsamples = 3\nvalue = [4, 0]"] ;
625 -> 626 ;
627 [label="ELO_DIFF <= 5.9\ngini = 0.5\nsamples = 3\nvalue = [2, 2]"] ;
625 -> 627 ;
628 [label="gini = 0.0\nsamples = 1\nvalue = [0, 1]"] ;
627 -> 628 ;
629 [label="gini = 0.4\nsamples = 2\nvalue = [2, 1]"] ;
627 -> 629 ;
630 [label="gini = 0.0\nsamples = 2\nvalue = [0, 2]"] ;
578 -> 630 ;
631 [label="ELO_DIFF <= 4.8\ngini = 0.5\nsamples = 724\nvalue = [594, 555]"] ;
429 -> 631 ;
632 [label="ELO_DIFF <= 4.1\ngini = 0.5\nsamples = 504\nvalue = [452, 354]"] ;
631 -> 632 ;
633 [label="ELO_DIFF <= 3.8\ngini = 0.5\nsamples = 271\nvalue = [249, 175]"] ;
632 -> 633 ;
634 [label="HOME_AWAY_GOAL_DIFF <= 3.6\ngini = 0.5\nsamples = 184\nvalue = [163, 124]"] ;
633 -> 634 ;
635 [label="ELO_DIFF <= 3.6\ngini = 0.5\nsamples = 55\nvalue = [42, 38]"] ;
634 -> 635 ;
636 [label="ELO_DIFF <= 3.4\ngini = 0.5\nsamples = 41\nvalue = [36, 25]"] ;
635 -> 636 ;
637 [label="ELO_DIFF <= 3.3\ngini = 0.5\nsamples = 20\nvalue = [14, 14]"] ;
636 -> 637 ;
638 [label="gini = 0.5\nsamples = 10\nvalue = [7, 8]"] ;
637 -> 638 ;
639 [label="gini = 0.5\nsamples = 10\nvalue = [7, 6]"] ;
637 -> 639 ;
640 [label="ELO_DIFF <= 3.5\ngini = 0.4\nsamples = 21\nvalue = [22, 11]"] ;
636 -> 640 ;
641 [label="gini = 0.4\nsamples = 8\nvalue = [10, 3]"] ;
640 -> 641 ;
642 [label="gini = 0.5\nsamples = 13\nvalue = [12, 8]"] ;
640 -> 642 ;
643 [label="ELO_DIFF <= 3.7\ngini = 0.4\nsamples = 14\nvalue = [6, 13]"] ;
635 -> 643 ;
644 [label="gini = 0.5\nsamples = 8\nvalue = [4, 7]"] ;
643 -> 644 ;
645 [label="gini = 0.4\nsamples = 6\nvalue = [2, 6]"] ;
643 -> 645 ;
646 [label="ELO_DIFF <= 3.4\ngini = 0.5\nsamples = 129\nvalue = [121, 86]"] ;
634 -> 646 ;
647 [label="HOME_AWAY_GOAL_DIFF <= 3.8\ngini = 0.5\nsamples = 45\nvalue = [38, 30]"] ;
646 -> 647 ;
648 [label="ELO_DIFF <= 3.3\ngini = 0.5\nsamples = 27\nvalue = [24, 16]"] ;
647 -> 648 ;
649 [label="gini = 0.5\nsamples = 12\nvalue = [10, 7]"] ;
648 -> 649 ;
650 [label="gini = 0.5\nsamples = 15\nvalue = [14, 9]"] ;
648 -> 650 ;
651 [label="ELO_DIFF <= 3.3\ngini = 0.5\nsamples = 18\nvalue = [14, 14]"] ;
647 -> 651 ;
652 [label="gini = 0.4\nsamples = 3\nvalue = [2, 1]"] ;
651 -> 652 ;
653 [label="gini = 0.5\nsamples = 15\nvalue = [12, 13]"] ;
651 -> 653 ;
654 [label="HOME_AWAY_GOAL_DIFF <= 3.8\ngini = 0.5\nsamples = 84\nvalue = [83, 56]"] ;
646 -> 654 ;
655 [label="ELO_DIFF <= 3.7\ngini = 0.5\nsamples = 43\nvalue = [40, 27]"] ;
654 -> 655 ;
656 [label="ELO_DIFF <= 3.6\ngini = 0.5\nsamples = 34\nvalue = [35, 21]"] ;
655 -> 656 ;
657 [label="ELO_DIFF <= 3.5\ngini = 0.5\nsamples = 18\nvalue = [17, 12]"] ;
656 -> 657 ;
658 [label="gini = 0.5\nsamples = 7\nvalue = [6, 5]"] ;
657 -> 658 ;
659 [label="gini = 0.5\nsamples = 11\nvalue = [11, 7]"] ;
657 -> 659 ;
660 [label="gini = 0.4\nsamples = 16\nvalue = [18, 9]"] ;
656 -> 660 ;
661 [label="gini = 0.5\nsamples = 9\nvalue = [5, 6]"] ;
655 -> 661 ;
662 [label="ELO_DIFF <= 3.5\ngini = 0.5\nsamples = 41\nvalue = [43, 29]"] ;
654 -> 662 ;
663 [label="gini = 0.2\nsamples = 7\nvalue = [12, 2]"] ;
662 -> 663 ;
664 [label="ELO_DIFF <= 3.7\ngini = 0.5\nsamples = 34\nvalue = [31, 27]"] ;
662 -> 664 ;
665 [label="ELO_DIFF <= 3.6\ngini = 0.5\nsamples = 19\nvalue = [12, 17]"] ;
664 -> 665 ;
666 [label="gini = 0.3\nsamples = 4\nvalue = [1, 4]"] ;
665 -> 666 ;
667 [label="gini = 0.5\nsamples = 15\nvalue = [11, 13]"] ;
665 -> 667 ;
668 [label="gini = 0.5\nsamples = 15\nvalue = [19, 10]"] ;
664 -> 668 ;
669 [label="HOME_AWAY_GOAL_DIFF <= 3.8\ngini = 0.5\nsamples = 87\nvalue = [86, 51]"] ;
633 -> 669 ;
670 [label="HOME_AWAY_GOAL_DIFF <= 3.6\ngini = 0.4\nsamples = 59\nvalue = [60, 28]"] ;
669 -> 670 ;
671 [label="ELO_DIFF <= 3.9\ngini = 0.5\nsamples = 28\nvalue = [27, 16]"] ;
670 -> 671 ;
672 [label="gini = 0.4\nsamples = 14\nvalue = [14, 7]"] ;
671 -> 672 ;
673 [label="gini = 0.5\nsamples = 14\nvalue = [13, 9]"] ;
671 -> 673 ;
674 [label="ELO_DIFF <= 3.9\ngini = 0.4\nsamples = 31\nvalue = [33, 12]"] ;
670 -> 674 ;
675 [label="gini = 0.4\nsamples = 16\nvalue = [19, 6]"] ;
674 -> 675 ;
676 [label="gini = 0.4\nsamples = 15\nvalue = [14, 6]"] ;
674 -> 676 ;
677 [label="ELO_DIFF <= 3.9\ngini = 0.5\nsamples = 28\nvalue = [26, 23]"] ;
669 -> 677 ;
678 [label="gini = 0.5\nsamples = 13\nvalue = [13, 15]"] ;
677 -> 678 ;
679 [label="gini = 0.5\nsamples = 15\nvalue = [13, 8]"] ;
677 -> 679 ;
680 [label="HOME_AWAY_GOAL_DIFF <= 3.6\ngini = 0.5\nsamples = 233\nvalue = [203, 179]"] ;
632 -> 680 ;
681 [label="ELO_DIFF <= 4.7\ngini = 0.5\nsamples = 74\nvalue = [42, 62]"] ;
680 -> 681 ;
682 [label="ELO_DIFF <= 4.5\ngini = 0.5\nsamples = 64\nvalue = [38, 50]"] ;
681 -> 682 ;
683 [label="ELO_DIFF <= 4.4\ngini = 0.5\nsamples = 41\nvalue = [22, 36]"] ;
682 -> 683 ;
684 [label="ELO_DIFF <= 4.3\ngini = 0.5\nsamples = 34\nvalue = [20, 27]"] ;
683 -> 684 ;
685 [label="ELO_DIFF <= 4.2\ngini = 0.5\nsamples = 25\nvalue = [14, 23]"] ;
684 -> 685 ;
686 [label="gini = 0.5\nsamples = 12\nvalue = [7, 12]"] ;
685 -> 686 ;
687 [label="gini = 0.5\nsamples = 13\nvalue = [7, 11]"] ;
685 -> 687 ;
688 [label="gini = 0.5\nsamples = 9\nvalue = [6, 4]"] ;
684 -> 688 ;
689 [label="gini = 0.3\nsamples = 7\nvalue = [2, 9]"] ;
683 -> 689 ;
690 [label="ELO_DIFF <= 4.6\ngini = 0.5\nsamples = 23\nvalue = [16, 14]"] ;
682 -> 690 ;
691 [label="gini = 0.5\nsamples = 10\nvalue = [8, 8]"] ;
690 -> 691 ;
692 [label="gini = 0.5\nsamples = 13\nvalue = [8, 6]"] ;
690 -> 692 ;
693 [label="gini = 0.4\nsamples = 10\nvalue = [4, 12]"] ;
681 -> 693 ;
694 [label="RECENT_PERF_DIFF <= 3.8\ngini = 0.5\nsamples = 159\nvalue = [161, 117]"] ;
680 -> 694 ;
695 [label="ELO_DIFF <= 4.5\ngini = 0.5\nsamples = 75\nvalue = [73, 58]"] ;
694 -> 695 ;
696 [label="ELO_DIFF <= 4.4\ngini = 0.5\nsamples = 51\nvalue = [57, 39]"] ;
695 -> 696 ;
697 [label="ELO_DIFF <= 4.3\ngini = 0.5\nsamples = 33\nvalue = [31, 27]"] ;
696 -> 697 ;
698 [label="ELO_DIFF <= 4.2\ngini = 0.5\nsamples = 22\nvalue = [24, 19]"] ;
697 -> 698 ;
699 [label="gini = 0.5\nsamples = 12\nvalue = [13, 11]"] ;
698 -> 699 ;
700 [label="gini = 0.5\nsamples = 10\nvalue = [11, 8]"] ;
698 -> 700 ;
701 [label="gini = 0.5\nsamples = 11\nvalue = [7, 8]"] ;
697 -> 701 ;
702 [label="gini = 0.4\nsamples = 18\nvalue = [26, 12]"] ;
696 -> 702 ;
703 [label="ELO_DIFF <= 4.6\ngini = 0.5\nsamples = 24\nvalue = [16, 19]"] ;
695 -> 703 ;
704 [label="gini = 0.4\nsamples = 14\nvalue = [6, 14]"] ;
703 -> 704 ;
705 [label="ELO_DIFF <= 4.7\ngini = 0.4\nsamples = 10\nvalue = [10, 5]"] ;
703 -> 705 ;
706 [label="gini = 0.0\nsamples = 1\nvalue = [2, 0]"] ;
705 -> 706 ;
707 [label="gini = 0.5\nsamples = 9\nvalue = [8, 5]"] ;
705 -> 707 ;
708 [label="ELO_DIFF <= 4.3\ngini = 0.5\nsamples = 84\nvalue = [88, 59]"] ;
694 -> 708 ;
709 [label="ELO_DIFF <= 4.2\ngini = 0.4\nsamples = 24\nvalue = [9, 24]"] ;
708 -> 709 ;
710 [label="gini = 0.3\nsamples = 11\nvalue = [3, 12]"] ;
709 -> 710 ;
711 [label="gini = 0.4\nsamples = 13\nvalue = [6, 12]"] ;
709 -> 711 ;
712 [label="ELO_DIFF <= 4.6\ngini = 0.4\nsamples = 60\nvalue = [79, 35]"] ;
708 -> 712 ;
713 [label="ELO_DIFF <= 4.5\ngini = 0.5\nsamples = 38\nvalue = [45, 24]"] ;
712 -> 713 ;
714 [label="ELO_DIFF <= 4.4\ngini = 0.4\nsamples = 30\nvalue = [40, 18]"] ;
713 -> 714 ;
715 [label="gini = 0.5\nsamples = 18\nvalue = [21, 13]"] ;
714 -> 715 ;
716 [label="gini = 0.3\nsamples = 12\nvalue = [19, 5]"] ;
714 -> 716 ;
717 [label="gini = 0.5\nsamples = 8\nvalue = [5, 6]"] ;
713 -> 717 ;
718 [label="ELO_DIFF <= 4.7\ngini = 0.4\nsamples = 22\nvalue = [34, 11]"] ;
712 -> 718 ;
719 [label="gini = 0.3\nsamples = 9\nvalue = [14, 3]"] ;
718 -> 719 ;
720 [label="gini = 0.4\nsamples = 13\nvalue = [20, 8]"] ;
718 -> 720 ;
721 [label="RECENT_PERF_DIFF <= 3.6\ngini = 0.5\nsamples = 220\nvalue = [142, 201]"] ;
631 -> 721 ;
722 [label="ELO_DIFF <= 5.8\ngini = 0.5\nsamples = 54\nvalue = [30, 50]"] ;
721 -> 722 ;
723 [label="ELO_DIFF <= 5.4\ngini = 0.5\nsamples = 42\nvalue = [27, 37]"] ;
722 -> 723 ;
724 [label="ELO_DIFF <= 4.9\ngini = 0.4\nsamples = 27\nvalue = [13, 29]"] ;
723 -> 724 ;
725 [label="gini = 0.5\nsamples = 6\nvalue = [6, 7]"] ;
724 -> 725 ;
726 [label="ELO_DIFF <= 5.0\ngini = 0.4\nsamples = 21\nvalue = [7, 22]"] ;
724 -> 726 ;
727 [label="gini = 0.0\nsamples = 6\nvalue = [0, 11]"] ;
726 -> 727 ;
728 [label="ELO_DIFF <= 5.3\ngini = 0.5\nsamples = 15\nvalue = [7, 11]"] ;
726 -> 728 ;
729 [label="ELO_DIFF <= 5.2\ngini = 0.5\nsamples = 11\nvalue = [6, 7]"] ;
728 -> 729 ;
730 [label="ELO_DIFF <= 5.1\ngini = 0.5\nsamples = 10\nvalue = [4, 7]"] ;
729 -> 730 ;
731 [label="gini = 0.5\nsamples = 7\nvalue = [3, 5]"] ;
730 -> 731 ;
732 [label="gini = 0.4\nsamples = 3\nvalue = [1, 2]"] ;
730 -> 732 ;
733 [label="gini = 0.0\nsamples = 1\nvalue = [2, 0]"] ;
729 -> 733 ;
734 [label="gini = 0.3\nsamples = 4\nvalue = [1, 4]"] ;
728 -> 734 ;
735 [label="ELO_DIFF <= 5.6\ngini = 0.5\nsamples = 15\nvalue = [14, 8]"] ;
723 -> 735 ;
736 [label="ELO_DIFF <= 5.5\ngini = 0.4\nsamples = 9\nvalue = [9, 3]"] ;
735 -> 736 ;
737 [label="gini = 0.0\nsamples = 2\nvalue = [2, 0]"] ;
736 -> 737 ;
738 [label="gini = 0.4\nsamples = 7\nvalue = [7, 3]"] ;
736 -> 738 ;
739 [label="gini = 0.5\nsamples = 6\nvalue = [5, 5]"] ;
735 -> 739 ;
740 [label="ELO_DIFF <= 6.7\ngini = 0.3\nsamples = 12\nvalue = [3, 13]"] ;
722 -> 740 ;
741 [label="ELO_DIFF <= 6.1\ngini = 0.2\nsamples = 10\nvalue = [2, 12]"] ;
740 -> 741 ;
742 [label="ELO_DIFF <= 5.9\ngini = 0.3\nsamples = 7\nvalue = [2, 8]"] ;
741 -> 742 ;
743 [label="gini = 0.0\nsamples = 1\nvalue = [0, 1]"] ;
742 -> 743 ;
744 [label="gini = 0.3\nsamples = 6\nvalue = [2, 7]"] ;
742 -> 744 ;
745 [label="gini = 0.0\nsamples = 3\nvalue = [0, 4]"] ;
741 -> 745 ;
746 [label="ELO_DIFF <= 7.2\ngini = 0.5\nsamples = 2\nvalue = [1, 1]"] ;
740 -> 746 ;
747 [label="gini = 0.0\nsamples = 1\nvalue = [1, 0]"] ;
746 -> 747 ;
748 [label="gini = 0.0\nsamples = 1\nvalue = [0, 1]"] ;
746 -> 748 ;
749 [label="RECENT_PERF_DIFF <= 3.8\ngini = 0.5\nsamples = 166\nvalue = [112, 151]"] ;
721 -> 749 ;
750 [label="ELO_DIFF <= 5.7\ngini = 0.5\nsamples = 75\nvalue = [50, 57]"] ;
749 -> 750 ;
751 [label="ELO_DIFF <= 5.6\ngini = 0.5\nsamples = 60\nvalue = [32, 52]"] ;
750 -> 751 ;
752 [label="ELO_DIFF <= 5.5\ngini = 0.5\nsamples = 55\nvalue = [32, 44]"] ;
751 -> 752 ;
753 [label="ELO_DIFF <= 5.0\ngini = 0.5\nsamples = 52\nvalue = [29, 43]"] ;
752 -> 753 ;
754 [label="ELO_DIFF <= 4.9\ngini = 0.5\nsamples = 22\nvalue = [15, 15]"] ;
753 -> 754 ;
755 [label="gini = 0.5\nsamples = 7\nvalue = [3, 5]"] ;
754 -> 755 ;
756 [label="gini = 0.5\nsamples = 15\nvalue = [12, 10]"] ;
754 -> 756 ;
757 [label="ELO_DIFF <= 5.4\ngini = 0.4\nsamples = 30\nvalue = [14, 28]"] ;
753 -> 757 ;
758 [label="ELO_DIFF <= 5.2\ngini = 0.5\nsamples = 26\nvalue = [13, 23]"] ;
757 -> 758 ;
759 [label="ELO_DIFF <= 5.1\ngini = 0.4\nsamples = 18\nvalue = [8, 18]"] ;
758 -> 759 ;
760 [label="gini = 0.5\nsamples = 10\nvalue = [6, 10]"] ;
759 -> 760 ;
761 [label="gini = 0.3\nsamples = 8\nvalue = [2, 8]"] ;
759 -> 761 ;
762 [label="ELO_DIFF <= 5.3\ngini = 0.5\nsamples = 8\nvalue = [5, 5]"] ;
758 -> 762 ;
763 [label="gini = 0.4\nsamples = 3\nvalue = [2, 1]"] ;
762 -> 763 ;
764 [label="gini = 0.5\nsamples = 5\nvalue = [3, 4]"] ;
762 -> 764 ;
765 [label="gini = 0.3\nsamples = 4\nvalue = [1, 5]"] ;
757 -> 765 ;
766 [label="gini = 0.4\nsamples = 3\nvalue = [3, 1]"] ;
752 -> 766 ;
767 [label="gini = 0.0\nsamples = 5\nvalue = [0, 8]"] ;
751 -> 767 ;
768 [label="ELO_DIFF <= 6.2\ngini = 0.3\nsamples = 15\nvalue = [18, 5]"] ;
750 -> 768 ;
769 [label="ELO_DIFF <= 5.8\ngini = 0.4\nsamples = 9\nvalue = [8, 3]"] ;
768 -> 769 ;
770 [label="gini = 0.0\nsamples = 1\nvalue = [1, 0]"] ;
769 -> 770 ;
771 [label="ELO_DIFF <= 5.9\ngini = 0.4\nsamples = 8\nvalue = [7, 3]"] ;
769 -> 771 ;
772 [label="gini = 0.5\nsamples = 2\nvalue = [1, 1]"] ;
771 -> 772 ;
773 [label="ELO_DIFF <= 6.1\ngini = 0.4\nsamples = 6\nvalue = [6, 2]"] ;
771 -> 773 ;
774 [label="gini = 0.0\nsamples = 1\nvalue = [2, 0]"] ;
773 -> 774 ;
775 [label="gini = 0.4\nsamples = 5\nvalue = [4, 2]"] ;
773 -> 775 ;
776 [label="ELO_DIFF <= 6.3\ngini = 0.3\nsamples = 6\nvalue = [10, 2]"] ;
768 -> 776 ;
777 [label="gini = 0.0\nsamples = 1\nvalue = [1, 0]"] ;
776 -> 777 ;
778 [label="ELO_DIFF <= 6.8\ngini = 0.3\nsamples = 5\nvalue = [9, 2]"] ;
776 -> 778 ;
779 [label="ELO_DIFF <= 6.5\ngini = 0.3\nsamples = 4\nvalue = [8, 2]"] ;
778 -> 779 ;
780 [label="gini = 0.4\nsamples = 2\nvalue = [3, 1]"] ;
779 -> 780 ;
781 [label="gini = 0.3\nsamples = 2\nvalue = [5, 1]"] ;
779 -> 781 ;
782 [label="gini = 0.0\nsamples = 1\nvalue = [1, 0]"] ;
778 -> 782 ;
783 [label="ELO_DIFF <= 5.8\ngini = 0.5\nsamples = 91\nvalue = [62, 94]"] ;
749 -> 783 ;
784 [label="ELO_DIFF <= 5.0\ngini = 0.5\nsamples = 69\nvalue = [53, 66]"] ;
783 -> 784 ;
785 [label="ELO_DIFF <= 4.9\ngini = 0.5\nsamples = 16\nvalue = [10, 19]"] ;
784 -> 785 ;
786 [label="gini = 0.5\nsamples = 10\nvalue = [8, 14]"] ;
785 -> 786 ;
787 [label="gini = 0.4\nsamples = 6\nvalue = [2, 5]"] ;
785 -> 787 ;
788 [label="ELO_DIFF <= 5.5\ngini = 0.5\nsamples = 53\nvalue = [43, 47]"] ;
784 -> 788 ;
789 [label="ELO_DIFF <= 5.2\ngini = 0.5\nsamples = 38\nvalue = [30, 36]"] ;
788 -> 789 ;
790 [label="ELO_DIFF <= 5.1\ngini = 0.5\nsamples = 25\nvalue = [23, 22]"] ;
789 -> 790 ;
791 [label="gini = 0.5\nsamples = 13\nvalue = [11, 10]"] ;
790 -> 791 ;
792 [label="gini = 0.5\nsamples = 12\nvalue = [12, 12]"] ;
790 -> 792 ;
793 [label="ELO_DIFF <= 5.4\ngini = 0.4\nsamples = 13\nvalue = [7, 14]"] ;
789 -> 793 ;
794 [label="ELO_DIFF <= 5.3\ngini = 0.5\nsamples = 10\nvalue = [6, 10]"] ;
793 -> 794 ;
795 [label="gini = 0.4\nsamples = 3\nvalue = [1, 2]"] ;
794 -> 795 ;
796 [label="gini = 0.5\nsamples = 7\nvalue = [5, 8]"] ;
794 -> 796 ;
797 [label="gini = 0.3\nsamples = 3\nvalue = [1, 4]"] ;
793 -> 797 ;
798 [label="ELO_DIFF <= 5.6\ngini = 0.5\nsamples = 15\nvalue = [13, 11]"] ;
788 -> 798 ;
799 [label="gini = 0.5\nsamples = 8\nvalue = [8, 5]"] ;
798 -> 799 ;
800 [label="ELO_DIFF <= 5.7\ngini = 0.5\nsamples = 7\nvalue = [5, 6]"] ;
798 -> 800 ;
801 [label="gini = 0.4\nsamples = 3\nvalue = [1, 3]"] ;
800 -> 801 ;
802 [label="gini = 0.5\nsamples = 4\nvalue = [4, 3]"] ;
800 -> 802 ;
803 [label="ELO_DIFF <= 5.9\ngini = 0.4\nsamples = 22\nvalue = [9, 28]"] ;
783 -> 803 ;
804 [label="gini = 0.2\nsamples = 6\nvalue = [1, 9]"] ;
803 -> 804 ;
805 [label="ELO_DIFF <= 6.1\ngini = 0.4\nsamples = 16\nvalue = [8, 19]"] ;
803 -> 805 ;
806 [label="gini = 0.5\nsamples = 4\nvalue = [4, 5]"] ;
805 -> 806 ;
807 [label="ELO_DIFF <= 7.1\ngini = 0.3\nsamples = 12\nvalue = [4, 14]"] ;
805 -> 807 ;
808 [label="ELO_DIFF <= 6.6\ngini = 0.4\nsamples = 11\nvalue = [4, 11]"] ;
807 -> 808 ;
809 [label="ELO_DIFF <= 6.2\ngini = 0.3\nsamples = 10\nvalue = [3, 11]"] ;
808 -> 809 ;
810 [label="gini = 0.2\nsamples = 5\nvalue = [1, 6]"] ;
809 -> 810 ;
811 [label="ELO_DIFF <= 6.4\ngini = 0.4\nsamples = 5\nvalue = [2, 5]"] ;
809 -> 811 ;
812 [label="ELO_DIFF <= 6.3\ngini = 0.4\nsamples = 4\nvalue = [2, 4]"] ;
811 -> 812 ;
813 [label="gini = 0.4\nsamples = 2\nvalue = [1, 2]"] ;
812 -> 813 ;
814 [label="gini = 0.4\nsamples = 2\nvalue = [1, 2]"] ;
812 -> 814 ;
815 [label="gini = 0.0\nsamples = 1\nvalue = [0, 1]"] ;
811 -> 815 ;
816 [label="gini = 0.0\nsamples = 1\nvalue = [1, 0]"] ;
808 -> 816 ;
817 [label="gini = 0.0\nsamples = 1\nvalue = [0, 3]"] ;
807 -> 817 ;
818 [label="RECENT_PERF_DIFF <= 5.0\ngini = 0.5\nsamples = 1893\nvalue = [1435, 1551]"] ;
0 -> 818 [labeldistance=2.5, labelangle=-45, headlabel="False"] ;
819 [label="HOME_AWAY_GOAL_DIFF <= 4.2\ngini = 0.5\nsamples = 1355\nvalue = [1100, 1027]"] ;
818 -> 819 ;
820 [label="ELO_DIFF <= 3.7\ngini = 0.5\nsamples = 355\nvalue = [255, 284]"] ;
819 -> 820 ;
821 [label="ELO_DIFF <= 3.6\ngini = 0.4\nsamples = 118\nvalue = [128, 64]"] ;
820 -> 821 ;
822 [label="ELO_DIFF <= 2.1\ngini = 0.5\nsamples = 108\nvalue = [111, 63]"] ;
821 -> 822 ;
823 [label="ELO_DIFF <= 1.8\ngini = 0.2\nsamples = 7\nvalue = [11, 1]"] ;
822 -> 823 ;
824 [label="gini = 0.5\nsamples = 2\nvalue = [1, 1]"] ;
823 -> 824 ;
825 [label="gini = 0.0\nsamples = 5\nvalue = [10, 0]"] ;
823 -> 825 ;
826 [label="ELO_DIFF <= 2.3\ngini = 0.5\nsamples = 101\nvalue = [100, 62]"] ;
822 -> 826 ;
827 [label="gini = 0.0\nsamples = 5\nvalue = [0, 11]"] ;
826 -> 827 ;
828 [label="ELO_DIFF <= 2.4\ngini = 0.4\nsamples = 96\nvalue = [100, 51]"] ;
826 -> 828 ;
829 [label="gini = 0.0\nsamples = 4\nvalue = [7, 0]"] ;
828 -> 829 ;
830 [label="ELO_DIFF <= 3.0\ngini = 0.5\nsamples = 92\nvalue = [93, 51]"] ;
828 -> 830 ;
831 [label="ELO_DIFF <= 2.6\ngini = 0.5\nsamples = 35\nvalue = [32, 25]"] ;
830 -> 831 ;
832 [label="ELO_DIFF <= 2.5\ngini = 0.4\nsamples = 13\nvalue = [15, 7]"] ;
831 -> 832 ;
833 [label="gini = 0.4\nsamples = 4\nvalue = [4, 2]"] ;
832 -> 833 ;
834 [label="gini = 0.4\nsamples = 9\nvalue = [11, 5]"] ;
832 -> 834 ;
835 [label="ELO_DIFF <= 2.8\ngini = 0.5\nsamples = 22\nvalue = [17, 18]"] ;
831 -> 835 ;
836 [label="ELO_DIFF <= 2.7\ngini = 0.5\nsamples = 8\nvalue = [5, 9]"] ;
835 -> 836 ;
837 [label="gini = 0.5\nsamples = 3\nvalue = [2, 2]"] ;
836 -> 837 ;
838 [label="gini = 0.4\nsamples = 5\nvalue = [3, 7]"] ;
836 -> 838 ;
839 [label="ELO_DIFF <= 2.9\ngini = 0.5\nsamples = 14\nvalue = [12, 9]"] ;
835 -> 839 ;
840 [label="gini = 0.5\nsamples = 6\nvalue = [5, 3]"] ;
839 -> 840 ;
841 [label="gini = 0.5\nsamples = 8\nvalue = [7, 6]"] ;
839 -> 841 ;
842 [label="ELO_DIFF <= 3.1\ngini = 0.4\nsamples = 57\nvalue = [61, 26]"] ;
830 -> 842 ;
843 [label="gini = 0.1\nsamples = 12\nvalue = [16, 1]"] ;
842 -> 843 ;
844 [label="ELO_DIFF <= 3.5\ngini = 0.5\nsamples = 45\nvalue = [45, 25]"] ;
842 -> 844 ;
845 [label="ELO_DIFF <= 3.4\ngini = 0.4\nsamples = 37\nvalue = [38, 18]"] ;
844 -> 845 ;
846 [label="ELO_DIFF <= 3.3\ngini = 0.4\nsamples = 26\nvalue = [26, 11]"] ;
845 -> 846 ;
847 [label="ELO_DIFF <= 3.2\ngini = 0.4\nsamples = 18\nvalue = [18, 9]"] ;
846 -> 847 ;
848 [label="gini = 0.5\nsamples = 7\nvalue = [7, 4]"] ;
847 -> 848 ;
849 [label="gini = 0.4\nsamples = 11\nvalue = [11, 5]"] ;
847 -> 849 ;
850 [label="gini = 0.3\nsamples = 8\nvalue = [8, 2]"] ;
846 -> 850 ;
851 [label="gini = 0.5\nsamples = 11\nvalue = [12, 7]"] ;
845 -> 851 ;
852 [label="gini = 0.5\nsamples = 8\nvalue = [7, 7]"] ;
844 -> 852 ;
853 [label="gini = 0.1\nsamples = 10\nvalue = [17, 1]"] ;
821 -> 853 ;
854 [label="ELO_DIFF <= 5.3\ngini = 0.5\nsamples = 237\nvalue = [127, 220]"] ;
820 -> 854 ;
855 [label="ELO_DIFF <= 4.6\ngini = 0.5\nsamples = 195\nvalue = [114, 167]"] ;
854 -> 855 ;
856 [label="ELO_DIFF <= 4.5\ngini = 0.5\nsamples = 122\nvalue = [63, 114]"] ;
855 -> 856 ;
857 [label="ELO_DIFF <= 4.4\ngini = 0.5\nsamples = 111\nvalue = [59, 101]"] ;
856 -> 857 ;
858 [label="ELO_DIFF <= 4.3\ngini = 0.5\nsamples = 93\nvalue = [47, 86]"] ;
857 -> 858 ;
859 [label="ELO_DIFF <= 3.8\ngini = 0.5\nsamples = 79\nvalue = [42, 68]"] ;
858 -> 859 ;
860 [label="gini = 0.5\nsamples = 14\nvalue = [9, 11]"] ;
859 -> 860 ;
861 [label="ELO_DIFF <= 3.9\ngini = 0.5\nsamples = 65\nvalue = [33, 57]"] ;
859 -> 861 ;
862 [label="gini = 0.4\nsamples = 17\nvalue = [5, 14]"] ;
861 -> 862 ;
863 [label="ELO_DIFF <= 4.1\ngini = 0.5\nsamples = 48\nvalue = [28, 43]"] ;
861 -> 863 ;
864 [label="gini = 0.5\nsamples = 15\nvalue = [9, 16]"] ;
863 -> 864 ;
865 [label="ELO_DIFF <= 4.2\ngini = 0.5\nsamples = 33\nvalue = [19, 27]"] ;
863 -> 865 ;
866 [label="gini = 0.5\nsamples = 17\nvalue = [9, 12]"] ;
865 -> 866 ;
867 [label="gini = 0.5\nsamples = 16\nvalue = [10, 15]"] ;
865 -> 867 ;
868 [label="gini = 0.3\nsamples = 14\nvalue = [5, 18]"] ;
858 -> 868 ;
869 [label="gini = 0.5\nsamples = 18\nvalue = [12, 15]"] ;
857 -> 869 ;
870 [label="gini = 0.4\nsamples = 11\nvalue = [4, 13]"] ;
856 -> 870 ;
871 [label="ELO_DIFF <= 4.7\ngini = 0.5\nsamples = 73\nvalue = [51, 53]"] ;
855 -> 871 ;
872 [label="gini = 0.1\nsamples = 10\nvalue = [13, 1]"] ;
871 -> 872 ;
873 [label="ELO_DIFF <= 5.2\ngini = 0.5\nsamples = 63\nvalue = [38, 52]"] ;
871 -> 873 ;
874 [label="ELO_DIFF <= 4.8\ngini = 0.5\nsamples = 50\nvalue = [25, 44]"] ;
873 -> 874 ;
875 [label="gini = 0.4\nsamples = 12\nvalue = [4, 13]"] ;
874 -> 875 ;
876 [label="ELO_DIFF <= 4.9\ngini = 0.5\nsamples = 38\nvalue = [21, 31]"] ;
874 -> 876 ;
877 [label="gini = 0.5\nsamples = 9\nvalue = [6, 7]"] ;
876 -> 877 ;
878 [label="ELO_DIFF <= 5.1\ngini = 0.5\nsamples = 29\nvalue = [15, 24]"] ;
876 -> 878 ;
879 [label="ELO_DIFF <= 5.0\ngini = 0.5\nsamples = 19\nvalue = [10, 17]"] ;
878 -> 879 ;
880 [label="gini = 0.5\nsamples = 13\nvalue = [7, 11]"] ;
879 -> 880 ;
881 [label="gini = 0.4\nsamples = 6\nvalue = [3, 6]"] ;
879 -> 881 ;
882 [label="gini = 0.5\nsamples = 10\nvalue = [5, 7]"] ;
878 -> 882 ;
883 [label="gini = 0.5\nsamples = 13\nvalue = [13, 8]"] ;
873 -> 883 ;
884 [label="ELO_DIFF <= 6.2\ngini = 0.3\nsamples = 42\nvalue = [13, 53]"] ;
854 -> 884 ;
885 [label="ELO_DIFF <= 5.4\ngini = 0.2\nsamples = 33\nvalue = [6, 41]"] ;
884 -> 885 ;
886 [label="gini = 0.0\nsamples = 5\nvalue = [0, 7]"] ;
885 -> 886 ;
887 [label="ELO_DIFF <= 5.6\ngini = 0.3\nsamples = 28\nvalue = [6, 34]"] ;
885 -> 887 ;
888 [label="ELO_DIFF <= 5.5\ngini = 0.4\nsamples = 11\nvalue = [3, 9]"] ;
887 -> 888 ;
889 [label="gini = 0.4\nsamples = 6\nvalue = [2, 5]"] ;
888 -> 889 ;
890 [label="gini = 0.3\nsamples = 5\nvalue = [1, 4]"] ;
888 -> 890 ;
891 [label="ELO_DIFF <= 5.7\ngini = 0.2\nsamples = 17\nvalue = [3, 25]"] ;
887 -> 891 ;
892 [label="gini = 0.0\nsamples = 2\nvalue = [0, 4]"] ;
891 -> 892 ;
893 [label="ELO_DIFF <= 5.8\ngini = 0.2\nsamples = 15\nvalue = [3, 21]"] ;
891 -> 893 ;
894 [label="gini = 0.3\nsamples = 6\nvalue = [2, 7]"] ;
893 -> 894 ;
895 [label="ELO_DIFF <= 5.9\ngini = 0.1\nsamples = 9\nvalue = [1, 14]"] ;
893 -> 895 ;
896 [label="gini = 0.0\nsamples = 3\nvalue = [0, 5]"] ;
895 -> 896 ;
897 [label="ELO_DIFF <= 6.1\ngini = 0.2\nsamples = 6\nvalue = [1, 9]"] ;
895 -> 897 ;
898 [label="gini = 0.2\nsamples = 5\nvalue = [1, 7]"] ;
897 -> 898 ;
899 [label="gini = 0.0\nsamples = 1\nvalue = [0, 2]"] ;
897 -> 899 ;
900 [label="ELO_DIFF <= 7.2\ngini = 0.5\nsamples = 9\nvalue = [7, 12]"] ;
884 -> 900 ;
901 [label="ELO_DIFF <= 6.6\ngini = 0.5\nsamples = 8\nvalue = [7, 9]"] ;
900 -> 901 ;
902 [label="ELO_DIFF <= 6.3\ngini = 0.5\nsamples = 7\nvalue = [5, 9]"] ;
901 -> 902 ;
903 [label="gini = 0.0\nsamples = 1\nvalue = [1, 0]"] ;
902 -> 903 ;
904 [label="ELO_DIFF <= 6.4\ngini = 0.4\nsamples = 6\nvalue = [4, 9]"] ;
902 -> 904 ;
905 [label="gini = 0.4\nsamples = 5\nvalue = [4, 8]"] ;
904 -> 905 ;
906 [label="gini = 0.0\nsamples = 1\nvalue = [0, 1]"] ;
904 -> 906 ;
907 [label="gini = 0.0\nsamples = 1\nvalue = [2, 0]"] ;
901 -> 907 ;
908 [label="gini = 0.0\nsamples = 1\nvalue = [0, 3]"] ;
900 -> 908 ;
909 [label="HOME_AWAY_GOAL_DIFF <= 4.4\ngini = 0.5\nsamples = 1000\nvalue = [845, 743]"] ;
819 -> 909 ;
910 [label="ELO_DIFF <= 4.8\ngini = 0.5\nsamples = 306\nvalue = [254, 218]"] ;
909 -> 910 ;
911 [label="ELO_DIFF <= 1.8\ngini = 0.5\nsamples = 228\nvalue = [217, 141]"] ;
910 -> 911 ;
912 [label="ELO_DIFF <= 1.4\ngini = 0.3\nsamples = 6\nvalue = [2, 8]"] ;
911 -> 912 ;
913 [label="gini = 0.0\nsamples = 2\nvalue = [0, 4]"] ;
912 -> 913 ;
914 [label="ELO_DIFF <= 1.6\ngini = 0.4\nsamples = 4\nvalue = [2, 4]"] ;
912 -> 914 ;
915 [label="gini = 0.0\nsamples = 1\nvalue = [1, 0]"] ;
914 -> 915 ;
916 [label="ELO_DIFF <= 1.7\ngini = 0.3\nsamples = 3\nvalue = [1, 4]"] ;
914 -> 916 ;
917 [label="gini = 0.0\nsamples = 1\nvalue = [0, 1]"] ;
916 -> 917 ;
918 [label="gini = 0.4\nsamples = 2\nvalue = [1, 3]"] ;
916 -> 918 ;
919 [label="ELO_DIFF <= 2.4\ngini = 0.5\nsamples = 222\nvalue = [215, 133]"] ;
911 -> 919 ;
920 [label="ELO_DIFF <= 2.2\ngini = 0.1\nsamples = 9\nvalue = [16, 1]"] ;
919 -> 920 ;
921 [label="gini = 0.0\nsamples = 4\nvalue = [7, 0]"] ;
920 -> 921 ;
922 [label="ELO_DIFF <= 2.3\ngini = 0.2\nsamples = 5\nvalue = [9, 1]"] ;
920 -> 922 ;
923 [label="gini = 0.4\nsamples = 2\nvalue = [2, 1]"] ;
922 -> 923 ;
924 [label="gini = 0.0\nsamples = 3\nvalue = [7, 0]"] ;
922 -> 924 ;
925 [label="ELO_DIFF <= 2.5\ngini = 0.5\nsamples = 213\nvalue = [199, 132]"] ;
919 -> 925 ;
926 [label="gini = 0.0\nsamples = 3\nvalue = [0, 3]"] ;
925 -> 926 ;
927 [label="ELO_DIFF <= 2.8\ngini = 0.5\nsamples = 210\nvalue = [199, 129]"] ;
925 -> 927 ;
928 [label="ELO_DIFF <= 2.6\ngini = 0.3\nsamples = 15\nvalue = [18, 4]"] ;
927 -> 928 ;
929 [label="gini = 0.5\nsamples = 4\nvalue = [3, 2]"] ;
928 -> 929 ;
930 [label="ELO_DIFF <= 2.7\ngini = 0.2\nsamples = 11\nvalue = [15, 2]"] ;
928 -> 930 ;
931 [label="gini = 0.3\nsamples = 8\nvalue = [10, 2]"] ;
930 -> 931 ;
932 [label="gini = 0.0\nsamples = 3\nvalue = [5, 0]"] ;
930 -> 932 ;
933 [label="ELO_DIFF <= 3.2\ngini = 0.5\nsamples = 195\nvalue = [181, 125]"] ;
927 -> 933 ;
934 [label="ELO_DIFF <= 2.9\ngini = 0.5\nsamples = 30\nvalue = [31, 25]"] ;
933 -> 934 ;
935 [label="gini = 0.5\nsamples = 7\nvalue = [11, 6]"] ;
934 -> 935 ;
936 [label="ELO_DIFF <= 3.0\ngini = 0.5\nsamples = 23\nvalue = [20, 19]"] ;
934 -> 936 ;
937 [label="gini = 0.5\nsamples = 4\nvalue = [3, 5]"] ;
936 -> 937 ;
938 [label="ELO_DIFF <= 3.1\ngini = 0.5\nsamples = 19\nvalue = [17, 14]"] ;
936 -> 938 ;
939 [label="gini = 0.5\nsamples = 9\nvalue = [9, 7]"] ;
938 -> 939 ;
940 [label="gini = 0.5\nsamples = 10\nvalue = [8, 7]"] ;
938 -> 940 ;
941 [label="ELO_DIFF <= 3.3\ngini = 0.5\nsamples = 165\nvalue = [150, 100]"] ;
933 -> 941 ;
942 [label="gini = 0.2\nsamples = 5\nvalue = [8, 1]"] ;
941 -> 942 ;
943 [label="ELO_DIFF <= 3.4\ngini = 0.5\nsamples = 160\nvalue = [142, 99]"] ;
941 -> 943 ;
944 [label="gini = 0.5\nsamples = 10\nvalue = [7, 9]"] ;
943 -> 944 ;
945 [label="ELO_DIFF <= 3.5\ngini = 0.5\nsamples = 150\nvalue = [135, 90]"] ;
943 -> 945 ;
946 [label="gini = 0.2\nsamples = 7\nvalue = [8, 1]"] ;
945 -> 946 ;
947 [label="ELO_DIFF <= 4.4\ngini = 0.5\nsamples = 143\nvalue = [127, 89]"] ;
945 -> 947 ;
948 [label="ELO_DIFF <= 4.3\ngini = 0.5\nsamples = 103\nvalue = [93, 69]"] ;
947 -> 948 ;
949 [label="ELO_DIFF <= 4.1\ngini = 0.5\nsamples = 86\nvalue = [78, 55]"] ;
948 -> 949 ;
950 [label="ELO_DIFF <= 3.9\ngini = 0.5\nsamples = 59\nvalue = [50, 38]"] ;
949 -> 950 ;
951 [label="ELO_DIFF <= 3.6\ngini = 0.5\nsamples = 49\nvalue = [45, 30]"] ;
950 -> 951 ;
952 [label="gini = 0.4\nsamples = 7\nvalue = [8, 4]"] ;
951 -> 952 ;
953 [label="ELO_DIFF <= 3.7\ngini = 0.5\nsamples = 42\nvalue = [37, 26]"] ;
951 -> 953 ;
954 [label="gini = 0.5\nsamples = 12\nvalue = [9, 9]"] ;
953 -> 954 ;
955 [label="ELO_DIFF <= 3.8\ngini = 0.5\nsamples = 30\nvalue = [28, 17]"] ;
953 -> 955 ;
956 [label="gini = 0.5\nsamples = 17\nvalue = [13, 8]"] ;
955 -> 956 ;
957 [label="gini = 0.5\nsamples = 13\nvalue = [15, 9]"] ;
955 -> 957 ;
958 [label="gini = 0.5\nsamples = 10\nvalue = [5, 8]"] ;
950 -> 958 ;
959 [label="ELO_DIFF <= 4.2\ngini = 0.5\nsamples = 27\nvalue = [28, 17]"] ;
949 -> 959 ;
960 [label="gini = 0.4\nsamples = 13\nvalue = [15, 7]"] ;
959 -> 960 ;
961 [label="gini = 0.5\nsamples = 14\nvalue = [13, 10]"] ;
959 -> 961 ;
962 [label="gini = 0.5\nsamples = 17\nvalue = [15, 14]"] ;
948 -> 962 ;
963 [label="ELO_DIFF <= 4.6\ngini = 0.5\nsamples = 40\nvalue = [34, 20]"] ;
947 -> 963 ;
964 [label="ELO_DIFF <= 4.5\ngini = 0.5\nsamples = 28\nvalue = [25, 14]"] ;
963 -> 964 ;
965 [label="gini = 0.5\nsamples = 15\nvalue = [14, 8]"] ;
964 -> 965 ;
966 [label="gini = 0.5\nsamples = 13\nvalue = [11, 6]"] ;
964 -> 966 ;
967 [label="ELO_DIFF <= 4.7\ngini = 0.5\nsamples = 12\nvalue = [9, 6]"] ;
963 -> 967 ;
968 [label="gini = 0.5\nsamples = 5\nvalue = [3, 2]"] ;
967 -> 968 ;
969 [label="gini = 0.5\nsamples = 7\nvalue = [6, 4]"] ;
967 -> 969 ;
970 [label="ELO_DIFF <= 6.6\ngini = 0.4\nsamples = 78\nvalue = [37, 77]"] ;
910 -> 970 ;
971 [label="ELO_DIFF <= 6.4\ngini = 0.4\nsamples = 75\nvalue = [37, 73]"] ;
970 -> 971 ;
972 [label="ELO_DIFF <= 6.1\ngini = 0.4\nsamples = 74\nvalue = [34, 73]"] ;
971 -> 972 ;
973 [label="ELO_DIFF <= 5.2\ngini = 0.4\nsamples = 69\nvalue = [30, 69]"] ;
972 -> 973 ;
974 [label="ELO_DIFF <= 5.0\ngini = 0.5\nsamples = 27\nvalue = [14, 23]"] ;
973 -> 974 ;
975 [label="ELO_DIFF <= 4.9\ngini = 0.5\nsamples = 14\nvalue = [8, 12]"] ;
974 -> 975 ;
976 [label="gini = 0.5\nsamples = 6\nvalue = [3, 5]"] ;
975 -> 976 ;
977 [label="gini = 0.5\nsamples = 8\nvalue = [5, 7]"] ;
975 -> 977 ;
978 [label="ELO_DIFF <= 5.1\ngini = 0.5\nsamples = 13\nvalue = [6, 11]"] ;
974 -> 978 ;
979 [label="gini = 0.4\nsamples = 3\nvalue = [1, 3]"] ;
978 -> 979 ;
980 [label="gini = 0.5\nsamples = 10\nvalue = [5, 8]"] ;
978 -> 980 ;
981 [label="ELO_DIFF <= 5.5\ngini = 0.4\nsamples = 42\nvalue = [16, 46]"] ;
973 -> 981 ;
982 [label="ELO_DIFF <= 5.3\ngini = 0.3\nsamples = 20\nvalue = [5, 25]"] ;
981 -> 982 ;
983 [label="gini = 0.3\nsamples = 5\nvalue = [2, 8]"] ;
982 -> 983 ;
984 [label="ELO_DIFF <= 5.4\ngini = 0.3\nsamples = 15\nvalue = [3, 17]"] ;
982 -> 984 ;
985 [label="gini = 0.2\nsamples = 4\nvalue = [1, 6]"] ;
984 -> 985 ;
986 [label="gini = 0.3\nsamples = 11\nvalue = [2, 11]"] ;
984 -> 986 ;
987 [label="ELO_DIFF <= 5.6\ngini = 0.5\nsamples = 22\nvalue = [11, 21]"] ;
981 -> 987 ;
988 [label="gini = 0.5\nsamples = 6\nvalue = [6, 4]"] ;
987 -> 988 ;
989 [label="ELO_DIFF <= 5.8\ngini = 0.4\nsamples = 16\nvalue = [5, 17]"] ;
987 -> 989 ;
990 [label="ELO_DIFF <= 5.7\ngini = 0.4\nsamples = 14\nvalue = [5, 14]"] ;
989 -> 990 ;
991 [label="gini = 0.4\nsamples = 7\nvalue = [2, 6]"] ;
990 -> 991 ;
992 [label="gini = 0.4\nsamples = 7\nvalue = [3, 8]"] ;
990 -> 992 ;
993 [label="gini = 0.0\nsamples = 2\nvalue = [0, 3]"] ;
989 -> 993 ;
994 [label="ELO_DIFF <= 6.3\ngini = 0.5\nsamples = 5\nvalue = [4, 4]"] ;
972 -> 994 ;
995 [label="gini = 0.5\nsamples = 4\nvalue = [4, 3]"] ;
994 -> 995 ;
996 [label="gini = 0.0\nsamples = 1\nvalue = [0, 1]"] ;
994 -> 996 ;
997 [label="gini = 0.0\nsamples = 1\nvalue = [3, 0]"] ;
971 -> 997 ;
998 [label="gini = 0.0\nsamples = 3\nvalue = [0, 4]"] ;
970 -> 998 ;
999 [label="RECENT_PERF_DIFF <= 4.8\ngini = 0.5\nsamples = 694\nvalue = [591, 525]"] ;
909 -> 999 ;
1000 [label="RECENT_PERF_DIFF <= 4.6\ngini = 0.5\nsamples = 481\nvalue = [405, 361]"] ;
999 -> 1000 ;
1001 [label="ELO_DIFF <= 4.1\ngini = 0.5\nsamples = 254\nvalue = [217, 194]"] ;
1000 -> 1001 ;
1002 [label="ELO_DIFF <= 3.6\ngini = 0.4\nsamples = 89\nvalue = [110, 39]"] ;
1001 -> 1002 ;
1003 [label="ELO_DIFF <= 3.1\ngini = 0.4\nsamples = 57\nvalue = [69, 33]"] ;
1002 -> 1003 ;
1004 [label="ELO_DIFF <= 2.5\ngini = 0.3\nsamples = 22\nvalue = [35, 7]"] ;
1003 -> 1004 ;
1005 [label="ELO_DIFF <= 1.9\ngini = 0.5\nsamples = 8\nvalue = [6, 6]"] ;
1004 -> 1005 ;
1006 [label="ELO_DIFF <= 1.6\ngini = 0.4\nsamples = 3\nvalue = [2, 4]"] ;
1005 -> 1006 ;
1007 [label="gini = 0.0\nsamples = 1\nvalue = [0, 1]"] ;
1006 -> 1007 ;
1008 [label="gini = 0.5\nsamples = 2\nvalue = [2, 3]"] ;
1006 -> 1008 ;
1009 [label="ELO_DIFF <= 2.3\ngini = 0.4\nsamples = 5\nvalue = [4, 2]"] ;
1005 -> 1009 ;
1010 [label="gini = 0.0\nsamples = 2\nvalue = [2, 0]"] ;
1009 -> 1010 ;
1011 [label="gini = 0.5\nsamples = 3\nvalue = [2, 2]"] ;
1009 -> 1011 ;
1012 [label="ELO_DIFF <= 2.6\ngini = 0.1\nsamples = 14\nvalue = [29, 1]"] ;
1004 -> 1012 ;
1013 [label="gini = 0.3\nsamples = 3\nvalue = [4, 1]"] ;
1012 -> 1013 ;
1014 [label="gini = 0.0\nsamples = 11\nvalue = [25, 0]"] ;
1012 -> 1014 ;
1015 [label="ELO_DIFF <= 3.3\ngini = 0.5\nsamples = 35\nvalue = [34, 26]"] ;
1003 -> 1015 ;
1016 [label="ELO_DIFF <= 3.2\ngini = 0.5\nsamples = 13\nvalue = [10, 12]"] ;
1015 -> 1016 ;
1017 [label="gini = 0.5\nsamples = 7\nvalue = [7, 6]"] ;
1016 -> 1017 ;
1018 [label="gini = 0.4\nsamples = 6\nvalue = [3, 6]"] ;
1016 -> 1018 ;
1019 [label="ELO_DIFF <= 3.5\ngini = 0.5\nsamples = 22\nvalue = [24, 14]"] ;
1015 -> 1019 ;
1020 [label="ELO_DIFF <= 3.4\ngini = 0.4\nsamples = 15\nvalue = [18, 9]"] ;
1019 -> 1020 ;
1021 [label="gini = 0.4\nsamples = 7\nvalue = [9, 4]"] ;
1020 -> 1021 ;
1022 [label="gini = 0.5\nsamples = 8\nvalue = [9, 5]"] ;
1020 -> 1022 ;
1023 [label="gini = 0.5\nsamples = 7\nvalue = [6, 5]"] ;
1019 -> 1023 ;
1024 [label="ELO_DIFF <= 3.9\ngini = 0.2\nsamples = 32\nvalue = [41, 6]"] ;
1002 -> 1024 ;
1025 [label="ELO_DIFF <= 3.8\ngini = 0.2\nsamples = 25\nvalue = [33, 3]"] ;
1024 -> 1025 ;
1026 [label="ELO_DIFF <= 3.7\ngini = 0.1\nsamples = 14\nvalue = [21, 1]"] ;
1025 -> 1026 ;
1027 [label="gini = 0.1\nsamples = 9\nvalue = [12, 1]"] ;
1026 -> 1027 ;
1028 [label="gini = 0.0\nsamples = 5\nvalue = [9, 0]"] ;
1026 -> 1028 ;
1029 [label="gini = 0.2\nsamples = 11\nvalue = [12, 2]"] ;
1025 -> 1029 ;
1030 [label="gini = 0.4\nsamples = 7\nvalue = [8, 3]"] ;
1024 -> 1030 ;
1031 [label="ELO_DIFF <= 6.5\ngini = 0.5\nsamples = 165\nvalue = [107, 155]"] ;
1001 -> 1031 ;
1032 [label="ELO_DIFF <= 4.8\ngini = 0.5\nsamples = 161\nvalue = [107, 147]"] ;
1031 -> 1032 ;
1033 [label="ELO_DIFF <= 4.6\ngini = 0.5\nsamples = 79\nvalue = [60, 70]"] ;
1032 -> 1033 ;
1034 [label="ELO_DIFF <= 4.5\ngini = 0.5\nsamples = 61\nvalue = [37, 58]"] ;
1033 -> 1034 ;
1035 [label="ELO_DIFF <= 4.2\ngini = 0.5\nsamples = 52\nvalue = [34, 46]"] ;
1034 -> 1035 ;
1036 [label="gini = 0.5\nsamples = 9\nvalue = [8, 8]"] ;
1035 -> 1036 ;
1037 [label="ELO_DIFF <= 4.3\ngini = 0.5\nsamples = 43\nvalue = [26, 38]"] ;
1035 -> 1037 ;
1038 [label="gini = 0.5\nsamples = 13\nvalue = [9, 12]"] ;
1037 -> 1038 ;
1039 [label="ELO_DIFF <= 4.4\ngini = 0.5\nsamples = 30\nvalue = [17, 26]"] ;
1037 -> 1039 ;
1040 [label="gini = 0.5\nsamples = 13\nvalue = [6, 11]"] ;
1039 -> 1040 ;
1041 [label="gini = 0.5\nsamples = 17\nvalue = [11, 15]"] ;
1039 -> 1041 ;
1042 [label="gini = 0.3\nsamples = 9\nvalue = [3, 12]"] ;
1034 -> 1042 ;
1043 [label="ELO_DIFF <= 4.7\ngini = 0.5\nsamples = 18\nvalue = [23, 12]"] ;
1033 -> 1043 ;
1044 [label="gini = 0.4\nsamples = 11\nvalue = [16, 8]"] ;
1043 -> 1044 ;
1045 [label="gini = 0.5\nsamples = 7\nvalue = [7, 4]"] ;
1043 -> 1045 ;
1046 [label="ELO_DIFF <= 6.3\ngini = 0.5\nsamples = 82\nvalue = [47, 77]"] ;
1032 -> 1046 ;
1047 [label="ELO_DIFF <= 6.2\ngini = 0.5\nsamples = 81\nvalue = [46, 77]"] ;
1046 -> 1047 ;
1048 [label="ELO_DIFF <= 5.6\ngini = 0.5\nsamples = 79\nvalue = [46, 74]"] ;
1047 -> 1048 ;
1049 [label="ELO_DIFF <= 5.3\ngini = 0.5\nsamples = 61\nvalue = [32, 58]"] ;
1048 -> 1049 ;
1050 [label="ELO_DIFF <= 5.2\ngini = 0.5\nsamples = 45\nvalue = [24, 40]"] ;
1049 -> 1050 ;
1051 [label="ELO_DIFF <= 4.9\ngini = 0.5\nsamples = 41\nvalue = [21, 38]"] ;
1050 -> 1051 ;
1052 [label="gini = 0.5\nsamples = 13\nvalue = [8, 12]"] ;
1051 -> 1052 ;
1053 [label="ELO_DIFF <= 5.1\ngini = 0.4\nsamples = 28\nvalue = [13, 26]"] ;
1051 -> 1053 ;
1054 [label="ELO_DIFF <= 5.0\ngini = 0.4\nsamples = 19\nvalue = [8, 18]"] ;
1053 -> 1054 ;
1055 [label="gini = 0.4\nsamples = 12\nvalue = [5, 11]"] ;
1054 -> 1055 ;
1056 [label="gini = 0.4\nsamples = 7\nvalue = [3, 7]"] ;
1054 -> 1056 ;
1057 [label="gini = 0.5\nsamples = 9\nvalue = [5, 8]"] ;
1053 -> 1057 ;
1058 [label="gini = 0.5\nsamples = 4\nvalue = [3, 2]"] ;
1050 -> 1058 ;
1059 [label="ELO_DIFF <= 5.5\ngini = 0.4\nsamples = 16\nvalue = [8, 18]"] ;
1049 -> 1059 ;
1060 [label="ELO_DIFF <= 5.4\ngini = 0.4\nsamples = 10\nvalue = [4, 11]"] ;
1059 -> 1060 ;
1061 [label="gini = 0.4\nsamples = 4\nvalue = [1, 3]"] ;
1060 -> 1061 ;
1062 [label="gini = 0.4\nsamples = 6\nvalue = [3, 8]"] ;
1060 -> 1062 ;
1063 [label="gini = 0.5\nsamples = 6\nvalue = [4, 7]"] ;
1059 -> 1063 ;
1064 [label="ELO_DIFF <= 5.9\ngini = 0.5\nsamples = 18\nvalue = [14, 16]"] ;
1048 -> 1064 ;
1065 [label="ELO_DIFF <= 5.8\ngini = 0.5\nsamples = 12\nvalue = [10, 8]"] ;
1064 -> 1065 ;
1066 [label="ELO_DIFF <= 5.7\ngini = 0.5\nsamples = 11\nvalue = [9, 8]"] ;
1065 -> 1066 ;
1067 [label="gini = 0.5\nsamples = 4\nvalue = [4, 4]"] ;
1066 -> 1067 ;
1068 [label="gini = 0.5\nsamples = 7\nvalue = [5, 4]"] ;
1066 -> 1068 ;
1069 [label="gini = 0.0\nsamples = 1\nvalue = [1, 0]"] ;
1065 -> 1069 ;
1070 [label="ELO_DIFF <= 6.1\ngini = 0.4\nsamples = 6\nvalue = [4, 8]"] ;
1064 -> 1070 ;
1071 [label="gini = 0.3\nsamples = 3\nvalue = [1, 4]"] ;
1070 -> 1071 ;
1072 [label="gini = 0.5\nsamples = 3\nvalue = [3, 4]"] ;
1070 -> 1072 ;
1073 [label="gini = 0.0\nsamples = 2\nvalue = [0, 3]"] ;
1047 -> 1073 ;
1074 [label="gini = 0.0\nsamples = 1\nvalue = [1, 0]"] ;
1046 -> 1074 ;
1075 [label="gini = 0.0\nsamples = 4\nvalue = [0, 8]"] ;
1031 -> 1075 ;
1076 [label="ELO_DIFF <= 5.3\ngini = 0.5\nsamples = 227\nvalue = [188, 167]"] ;
1000 -> 1076 ;
1077 [label="ELO_DIFF <= 3.1\ngini = 0.5\nsamples = 178\nvalue = [165, 123]"] ;
1076 -> 1077 ;
1078 [label="ELO_DIFF <= 2.1\ngini = 0.4\nsamples = 25\nvalue = [26, 9]"] ;
1077 -> 1078 ;
1079 [label="gini = 0.0\nsamples = 3\nvalue = [6, 0]"] ;
1078 -> 1079 ;
1080 [label="ELO_DIFF <= 2.6\ngini = 0.4\nsamples = 22\nvalue = [20, 9]"] ;
1078 -> 1080 ;
1081 [label="ELO_DIFF <= 2.4\ngini = 0.5\nsamples = 9\nvalue = [6, 6]"] ;
1080 -> 1081 ;
1082 [label="ELO_DIFF <= 2.3\ngini = 0.4\nsamples = 4\nvalue = [3, 1]"] ;
1081 -> 1082 ;
1083 [label="gini = 0.0\nsamples = 1\nvalue = [0, 1]"] ;
1082 -> 1083 ;
1084 [label="gini = 0.0\nsamples = 3\nvalue = [3, 0]"] ;
1082 -> 1084 ;
1085 [label="ELO_DIFF <= 2.5\ngini = 0.5\nsamples = 5\nvalue = [3, 5]"] ;
1081 -> 1085 ;
1086 [label="gini = 0.5\nsamples = 3\nvalue = [2, 3]"] ;
1085 -> 1086 ;
1087 [label="gini = 0.4\nsamples = 2\nvalue = [1, 2]"] ;
1085 -> 1087 ;
1088 [label="ELO_DIFF <= 2.7\ngini = 0.3\nsamples = 13\nvalue = [14, 3]"] ;
1080 -> 1088 ;
1089 [label="gini = 0.0\nsamples = 2\nvalue = [3, 0]"] ;
1088 -> 1089 ;
1090 [label="ELO_DIFF <= 2.8\ngini = 0.3\nsamples = 11\nvalue = [11, 3]"] ;
1088 -> 1090 ;
1091 [label="gini = 0.0\nsamples = 1\nvalue = [0, 1]"] ;
1090 -> 1091 ;
1092 [label="ELO_DIFF <= 2.9\ngini = 0.3\nsamples = 10\nvalue = [11, 2]"] ;
1090 -> 1092 ;
1093 [label="gini = 0.0\nsamples = 2\nvalue = [4, 0]"] ;
1092 -> 1093 ;
1094 [label="ELO_DIFF <= 3.0\ngini = 0.3\nsamples = 8\nvalue = [7, 2]"] ;
1092 -> 1094 ;
1095 [label="gini = 0.4\nsamples = 4\nvalue = [3, 1]"] ;
1094 -> 1095 ;
1096 [label="gini = 0.3\nsamples = 4\nvalue = [4, 1]"] ;
1094 -> 1096 ;
1097 [label="ELO_DIFF <= 3.2\ngini = 0.5\nsamples = 153\nvalue = [139, 114]"] ;
1077 -> 1097 ;
1098 [label="gini = 0.4\nsamples = 9\nvalue = [5, 17]"] ;
1097 -> 1098 ;
1099 [label="ELO_DIFF <= 3.3\ngini = 0.5\nsamples = 144\nvalue = [134, 97]"] ;
1097 -> 1099 ;
1100 [label="gini = 0.0\nsamples = 3\nvalue = [6, 0]"] ;
1099 -> 1100 ;
1101 [label="ELO_DIFF <= 3.9\ngini = 0.5\nsamples = 141\nvalue = [128, 97]"] ;
1099 -> 1101 ;
1102 [label="ELO_DIFF <= 3.8\ngini = 0.5\nsamples = 47\nvalue = [41, 38]"] ;
1101 -> 1102 ;
1103 [label="ELO_DIFF <= 3.5\ngini = 0.5\nsamples = 35\nvalue = [36, 25]"] ;
1102 -> 1103 ;
1104 [label="ELO_DIFF <= 3.4\ngini = 0.5\nsamples = 15\nvalue = [12, 13]"] ;
1103 -> 1104 ;
1105 [label="gini = 0.5\nsamples = 10\nvalue = [8, 9]"] ;
1104 -> 1105 ;
1106 [label="gini = 0.5\nsamples = 5\nvalue = [4, 4]"] ;
1104 -> 1106 ;
1107 [label="ELO_DIFF <= 3.6\ngini = 0.4\nsamples = 20\nvalue = [24, 12]"] ;
1103 -> 1107 ;
1108 [label="gini = 0.2\nsamples = 3\nvalue = [6, 1]"] ;
1107 -> 1108 ;
1109 [label="ELO_DIFF <= 3.7\ngini = 0.5\nsamples = 17\nvalue = [18, 11]"] ;
1107 -> 1109 ;
1110 [label="gini = 0.4\nsamples = 6\nvalue = [6, 3]"] ;
1109 -> 1110 ;
1111 [label="gini = 0.5\nsamples = 11\nvalue = [12, 8]"] ;
1109 -> 1111 ;
1112 [label="gini = 0.4\nsamples = 12\nvalue = [5, 13]"] ;
1102 -> 1112 ;
1113 [label="ELO_DIFF <= 4.1\ngini = 0.5\nsamples = 94\nvalue = [87, 59]"] ;
1101 -> 1113 ;
1114 [label="gini = 0.2\nsamples = 8\nvalue = [11, 1]"] ;
1113 -> 1114 ;
1115 [label="ELO_DIFF <= 4.2\ngini = 0.5\nsamples = 86\nvalue = [76, 58]"] ;
1113 -> 1115 ;
1116 [label="gini = 0.4\nsamples = 10\nvalue = [5, 11]"] ;
1115 -> 1116 ;
1117 [label="ELO_DIFF <= 4.4\ngini = 0.5\nsamples = 76\nvalue = [71, 47]"] ;
1115 -> 1117 ;
1118 [label="ELO_DIFF <= 4.3\ngini = 0.4\nsamples = 17\nvalue = [19, 8]"] ;
1117 -> 1118 ;
1119 [label="gini = 0.5\nsamples = 10\nvalue = [10, 6]"] ;
1118 -> 1119 ;
1120 [label="gini = 0.3\nsamples = 7\nvalue = [9, 2]"] ;
1118 -> 1120 ;
1121 [label="ELO_DIFF <= 4.9\ngini = 0.5\nsamples = 59\nvalue = [52, 39]"] ;
1117 -> 1121 ;
1122 [label="ELO_DIFF <= 4.8\ngini = 0.5\nsamples = 35\nvalue = [29, 26]"] ;
1121 -> 1122 ;
1123 [label="ELO_DIFF <= 4.5\ngini = 0.5\nsamples = 28\nvalue = [28, 19]"] ;
1122 -> 1123 ;
1124 [label="gini = 0.5\nsamples = 9\nvalue = [6, 7]"] ;
1123 -> 1124 ;
1125 [label="ELO_DIFF <= 4.7\ngini = 0.5\nsamples = 19\nvalue = [22, 12]"] ;
1123 -> 1125 ;
1126 [label="ELO_DIFF <= 4.6\ngini = 0.5\nsamples = 13\nvalue = [14, 9]"] ;
1125 -> 1126 ;
1127 [label="gini = 0.5\nsamples = 6\nvalue = [8, 5]"] ;
1126 -> 1127 ;
1128 [label="gini = 0.5\nsamples = 7\nvalue = [6, 4]"] ;
1126 -> 1128 ;
1129 [label="gini = 0.4\nsamples = 6\nvalue = [8, 3]"] ;
1125 -> 1129 ;
1130 [label="gini = 0.2\nsamples = 7\nvalue = [1, 7]"] ;
1122 -> 1130 ;
1131 [label="ELO_DIFF <= 5.0\ngini = 0.5\nsamples = 24\nvalue = [23, 13]"] ;
1121 -> 1131 ;
1132 [label="gini = 0.3\nsamples = 6\nvalue = [7, 2]"] ;
1131 -> 1132 ;
1133 [label="ELO_DIFF <= 5.1\ngini = 0.5\nsamples = 18\nvalue = [16, 11]"] ;
1131 -> 1133 ;
1134 [label="gini = 0.5\nsamples = 9\nvalue = [9, 5]"] ;
1133 -> 1134 ;
1135 [label="ELO_DIFF <= 5.2\ngini = 0.5\nsamples = 9\nvalue = [7, 6]"] ;
1133 -> 1135 ;
1136 [label="gini = 0.5\nsamples = 5\nvalue = [4, 4]"] ;
1135 -> 1136 ;
1137 [label="gini = 0.5\nsamples = 4\nvalue = [3, 2]"] ;
1135 -> 1137 ;
1138 [label="ELO_DIFF <= 5.4\ngini = 0.5\nsamples = 49\nvalue = [23, 44]"] ;
1076 -> 1138 ;
1139 [label="gini = 0.0\nsamples = 6\nvalue = [0, 9]"] ;
1138 -> 1139 ;
1140 [label="ELO_DIFF <= 6.1\ngini = 0.5\nsamples = 43\nvalue = [23, 35]"] ;
1138 -> 1140 ;
1141 [label="ELO_DIFF <= 5.8\ngini = 0.5\nsamples = 26\nvalue = [18, 17]"] ;
1140 -> 1141 ;
1142 [label="ELO_DIFF <= 5.5\ngini = 0.5\nsamples = 20\nvalue = [12, 15]"] ;
1141 -> 1142 ;
1143 [label="gini = 0.3\nsamples = 4\nvalue = [4, 1]"] ;
1142 -> 1143 ;
1144 [label="ELO_DIFF <= 5.7\ngini = 0.5\nsamples = 16\nvalue = [8, 14]"] ;
1142 -> 1144 ;
1145 [label="ELO_DIFF <= 5.6\ngini = 0.5\nsamples = 14\nvalue = [7, 13]"] ;
1144 -> 1145 ;
1146 [label="gini = 0.4\nsamples = 6\nvalue = [3, 6]"] ;
1145 -> 1146 ;
1147 [label="gini = 0.5\nsamples = 8\nvalue = [4, 7]"] ;
1145 -> 1147 ;
1148 [label="gini = 0.5\nsamples = 2\nvalue = [1, 1]"] ;
1144 -> 1148 ;
1149 [label="ELO_DIFF <= 5.9\ngini = 0.4\nsamples = 6\nvalue = [6, 2]"] ;
1141 -> 1149 ;
1150 [label="gini = 0.3\nsamples = 3\nvalue = [4, 1]"] ;
1149 -> 1150 ;
1151 [label="gini = 0.4\nsamples = 3\nvalue = [2, 1]"] ;
1149 -> 1151 ;
1152 [label="ELO_DIFF <= 6.8\ngini = 0.3\nsamples = 17\nvalue = [5, 18]"] ;
1140 -> 1152 ;
1153 [label="ELO_DIFF <= 6.3\ngini = 0.3\nsamples = 13\nvalue = [3, 16]"] ;
1152 -> 1153 ;
1154 [label="ELO_DIFF <= 6.2\ngini = 0.4\nsamples = 9\nvalue = [3, 10]"] ;
1153 -> 1154 ;
1155 [label="gini = 0.0\nsamples = 3\nvalue = [0, 3]"] ;
1154 -> 1155 ;
1156 [label="gini = 0.4\nsamples = 6\nvalue = [3, 7]"] ;
1154 -> 1156 ;
1157 [label="gini = 0.0\nsamples = 4\nvalue = [0, 6]"] ;
1153 -> 1157 ;
1158 [label="ELO_DIFF <= 7.2\ngini = 0.5\nsamples = 4\nvalue = [2, 2]"] ;
1152 -> 1158 ;
1159 [label="gini = 0.0\nsamples = 2\nvalue = [2, 0]"] ;
1158 -> 1159 ;
1160 [label="gini = 0.0\nsamples = 2\nvalue = [0, 2]"] ;
1158 -> 1160 ;
1161 [label="ELO_DIFF <= 4.3\ngini = 0.5\nsamples = 213\nvalue = [186, 164]"] ;
999 -> 1161 ;
1162 [label="ELO_DIFF <= 2.9\ngini = 0.4\nsamples = 80\nvalue = [91, 46]"] ;
1161 -> 1162 ;
1163 [label="ELO_DIFF <= 1.3\ngini = 0.1\nsamples = 11\nvalue = [19, 1]"] ;
1162 -> 1163 ;
1164 [label="gini = 0.0\nsamples = 1\nvalue = [0, 1]"] ;
1163 -> 1164 ;
1165 [label="gini = 0.0\nsamples = 10\nvalue = [19, 0]"] ;
1163 -> 1165 ;
1166 [label="ELO_DIFF <= 3.9\ngini = 0.5\nsamples = 69\nvalue = [72, 45]"] ;
1162 -> 1166 ;
1167 [label="ELO_DIFF <= 3.8\ngini = 0.5\nsamples = 42\nvalue = [38, 35]"] ;
1166 -> 1167 ;
1168 [label="ELO_DIFF <= 3.5\ngini = 0.5\nsamples = 33\nvalue = [34, 23]"] ;
1167 -> 1168 ;
1169 [label="ELO_DIFF <= 3.3\ngini = 0.5\nsamples = 21\nvalue = [17, 19]"] ;
1168 -> 1169 ;
1170 [label="ELO_DIFF <= 3.0\ngini = 0.5\nsamples = 10\nvalue = [11, 7]"] ;
1169 -> 1170 ;
1171 [label="gini = 0.4\nsamples = 2\nvalue = [1, 2]"] ;
1170 -> 1171 ;
1172 [label="ELO_DIFF <= 3.2\ngini = 0.4\nsamples = 8\nvalue = [10, 5]"] ;
1170 -> 1172 ;
1173 [label="ELO_DIFF <= 3.1\ngini = 0.3\nsamples = 3\nvalue = [5, 1]"] ;
1172 -> 1173 ;
1174 [label="gini = 0.4\nsamples = 2\nvalue = [3, 1]"] ;
1173 -> 1174 ;
1175 [label="gini = 0.0\nsamples = 1\nvalue = [2, 0]"] ;
1173 -> 1175 ;
1176 [label="gini = 0.5\nsamples = 5\nvalue = [5, 4]"] ;
1172 -> 1176 ;
1177 [label="ELO_DIFF <= 3.4\ngini = 0.4\nsamples = 11\nvalue = [6, 12]"] ;
1169 -> 1177 ;
1178 [label="gini = 0.5\nsamples = 8\nvalue = [5, 7]"] ;
1177 -> 1178 ;
1179 [label="gini = 0.3\nsamples = 3\nvalue = [1, 5]"] ;
1177 -> 1179 ;
1180 [label="ELO_DIFF <= 3.7\ngini = 0.3\nsamples = 12\nvalue = [17, 4]"] ;
1168 -> 1180 ;
1181 [label="ELO_DIFF <= 3.6\ngini = 0.3\nsamples = 8\nvalue = [8, 2]"] ;
1180 -> 1181 ;
1182 [label="gini = 0.3\nsamples = 4\nvalue = [4, 1]"] ;
1181 -> 1182 ;
1183 [label="gini = 0.3\nsamples = 4\nvalue = [4, 1]"] ;
1181 -> 1183 ;
1184 [label="gini = 0.3\nsamples = 4\nvalue = [9, 2]"] ;
1180 -> 1184 ;
1185 [label="gini = 0.4\nsamples = 9\nvalue = [4, 12]"] ;
1167 -> 1185 ;
1186 [label="ELO_DIFF <= 4.2\ngini = 0.4\nsamples = 27\nvalue = [34, 10]"] ;
1166 -> 1186 ;
1187 [label="ELO_DIFF <= 4.1\ngini = 0.4\nsamples = 20\nvalue = [27, 9]"] ;
1186 -> 1187 ;
1188 [label="gini = 0.3\nsamples = 10\nvalue = [12, 3]"] ;
1187 -> 1188 ;
1189 [label="gini = 0.4\nsamples = 10\nvalue = [15, 6]"] ;
1187 -> 1189 ;
1190 [label="gini = 0.2\nsamples = 7\nvalue = [7, 1]"] ;
1186 -> 1190 ;
1191 [label="ELO_DIFF <= 4.5\ngini = 0.5\nsamples = 133\nvalue = [95, 118]"] ;
1161 -> 1191 ;
1192 [label="ELO_DIFF <= 4.4\ngini = 0.4\nsamples = 24\nvalue = [10, 31]"] ;
1191 -> 1192 ;
1193 [label="gini = 0.4\nsamples = 18\nvalue = [7, 23]"] ;
1192 -> 1193 ;
1194 [label="gini = 0.4\nsamples = 6\nvalue = [3, 8]"] ;
1192 -> 1194 ;
1195 [label="ELO_DIFF <= 5.7\ngini = 0.5\nsamples = 109\nvalue = [85, 87]"] ;
1191 -> 1195 ;
1196 [label="ELO_DIFF <= 4.6\ngini = 0.5\nsamples = 85\nvalue = [74, 65]"] ;
1195 -> 1196 ;
1197 [label="gini = 0.0\nsamples = 2\nvalue = [3, 0]"] ;
1196 -> 1197 ;
1198 [label="ELO_DIFF <= 5.0\ngini = 0.5\nsamples = 83\nvalue = [71, 65]"] ;
1196 -> 1198 ;
1199 [label="ELO_DIFF <= 4.7\ngini = 0.5\nsamples = 34\nvalue = [25, 29]"] ;
1198 -> 1199 ;
1200 [label="gini = 0.5\nsamples = 9\nvalue = [7, 6]"] ;
1199 -> 1200 ;
1201 [label="ELO_DIFF <= 4.8\ngini = 0.5\nsamples = 25\nvalue = [18, 23]"] ;
1199 -> 1201 ;
1202 [label="gini = 0.5\nsamples = 10\nvalue = [6, 11]"] ;
1201 -> 1202 ;
1203 [label="ELO_DIFF <= 4.9\ngini = 0.5\nsamples = 15\nvalue = [12, 12]"] ;
1201 -> 1203 ;
1204 [label="gini = 0.5\nsamples = 5\nvalue = [4, 4]"] ;
1203 -> 1204 ;
1205 [label="gini = 0.5\nsamples = 10\nvalue = [8, 8]"] ;
1203 -> 1205 ;
1206 [label="ELO_DIFF <= 5.4\ngini = 0.5\nsamples = 49\nvalue = [46, 36]"] ;
1198 -> 1206 ;
1207 [label="ELO_DIFF <= 5.1\ngini = 0.5\nsamples = 31\nvalue = [34, 23]"] ;
1206 -> 1207 ;
1208 [label="gini = 0.5\nsamples = 7\nvalue = [10, 6]"] ;
1207 -> 1208 ;
1209 [label="ELO_DIFF <= 5.3\ngini = 0.5\nsamples = 24\nvalue = [24, 17]"] ;
1207 -> 1209 ;
1210 [label="ELO_DIFF <= 5.2\ngini = 0.5\nsamples = 14\nvalue = [12, 9]"] ;
1209 -> 1210 ;
1211 [label="gini = 0.5\nsamples = 7\nvalue = [6, 4]"] ;
1210 -> 1211 ;
1212 [label="gini = 0.5\nsamples = 7\nvalue = [6, 5]"] ;
1210 -> 1212 ;
1213 [label="gini = 0.5\nsamples = 10\nvalue = [12, 8]"] ;
1209 -> 1213 ;
1214 [label="ELO_DIFF <= 5.5\ngini = 0.5\nsamples = 18\nvalue = [12, 13]"] ;
1206 -> 1214 ;
1215 [label="gini = 0.4\nsamples = 7\nvalue = [3, 8]"] ;
1214 -> 1215 ;
1216 [label="ELO_DIFF <= 5.6\ngini = 0.5\nsamples = 11\nvalue = [9, 5]"] ;
1214 -> 1216 ;
1217 [label="gini = 0.4\nsamples = 4\nvalue = [4, 2]"] ;
1216 -> 1217 ;
1218 [label="gini = 0.5\nsamples = 7\nvalue = [5, 3]"] ;
1216 -> 1218 ;
1219 [label="ELO_DIFF <= 6.6\ngini = 0.4\nsamples = 24\nvalue = [11, 22]"] ;
1195 -> 1219 ;
1220 [label="ELO_DIFF <= 6.5\ngini = 0.5\nsamples = 22\nvalue = [11, 19]"] ;
1219 -> 1220 ;
1221 [label="ELO_DIFF <= 6.1\ngini = 0.4\nsamples = 21\nvalue = [9, 19]"] ;
1220 -> 1221 ;
1222 [label="ELO_DIFF <= 5.9\ngini = 0.4\nsamples = 14\nvalue = [5, 15]"] ;
1221 -> 1222 ;
1223 [label="ELO_DIFF <= 5.8\ngini = 0.4\nsamples = 7\nvalue = [3, 6]"] ;
1222 -> 1223 ;
1224 [label="gini = 0.0\nsamples = 1\nvalue = [0, 1]"] ;
1223 -> 1224 ;
1225 [label="gini = 0.5\nsamples = 6\nvalue = [3, 5]"] ;
1223 -> 1225 ;
1226 [label="gini = 0.3\nsamples = 7\nvalue = [2, 9]"] ;
1222 -> 1226 ;
1227 [label="ELO_DIFF <= 6.4\ngini = 0.5\nsamples = 7\nvalue = [4, 4]"] ;
1221 -> 1227 ;
1228 [label="ELO_DIFF <= 6.3\ngini = 0.5\nsamples = 6\nvalue = [4, 3]"] ;
1227 -> 1228 ;
1229 [label="ELO_DIFF <= 6.2\ngini = 0.5\nsamples = 5\nvalue = [3, 3]"] ;
1228 -> 1229 ;
1230 [label="gini = 0.5\nsamples = 4\nvalue = [3, 2]"] ;
1229 -> 1230 ;
1231 [label="gini = 0.0\nsamples = 1\nvalue = [0, 1]"] ;
1229 -> 1231 ;
1232 [label="gini = 0.0\nsamples = 1\nvalue = [1, 0]"] ;
1228 -> 1232 ;
1233 [label="gini = 0.0\nsamples = 1\nvalue = [0, 1]"] ;
1227 -> 1233 ;
1234 [label="gini = 0.0\nsamples = 1\nvalue = [2, 0]"] ;
1220 -> 1234 ;
1235 [label="gini = 0.0\nsamples = 2\nvalue = [0, 3]"] ;
1219 -> 1235 ;
1236 [label="RECENT_PERF_DIFF <= 7.0\ngini = 0.5\nsamples = 538\nvalue = [335, 524]"] ;
818 -> 1236 ;
1237 [label="ELO_DIFF <= 4.5\ngini = 0.5\nsamples = 530\nvalue = [334, 514]"] ;
1236 -> 1237 ;
1238 [label="RECENT_PERF_DIFF <= 6.5\ngini = 0.5\nsamples = 210\nvalue = [169, 163]"] ;
1237 -> 1238 ;
1239 [label="ELO_DIFF <= 2.2\ngini = 0.5\nsamples = 206\nvalue = [164, 161]"] ;
1238 -> 1239 ;
1240 [label="gini = 0.0\nsamples = 4\nvalue = [4, 0]"] ;
1239 -> 1240 ;
1241 [label="HOME_AWAY_GOAL_DIFF <= 6.3\ngini = 0.5\nsamples = 202\nvalue = [160, 161]"] ;
1239 -> 1241 ;
1242 [label="RECENT_PERF_DIFF <= 5.6\ngini = 0.5\nsamples = 200\nvalue = [160, 157]"] ;
1241 -> 1242 ;
1243 [label="HOME_AWAY_GOAL_DIFF <= 5.2\ngini = 0.5\nsamples = 162\nvalue = [132, 135]"] ;
1242 -> 1243 ;
1244 [label="ELO_DIFF <= 4.4\ngini = 0.5\nsamples = 81\nvalue = [72, 64]"] ;
1243 -> 1244 ;
1245 [label="ELO_DIFF <= 3.4\ngini = 0.5\nsamples = 75\nvalue = [69, 55]"] ;
1244 -> 1245 ;
1246 [label="ELO_DIFF <= 2.5\ngini = 0.4\nsamples = 16\nvalue = [15, 6]"] ;
1245 -> 1246 ;
1247 [label="gini = 0.0\nsamples = 2\nvalue = [0, 2]"] ;
1246 -> 1247 ;
1248 [label="ELO_DIFF <= 3.1\ngini = 0.3\nsamples = 14\nvalue = [15, 4]"] ;
1246 -> 1248 ;
1249 [label="ELO_DIFF <= 2.7\ngini = 0.4\nsamples = 7\nvalue = [7, 3]"] ;
1248 -> 1249 ;
1250 [label="gini = 0.0\nsamples = 1\nvalue = [2, 0]"] ;
1249 -> 1250 ;
