digraph Tree {
node [shape=box, style="rounded", color="black", fontname="helvetica"] ;
edge [fontname="helvetica"] ;
0 [label="RECENT_PERF_DIFF <= 4.5\ngini = 0.5\nsamples = 1963\nvalue = [1636, 1484]"] ;
1 [label="HOME_AWAY_GOAL_DIFF <= 3.9\ngini = 0.5\nsamples = 1341\nvalue = [1154, 962]"] ;
0 -> 1 [labeldistance=2.5, labelangle=45, headlabel="True"] ;
2 [label="HOME_AWAY_GOAL_DIFF <= 3.6\ngini = 0.5\nsamples = 675\nvalue = [534, 501]"] ;
1 -> 2 ;
3 [label="ELO_DIFF <= 3.4\ngini = 0.5\nsamples = 353\nvalue = [303, 235]"] ;
2 -> 3 ;
4 [label="RECENT_PERF_DIFF <= 2.2\ngini = 0.5\nsamples = 175\nvalue = [167, 91]"] ;
3 -> 4 ;
5 [label="HOME_AWAY_GOAL_DIFF <= 1.8\ngini = 0.3\nsamples = 16\nvalue = [15, 3]"] ;
4 -> 5 ;
6 [label="RECENT_PERF_DIFF <= 1.4\ngini = 0.5\nsamples = 5\nvalue = [3, 2]"] ;
5 -> 6 ;
7 [label="gini = 0.0\nsamples = 2\nvalue = [2, 0]"] ;
6 -> 7 ;
8 [label="ELO_DIFF <= 3.1\ngini = 0.4\nsamples = 3\nvalue = [1, 2]"] ;
6 -> 8 ;
9 [label="gini = 0.0\nsamples = 2\nvalue = [0, 2]"] ;
8 -> 9 ;
10 [label="gini = 0.0\nsamples = 1\nvalue = [1, 0]"] ;
8 -> 10 ;
11 [label="RECENT_PERF_DIFF <= 2.1\ngini = 0.1\nsamples = 11\nvalue = [12, 1]"] ;
5 -> 11 ;
12 [label="gini = 0.0\nsamples = 3\nvalue = [4, 0]"] ;
11 -> 12 ;
13 [label="ELO_DIFF <= 2.4\ngini = 0.2\nsamples = 8\nvalue = [8, 1]"] ;
11 -> 13 ;
14 [label="gini = 0.0\nsamples = 1\nvalue = [0, 1]"] ;
13 -> 14 ;
15 [label="gini = 0.0\nsamples = 7\nvalue = [8, 0]"] ;
13 -> 15 ;
16 [label="ELO_DIFF <= 2.3\ngini = 0.5\nsamples = 159\nvalue = [152, 88]"] ;
4 -> 16 ;
17 [label="HOME_AWAY_GOAL_DIFF <= 2.5\ngini = 0.2\nsamples = 21\nvalue = [30, 5]"] ;
16 -> 17 ;
18 [label="RECENT_PERF_DIFF <= 2.4\ngini = 0.4\nsamples = 3\nvalue = [1, 3]"] ;
17 -> 18 ;
19 [label="gini = 0.0\nsamples = 1\nvalue = [1, 0]"] ;
18 -> 19 ;
20 [label="gini = 0.0\nsamples = 2\nvalue = [0, 3]"] ;
18 -> 20 ;
21 [label="HOME_AWAY_GOAL_DIFF <= 3.3\ngini = 0.1\nsamples = 18\nvalue = [29, 2]"] ;
17 -> 21 ;
22 [label="gini = 0.0\nsamples = 7\nvalue = [13, 0]"] ;
21 -> 22 ;
23 [label="HOME_AWAY_GOAL_DIFF <= 3.4\ngini = 0.2\nsamples = 11\nvalue = [16, 2]"] ;
21 -> 23 ;
24 [label="ELO_DIFF <= 1.6\ngini = 0.5\nsamples = 2\nvalue = [1, 1]"] ;
23 -> 24 ;
25 [label="gini = 0.0\nsamples = 1\nvalue = [0, 1]"] ;
24 -> 25 ;
26 [label="gini = 0.0\nsamples = 1\nvalue = [1, 0]"] ;
24 -> 26 ;
27 [label="RECENT_PERF_DIFF <= 3.5\ngini = 0.1\nsamples = 9\nvalue = [15, 1]"] ;
23 -> 27 ;
28 [label="gini = 0.0\nsamples = 2\nvalue = [2, 0]"] ;
27 -> 28 ;
29 [label="ELO_DIFF <= 1.5\ngini = 0.1\nsamples = 7\nvalue = [13, 1]"] ;
27 -> 29 ;
30 [label="ELO_DIFF <= 1.1\ngini = 0.3\nsamples = 3\nvalue = [4, 1]"] ;
29 -> 30 ;
31 [label="gini = 0.0\nsamples = 2\nvalue = [4, 0]"] ;
30 -> 31 ;
32 [label="gini = 0.0\nsamples = 1\nvalue = [0, 1]"] ;
30 -> 32 ;
33 [label="gini = 0.0\nsamples = 4\nvalue = [9, 0]"] ;
29 -> 33 ;
34 [label="RECENT_PERF_DIFF <= 3.2\ngini = 0.5\nsamples = 138\nvalue = [122, 83]"] ;
16 -> 34 ;
35 [label="RECENT_PERF_DIFF <= 3.1\ngini = 0.5\nsamples = 59\nvalue = [45, 40]"] ;
34 -> 35 ;
36 [label="HOME_AWAY_GOAL_DIFF <= 2.6\ngini = 0.5\nsamples = 48\nvalue = [39, 33]"] ;
35 -> 36 ;
37 [label="ELO_DIFF <= 2.4\ngini = 0.5\nsamples = 13\nvalue = [9, 9]"] ;
36 -> 37 ;
38 [label="gini = 0.4\nsamples = 2\nvalue = [1, 2]"] ;
37 -> 38 ;
39 [label="ELO_DIFF <= 3.0\ngini = 0.5\nsamples = 11\nvalue = [8, 7]"] ;
37 -> 39 ;
40 [label="gini = 0.0\nsamples = 2\nvalue = [2, 0]"] ;
39 -> 40 ;
41 [label="HOME_AWAY_GOAL_DIFF <= 2.3\ngini = 0.5\nsamples = 9\nvalue = [6, 7]"] ;
39 -> 41 ;
42 [label="ELO_DIFF <= 3.3\ngini = 0.5\nsamples = 3\nvalue = [2, 3]"] ;
41 -> 42 ;
43 [label="gini = 0.0\nsamples = 1\nvalue = [0, 1]"] ;
42 -> 43 ;
44 [label="gini = 0.5\nsamples = 2\nvalue = [2, 2]"] ;
42 -> 44 ;
45 [label="HOME_AWAY_GOAL_DIFF <= 2.4\ngini = 0.5\nsamples = 6\nvalue = [4, 4]"] ;
41 -> 45 ;
46 [label="gini = 0.5\nsamples = 2\nvalue = [1, 1]"] ;
45 -> 46 ;
47 [label="HOME_AWAY_GOAL_DIFF <= 2.5\ngini = 0.5\nsamples = 4\nvalue = [3, 3]"] ;
45 -> 47 ;
48 [label="ELO_DIFF <= 3.3\ngini = 0.5\nsamples = 2\nvalue = [1, 1]"] ;
47 -> 48 ;
49 [label="gini = 0.0\nsamples = 1\nvalue = [1, 0]"] ;
48 -> 49 ;
50 [label="gini = 0.0\nsamples = 1\nvalue = [0, 1]"] ;
48 -> 50 ;
51 [label="gini = 0.5\nsamples = 2\nvalue = [2, 2]"] ;
47 -> 51 ;
52 [label="HOME_AWAY_GOAL_DIFF <= 2.7\ngini = 0.5\nsamples = 35\nvalue = [30, 24]"] ;
36 -> 52 ;
53 [label="ELO_DIFF <= 2.8\ngini = 0.5\nsamples = 6\nvalue = [4, 3]"] ;
52 -> 53 ;
54 [label="gini = 0.0\nsamples = 1\nvalue = [0, 1]"] ;
53 -> 54 ;
55 [label="ELO_DIFF <= 3.1\ngini = 0.4\nsamples = 5\nvalue = [4, 2]"] ;
53 -> 55 ;
56 [label="ELO_DIFF <= 2.9\ngini = 0.3\nsamples = 4\nvalue = [4, 1]"] ;
55 -> 56 ;
57 [label="gini = 0.4\nsamples = 3\nvalue = [3, 1]"] ;
56 -> 57 ;
58 [label="gini = 0.0\nsamples = 1\nvalue = [1, 0]"] ;
56 -> 58 ;
59 [label="gini = 0.0\nsamples = 1\nvalue = [0, 1]"] ;
55 -> 59 ;
60 [label="ELO_DIFF <= 3.3\ngini = 0.5\nsamples = 29\nvalue = [26, 21]"] ;
52 -> 60 ;
61 [label="ELO_DIFF <= 2.6\ngini = 0.5\nsamples = 24\nvalue = [18, 21]"] ;
60 -> 61 ;
62 [label="gini = 0.0\nsamples = 1\nvalue = [1, 0]"] ;
61 -> 62 ;
63 [label="RECENT_PERF_DIFF <= 2.8\ngini = 0.5\nsamples = 23\nvalue = [17, 21]"] ;
61 -> 63 ;
64 [label="ELO_DIFF <= 2.8\ngini = 0.4\nsamples = 8\nvalue = [3, 9]"] ;
63 -> 64 ;
65 [label="gini = 0.0\nsamples = 1\nvalue = [1, 0]"] ;
64 -> 65 ;
66 [label="ELO_DIFF <= 3.1\ngini = 0.3\nsamples = 7\nvalue = [2, 9]"] ;
64 -> 66 ;
67 [label="ELO_DIFF <= 2.9\ngini = 0.2\nsamples = 5\nvalue = [1, 8]"] ;
66 -> 67 ;
68 [label="gini = 0.3\nsamples = 3\nvalue = [1, 4]"] ;
67 -> 68 ;
69 [label="gini = 0.0\nsamples = 2\nvalue = [0, 4]"] ;
67 -> 69 ;
70 [label="gini = 0.5\nsamples = 2\nvalue = [1, 1]"] ;
66 -> 70 ;
71 [label="ELO_DIFF <= 2.8\ngini = 0.5\nsamples = 15\nvalue = [14, 12]"] ;
63 -> 71 ;
72 [label="HOME_AWAY_GOAL_DIFF <= 2.9\ngini = 0.4\nsamples = 4\nvalue = [3, 7]"] ;
71 -> 72 ;
73 [label="gini = 0.0\nsamples = 1\nvalue = [0, 3]"] ;
72 -> 73 ;
74 [label="gini = 0.5\nsamples = 3\nvalue = [3, 4]"] ;
72 -> 74 ;
75 [label="RECENT_PERF_DIFF <= 2.9\ngini = 0.4\nsamples = 11\nvalue = [11, 5]"] ;
71 -> 75 ;
76 [label="ELO_DIFF <= 3.2\ngini = 0.4\nsamples = 5\nvalue = [5, 2]"] ;
75 -> 76 ;
77 [label="gini = 0.0\nsamples = 4\nvalue = [5, 0]"] ;
76 -> 77 ;
78 [label="gini = 0.0\nsamples = 1\nvalue = [0, 2]"] ;
76 -> 78 ;
79 [label="ELO_DIFF <= 3.2\ngini = 0.4\nsamples = 6\nvalue = [6, 3]"] ;
75 -> 79 ;
80 [label="ELO_DIFF <= 3.0\ngini = 0.5\nsamples = 5\nvalue = [3, 3]"] ;
79 -> 80 ;
81 [label="gini = 0.0\nsamples = 1\nvalue = [1, 0]"] ;
80 -> 81 ;
82 [label="gini = 0.5\nsamples = 4\nvalue = [2, 3]"] ;
80 -> 82 ;
83 [label="gini = 0.0\nsamples = 1\nvalue = [3, 0]"] ;
79 -> 83 ;
84 [label="gini = 0.0\nsamples = 5\nvalue = [8, 0]"] ;
60 -> 84 ;
85 [label="ELO_DIFF <= 3.1\ngini = 0.5\nsamples = 11\nvalue = [6, 7]"] ;
35 -> 85 ;
86 [label="ELO_DIFF <= 2.4\ngini = 0.4\nsamples = 6\nvalue = [4, 2]"] ;
85 -> 86 ;
87 [label="gini = 0.0\nsamples = 1\nvalue = [0, 1]"] ;
86 -> 87 ;
88 [label="ELO_DIFF <= 2.9\ngini = 0.3\nsamples = 5\nvalue = [4, 1]"] ;
86 -> 88 ;
89 [label="gini = 0.0\nsamples = 2\nvalue = [2, 0]"] ;
88 -> 89 ;
90 [label="gini = 0.4\nsamples = 3\nvalue = [2, 1]"] ;
88 -> 90 ;
91 [label="ELO_DIFF <= 3.3\ngini = 0.4\nsamples = 5\nvalue = [2, 5]"] ;
85 -> 91 ;
92 [label="gini = 0.0\nsamples = 2\nvalue = [0, 3]"] ;
91 -> 92 ;
93 [label="gini = 0.5\nsamples = 3\nvalue = [2, 2]"] ;
91 -> 93 ;
94 [label="ELO_DIFF <= 3.0\ngini = 0.5\nsamples = 79\nvalue = [77, 43]"] ;
34 -> 94 ;
95 [label="RECENT_PERF_DIFF <= 3.3\ngini = 0.5\nsamples = 41\nvalue = [35, 28]"] ;
94 -> 95 ;
96 [label="ELO_DIFF <= 2.6\ngini = 0.5\nsamples = 2\nvalue = [2, 2]"] ;
95 -> 96 ;
97 [label="gini = 0.0\nsamples = 1\nvalue = [2, 0]"] ;
96 -> 97 ;
98 [label="gini = 0.0\nsamples = 1\nvalue = [0, 2]"] ;
96 -> 98 ;
99 [label="ELO_DIFF <= 2.8\ngini = 0.5\nsamples = 39\nvalue = [33, 26]"] ;
95 -> 99 ;
100 [label="HOME_AWAY_GOAL_DIFF <= 3.4\ngini = 0.4\nsamples = 19\nvalue = [20, 9]"] ;
99 -> 100 ;
101 [label="gini = 0.0\nsamples = 3\nvalue = [3, 0]"] ;
100 -> 101 ;
102 [label="RECENT_PERF_DIFF <= 3.5\ngini = 0.5\nsamples = 16\nvalue = [17, 9]"] ;
100 -> 102 ;
103 [label="ELO_DIFF <= 2.6\ngini = 0.5\nsamples = 4\nvalue = [3, 2]"] ;
102 -> 103 ;
104 [label="gini = 0.0\nsamples = 2\nvalue = [0, 2]"] ;
103 -> 104 ;
105 [label="gini = 0.0\nsamples = 2\nvalue = [3, 0]"] ;
103 -> 105 ;
106 [label="ELO_DIFF <= 2.4\ngini = 0.4\nsamples = 12\nvalue = [14, 7]"] ;
102 -> 106 ;
107 [label="gini = 0.5\nsamples = 4\nvalue = [3, 4]"] ;
106 -> 107 ;
108 [label="ELO_DIFF <= 2.6\ngini = 0.3\nsamples = 8\nvalue = [11, 3]"] ;
106 -> 108 ;
109 [label="ELO_DIFF <= 2.5\ngini = 0.4\nsamples = 5\nvalue = [8, 3]"] ;
108 -> 109 ;
110 [label="gini = 0.4\nsamples = 3\nvalue = [6, 2]"] ;
109 -> 110 ;
111 [label="gini = 0.4\nsamples = 2\nvalue = [2, 1]"] ;
109 -> 111 ;
112 [label="gini = 0.0\nsamples = 3\nvalue = [3, 0]"] ;
108 -> 112 ;
113 [label="HOME_AWAY_GOAL_DIFF <= 3.5\ngini = 0.5\nsamples = 20\nvalue = [13, 17]"] ;
99 -> 113 ;
114 [label="HOME_AWAY_GOAL_DIFF <= 3.4\ngini = 0.5\nsamples = 10\nvalue = [8, 9]"] ;
113 -> 114 ;
115 [label="ELO_DIFF <= 2.9\ngini = 0.5\nsamples = 7\nvalue = [6, 7]"] ;
114 -> 115 ;
116 [label="gini = 0.4\nsamples = 3\nvalue = [3, 1]"] ;
115 -> 116 ;
117 [label="gini = 0.4\nsamples = 4\nvalue = [3, 6]"] ;
115 -> 117 ;
118 [label="gini = 0.5\nsamples = 3\nvalue = [2, 2]"] ;
114 -> 118 ;
119 [label="ELO_DIFF <= 2.9\ngini = 0.5\nsamples = 10\nvalue = [5, 8]"] ;
113 -> 119 ;
120 [label="gini = 0.4\nsamples = 4\nvalue = [2, 4]"] ;
119 -> 120 ;
121 [label="gini = 0.5\nsamples = 6\nvalue = [3, 4]"] ;
119 -> 121 ;
122 [label="HOME_AWAY_GOAL_DIFF <= 3.3\ngini = 0.4\nsamples = 38\nvalue = [42, 15]"] ;
94 -> 122 ;
123 [label="ELO_DIFF <= 3.1\ngini = 0.3\nsamples = 12\nvalue = [13, 3]"] ;
122 -> 123 ;
124 [label="gini = 0.0\nsamples = 5\nvalue = [6, 0]"] ;
123 -> 124 ;
125 [label="ELO_DIFF <= 3.2\ngini = 0.4\nsamples = 7\nvalue = [7, 3]"] ;
123 -> 125 ;
126 [label="gini = 0.4\nsamples = 2\nvalue = [1, 2]"] ;
125 -> 126 ;
127 [label="ELO_DIFF <= 3.3\ngini = 0.2\nsamples = 5\nvalue = [6, 1]"] ;
125 -> 127 ;
128 [label="gini = 0.0\nsamples = 1\nvalue = [2, 0]"] ;
127 -> 128 ;
129 [label="gini = 0.3\nsamples = 4\nvalue = [4, 1]"] ;
127 -> 129 ;
130 [label="ELO_DIFF <= 3.3\ngini = 0.4\nsamples = 26\nvalue = [29, 12]"] ;
122 -> 130 ;
131 [label="ELO_DIFF <= 3.1\ngini = 0.4\nsamples = 19\nvalue = [23, 7]"] ;
130 -> 131 ;
132 [label="gini = 0.0\nsamples = 2\nvalue = [2, 0]"] ;
131 -> 132 ;
133 [label="ELO_DIFF <= 3.2\ngini = 0.4\nsamples = 17\nvalue = [21, 7]"] ;
131 -> 133 ;
134 [label="RECENT_PERF_DIFF <= 3.4\ngini = 0.4\nsamples = 8\nvalue = [9, 4]"] ;
133 -> 134 ;
135 [label="gini = 0.0\nsamples = 1\nvalue = [0, 2]"] ;
134 -> 135 ;
136 [label="RECENT_PERF_DIFF <= 3.5\ngini = 0.3\nsamples = 7\nvalue = [9, 2]"] ;
134 -> 136 ;
137 [label="gini = 0.0\nsamples = 3\nvalue = [5, 0]"] ;
136 -> 137 ;
138 [label="gini = 0.4\nsamples = 4\nvalue = [4, 2]"] ;
136 -> 138 ;
139 [label="RECENT_PERF_DIFF <= 3.4\ngini = 0.3\nsamples = 9\nvalue = [12, 3]"] ;
133 -> 139 ;
140 [label="gini = 0.4\nsamples = 2\nvalue = [2, 1]"] ;
139 -> 140 ;
141 [label="gini = 0.3\nsamples = 7\nvalue = [10, 2]"] ;
139 -> 141 ;
142 [label="RECENT_PERF_DIFF <= 3.4\ngini = 0.5\nsamples = 7\nvalue = [6, 5]"] ;
130 -> 142 ;
143 [label="gini = 0.0\nsamples = 1\nvalue = [1, 0]"] ;
142 -> 143 ;
144 [label="HOME_AWAY_GOAL_DIFF <= 3.5\ngini = 0.5\nsamples = 6\nvalue = [5, 5]"] ;
142 -> 144 ;
145 [label="gini = 0.0\nsamples = 1\nvalue = [0, 2]"] ;
144 -> 145 ;
146 [label="gini = 0.5\nsamples = 5\nvalue = [5, 3]"] ;
144 -> 146 ;
147 [label="ELO_DIFF <= 5.1\ngini = 0.5\nsamples = 178\nvalue = [136, 144]"] ;
3 -> 147 ;
148 [label="RECENT_PERF_DIFF <= 3.1\ngini = 0.5\nsamples = 172\nvalue = [128, 143]"] ;
147 -> 148 ;
149 [label="ELO_DIFF <= 3.7\ngini = 0.4\nsamples = 56\nvalue = [31, 63]"] ;
148 -> 149 ;
150 [label="RECENT_PERF_DIFF <= 2.7\ngini = 0.5\nsamples = 14\nvalue = [11, 13]"] ;
149 -> 150 ;
151 [label="HOME_AWAY_GOAL_DIFF <= 2.3\ngini = 0.5\nsamples = 8\nvalue = [9, 5]"] ;
150 -> 151 ;
152 [label="RECENT_PERF_DIFF <= 0.8\ngini = 0.5\nsamples = 4\nvalue = [3, 5]"] ;
151 -> 152 ;
153 [label="gini = 0.0\nsamples = 1\nvalue = [2, 0]"] ;
152 -> 153 ;
154 [label="HOME_AWAY_GOAL_DIFF <= 1.7\ngini = 0.3\nsamples = 3\nvalue = [1, 5]"] ;
152 -> 154 ;
155 [label="gini = 0.0\nsamples = 1\nvalue = [0, 4]"] ;
154 -> 155 ;
156 [label="HOME_AWAY_GOAL_DIFF <= 2.0\ngini = 0.5\nsamples = 2\nvalue = [1, 1]"] ;
154 -> 156 ;
157 [label="gini = 0.0\nsamples = 1\nvalue = [1, 0]"] ;
156 -> 157 ;
158 [label="gini = 0.0\nsamples = 1\nvalue = [0, 1]"] ;
156 -> 158 ;
159 [label="gini = 0.0\nsamples = 4\nvalue = [6, 0]"] ;
151 -> 159 ;
160 [label="RECENT_PERF_DIFF <= 2.8\ngini = 0.3\nsamples = 6\nvalue = [2, 8]"] ;
150 -> 160 ;
161 [label="gini = 0.4\nsamples = 3\nvalue = [2, 5]"] ;
160 -> 161 ;
162 [label="gini = 0.0\nsamples = 3\nvalue = [0, 3]"] ;
160 -> 162 ;
163 [label="HOME_AWAY_GOAL_DIFF <= 1.9\ngini = 0.4\nsamples = 42\nvalue = [20, 50]"] ;
149 -> 163 ;
164 [label="gini = 0.0\nsamples = 3\nvalue = [0, 5]"] ;
163 -> 164 ;
165 [label="HOME_AWAY_GOAL_DIFF <= 2.5\ngini = 0.4\nsamples = 39\nvalue = [20, 45]"] ;
163 -> 165 ;
166 [label="RECENT_PERF_DIFF <= 2.2\ngini = 0.5\nsamples = 8\nvalue = [6, 4]"] ;
165 -> 166 ;
167 [label="HOME_AWAY_GOAL_DIFF <= 2.1\ngini = 0.4\nsamples = 5\nvalue = [4, 2]"] ;
166 -> 167 ;
168 [label="ELO_DIFF <= 4.3\ngini = 0.5\nsamples = 2\nvalue = [1, 1]"] ;
167 -> 168 ;
169 [label="gini = 0.0\nsamples = 1\nvalue = [0, 1]"] ;
168 -> 169 ;
170 [label="gini = 0.0\nsamples = 1\nvalue = [1, 0]"] ;
168 -> 170 ;
171 [label="ELO_DIFF <= 4.3\ngini = 0.4\nsamples = 3\nvalue = [3, 1]"] ;
167 -> 171 ;
172 [label="gini = 0.0\nsamples = 2\nvalue = [3, 0]"] ;
171 -> 172 ;
173 [label="gini = 0.0\nsamples = 1\nvalue = [0, 1]"] ;
171 -> 173 ;
174 [label="ELO_DIFF <= 3.9\ngini = 0.5\nsamples = 3\nvalue = [2, 2]"] ;
166 -> 174 ;
175 [label="gini = 0.0\nsamples = 1\nvalue = [2, 0]"] ;
174 -> 175 ;
176 [label="gini = 0.0\nsamples = 2\nvalue = [0, 2]"] ;
174 -> 176 ;
177 [label="RECENT_PERF_DIFF <= 2.6\ngini = 0.4\nsamples = 31\nvalue = [14, 41]"] ;
165 -> 177 ;
178 [label="ELO_DIFF <= 3.9\ngini = 0.3\nsamples = 5\nvalue = [2, 9]"] ;
177 -> 178 ;
179 [label="gini = 0.0\nsamples = 3\nvalue = [0, 9]"] ;
178 -> 179 ;
180 [label="gini = 0.0\nsamples = 2\nvalue = [2, 0]"] ;
178 -> 180 ;
181 [label="HOME_AWAY_GOAL_DIFF <= 2.7\ngini = 0.4\nsamples = 26\nvalue = [12, 32]"] ;
177 -> 181 ;
182 [label="ELO_DIFF <= 3.9\ngini = 0.4\nsamples = 6\nvalue = [3, 6]"] ;
181 -> 182 ;
183 [label="ELO_DIFF <= 3.8\ngini = 0.3\nsamples = 3\nvalue = [1, 5]"] ;
182 -> 183 ;
184 [label="gini = 0.4\nsamples = 2\nvalue = [1, 2]"] ;
183 -> 184 ;
185 [label="gini = 0.0\nsamples = 1\nvalue = [0, 3]"] ;
183 -> 185 ;
186 [label="ELO_DIFF <= 4.7\ngini = 0.4\nsamples = 3\nvalue = [2, 1]"] ;
182 -> 186 ;
187 [label="gini = 0.0\nsamples = 2\nvalue = [2, 0]"] ;
186 -> 187 ;
188 [label="gini = 0.0\nsamples = 1\nvalue = [0, 1]"] ;
186 -> 188 ;
189 [label="RECENT_PERF_DIFF <= 2.8\ngini = 0.4\nsamples = 20\nvalue = [9, 26]"] ;
181 -> 189 ;
190 [label="ELO_DIFF <= 3.8\ngini = 0.4\nsamples = 8\nvalue = [3, 10]"] ;
189 -> 190 ;
191 [label="gini = 0.0\nsamples = 1\nvalue = [0, 2]"] ;
190 -> 191 ;
192 [label="ELO_DIFF <= 4.0\ngini = 0.4\nsamples = 7\nvalue = [3, 8]"] ;
190 -> 192 ;
193 [label="ELO_DIFF <= 3.9\ngini = 0.5\nsamples = 3\nvalue = [2, 2]"] ;
192 -> 193 ;
194 [label="gini = 0.4\nsamples = 2\nvalue = [1, 2]"] ;
193 -> 194 ;
195 [label="gini = 0.0\nsamples = 1\nvalue = [1, 0]"] ;
193 -> 195 ;
196 [label="ELO_DIFF <= 4.1\ngini = 0.2\nsamples = 4\nvalue = [1, 6]"] ;
192 -> 196 ;
197 [label="gini = 0.3\nsamples = 3\nvalue = [1, 4]"] ;
196 -> 197 ;
198 [label="gini = 0.0\nsamples = 1\nvalue = [0, 2]"] ;
196 -> 198 ;
199 [label="RECENT_PERF_DIFF <= 2.9\ngini = 0.4\nsamples = 12\nvalue = [6, 16]"] ;
189 -> 199 ;
200 [label="ELO_DIFF <= 4.0\ngini = 0.5\nsamples = 2\nvalue = [1, 1]"] ;
199 -> 200 ;
201 [label="gini = 0.0\nsamples = 1\nvalue = [0, 1]"] ;
200 -> 201 ;
202 [label="gini = 0.0\nsamples = 1\nvalue = [1, 0]"] ;
200 -> 202 ;
203 [label="ELO_DIFF <= 3.9\ngini = 0.4\nsamples = 10\nvalue = [5, 15]"] ;
199 -> 203 ;
204 [label="ELO_DIFF <= 3.8\ngini = 0.5\nsamples = 3\nvalue = [4, 4]"] ;
203 -> 204 ;
205 [label="gini = 0.3\nsamples = 2\nvalue = [1, 4]"] ;
204 -> 205 ;
206 [label="gini = 0.0\nsamples = 1\nvalue = [3, 0]"] ;
204 -> 206 ;
207 [label="ELO_DIFF <= 4.7\ngini = 0.2\nsamples = 7\nvalue = [1, 11]"] ;
203 -> 207 ;
208 [label="gini = 0.0\nsamples = 5\nvalue = [0, 8]"] ;
207 -> 208 ;
209 [label="gini = 0.4\nsamples = 2\nvalue = [1, 3]"] ;
207 -> 209 ;
210 [label="RECENT_PERF_DIFF <= 3.4\ngini = 0.5\nsamples = 116\nvalue = [97, 80]"] ;
148 -> 210 ;
211 [label="ELO_DIFF <= 4.8\ngini = 0.5\nsamples = 49\nvalue = [43, 29]"] ;
210 -> 211 ;
212 [label="RECENT_PERF_DIFF <= 3.3\ngini = 0.5\nsamples = 47\nvalue = [38, 29]"] ;
211 -> 212 ;
213 [label="RECENT_PERF_DIFF <= 3.2\ngini = 0.5\nsamples = 36\nvalue = [30, 24]"] ;
212 -> 213 ;
214 [label="ELO_DIFF <= 4.6\ngini = 0.5\nsamples = 24\nvalue = [21, 15]"] ;
213 -> 214 ;
215 [label="ELO_DIFF <= 3.5\ngini = 0.5\nsamples = 22\nvalue = [20, 12]"] ;
214 -> 215 ;
216 [label="gini = 0.3\nsamples = 4\nvalue = [5, 1]"] ;
215 -> 216 ;
217 [label="ELO_DIFF <= 3.7\ngini = 0.5\nsamples = 18\nvalue = [15, 11]"] ;
215 -> 217 ;
218 [label="gini = 0.4\nsamples = 2\nvalue = [2, 4]"] ;
217 -> 218 ;
219 [label="ELO_DIFF <= 4.0\ngini = 0.5\nsamples = 16\nvalue = [13, 7]"] ;
217 -> 219 ;
220 [label="ELO_DIFF <= 3.9\ngini = 0.5\nsamples = 9\nvalue = [7, 5]"] ;
219 -> 220 ;
221 [label="ELO_DIFF <= 3.8\ngini = 0.4\nsamples = 6\nvalue = [5, 2]"] ;
220 -> 221 ;
222 [label="gini = 0.4\nsamples = 3\nvalue = [2, 1]"] ;
221 -> 222 ;
223 [label="gini = 0.4\nsamples = 3\nvalue = [3, 1]"] ;
221 -> 223 ;
224 [label="gini = 0.5\nsamples = 3\nvalue = [2, 3]"] ;
220 -> 224 ;
225 [label="ELO_DIFF <= 4.1\ngini = 0.4\nsamples = 7\nvalue = [6, 2]"] ;
219 -> 225 ;
226 [label="gini = 0.0\nsamples = 1\nvalue = [1, 0]"] ;
225 -> 226 ;
227 [label="ELO_DIFF <= 4.3\ngini = 0.4\nsamples = 6\nvalue = [5, 2]"] ;
225 -> 227 ;
228 [label="gini = 0.4\nsamples = 3\nvalue = [3, 1]"] ;
227 -> 228 ;
229 [label="gini = 0.4\nsamples = 3\nvalue = [2, 1]"] ;
227 -> 229 ;
230 [label="gini = 0.4\nsamples = 2\nvalue = [1, 3]"] ;
214 -> 230 ;
231 [label="ELO_DIFF <= 3.5\ngini = 0.5\nsamples = 12\nvalue = [9, 9]"] ;
213 -> 231 ;
232 [label="gini = 0.0\nsamples = 2\nvalue = [0, 4]"] ;
231 -> 232 ;
233 [label="ELO_DIFF <= 4.4\ngini = 0.5\nsamples = 10\nvalue = [9, 5]"] ;
231 -> 233 ;
234 [label="ELO_DIFF <= 3.8\ngini = 0.4\nsamples = 9\nvalue = [9, 4]"] ;
233 -> 234 ;
235 [label="ELO_DIFF <= 3.7\ngini = 0.5\nsamples = 6\nvalue = [4, 4]"] ;
234 -> 235 ;
236 [label="gini = 0.4\nsamples = 3\nvalue = [3, 1]"] ;
235 -> 236 ;
237 [label="gini = 0.4\nsamples = 3\nvalue = [1, 3]"] ;
235 -> 237 ;
238 [label="gini = 0.0\nsamples = 3\nvalue = [5, 0]"] ;
234 -> 238 ;
239 [label="gini = 0.0\nsamples = 1\nvalue = [0, 1]"] ;
233 -> 239 ;
240 [label="ELO_DIFF <= 4.2\ngini = 0.5\nsamples = 11\nvalue = [8, 5]"] ;
212 -> 240 ;
241 [label="ELO_DIFF <= 3.5\ngini = 0.4\nsamples = 10\nvalue = [8, 4]"] ;
240 -> 241 ;
242 [label="gini = 0.5\nsamples = 2\nvalue = [1, 1]"] ;
241 -> 242 ;
243 [label="ELO_DIFF <= 3.8\ngini = 0.4\nsamples = 8\nvalue = [7, 3]"] ;
241 -> 243 ;
244 [label="gini = 0.4\nsamples = 3\nvalue = [3, 1]"] ;
243 -> 244 ;
245 [label="ELO_DIFF <= 4.0\ngini = 0.4\nsamples = 5\nvalue = [4, 2]"] ;
243 -> 245 ;
246 [label="gini = 0.5\nsamples = 2\nvalue = [1, 1]"] ;
245 -> 246 ;
247 [label="gini = 0.4\nsamples = 3\nvalue = [3, 1]"] ;
245 -> 247 ;
248 [label="gini = 0.0\nsamples = 1\nvalue = [0, 1]"] ;
240 -> 248 ;
249 [label="gini = 0.0\nsamples = 2\nvalue = [5, 0]"] ;
211 -> 249 ;
250 [label="RECENT_PERF_DIFF <= 3.5\ngini = 0.5\nsamples = 67\nvalue = [54, 51]"] ;
210 -> 250 ;
251 [label="ELO_DIFF <= 3.9\ngini = 0.5\nsamples = 23\nvalue = [19, 17]"] ;
250 -> 251 ;
252 [label="ELO_DIFF <= 3.8\ngini = 0.5\nsamples = 15\nvalue = [15, 8]"] ;
251 -> 252 ;
253 [label="ELO_DIFF <= 3.5\ngini = 0.5\nsamples = 13\nvalue = [13, 8]"] ;
252 -> 253 ;
254 [label="gini = 0.4\nsamples = 4\nvalue = [6, 3]"] ;
253 -> 254 ;
255 [label="ELO_DIFF <= 3.7\ngini = 0.5\nsamples = 9\nvalue = [7, 5]"] ;
253 -> 255 ;
256 [label="gini = 0.5\nsamples = 5\nvalue = [3, 2]"] ;
255 -> 256 ;
257 [label="gini = 0.5\nsamples = 4\nvalue = [4, 3]"] ;
255 -> 257 ;
258 [label="gini = 0.0\nsamples = 2\nvalue = [2, 0]"] ;
252 -> 258 ;
259 [label="ELO_DIFF <= 4.2\ngini = 0.4\nsamples = 8\nvalue = [4, 9]"] ;
251 -> 259 ;
260 [label="gini = 0.0\nsamples = 2\nvalue = [0, 3]"] ;
259 -> 260 ;
261 [label="ELO_DIFF <= 4.7\ngini = 0.5\nsamples = 6\nvalue = [4, 6]"] ;
259 -> 261 ;
262 [label="ELO_DIFF <= 4.6\ngini = 0.5\nsamples = 5\nvalue = [4, 4]"] ;
261 -> 262 ;
263 [label="ELO_DIFF <= 4.5\ngini = 0.5\nsamples = 4\nvalue = [3, 4]"] ;
262 -> 263 ;
264 [label="ELO_DIFF <= 4.3\ngini = 0.5\nsamples = 3\nvalue = [3, 3]"] ;
263 -> 264 ;
265 [label="gini = 0.5\nsamples = 2\nvalue = [2, 3]"] ;
264 -> 265 ;
266 [label="gini = 0.0\nsamples = 1\nvalue = [1, 0]"] ;
264 -> 266 ;
267 [label="gini = 0.0\nsamples = 1\nvalue = [0, 1]"] ;
263 -> 267 ;
268 [label="gini = 0.0\nsamples = 1\nvalue = [1, 0]"] ;
262 -> 268 ;
269 [label="gini = 0.0\nsamples = 1\nvalue = [0, 2]"] ;
261 -> 269 ;
270 [label="ELO_DIFF <= 3.9\ngini = 0.5\nsamples = 44\nvalue = [35, 34]"] ;
250 -> 270 ;
271 [label="ELO_DIFF <= 3.8\ngini = 0.5\nsamples = 23\nvalue = [24, 13]"] ;
270 -> 271 ;
272 [label="ELO_DIFF <= 3.5\ngini = 0.5\nsamples = 18\nvalue = [14, 13]"] ;
271 -> 272 ;
273 [label="gini = 0.4\nsamples = 5\nvalue = [2, 6]"] ;
272 -> 273 ;
274 [label="ELO_DIFF <= 3.7\ngini = 0.5\nsamples = 13\nvalue = [12, 7]"] ;
272 -> 274 ;
275 [label="gini = 0.0\nsamples = 5\nvalue = [5, 0]"] ;
274 -> 275 ;
276 [label="gini = 0.5\nsamples = 8\nvalue = [7, 7]"] ;
274 -> 276 ;
277 [label="gini = 0.0\nsamples = 5\nvalue = [10, 0]"] ;
271 -> 277 ;
278 [label="ELO_DIFF <= 4.6\ngini = 0.5\nsamples = 21\nvalue = [11, 21]"] ;
270 -> 278 ;
279 [label="ELO_DIFF <= 4.1\ngini = 0.4\nsamples = 19\nvalue = [8, 21]"] ;
278 -> 279 ;
280 [label="ELO_DIFF <= 4.0\ngini = 0.3\nsamples = 7\nvalue = [3, 12]"] ;
279 -> 280 ;
281 [label="gini = 0.3\nsamples = 5\nvalue = [2, 8]"] ;
280 -> 281 ;
282 [label="gini = 0.3\nsamples = 2\nvalue = [1, 4]"] ;
280 -> 282 ;
283 [label="ELO_DIFF <= 4.2\ngini = 0.5\nsamples = 12\nvalue = [5, 9]"] ;
279 -> 283 ;
284 [label="gini = 0.5\nsamples = 6\nvalue = [4, 3]"] ;
283 -> 284 ;
285 [label="ELO_DIFF <= 4.3\ngini = 0.2\nsamples = 6\nvalue = [1, 6]"] ;
283 -> 285 ;
286 [label="gini = 0.0\nsamples = 4\nvalue = [0, 4]"] ;
285 -> 286 ;
287 [label="ELO_DIFF <= 4.5\ngini = 0.4\nsamples = 2\nvalue = [1, 2]"] ;
285 -> 287 ;
288 [label="gini = 0.0\nsamples = 1\nvalue = [1, 0]"] ;
287 -> 288 ;
289 [label="gini = 0.0\nsamples = 1\nvalue = [0, 2]"] ;
287 -> 289 ;
290 [label="gini = 0.0\nsamples = 2\nvalue = [3, 0]"] ;
278 -> 290 ;
291 [label="ELO_DIFF <= 5.4\ngini = 0.2\nsamples = 6\nvalue = [8, 1]"] ;
147 -> 291 ;
292 [label="gini = 0.0\nsamples = 3\nvalue = [4, 0]"] ;
291 -> 292 ;
293 [label="RECENT_PERF_DIFF <= 3.2\ngini = 0.3\nsamples = 3\nvalue = [4, 1]"] ;
291 -> 293 ;
294 [label="gini = 0.0\nsamples = 2\nvalue = [4, 0]"] ;
293 -> 294 ;
295 [label="gini = 0.0\nsamples = 1\nvalue = [0, 1]"] ;
293 -> 295 ;
296 [label="HOME_AWAY_GOAL_DIFF <= 3.8\ngini = 0.5\nsamples = 322\nvalue = [231, 266]"] ;
2 -> 296 ;
297 [label="RECENT_PERF_DIFF <= 3.7\ngini = 0.5\nsamples = 204\nvalue = [137, 186]"] ;
296 -> 297 ;
298 [label="ELO_DIFF <= 2.9\ngini = 0.5\nsamples = 89\nvalue = [58, 81]"] ;
297 -> 298 ;
299 [label="ELO_DIFF <= 2.6\ngini = 0.5\nsamples = 17\nvalue = [17, 9]"] ;
298 -> 299 ;
300 [label="ELO_DIFF <= 2.0\ngini = 0.5\nsamples = 14\nvalue = [13, 9]"] ;
299 -> 300 ;
301 [label="ELO_DIFF <= 1.9\ngini = 0.4\nsamples = 5\nvalue = [7, 3]"] ;
300 -> 301 ;
302 [label="ELO_DIFF <= 1.7\ngini = 0.5\nsamples = 3\nvalue = [4, 3]"] ;
301 -> 302 ;
303 [label="gini = 0.0\nsamples = 1\nvalue = [1, 0]"] ;
302 -> 303 ;
304 [label="gini = 0.5\nsamples = 2\nvalue = [3, 3]"] ;
302 -> 304 ;
305 [label="gini = 0.0\nsamples = 2\nvalue = [3, 0]"] ;
301 -> 305 ;
306 [label="ELO_DIFF <= 2.3\ngini = 0.5\nsamples = 9\nvalue = [6, 6]"] ;
300 -> 306 ;
307 [label="gini = 0.3\nsamples = 3\nvalue = [1, 4]"] ;
306 -> 307 ;
308 [label="ELO_DIFF <= 2.5\ngini = 0.4\nsamples = 6\nvalue = [5, 2]"] ;
306 -> 308 ;
309 [label="ELO_DIFF <= 2.4\ngini = 0.3\nsamples = 4\nvalue = [4, 1]"] ;
308 -> 309 ;
310 [label="gini = 0.0\nsamples = 1\nvalue = [1, 0]"] ;
309 -> 310 ;
311 [label="gini = 0.4\nsamples = 3\nvalue = [3, 1]"] ;
309 -> 311 ;
312 [label="gini = 0.5\nsamples = 2\nvalue = [1, 1]"] ;
308 -> 312 ;
313 [label="gini = 0.0\nsamples = 3\nvalue = [4, 0]"] ;
299 -> 313 ;
314 [label="ELO_DIFF <= 3.0\ngini = 0.5\nsamples = 72\nvalue = [41, 72]"] ;
298 -> 314 ;
315 [label="gini = 0.0\nsamples = 2\nvalue = [0, 7]"] ;
314 -> 315 ;
316 [label="ELO_DIFF <= 3.1\ngini = 0.5\nsamples = 70\nvalue = [41, 65]"] ;
314 -> 316 ;
317 [label="gini = 0.0\nsamples = 2\nvalue = [3, 0]"] ;
316 -> 317 ;
318 [label="ELO_DIFF <= 5.6\ngini = 0.5\nsamples = 68\nvalue = [38, 65]"] ;
316 -> 318 ;
319 [label="ELO_DIFF <= 4.2\ngini = 0.5\nsamples = 67\nvalue = [36, 65]"] ;
318 -> 319 ;
320 [label="ELO_DIFF <= 4.1\ngini = 0.5\nsamples = 54\nvalue = [32, 48]"] ;
319 -> 320 ;
321 [label="ELO_DIFF <= 3.5\ngini = 0.5\nsamples = 52\nvalue = [28, 48]"] ;
320 -> 321 ;
322 [label="ELO_DIFF <= 3.2\ngini = 0.4\nsamples = 23\nvalue = [10, 25]"] ;
321 -> 322 ;
323 [label="gini = 0.5\nsamples = 4\nvalue = [2, 3]"] ;
322 -> 323 ;
324 [label="ELO_DIFF <= 3.3\ngini = 0.4\nsamples = 19\nvalue = [8, 22]"] ;
322 -> 324 ;
325 [label="gini = 0.4\nsamples = 8\nvalue = [3, 10]"] ;
324 -> 325 ;
326 [label="ELO_DIFF <= 3.4\ngini = 0.4\nsamples = 11\nvalue = [5, 12]"] ;
324 -> 326 ;
327 [label="gini = 0.5\nsamples = 6\nvalue = [3, 5]"] ;
326 -> 327 ;
328 [label="gini = 0.3\nsamples = 5\nvalue = [2, 7]"] ;
326 -> 328 ;
329 [label="ELO_DIFF <= 3.9\ngini = 0.5\nsamples = 29\nvalue = [18, 23]"] ;
321 -> 329 ;
330 [label="ELO_DIFF <= 3.7\ngini = 0.5\nsamples = 24\nvalue = [15, 15]"] ;
329 -> 330 ;
331 [label="gini = 0.5\nsamples = 8\nvalue = [4, 6]"] ;
330 -> 331 ;
332 [label="ELO_DIFF <= 3.8\ngini = 0.5\nsamples = 16\nvalue = [11, 9]"] ;
330 -> 332 ;
333 [label="gini = 0.5\nsamples = 6\nvalue = [4, 4]"] ;
332 -> 333 ;
334 [label="gini = 0.5\nsamples = 10\nvalue = [7, 5]"] ;
332 -> 334 ;
335 [label="ELO_DIFF <= 4.0\ngini = 0.4\nsamples = 5\nvalue = [3, 8]"] ;
329 -> 335 ;
336 [label="gini = 0.4\nsamples = 2\nvalue = [1, 3]"] ;
335 -> 336 ;
337 [label="gini = 0.4\nsamples = 3\nvalue = [2, 5]"] ;
335 -> 337 ;
338 [label="gini = 0.0\nsamples = 2\nvalue = [4, 0]"] ;
320 -> 338 ;
339 [label="ELO_DIFF <= 4.3\ngini = 0.3\nsamples = 13\nvalue = [4, 17]"] ;
319 -> 339 ;
340 [label="gini = 0.0\nsamples = 3\nvalue = [0, 5]"] ;
339 -> 340 ;
341 [label="ELO_DIFF <= 5.1\ngini = 0.4\nsamples = 10\nvalue = [4, 12]"] ;
339 -> 341 ;
342 [label="ELO_DIFF <= 4.9\ngini = 0.4\nsamples = 8\nvalue = [4, 9]"] ;
341 -> 342 ;
343 [label="ELO_DIFF <= 4.5\ngini = 0.3\nsamples = 6\nvalue = [2, 8]"] ;
342 -> 343 ;
344 [label="gini = 0.4\nsamples = 4\nvalue = [2, 4]"] ;
343 -> 344 ;
345 [label="gini = 0.0\nsamples = 2\nvalue = [0, 4]"] ;
343 -> 345 ;
346 [label="gini = 0.4\nsamples = 2\nvalue = [2, 1]"] ;
342 -> 346 ;
347 [label="gini = 0.0\nsamples = 2\nvalue = [0, 3]"] ;
341 -> 347 ;
348 [label="gini = 0.0\nsamples = 1\nvalue = [2, 0]"] ;
318 -> 348 ;
349 [label="ELO_DIFF <= 3.7\ngini = 0.5\nsamples = 115\nvalue = [79, 105]"] ;
297 -> 349 ;
350 [label="ELO_DIFF <= 1.8\ngini = 0.5\nsamples = 44\nvalue = [38, 23]"] ;
349 -> 350 ;
351 [label="gini = 0.4\nsamples = 2\nvalue = [1, 3]"] ;
350 -> 351 ;
352 [label="ELO_DIFF <= 2.8\ngini = 0.5\nsamples = 42\nvalue = [37, 20]"] ;
350 -> 352 ;
353 [label="ELO_DIFF <= 2.0\ngini = 0.3\nsamples = 13\nvalue = [14, 3]"] ;
352 -> 353 ;
354 [label="gini = 0.5\nsamples = 2\nvalue = [1, 1]"] ;
353 -> 354 ;
355 [label="ELO_DIFF <= 2.5\ngini = 0.2\nsamples = 11\nvalue = [13, 2]"] ;
353 -> 355 ;
356 [label="gini = 0.0\nsamples = 4\nvalue = [6, 0]"] ;
355 -> 356 ;
357 [label="ELO_DIFF <= 2.6\ngini = 0.3\nsamples = 7\nvalue = [7, 2]"] ;
355 -> 357 ;
358 [label="gini = 0.4\nsamples = 3\nvalue = [3, 1]"] ;
357 -> 358 ;
359 [label="gini = 0.3\nsamples = 4\nvalue = [4, 1]"] ;
357 -> 359 ;
360 [label="ELO_DIFF <= 2.9\ngini = 0.5\nsamples = 29\nvalue = [23, 17]"] ;
352 -> 360 ;
361 [label="gini = 0.0\nsamples = 3\nvalue = [0, 5]"] ;
360 -> 361 ;
362 [label="ELO_DIFF <= 3.3\ngini = 0.5\nsamples = 26\nvalue = [23, 12]"] ;
360 -> 362 ;
363 [label="ELO_DIFF <= 3.2\ngini = 0.3\nsamples = 15\nvalue = [15, 4]"] ;
362 -> 363 ;
364 [label="ELO_DIFF <= 3.0\ngini = 0.4\nsamples = 12\nvalue = [12, 4]"] ;
363 -> 364 ;
365 [label="gini = 0.0\nsamples = 2\nvalue = [2, 0]"] ;
364 -> 365 ;
366 [label="ELO_DIFF <= 3.1\ngini = 0.4\nsamples = 10\nvalue = [10, 4]"] ;
364 -> 366 ;
367 [label="gini = 0.4\nsamples = 7\nvalue = [7, 3]"] ;
366 -> 367 ;
368 [label="gini = 0.4\nsamples = 3\nvalue = [3, 1]"] ;
366 -> 368 ;
369 [label="gini = 0.0\nsamples = 3\nvalue = [3, 0]"] ;
363 -> 369 ;
370 [label="ELO_DIFF <= 3.5\ngini = 0.5\nsamples = 11\nvalue = [8, 8]"] ;
362 -> 370 ;
371 [label="ELO_DIFF <= 3.4\ngini = 0.5\nsamples = 8\nvalue = [5, 8]"] ;
370 -> 371 ;
372 [label="gini = 0.5\nsamples = 4\nvalue = [4, 4]"] ;
371 -> 372 ;
373 [label="gini = 0.3\nsamples = 4\nvalue = [1, 4]"] ;
371 -> 373 ;
374 [label="gini = 0.0\nsamples = 3\nvalue = [3, 0]"] ;
370 -> 374 ;
375 [label="ELO_DIFF <= 4.9\ngini = 0.4\nsamples = 71\nvalue = [41, 82]"] ;
349 -> 375 ;
376 [label="ELO_DIFF <= 4.8\ngini = 0.5\nsamples = 63\nvalue = [40, 68]"] ;
375 -> 376 ;
377 [label="ELO_DIFF <= 4.3\ngini = 0.5\nsamples = 62\nvalue = [38, 68]"] ;
376 -> 377 ;
378 [label="ELO_DIFF <= 3.9\ngini = 0.5\nsamples = 49\nvalue = [31, 52]"] ;
377 -> 378 ;
379 [label="ELO_DIFF <= 3.8\ngini = 0.4\nsamples = 10\nvalue = [4, 10]"] ;
378 -> 379 ;
380 [label="gini = 0.5\nsamples = 7\nvalue = [4, 6]"] ;
379 -> 380 ;
381 [label="gini = 0.0\nsamples = 3\nvalue = [0, 4]"] ;
379 -> 381 ;
382 [label="ELO_DIFF <= 4.0\ngini = 0.5\nsamples = 39\nvalue = [27, 42]"] ;
378 -> 382 ;
383 [label="gini = 0.5\nsamples = 15\nvalue = [11, 13]"] ;
382 -> 383 ;
384 [label="ELO_DIFF <= 4.2\ngini = 0.5\nsamples = 24\nvalue = [16, 29]"] ;
382 -> 384 ;
385 [label="ELO_DIFF <= 4.1\ngini = 0.4\nsamples = 17\nvalue = [8, 19]"] ;
384 -> 385 ;
386 [label="gini = 0.4\nsamples = 12\nvalue = [5, 12]"] ;
385 -> 386 ;
387 [label="gini = 0.4\nsamples = 5\nvalue = [3, 7]"] ;
385 -> 387 ;
388 [label="gini = 0.5\nsamples = 7\nvalue = [8, 10]"] ;
384 -> 388 ;
389 [label="ELO_DIFF <= 4.5\ngini = 0.4\nsamples = 13\nvalue = [7, 16]"] ;
377 -> 389 ;
390 [label="gini = 0.0\nsamples = 2\nvalue = [0, 4]"] ;
389 -> 390 ;
391 [label="ELO_DIFF <= 4.6\ngini = 0.5\nsamples = 11\nvalue = [7, 12]"] ;
389 -> 391 ;
392 [label="gini = 0.5\nsamples = 3\nvalue = [3, 2]"] ;
391 -> 392 ;
393 [label="ELO_DIFF <= 4.7\ngini = 0.4\nsamples = 8\nvalue = [4, 10]"] ;
391 -> 393 ;
394 [label="gini = 0.3\nsamples = 4\nvalue = [1, 4]"] ;
393 -> 394 ;
395 [label="gini = 0.4\nsamples = 4\nvalue = [3, 6]"] ;
393 -> 395 ;
396 [label="gini = 0.0\nsamples = 1\nvalue = [2, 0]"] ;
376 -> 396 ;
397 [label="ELO_DIFF <= 5.0\ngini = 0.1\nsamples = 8\nvalue = [1, 14]"] ;
375 -> 397 ;
398 [label="gini = 0.3\nsamples = 3\nvalue = [1, 4]"] ;
397 -> 398 ;
399 [label="gini = 0.0\nsamples = 5\nvalue = [0, 10]"] ;
397 -> 399 ;
400 [label="ELO_DIFF <= 2.6\ngini = 0.5\nsamples = 118\nvalue = [94, 80]"] ;
296 -> 400 ;
401 [label="ELO_DIFF <= 2.0\ngini = 0.4\nsamples = 18\nvalue = [17, 7]"] ;
400 -> 401 ;
402 [label="gini = 0.0\nsamples = 2\nvalue = [2, 0]"] ;
401 -> 402 ;
403 [label="ELO_DIFF <= 2.5\ngini = 0.4\nsamples = 16\nvalue = [15, 7]"] ;
401 -> 403 ;
404 [label="ELO_DIFF <= 2.2\ngini = 0.5\nsamples = 9\nvalue = [9, 5]"] ;
403 -> 404 ;
405 [label="gini = 0.5\nsamples = 2\nvalue = [3, 2]"] ;
404 -> 405 ;
406 [label="ELO_DIFF <= 2.4\ngini = 0.4\nsamples = 7\nvalue = [6, 3]"] ;
404 -> 406 ;
407 [label="ELO_DIFF <= 2.3\ngini = 0.4\nsamples = 3\nvalue = [3, 1]"] ;
406 -> 407 ;
408 [label="gini = 0.4\nsamples = 2\nvalue = [2, 1]"] ;
407 -> 408 ;
409 [label="gini = 0.0\nsamples = 1\nvalue = [1, 0]"] ;
407 -> 409 ;
410 [label="gini = 0.5\nsamples = 4\nvalue = [3, 2]"] ;
406 -> 410 ;
411 [label="gini = 0.4\nsamples = 7\nvalue = [6, 2]"] ;
403 -> 411 ;
412 [label="ELO_DIFF <= 4.0\ngini = 0.5\nsamples = 100\nvalue = [77, 73]"] ;
400 -> 412 ;
413 [label="ELO_DIFF <= 3.5\ngini = 0.5\nsamples = 59\nvalue = [38, 48]"] ;
412 -> 413 ;
414 [label="ELO_DIFF <= 3.4\ngini = 0.5\nsamples = 36\nvalue = [29, 24]"] ;
413 -> 414 ;
415 [label="ELO_DIFF <= 3.3\ngini = 0.5\nsamples = 30\nvalue = [20, 24]"] ;
414 -> 415 ;
416 [label="ELO_DIFF <= 3.1\ngini = 0.5\nsamples = 27\nvalue = [20, 20]"] ;
415 -> 416 ;
417 [label="ELO_DIFF <= 2.8\ngini = 0.5\nsamples = 15\nvalue = [9, 13]"] ;
416 -> 417 ;
418 [label="gini = 0.5\nsamples = 2\nvalue = [2, 2]"] ;
417 -> 418 ;
419 [label="ELO_DIFF <= 3.0\ngini = 0.5\nsamples = 13\nvalue = [7, 11]"] ;
417 -> 419 ;
420 [label="ELO_DIFF <= 2.9\ngini = 0.5\nsamples = 7\nvalue = [4, 6]"] ;
419 -> 420 ;
421 [label="gini = 0.5\nsamples = 4\nvalue = [2, 3]"] ;
420 -> 421 ;
422 [label="gini = 0.5\nsamples = 3\nvalue = [2, 3]"] ;
420 -> 422 ;
423 [label="gini = 0.5\nsamples = 6\nvalue = [3, 5]"] ;
419 -> 423 ;
424 [label="ELO_DIFF <= 3.2\ngini = 0.5\nsamples = 12\nvalue = [11, 7]"] ;
416 -> 424 ;
425 [label="gini = 0.0\nsamples = 4\nvalue = [5, 0]"] ;
424 -> 425 ;
426 [label="gini = 0.5\nsamples = 8\nvalue = [6, 7]"] ;
424 -> 426 ;
427 [label="gini = 0.0\nsamples = 3\nvalue = [0, 4]"] ;
415 -> 427 ;
428 [label="gini = 0.0\nsamples = 6\nvalue = [9, 0]"] ;
414 -> 428 ;
429 [label="ELO_DIFF <= 3.8\ngini = 0.4\nsamples = 23\nvalue = [9, 24]"] ;
413 -> 429 ;
430 [label="ELO_DIFF <= 3.7\ngini = 0.5\nsamples = 11\nvalue = [5, 9]"] ;
429 -> 430 ;
431 [label="gini = 0.4\nsamples = 8\nvalue = [3, 8]"] ;
430 -> 431 ;
432 [label="gini = 0.4\nsamples = 3\nvalue = [2, 1]"] ;
430 -> 432 ;
433 [label="ELO_DIFF <= 3.9\ngini = 0.3\nsamples = 12\nvalue = [4, 15]"] ;
429 -> 433 ;
434 [label="gini = 0.3\nsamples = 6\nvalue = [2, 9]"] ;
433 -> 434 ;
435 [label="gini = 0.4\nsamples = 6\nvalue = [2, 6]"] ;
433 -> 435 ;
436 [label="ELO_DIFF <= 4.5\ngini = 0.5\nsamples = 41\nvalue = [39, 25]"] ;
412 -> 436 ;
437 [label="ELO_DIFF <= 4.1\ngini = 0.4\nsamples = 19\nvalue = [23, 7]"] ;
436 -> 437 ;
438 [label="gini = 0.0\nsamples = 2\nvalue = [3, 0]"] ;
437 -> 438 ;
439 [label="ELO_DIFF <= 4.2\ngini = 0.4\nsamples = 17\nvalue = [20, 7]"] ;
437 -> 439 ;
440 [label="gini = 0.5\nsamples = 8\nvalue = [7, 4]"] ;
439 -> 440 ;
441 [label="ELO_DIFF <= 4.3\ngini = 0.3\nsamples = 9\nvalue = [13, 3]"] ;
439 -> 441 ;
442 [label="gini = 0.3\nsamples = 6\nvalue = [9, 2]"] ;
441 -> 442 ;
443 [label="gini = 0.3\nsamples = 3\nvalue = [4, 1]"] ;
441 -> 443 ;
444 [label="ELO_DIFF <= 5.8\ngini = 0.5\nsamples = 22\nvalue = [16, 18]"] ;
436 -> 444 ;
445 [label="ELO_DIFF <= 5.4\ngini = 0.5\nsamples = 21\nvalue = [15, 18]"] ;
444 -> 445 ;
446 [label="ELO_DIFF <= 5.0\ngini = 0.5\nsamples = 20\nvalue = [15, 15]"] ;
445 -> 446 ;
447 [label="ELO_DIFF <= 4.6\ngini = 0.5\nsamples = 16\nvalue = [10, 13]"] ;
446 -> 447 ;
448 [label="gini = 0.5\nsamples = 4\nvalue = [3, 2]"] ;
447 -> 448 ;
449 [label="ELO_DIFF <= 4.8\ngini = 0.5\nsamples = 12\nvalue = [7, 11]"] ;
447 -> 449 ;
450 [label="ELO_DIFF <= 4.7\ngini = 0.5\nsamples = 8\nvalue = [4, 7]"] ;
449 -> 450 ;
451 [label="gini = 0.5\nsamples = 3\nvalue = [2, 3]"] ;
450 -> 451 ;
452 [label="gini = 0.4\nsamples = 5\nvalue = [2, 4]"] ;
450 -> 452 ;
453 [label="gini = 0.5\nsamples = 4\nvalue = [3, 4]"] ;
449 -> 453 ;
454 [label="ELO_DIFF <= 5.2\ngini = 0.4\nsamples = 4\nvalue = [5, 2]"] ;
446 -> 454 ;
455 [label="gini = 0.4\nsamples = 2\nvalue = [3, 1]"] ;
454 -> 455 ;
456 [label="gini = 0.4\nsamples = 2\nvalue = [2, 1]"] ;
454 -> 456 ;
457 [label="gini = 0.0\nsamples = 1\nvalue = [0, 3]"] ;
445 -> 457 ;
458 [label="gini = 0.0\nsamples = 1\nvalue = [1, 0]"] ;
444 -> 458 ;
459 [label="ELO_DIFF <= 4.6\ngini = 0.5\nsamples = 666\nvalue = [620, 461]"] ;
1 -> 459 ;
460 [label="HOME_AWAY_GOAL_DIFF <= 4.2\ngini = 0.5\nsamples = 539\nvalue = [536, 351]"] ;
459 -> 460 ;
461 [label="ELO_DIFF <= 2.2\ngini = 0.5\nsamples = 213\nvalue = [231, 127]"] ;
460 -> 461 ;
462 [label="ELO_DIFF <= 1.8\ngini = 0.2\nsamples = 11\nvalue = [22, 2]"] ;
461 -> 462 ;
463 [label="gini = 0.0\nsamples = 4\nvalue = [10, 0]"] ;
462 -> 463 ;
464 [label="ELO_DIFF <= 2.0\ngini = 0.2\nsamples = 7\nvalue = [12, 2]"] ;
462 -> 464 ;
465 [label="gini = 0.4\nsamples = 3\nvalue = [5, 2]"] ;
464 -> 465 ;
466 [label="gini = 0.0\nsamples = 4\nvalue = [7, 0]"] ;
464 -> 466 ;
467 [label="ELO_DIFF <= 4.5\ngini = 0.5\nsamples = 202\nvalue = [209, 125]"] ;
461 -> 467 ;
468 [label="ELO_DIFF <= 4.0\ngini = 0.5\nsamples = 191\nvalue = [199, 113]"] ;
467 -> 468 ;
469 [label="RECENT_PERF_DIFF <= 4.1\ngini = 0.5\nsamples = 149\nvalue = [150, 100]"] ;
468 -> 469 ;
470 [label="ELO_DIFF <= 3.9\ngini = 0.5\nsamples = 63\nvalue = [65, 41]"] ;
469 -> 470 ;
471 [label="ELO_DIFF <= 2.6\ngini = 0.5\nsamples = 55\nvalue = [60, 32]"] ;
470 -> 471 ;
472 [label="ELO_DIFF <= 2.4\ngini = 0.5\nsamples = 7\nvalue = [3, 5]"] ;
471 -> 472 ;
473 [label="gini = 0.0\nsamples = 2\nvalue = [3, 0]"] ;
472 -> 473 ;
474 [label="gini = 0.0\nsamples = 5\nvalue = [0, 5]"] ;
472 -> 474 ;
475 [label="ELO_DIFF <= 2.9\ngini = 0.4\nsamples = 48\nvalue = [57, 27]"] ;
471 -> 475 ;
476 [label="gini = 0.0\nsamples = 5\nvalue = [7, 0]"] ;
475 -> 476 ;
477 [label="ELO_DIFF <= 3.0\ngini = 0.5\nsamples = 43\nvalue = [50, 27]"] ;
475 -> 477 ;
478 [label="gini = 0.5\nsamples = 4\nvalue = [4, 7]"] ;
477 -> 478 ;
479 [label="ELO_DIFF <= 3.8\ngini = 0.4\nsamples = 39\nvalue = [46, 20]"] ;
477 -> 479 ;
480 [label="ELO_DIFF <= 3.7\ngini = 0.4\nsamples = 33\nvalue = [40, 15]"] ;
479 -> 480 ;
481 [label="ELO_DIFF <= 3.5\ngini = 0.4\nsamples = 30\nvalue = [37, 15]"] ;
480 -> 481 ;
482 [label="ELO_DIFF <= 3.4\ngini = 0.4\nsamples = 25\nvalue = [30, 10]"] ;
481 -> 482 ;
483 [label="ELO_DIFF <= 3.2\ngini = 0.4\nsamples = 20\nvalue = [22, 10]"] ;
482 -> 483 ;
484 [label="ELO_DIFF <= 3.1\ngini = 0.5\nsamples = 12\nvalue = [13, 7]"] ;
483 -> 484 ;
485 [label="gini = 0.4\nsamples = 5\nvalue = [6, 2]"] ;
484 -> 485 ;
486 [label="gini = 0.5\nsamples = 7\nvalue = [7, 5]"] ;
484 -> 486 ;
487 [label="ELO_DIFF <= 3.3\ngini = 0.4\nsamples = 8\nvalue = [9, 3]"] ;
483 -> 487 ;
488 [label="gini = 0.3\nsamples = 3\nvalue = [4, 1]"] ;
487 -> 488 ;
489 [label="gini = 0.4\nsamples = 5\nvalue = [5, 2]"] ;
487 -> 489 ;
490 [label="gini = 0.0\nsamples = 5\nvalue = [8, 0]"] ;
482 -> 490 ;
491 [label="gini = 0.5\nsamples = 5\nvalue = [7, 5]"] ;
481 -> 491 ;
492 [label="gini = 0.0\nsamples = 3\nvalue = [3, 0]"] ;
480 -> 492 ;
493 [label="gini = 0.5\nsamples = 6\nvalue = [6, 5]"] ;
479 -> 493 ;
494 [label="gini = 0.5\nsamples = 8\nvalue = [5, 9]"] ;
470 -> 494 ;
495 [label="ELO_DIFF <= 3.7\ngini = 0.5\nsamples = 86\nvalue = [85, 59]"] ;
469 -> 495 ;
496 [label="ELO_DIFF <= 3.1\ngini = 0.5\nsamples = 69\nvalue = [74, 39]"] ;
495 -> 496 ;
497 [label="ELO_DIFF <= 2.3\ngini = 0.5\nsamples = 31\nvalue = [33, 22]"] ;
496 -> 497 ;
498 [label="gini = 0.4\nsamples = 3\nvalue = [1, 2]"] ;
497 -> 498 ;
499 [label="ELO_DIFF <= 2.5\ngini = 0.5\nsamples = 28\nvalue = [32, 20]"] ;
497 -> 499 ;
500 [label="gini = 0.0\nsamples = 3\nvalue = [5, 0]"] ;
499 -> 500 ;
501 [label="ELO_DIFF <= 2.7\ngini = 0.5\nsamples = 25\nvalue = [27, 20]"] ;
499 -> 501 ;
502 [label="gini = 0.5\nsamples = 6\nvalue = [4, 4]"] ;
501 -> 502 ;
503 [label="ELO_DIFF <= 2.9\ngini = 0.5\nsamples = 19\nvalue = [23, 16]"] ;
501 -> 503 ;
504 [label="gini = 0.4\nsamples = 5\nvalue = [6, 3]"] ;
503 -> 504 ;
505 [label="ELO_DIFF <= 3.0\ngini = 0.5\nsamples = 14\nvalue = [17, 13]"] ;
503 -> 505 ;
506 [label="gini = 0.5\nsamples = 5\nvalue = [6, 5]"] ;
505 -> 506 ;
507 [label="gini = 0.5\nsamples = 9\nvalue = [11, 8]"] ;
505 -> 507 ;
508 [label="ELO_DIFF <= 3.4\ngini = 0.4\nsamples = 38\nvalue = [41, 17]"] ;
496 -> 508 ;
509 [label="ELO_DIFF <= 3.2\ngini = 0.2\nsamples = 15\nvalue = [18, 3]"] ;
508 -> 509 ;
510 [label="gini = 0.2\nsamples = 7\nvalue = [8, 1]"] ;
509 -> 510 ;
511 [label="ELO_DIFF <= 3.3\ngini = 0.3\nsamples = 8\nvalue = [10, 2]"] ;
509 -> 511 ;
512 [label="gini = 0.3\nsamples = 4\nvalue = [4, 1]"] ;
511 -> 512 ;
513 [label="gini = 0.2\nsamples = 4\nvalue = [6, 1]"] ;
511 -> 513 ;
514 [label="ELO_DIFF <= 3.5\ngini = 0.5\nsamples = 23\nvalue = [23, 14]"] ;
508 -> 514 ;
515 [label="gini = 0.5\nsamples = 9\nvalue = [9, 6]"] ;
514 -> 515 ;
516 [label="gini = 0.5\nsamples = 14\nvalue = [14, 8]"] ;
514 -> 516 ;
517 [label="ELO_DIFF <= 3.9\ngini = 0.5\nsamples = 17\nvalue = [11, 20]"] ;
495 -> 517 ;
518 [label="ELO_DIFF <= 3.8\ngini = 0.4\nsamples = 14\nvalue = [7, 18]"] ;
517 -> 518 ;
519 [label="gini = 0.5\nsamples = 8\nvalue = [5, 8]"] ;
518 -> 519 ;
520 [label="gini = 0.3\nsamples = 6\nvalue = [2, 10]"] ;
518 -> 520 ;
521 [label="gini = 0.4\nsamples = 3\nvalue = [4, 2]"] ;
517 -> 521 ;
522 [label="ELO_DIFF <= 4.1\ngini = 0.3\nsamples = 42\nvalue = [49, 13]"] ;
468 -> 522 ;
523 [label="HOME_AWAY_GOAL_DIFF <= 4.1\ngini = 0.1\nsamples = 10\nvalue = [14, 1]"] ;
522 -> 523 ;
524 [label="gini = 0.2\nsamples = 7\nvalue = [8, 1]"] ;
523 -> 524 ;
525 [label="gini = 0.0\nsamples = 3\nvalue = [6, 0]"] ;
523 -> 525 ;
526 [label="RECENT_PERF_DIFF <= 4.1\ngini = 0.4\nsamples = 32\nvalue = [35, 12]"] ;
522 -> 526 ;
527 [label="ELO_DIFF <= 4.3\ngini = 0.4\nsamples = 14\nvalue = [14, 5]"] ;
526 -> 527 ;
528 [label="ELO_DIFF <= 4.2\ngini = 0.3\nsamples = 12\nvalue = [14, 3]"] ;
527 -> 528 ;
529 [label="gini = 0.2\nsamples = 8\nvalue = [10, 1]"] ;
528 -> 529 ;
530 [label="gini = 0.4\nsamples = 4\nvalue = [4, 2]"] ;
528 -> 530 ;
531 [label="gini = 0.0\nsamples = 2\nvalue = [0, 2]"] ;
527 -> 531 ;
532 [label="ELO_DIFF <= 4.3\ngini = 0.4\nsamples = 18\nvalue = [21, 7]"] ;
526 -> 532 ;
533 [label="ELO_DIFF <= 4.2\ngini = 0.5\nsamples = 12\nvalue = [12, 7]"] ;
532 -> 533 ;
534 [label="gini = 0.5\nsamples = 6\nvalue = [6, 4]"] ;
533 -> 534 ;
535 [label="gini = 0.4\nsamples = 6\nvalue = [6, 3]"] ;
533 -> 535 ;
536 [label="gini = 0.0\nsamples = 6\nvalue = [9, 0]"] ;
532 -> 536 ;
537 [label="RECENT_PERF_DIFF <= 4.1\ngini = 0.5\nsamples = 11\nvalue = [10, 12]"] ;
467 -> 537 ;
538 [label="gini = 0.5\nsamples = 6\nvalue = [5, 3]"] ;
537 -> 538 ;
539 [label="gini = 0.5\nsamples = 5\nvalue = [5, 9]"] ;
537 -> 539 ;
540 [label="ELO_DIFF <= 2.8\ngini = 0.5\nsamples = 326\nvalue = [305, 224]"] ;
460 -> 540 ;
541 [label="ELO_DIFF <= 2.0\ngini = 0.4\nsamples = 39\nvalue = [44, 15]"] ;
540 -> 541 ;
542 [label="gini = 0.0\nsamples = 5\nvalue = [6, 0]"] ;
541 -> 542 ;
543 [label="HOME_AWAY_GOAL_DIFF <= 4.3\ngini = 0.4\nsamples = 34\nvalue = [38, 15]"] ;
541 -> 543 ;
544 [label="ELO_DIFF <= 2.4\ngini = 0.5\nsamples = 14\nvalue = [11, 8]"] ;
543 -> 544 ;
545 [label="ELO_DIFF <= 2.3\ngini = 0.4\nsamples = 7\nvalue = [6, 2]"] ;
544 -> 545 ;
546 [label="ELO_DIFF <= 2.2\ngini = 0.3\nsamples = 4\nvalue = [4, 1]"] ;
545 -> 546 ;
547 [label="gini = 0.4\nsamples = 3\nvalue = [3, 1]"] ;
546 -> 547 ;
548 [label="gini = 0.0\nsamples = 1\nvalue = [1, 0]"] ;
546 -> 548 ;
549 [label="gini = 0.4\nsamples = 3\nvalue = [2, 1]"] ;
545 -> 549 ;
550 [label="ELO_DIFF <= 2.6\ngini = 0.5\nsamples = 7\nvalue = [5, 6]"] ;
544 -> 550 ;
551 [label="ELO_DIFF <= 2.5\ngini = 0.4\nsamples = 4\nvalue = [2, 5]"] ;
550 -> 551 ;
552 [label="gini = 0.4\nsamples = 2\nvalue = [1, 2]"] ;
551 -> 552 ;
553 [label="gini = 0.4\nsamples = 2\nvalue = [1, 3]"] ;
551 -> 553 ;
554 [label="gini = 0.4\nsamples = 3\nvalue = [3, 1]"] ;
550 -> 554 ;
555 [label="RECENT_PERF_DIFF <= 4.4\ngini = 0.3\nsamples = 20\nvalue = [27, 7]"] ;
543 -> 555 ;
556 [label="ELO_DIFF <= 2.3\ngini = 0.2\nsamples = 12\nvalue = [19, 3]"] ;
555 -> 556 ;
557 [label="gini = 0.4\nsamples = 2\nvalue = [1, 3]"] ;
556 -> 557 ;
558 [label="gini = 0.0\nsamples = 10\nvalue = [18, 0]"] ;
556 -> 558 ;
559 [label="ELO_DIFF <= 2.5\ngini = 0.4\nsamples = 8\nvalue = [8, 4]"] ;
555 -> 559 ;
560 [label="gini = 0.0\nsamples = 4\nvalue = [6, 0]"] ;
559 -> 560 ;
561 [label="ELO_DIFF <= 2.6\ngini = 0.4\nsamples = 4\nvalue = [2, 4]"] ;
559 -> 561 ;
562 [label="gini = 0.5\nsamples = 2\nvalue = [2, 2]"] ;
561 -> 562 ;
563 [label="gini = 0.0\nsamples = 2\nvalue = [0, 2]"] ;
561 -> 563 ;
564 [label="ELO_DIFF <= 4.0\ngini = 0.5\nsamples = 287\nvalue = [261, 209]"] ;
540 -> 564 ;
565 [label="HOME_AWAY_GOAL_DIFF <= 4.4\ngini = 0.5\nsamples = 194\nvalue = [165, 153]"] ;
564 -> 565 ;
566 [label="HOME_AWAY_GOAL_DIFF <= 4.3\ngini = 0.5\nsamples = 130\nvalue = [102, 103]"] ;
565 -> 566 ;
567 [label="ELO_DIFF <= 3.0\ngini = 0.5\nsamples = 64\nvalue = [49, 47]"] ;
566 -> 567 ;
568 [label="gini = 0.0\nsamples = 4\nvalue = [6, 0]"] ;
567 -> 568 ;
569 [label="ELO_DIFF <= 3.3\ngini = 0.5\nsamples = 60\nvalue = [43, 47]"] ;
567 -> 569 ;
570 [label="ELO_DIFF <= 3.1\ngini = 0.5\nsamples = 13\nvalue = [12, 7]"] ;
569 -> 570 ;
571 [label="gini = 0.5\nsamples = 7\nvalue = [4, 6]"] ;
570 -> 571 ;
572 [label="ELO_DIFF <= 3.2\ngini = 0.2\nsamples = 6\nvalue = [8, 1]"] ;
570 -> 572 ;
573 [label="gini = 0.0\nsamples = 2\nvalue = [3, 0]"] ;
572 -> 573 ;
574 [label="gini = 0.3\nsamples = 4\nvalue = [5, 1]"] ;
572 -> 574 ;
575 [label="ELO_DIFF <= 3.5\ngini = 0.5\nsamples = 47\nvalue = [31, 40]"] ;
569 -> 575 ;
576 [label="ELO_DIFF <= 3.4\ngini = 0.4\nsamples = 16\nvalue = [8, 19]"] ;
575 -> 576 ;
577 [label="gini = 0.4\nsamples = 11\nvalue = [5, 13]"] ;
576 -> 577 ;
578 [label="gini = 0.4\nsamples = 5\nvalue = [3, 6]"] ;
576 -> 578 ;
579 [label="ELO_DIFF <= 3.8\ngini = 0.5\nsamples = 31\nvalue = [23, 21]"] ;
575 -> 579 ;
580 [label="ELO_DIFF <= 3.7\ngini = 0.5\nsamples = 17\nvalue = [12, 14]"] ;
579 -> 580 ;
581 [label="gini = 0.5\nsamples = 7\nvalue = [5, 5]"] ;
580 -> 581 ;
582 [label="gini = 0.5\nsamples = 10\nvalue = [7, 9]"] ;
580 -> 582 ;
583 [label="ELO_DIFF <= 3.9\ngini = 0.5\nsamples = 14\nvalue = [11, 7]"] ;
579 -> 583 ;
584 [label="gini = 0.3\nsamples = 8\nvalue = [8, 2]"] ;
583 -> 584 ;
585 [label="gini = 0.5\nsamples = 6\nvalue = [3, 5]"] ;
583 -> 585 ;
586 [label="ELO_DIFF <= 3.9\ngini = 0.5\nsamples = 66\nvalue = [53, 56]"] ;
566 -> 586 ;
587 [label="ELO_DIFF <= 3.2\ngini = 0.5\nsamples = 56\nvalue = [38, 50]"] ;
586 -> 587 ;
588 [label="ELO_DIFF <= 3.0\ngini = 0.5\nsamples = 19\nvalue = [16, 13]"] ;
587 -> 588 ;
589 [label="ELO_DIFF <= 2.9\ngini = 0.5\nsamples = 11\nvalue = [7, 11]"] ;
588 -> 589 ;
590 [label="gini = 0.5\nsamples = 7\nvalue = [5, 8]"] ;
589 -> 590 ;
591 [label="gini = 0.5\nsamples = 4\nvalue = [2, 3]"] ;
589 -> 591 ;
592 [label="ELO_DIFF <= 3.1\ngini = 0.3\nsamples = 8\nvalue = [9, 2]"] ;
588 -> 592 ;
593 [label="gini = 0.3\nsamples = 4\nvalue = [5, 1]"] ;
592 -> 593 ;
594 [label="gini = 0.3\nsamples = 4\nvalue = [4, 1]"] ;
592 -> 594 ;
595 [label="ELO_DIFF <= 3.5\ngini = 0.5\nsamples = 37\nvalue = [22, 37]"] ;
587 -> 595 ;
596 [label="ELO_DIFF <= 3.3\ngini = 0.3\nsamples = 15\nvalue = [5, 18]"] ;
595 -> 596 ;
597 [label="gini = 0.3\nsamples = 4\nvalue = [1, 5]"] ;
596 -> 597 ;
598 [label="ELO_DIFF <= 3.4\ngini = 0.4\nsamples = 11\nvalue = [4, 13]"] ;
596 -> 598 ;
599 [label="gini = 0.4\nsamples = 3\nvalue = [1, 2]"] ;
598 -> 599 ;
600 [label="gini = 0.3\nsamples = 8\nvalue = [3, 11]"] ;
598 -> 600 ;
601 [label="ELO_DIFF <= 3.7\ngini = 0.5\nsamples = 22\nvalue = [17, 19]"] ;
595 -> 601 ;
602 [label="gini = 0.5\nsamples = 7\nvalue = [7, 4]"] ;
601 -> 602 ;
603 [label="ELO_DIFF <= 3.8\ngini = 0.5\nsamples = 15\nvalue = [10, 15]"] ;
601 -> 603 ;
604 [label="gini = 0.5\nsamples = 9\nvalue = [7, 8]"] ;
603 -> 604 ;
605 [label="gini = 0.4\nsamples = 6\nvalue = [3, 7]"] ;
603 -> 605 ;
606 [label="gini = 0.4\nsamples = 10\nvalue = [15, 6]"] ;
586 -> 606 ;
607 [label="ELO_DIFF <= 3.3\ngini = 0.5\nsamples = 64\nvalue = [63, 50]"] ;
565 -> 607 ;
608 [label="ELO_DIFF <= 3.2\ngini = 0.5\nsamples = 32\nvalue = [24, 27]"] ;
607 -> 608 ;
609 [label="ELO_DIFF <= 3.1\ngini = 0.5\nsamples = 25\nvalue = [20, 20]"] ;
608 -> 609 ;
610 [label="ELO_DIFF <= 3.0\ngini = 0.5\nsamples = 14\nvalue = [11, 13]"] ;
609 -> 610 ;
611 [label="ELO_DIFF <= 2.9\ngini = 0.5\nsamples = 10\nvalue = [9, 11]"] ;
610 -> 611 ;
612 [label="gini = 0.5\nsamples = 5\nvalue = [6, 7]"] ;
611 -> 612 ;
613 [label="gini = 0.5\nsamples = 5\nvalue = [3, 4]"] ;
611 -> 613 ;
614 [label="gini = 0.5\nsamples = 4\nvalue = [2, 2]"] ;
610 -> 614 ;
615 [label="gini = 0.5\nsamples = 11\nvalue = [9, 7]"] ;
609 -> 615 ;
616 [label="gini = 0.5\nsamples = 7\nvalue = [4, 7]"] ;
608 -> 616 ;
617 [label="ELO_DIFF <= 3.9\ngini = 0.5\nsamples = 32\nvalue = [39, 23]"] ;
607 -> 617 ;
618 [label="ELO_DIFF <= 3.4\ngini = 0.4\nsamples = 22\nvalue = [30, 13]"] ;
617 -> 618 ;
619 [label="gini = 0.2\nsamples = 5\nvalue = [7, 1]"] ;
618 -> 619 ;
620 [label="ELO_DIFF <= 3.5\ngini = 0.5\nsamples = 17\nvalue = [23, 12]"] ;
618 -> 620 ;
621 [label="gini = 0.4\nsamples = 4\nvalue = [5, 2]"] ;
620 -> 621 ;
622 [label="ELO_DIFF <= 3.7\ngini = 0.5\nsamples = 13\nvalue = [18, 10]"] ;
620 -> 622 ;
623 [label="gini = 0.5\nsamples = 6\nvalue = [7, 5]"] ;
622 -> 623 ;
624 [label="ELO_DIFF <= 3.8\ngini = 0.4\nsamples = 7\nvalue = [11, 5]"] ;
622 -> 624 ;
625 [label="gini = 0.4\nsamples = 4\nvalue = [8, 3]"] ;
624 -> 625 ;
626 [label="gini = 0.5\nsamples = 3\nvalue = [3, 2]"] ;
624 -> 626 ;
627 [label="gini = 0.5\nsamples = 10\nvalue = [9, 10]"] ;
617 -> 627 ;
628 [label="ELO_DIFF <= 4.2\ngini = 0.5\nsamples = 93\nvalue = [96, 56]"] ;
564 -> 628 ;
629 [label="ELO_DIFF <= 4.1\ngini = 0.4\nsamples = 40\nvalue = [48, 17]"] ;
628 -> 629 ;
630 [label="HOME_AWAY_GOAL_DIFF <= 4.4\ngini = 0.3\nsamples = 15\nvalue = [20, 5]"] ;
629 -> 630 ;
631 [label="RECENT_PERF_DIFF <= 4.3\ngini = 0.4\nsamples = 8\nvalue = [10, 3]"] ;
630 -> 631 ;
632 [label="gini = 0.3\nsamples = 6\nvalue = [8, 2]"] ;
631 -> 632 ;
633 [label="gini = 0.4\nsamples = 2\nvalue = [2, 1]"] ;
631 -> 633 ;
634 [label="gini = 0.3\nsamples = 7\nvalue = [10, 2]"] ;
630 -> 634 ;
635 [label="HOME_AWAY_GOAL_DIFF <= 4.4\ngini = 0.4\nsamples = 25\nvalue = [28, 12]"] ;
629 -> 635 ;
636 [label="HOME_AWAY_GOAL_DIFF <= 4.3\ngini = 0.5\nsamples = 18\nvalue = [19, 10]"] ;
635 -> 636 ;
637 [label="gini = 0.4\nsamples = 13\nvalue = [17, 7]"] ;
636 -> 637 ;
638 [label="gini = 0.5\nsamples = 5\nvalue = [2, 3]"] ;
636 -> 638 ;
639 [label="gini = 0.3\nsamples = 7\nvalue = [9, 2]"] ;
635 -> 639 ;
640 [label="HOME_AWAY_GOAL_DIFF <= 4.4\ngini = 0.5\nsamples = 53\nvalue = [48, 39]"] ;
628 -> 640 ;
641 [label="RECENT_PERF_DIFF <= 4.3\ngini = 0.5\nsamples = 33\nvalue = [25, 26]"] ;
640 -> 641 ;
642 [label="ELO_DIFF <= 4.3\ngini = 0.5\nsamples = 15\nvalue = [11, 10]"] ;
641 -> 642 ;
643 [label="gini = 0.0\nsamples = 5\nvalue = [0, 7]"] ;
642 -> 643 ;
644 [label="ELO_DIFF <= 4.5\ngini = 0.3\nsamples = 10\nvalue = [11, 3]"] ;
642 -> 644 ;
645 [label="gini = 0.4\nsamples = 5\nvalue = [5, 2]"] ;
644 -> 645 ;
646 [label="gini = 0.2\nsamples = 5\nvalue = [6, 1]"] ;
644 -> 646 ;
647 [label="ELO_DIFF <= 4.3\ngini = 0.5\nsamples = 18\nvalue = [14, 16]"] ;
641 -> 647 ;
648 [label="gini = 0.4\nsamples = 3\nvalue = [4, 2]"] ;
647 -> 648 ;
649 [label="ELO_DIFF <= 4.5\ngini = 0.5\nsamples = 15\nvalue = [10, 14]"] ;
647 -> 649 ;
650 [label="gini = 0.5\nsamples = 8\nvalue = [6, 7]"] ;
649 -> 650 ;
651 [label="gini = 0.5\nsamples = 7\nvalue = [4, 7]"] ;
649 -> 651 ;
652 [label="ELO_DIFF <= 4.5\ngini = 0.5\nsamples = 20\nvalue = [23, 13]"] ;
640 -> 652 ;
653 [label="ELO_DIFF <= 4.3\ngini = 0.5\nsamples = 17\nvalue = [19, 13]"] ;
652 -> 653 ;
654 [label="gini = 0.5\nsamples = 9\nvalue = [11, 6]"] ;
653 -> 654 ;
655 [label="gini = 0.5\nsamples = 8\nvalue = [8, 7]"] ;
653 -> 655 ;
656 [label="gini = 0.0\nsamples = 3\nvalue = [4, 0]"] ;
652 -> 656 ;
657 [label="ELO_DIFF <= 6.3\ngini = 0.5\nsamples = 127\nvalue = [84, 110]"] ;
459 -> 657 ;
658 [label="RECENT_PERF_DIFF <= 4.3\ngini = 0.5\nsamples = 123\nvalue = [84, 105]"] ;
657 -> 658 ;
659 [label="RECENT_PERF_DIFF <= 4.2\ngini = 0.5\nsamples = 73\nvalue = [57, 59]"] ;
658 -> 659 ;
660 [label="RECENT_PERF_DIFF <= 4.1\ngini = 0.5\nsamples = 44\nvalue = [32, 40]"] ;
659 -> 660 ;
661 [label="ELO_DIFF <= 5.3\ngini = 0.5\nsamples = 20\nvalue = [15, 18]"] ;
660 -> 661 ;
662 [label="ELO_DIFF <= 4.8\ngini = 0.5\nsamples = 15\nvalue = [15, 11]"] ;
661 -> 662 ;
663 [label="ELO_DIFF <= 4.7\ngini = 0.5\nsamples = 7\nvalue = [5, 9]"] ;
662 -> 663 ;
664 [label="gini = 0.4\nsamples = 3\nvalue = [1, 3]"] ;
663 -> 664 ;
665 [label="gini = 0.5\nsamples = 4\nvalue = [4, 6]"] ;
663 -> 665 ;
666 [label="ELO_DIFF <= 5.0\ngini = 0.3\nsamples = 8\nvalue = [10, 2]"] ;
662 -> 666 ;
667 [label="gini = 0.0\nsamples = 3\nvalue = [5, 0]"] ;
666 -> 667 ;
668 [label="ELO_DIFF <= 5.1\ngini = 0.4\nsamples = 5\nvalue = [5, 2]"] ;
666 -> 668 ;
669 [label="gini = 0.4\nsamples = 2\nvalue = [1, 2]"] ;
668 -> 669 ;
670 [label="gini = 0.0\nsamples = 3\nvalue = [4, 0]"] ;
668 -> 670 ;
671 [label="gini = 0.0\nsamples = 5\nvalue = [0, 7]"] ;
661 -> 671 ;
672 [label="ELO_DIFF <= 5.7\ngini = 0.5\nsamples = 24\nvalue = [17, 22]"] ;
660 -> 672 ;
673 [label="ELO_DIFF <= 5.5\ngini = 0.5\nsamples = 22\nvalue = [14, 22]"] ;
672 -> 673 ;
674 [label="ELO_DIFF <= 5.4\ngini = 0.5\nsamples = 19\nvalue = [14, 19]"] ;
673 -> 674 ;
675 [label="ELO_DIFF <= 5.2\ngini = 0.5\nsamples = 16\nvalue = [10, 19]"] ;
674 -> 675 ;
676 [label="ELO_DIFF <= 5.0\ngini = 0.5\nsamples = 15\nvalue = [10, 17]"] ;
675 -> 676 ;
677 [label="ELO_DIFF <= 4.9\ngini = 0.4\nsamples = 10\nvalue = [5, 12]"] ;
676 -> 677 ;
678 [label="ELO_DIFF <= 4.7\ngini = 0.5\nsamples = 6\nvalue = [3, 5]"] ;
677 -> 678 ;
679 [label="gini = 0.5\nsamples = 2\nvalue = [1, 1]"] ;
678 -> 679 ;
680 [label="ELO_DIFF <= 4.8\ngini = 0.4\nsamples = 4\nvalue = [2, 4]"] ;
678 -> 680 ;
681 [label="gini = 0.4\nsamples = 2\nvalue = [1, 3]"] ;
680 -> 681 ;
682 [label="gini = 0.5\nsamples = 2\nvalue = [1, 1]"] ;
680 -> 682 ;
683 [label="gini = 0.3\nsamples = 4\nvalue = [2, 7]"] ;
677 -> 683 ;
684 [label="ELO_DIFF <= 5.1\ngini = 0.5\nsamples = 5\nvalue = [5, 5]"] ;
676 -> 684 ;
685 [label="gini = 0.5\nsamples = 2\nvalue = [3, 2]"] ;
684 -> 685 ;
686 [label="gini = 0.5\nsamples = 3\nvalue = [2, 3]"] ;
684 -> 686 ;
687 [label="gini = 0.0\nsamples = 1\nvalue = [0, 2]"] ;
675 -> 687 ;
688 [label="gini = 0.0\nsamples = 3\nvalue = [4, 0]"] ;
674 -> 688 ;
689 [label="gini = 0.0\nsamples = 3\nvalue = [0, 3]"] ;
673 -> 689 ;
690 [label="gini = 0.0\nsamples = 2\nvalue = [3, 0]"] ;
672 -> 690 ;
691 [label="ELO_DIFF <= 4.7\ngini = 0.5\nsamples = 29\nvalue = [25, 19]"] ;
659 -> 691 ;
692 [label="gini = 0.5\nsamples = 5\nvalue = [4, 7]"] ;
691 -> 692 ;
693 [label="ELO_DIFF <= 4.8\ngini = 0.5\nsamples = 24\nvalue = [21, 12]"] ;
691 -> 693 ;
694 [label="gini = 0.0\nsamples = 4\nvalue = [6, 0]"] ;
693 -> 694 ;
695 [label="ELO_DIFF <= 5.1\ngini = 0.5\nsamples = 20\nvalue = [15, 12]"] ;
693 -> 695 ;
696 [label="ELO_DIFF <= 4.9\ngini = 0.5\nsamples = 11\nvalue = [6, 8]"] ;
695 -> 696 ;
697 [label="gini = 0.5\nsamples = 7\nvalue = [3, 5]"] ;
696 -> 697 ;
698 [label="gini = 0.5\nsamples = 4\nvalue = [3, 3]"] ;
696 -> 698 ;
699 [label="ELO_DIFF <= 5.2\ngini = 0.4\nsamples = 9\nvalue = [9, 4]"] ;
695 -> 699 ;
700 [label="gini = 0.0\nsamples = 4\nvalue = [6, 0]"] ;
699 -> 700 ;
701 [label="ELO_DIFF <= 5.6\ngini = 0.5\nsamples = 5\nvalue = [3, 4]"] ;
699 -> 701 ;
702 [label="ELO_DIFF <= 5.4\ngini = 0.3\nsamples = 4\nvalue = [1, 4]"] ;
701 -> 702 ;
703 [label="gini = 0.4\nsamples = 2\nvalue = [1, 2]"] ;
702 -> 703 ;
704 [label="gini = 0.0\nsamples = 2\nvalue = [0, 2]"] ;
702 -> 704 ;
705 [label="gini = 0.0\nsamples = 1\nvalue = [2, 0]"] ;
701 -> 705 ;
706 [label="ELO_DIFF <= 4.9\ngini = 0.5\nsamples = 50\nvalue = [27, 46]"] ;
658 -> 706 ;
707 [label="ELO_DIFF <= 4.7\ngini = 0.5\nsamples = 26\nvalue = [19, 21]"] ;
706 -> 707 ;
708 [label="RECENT_PERF_DIFF <= 4.4\ngini = 0.5\nsamples = 11\nvalue = [7, 12]"] ;
707 -> 708 ;
709 [label="gini = 0.5\nsamples = 6\nvalue = [4, 5]"] ;
708 -> 709 ;
710 [label="gini = 0.4\nsamples = 5\nvalue = [3, 7]"] ;
708 -> 710 ;
711 [label="HOME_AWAY_GOAL_DIFF <= 4.4\ngini = 0.5\nsamples = 15\nvalue = [12, 9]"] ;
707 -> 711 ;
712 [label="ELO_DIFF <= 4.8\ngini = 0.5\nsamples = 8\nvalue = [4, 7]"] ;
711 -> 712 ;
713 [label="gini = 0.4\nsamples = 6\nvalue = [3, 6]"] ;
712 -> 713 ;
714 [label="gini = 0.5\nsamples = 2\nvalue = [1, 1]"] ;
712 -> 714 ;
715 [label="ELO_DIFF <= 4.8\ngini = 0.3\nsamples = 7\nvalue = [8, 2]"] ;
711 -> 715 ;
716 [label="gini = 0.0\nsamples = 3\nvalue = [4, 0]"] ;
715 -> 716 ;
717 [label="gini = 0.4\nsamples = 4\nvalue = [4, 2]"] ;
715 -> 717 ;
718 [label="HOME_AWAY_GOAL_DIFF <= 4.4\ngini = 0.4\nsamples = 24\nvalue = [8, 25]"] ;
706 -> 718 ;
719 [label="ELO_DIFF <= 5.9\ngini = 0.4\nsamples = 9\nvalue = [4, 8]"] ;
718 -> 719 ;
720 [label="ELO_DIFF <= 5.6\ngini = 0.4\nsamples = 8\nvalue = [3, 8]"] ;
719 -> 720 ;
721 [label="ELO_DIFF <= 5.4\ngini = 0.5\nsamples = 6\nvalue = [3, 5]"] ;
720 -> 721 ;
722 [label="ELO_DIFF <= 5.1\ngini = 0.3\nsamples = 4\nvalue = [1, 5]"] ;
721 -> 722 ;
723 [label="gini = 0.0\nsamples = 1\nvalue = [0, 1]"] ;
722 -> 723 ;
724 [label="ELO_DIFF <= 5.2\ngini = 0.3\nsamples = 3\nvalue = [1, 4]"] ;
722 -> 724 ;
725 [label="gini = 0.4\nsamples = 2\nvalue = [1, 3]"] ;
724 -> 725 ;
726 [label="gini = 0.0\nsamples = 1\nvalue = [0, 1]"] ;
724 -> 726 ;
727 [label="gini = 0.0\nsamples = 2\nvalue = [2, 0]"] ;
721 -> 727 ;
728 [label="gini = 0.0\nsamples = 2\nvalue = [0, 3]"] ;
720 -> 728 ;
729 [label="gini = 0.0\nsamples = 1\nvalue = [1, 0]"] ;
719 -> 729 ;
730 [label="ELO_DIFF <= 5.8\ngini = 0.3\nsamples = 15\nvalue = [4, 17]"] ;
718 -> 730 ;
731 [label="ELO_DIFF <= 5.0\ngini = 0.3\nsamples = 14\nvalue = [3, 17]"] ;
730 -> 731 ;
732 [label="gini = 0.4\nsamples = 5\nvalue = [2, 5]"] ;
731 -> 732 ;
733 [label="ELO_DIFF <= 5.4\ngini = 0.1\nsamples = 9\nvalue = [1, 12]"] ;
731 -> 733 ;
734 [label="gini = 0.0\nsamples = 4\nvalue = [0, 6]"] ;
733 -> 734 ;
735 [label="ELO_DIFF <= 5.6\ngini = 0.2\nsamples = 5\nvalue = [1, 6]"] ;
733 -> 735 ;
736 [label="gini = 0.3\nsamples = 4\nvalue = [1, 5]"] ;
735 -> 736 ;
737 [label="gini = 0.0\nsamples = 1\nvalue = [0, 1]"] ;
735 -> 737 ;
738 [label="gini = 0.0\nsamples = 1\nvalue = [1, 0]"] ;
730 -> 738 ;
739 [label="gini = 0.0\nsamples = 4\nvalue = [0, 5]"] ;
657 -> 739 ;
740 [label="RECENT_PERF_DIFF <= 6.6\ngini = 0.5\nsamples = 622\nvalue = [482, 522]"] ;
0 -> 740 [labeldistance=2.5, labelangle=-45, headlabel="False"] ;
741 [label="HOME_AWAY_GOAL_DIFF <= 6.1\ngini = 0.5\nsamples = 610\nvalue = [476, 508]"] ;
740 -> 741 ;
742 [label="HOME_AWAY_GOAL_DIFF <= 5.8\ngini = 0.5\nsamples = 585\nvalue = [453, 495]"] ;
741 -> 742 ;
743 [label="RECENT_PERF_DIFF <= 5.1\ngini = 0.5\nsamples = 564\nvalue = [440, 469]"] ;
742 -> 743 ;
744 [label="HOME_AWAY_GOAL_DIFF <= 4.8\ngini = 0.5\nsamples = 386\nvalue = [303, 337]"] ;
743 -> 744 ;
745 [label="RECENT_PERF_DIFF <= 4.7\ngini = 0.5\nsamples = 283\nvalue = [224, 231]"] ;
744 -> 745 ;
746 [label="RECENT_PERF_DIFF <= 4.6\ngini = 0.5\nsamples = 223\nvalue = [172, 190]"] ;
745 -> 746 ;
747 [label="ELO_DIFF <= 3.8\ngini = 0.5\nsamples = 133\nvalue = [106, 113]"] ;
746 -> 747 ;
748 [label="ELO_DIFF <= 1.7\ngini = 0.5\nsamples = 54\nvalue = [55, 34]"] ;
747 -> 748 ;
749 [label="gini = 0.0\nsamples = 1\nvalue = [0, 1]"] ;
748 -> 749 ;
750 [label="ELO_DIFF <= 2.6\ngini = 0.5\nsamples = 53\nvalue = [55, 33]"] ;
748 -> 750 ;
751 [label="ELO_DIFF <= 2.4\ngini = 0.4\nsamples = 9\nvalue = [12, 4]"] ;
750 -> 751 ;
752 [label="ELO_DIFF <= 2.0\ngini = 0.5\nsamples = 6\nvalue = [6, 4]"] ;
751 -> 752 ;
753 [label="gini = 0.0\nsamples = 1\nvalue = [2, 0]"] ;
752 -> 753 ;
754 [label="ELO_DIFF <= 2.1\ngini = 0.5\nsamples = 5\nvalue = [4, 4]"] ;
752 -> 754 ;
755 [label="gini = 0.0\nsamples = 1\nvalue = [0, 2]"] ;
754 -> 755 ;
756 [label="ELO_DIFF <= 2.3\ngini = 0.4\nsamples = 4\nvalue = [4, 2]"] ;
754 -> 756 ;
757 [label="gini = 0.0\nsamples = 1\nvalue = [1, 0]"] ;
756 -> 757 ;
758 [label="gini = 0.5\nsamples = 3\nvalue = [3, 2]"] ;
756 -> 758 ;
759 [label="gini = 0.0\nsamples = 3\nvalue = [6, 0]"] ;
751 -> 759 ;
760 [label="ELO_DIFF <= 3.1\ngini = 0.5\nsamples = 44\nvalue = [43, 29]"] ;
750 -> 760 ;
761 [label="ELO_DIFF <= 2.9\ngini = 0.5\nsamples = 16\nvalue = [14, 15]"] ;
760 -> 761 ;
762 [label="ELO_DIFF <= 2.8\ngini = 0.5\nsamples = 8\nvalue = [9, 6]"] ;
761 -> 762 ;
763 [label="gini = 0.5\nsamples = 4\nvalue = [4, 5]"] ;
762 -> 763 ;
764 [label="gini = 0.3\nsamples = 4\nvalue = [5, 1]"] ;
762 -> 764 ;
765 [label="ELO_DIFF <= 3.0\ngini = 0.5\nsamples = 8\nvalue = [5, 9]"] ;
761 -> 765 ;
766 [label="gini = 0.5\nsamples = 6\nvalue = [4, 7]"] ;
765 -> 766 ;
767 [label="gini = 0.4\nsamples = 2\nvalue = [1, 2]"] ;
765 -> 767 ;
768 [label="ELO_DIFF <= 3.5\ngini = 0.4\nsamples = 28\nvalue = [29, 14]"] ;
760 -> 768 ;
769 [label="ELO_DIFF <= 3.2\ngini = 0.3\nsamples = 10\nvalue = [13, 3]"] ;
768 -> 769 ;
770 [label="gini = 0.0\nsamples = 1\nvalue = [1, 0]"] ;
769 -> 770 ;
771 [label="ELO_DIFF <= 3.3\ngini = 0.3\nsamples = 9\nvalue = [12, 3]"] ;
769 -> 771 ;
772 [label="gini = 0.4\nsamples = 5\nvalue = [6, 2]"] ;
771 -> 772 ;
773 [label="ELO_DIFF <= 3.4\ngini = 0.2\nsamples = 4\nvalue = [6, 1]"] ;
771 -> 773 ;
774 [label="gini = 0.3\nsamples = 3\nvalue = [5, 1]"] ;
773 -> 774 ;
775 [label="gini = 0.0\nsamples = 1\nvalue = [1, 0]"] ;
773 -> 775 ;
776 [label="ELO_DIFF <= 3.7\ngini = 0.5\nsamples = 18\nvalue = [16, 11]"] ;
768 -> 776 ;
777 [label="gini = 0.5\nsamples = 7\nvalue = [4, 6]"] ;
776 -> 777 ;
778 [label="gini = 0.4\nsamples = 11\nvalue = [12, 5]"] ;
776 -> 778 ;
779 [label="ELO_DIFF <= 5.4\ngini = 0.5\nsamples = 79\nvalue = [51, 79]"] ;
747 -> 779 ;
780 [label="ELO_DIFF <= 4.7\ngini = 0.5\nsamples = 68\nvalue = [48, 62]"] ;
779 -> 780 ;
781 [label="ELO_DIFF <= 4.5\ngini = 0.5\nsamples = 52\nvalue = [33, 48]"] ;
780 -> 781 ;
782 [label="ELO_DIFF <= 4.0\ngini = 0.5\nsamples = 33\nvalue = [22, 27]"] ;
781 -> 782 ;
783 [label="ELO_DIFF <= 3.9\ngini = 0.5\nsamples = 7\nvalue = [5, 9]"] ;
782 -> 783 ;
784 [label="gini = 0.4\nsamples = 2\nvalue = [1, 2]"] ;
783 -> 784 ;
785 [label="gini = 0.5\nsamples = 5\nvalue = [4, 7]"] ;
783 -> 785 ;
786 [label="ELO_DIFF <= 4.2\ngini = 0.5\nsamples = 26\nvalue = [17, 18]"] ;
782 -> 786 ;
787 [label="ELO_DIFF <= 4.1\ngini = 0.5\nsamples = 9\nvalue = [7, 6]"] ;
786 -> 787 ;
788 [label="gini = 0.5\nsamples = 5\nvalue = [3, 3]"] ;
787 -> 788 ;
789 [label="gini = 0.5\nsamples = 4\nvalue = [4, 3]"] ;
787 -> 789 ;
790 [label="ELO_DIFF <= 4.3\ngini = 0.5\nsamples = 17\nvalue = [10, 12]"] ;
786 -> 790 ;
791 [label="gini = 0.5\nsamples = 7\nvalue = [5, 7]"] ;
790 -> 791 ;
792 [label="gini = 0.5\nsamples = 10\nvalue = [5, 5]"] ;
790 -> 792 ;
793 [label="ELO_DIFF <= 4.6\ngini = 0.5\nsamples = 19\nvalue = [11, 21]"] ;
781 -> 793 ;
794 [label="gini = 0.4\nsamples = 8\nvalue = [4, 9]"] ;
793 -> 794 ;
795 [label="gini = 0.5\nsamples = 11\nvalue = [7, 12]"] ;
793 -> 795 ;
796 [label="ELO_DIFF <= 4.8\ngini = 0.5\nsamples = 16\nvalue = [15, 14]"] ;
780 -> 796 ;
797 [label="gini = 0.4\nsamples = 5\nvalue = [9, 4]"] ;
796 -> 797 ;
798 [label="ELO_DIFF <= 5.2\ngini = 0.5\nsamples = 11\nvalue = [6, 10]"] ;
796 -> 798 ;
799 [label="ELO_DIFF <= 5.0\ngini = 0.5\nsamples = 9\nvalue = [5, 9]"] ;
798 -> 799 ;
800 [label="gini = 0.5\nsamples = 4\nvalue = [3, 4]"] ;
799 -> 800 ;
801 [label="ELO_DIFF <= 5.1\ngini = 0.4\nsamples = 5\nvalue = [2, 5]"] ;
799 -> 801 ;
802 [label="gini = 0.0\nsamples = 1\nvalue = [0, 2]"] ;
801 -> 802 ;
803 [label="gini = 0.5\nsamples = 4\nvalue = [2, 3]"] ;
801 -> 803 ;
804 [label="gini = 0.5\nsamples = 2\nvalue = [1, 1]"] ;
798 -> 804 ;
805 [label="ELO_DIFF <= 5.5\ngini = 0.3\nsamples = 11\nvalue = [3, 17]"] ;
779 -> 805 ;
806 [label="gini = 0.0\nsamples = 1\nvalue = [0, 3]"] ;
805 -> 806 ;
807 [label="ELO_DIFF <= 5.7\ngini = 0.3\nsamples = 10\nvalue = [3, 14]"] ;
805 -> 807 ;
808 [label="ELO_DIFF <= 5.6\ngini = 0.4\nsamples = 5\nvalue = [2, 5]"] ;
807 -> 808 ;
809 [label="gini = 0.4\nsamples = 2\nvalue = [1, 2]"] ;
808 -> 809 ;
810 [label="gini = 0.4\nsamples = 3\nvalue = [1, 3]"] ;
808 -> 810 ;
811 [label="ELO_DIFF <= 5.9\ngini = 0.2\nsamples = 5\nvalue = [1, 9]"] ;
807 -> 811 ;
812 [label="gini = 0.2\nsamples = 4\nvalue = [1, 7]"] ;
811 -> 812 ;
813 [label="gini = 0.0\nsamples = 1\nvalue = [0, 2]"] ;
811 -> 813 ;
814 [label="ELO_DIFF <= 5.4\ngini = 0.5\nsamples = 90\nvalue = [66, 77]"] ;
746 -> 814 ;
815 [label="ELO_DIFF <= 3.3\ngini = 0.5\nsamples = 82\nvalue = [65, 67]"] ;
814 -> 815 ;
816 [label="ELO_DIFF <= 3.1\ngini = 0.4\nsamples = 13\nvalue = [7, 19]"] ;
815 -> 816 ;
817 [label="ELO_DIFF <= 2.1\ngini = 0.5\nsamples = 9\nvalue = [7, 10]"] ;
816 -> 817 ;
818 [label="gini = 0.0\nsamples = 3\nvalue = [0, 6]"] ;
817 -> 818 ;
819 [label="ELO_DIFF <= 2.9\ngini = 0.5\nsamples = 6\nvalue = [7, 4]"] ;
817 -> 819 ;
820 [label="ELO_DIFF <= 2.6\ngini = 0.4\nsamples = 4\nvalue = [6, 2]"] ;
819 -> 820 ;
821 [label="ELO_DIFF <= 2.4\ngini = 0.5\nsamples = 3\nvalue = [3, 2]"] ;
820 -> 821 ;
822 [label="gini = 0.0\nsamples = 1\nvalue = [2, 0]"] ;
821 -> 822 ;
823 [label="gini = 0.4\nsamples = 2\nvalue = [1, 2]"] ;
821 -> 823 ;
824 [label="gini = 0.0\nsamples = 1\nvalue = [3, 0]"] ;
820 -> 824 ;
825 [label="ELO_DIFF <= 3.0\ngini = 0.4\nsamples = 2\nvalue = [1, 2]"] ;
819 -> 825 ;
826 [label="gini = 0.0\nsamples = 1\nvalue = [0, 2]"] ;
825 -> 826 ;
827 [label="gini = 0.0\nsamples = 1\nvalue = [1, 0]"] ;
825 -> 827 ;
828 [label="gini = 0.0\nsamples = 4\nvalue = [0, 9]"] ;
816 -> 828 ;
829 [label="ELO_DIFF <= 3.4\ngini = 0.5\nsamples = 69\nvalue = [58, 48]"] ;
815 -> 829 ;
830 [label="gini = 0.0\nsamples = 3\nvalue = [6, 0]"] ;
829 -> 830 ;
831 [label="ELO_DIFF <= 3.5\ngini = 0.5\nsamples = 66\nvalue = [52, 48]"] ;
829 -> 831 ;
832 [label="gini = 0.0\nsamples = 4\nvalue = [0, 6]"] ;
831 -> 832 ;
833 [label="ELO_DIFF <= 3.8\ngini = 0.5\nsamples = 62\nvalue = [52, 42]"] ;
831 -> 833 ;
834 [label="ELO_DIFF <= 3.7\ngini = 0.3\nsamples = 7\nvalue = [8, 2]"] ;
833 -> 834 ;
835 [label="gini = 0.3\nsamples = 3\nvalue = [4, 1]"] ;
834 -> 835 ;
836 [label="gini = 0.3\nsamples = 4\nvalue = [4, 1]"] ;
834 -> 836 ;
837 [label="ELO_DIFF <= 5.1\ngini = 0.5\nsamples = 55\nvalue = [44, 40]"] ;
833 -> 837 ;
838 [label="ELO_DIFF <= 4.9\ngini = 0.5\nsamples = 54\nvalue = [41, 40]"] ;
837 -> 838 ;
839 [label="ELO_DIFF <= 4.1\ngini = 0.5\nsamples = 52\nvalue = [41, 38]"] ;
838 -> 839 ;
840 [label="ELO_DIFF <= 4.0\ngini = 0.5\nsamples = 19\nvalue = [11, 15]"] ;
839 -> 840 ;
841 [label="ELO_DIFF <= 3.9\ngini = 0.5\nsamples = 10\nvalue = [7, 7]"] ;
840 -> 841 ;
842 [label="gini = 0.4\nsamples = 4\nvalue = [2, 4]"] ;
841 -> 842 ;
843 [label="gini = 0.5\nsamples = 6\nvalue = [5, 3]"] ;
841 -> 843 ;
844 [label="gini = 0.4\nsamples = 9\nvalue = [4, 8]"] ;
840 -> 844 ;
845 [label="ELO_DIFF <= 4.6\ngini = 0.5\nsamples = 33\nvalue = [30, 23]"] ;
839 -> 845 ;
846 [label="ELO_DIFF <= 4.5\ngini = 0.5\nsamples = 22\nvalue = [23, 13]"] ;
845 -> 846 ;
847 [label="ELO_DIFF <= 4.2\ngini = 0.5\nsamples = 14\nvalue = [13, 9]"] ;
846 -> 847 ;
848 [label="gini = 0.5\nsamples = 9\nvalue = [9, 5]"] ;
847 -> 848 ;
849 [label="ELO_DIFF <= 4.3\ngini = 0.5\nsamples = 5\nvalue = [4, 4]"] ;
847 -> 849 ;
850 [label="gini = 0.0\nsamples = 1\nvalue = [0, 1]"] ;
849 -> 850 ;
851 [label="gini = 0.5\nsamples = 4\nvalue = [4, 3]"] ;
849 -> 851 ;
852 [label="gini = 0.4\nsamples = 8\nvalue = [10, 4]"] ;
846 -> 852 ;
853 [label="ELO_DIFF <= 4.7\ngini = 0.5\nsamples = 11\nvalue = [7, 10]"] ;
845 -> 853 ;
854 [label="gini = 0.5\nsamples = 6\nvalue = [4, 7]"] ;
853 -> 854 ;
855 [label="ELO_DIFF <= 4.8\ngini = 0.5\nsamples = 5\nvalue = [3, 3]"] ;
853 -> 855 ;
856 [label="gini = 0.5\nsamples = 3\nvalue = [2, 2]"] ;
855 -> 856 ;
857 [label="gini = 0.5\nsamples = 2\nvalue = [1, 1]"] ;
855 -> 857 ;
858 [label="gini = 0.0\nsamples = 2\nvalue = [0, 2]"] ;
838 -> 858 ;
859 [label="gini = 0.0\nsamples = 1\nvalue = [3, 0]"] ;
837 -> 859 ;
860 [label="ELO_DIFF <= 5.9\ngini = 0.2\nsamples = 8\nvalue = [1, 10]"] ;
814 -> 860 ;
861 [label="gini = 0.0\nsamples = 3\nvalue = [0, 5]"] ;
860 -> 861 ;
862 [label="ELO_DIFF <= 6.0\ngini = 0.3\nsamples = 5\nvalue = [1, 5]"] ;
860 -> 862 ;
863 [label="gini = 0.0\nsamples = 1\nvalue = [1, 0]"] ;
862 -> 863 ;
864 [label="gini = 0.0\nsamples = 4\nvalue = [0, 5]"] ;
862 -> 864 ;
865 [label="ELO_DIFF <= 3.5\ngini = 0.5\nsamples = 60\nvalue = [52, 41]"] ;
745 -> 865 ;
866 [label="ELO_DIFF <= 2.7\ngini = 0.4\nsamples = 16\nvalue = [17, 6]"] ;
865 -> 866 ;
867 [label="ELO_DIFF <= 2.3\ngini = 0.4\nsamples = 2\nvalue = [1, 2]"] ;
866 -> 867 ;
868 [label="gini = 0.0\nsamples = 1\nvalue = [1, 0]"] ;
867 -> 868 ;
869 [label="gini = 0.0\nsamples = 1\nvalue = [0, 2]"] ;
867 -> 869 ;
870 [label="ELO_DIFF <= 3.1\ngini = 0.3\nsamples = 14\nvalue = [16, 4]"] ;
866 -> 870 ;
871 [label="gini = 0.0\nsamples = 3\nvalue = [5, 0]"] ;
870 -> 871 ;
872 [label="ELO_DIFF <= 3.4\ngini = 0.4\nsamples = 11\nvalue = [11, 4]"] ;
870 -> 872 ;
873 [label="ELO_DIFF <= 3.2\ngini = 0.4\nsamples = 9\nvalue = [9, 4]"] ;
872 -> 873 ;
874 [label="gini = 0.4\nsamples = 2\nvalue = [2, 1]"] ;
873 -> 874 ;
875 [label="ELO_DIFF <= 3.3\ngini = 0.4\nsamples = 7\nvalue = [7, 3]"] ;
873 -> 875 ;
876 [label="gini = 0.4\nsamples = 5\nvalue = [5, 2]"] ;
875 -> 876 ;
877 [label="gini = 0.4\nsamples = 2\nvalue = [2, 1]"] ;
875 -> 877 ;
878 [label="gini = 0.0\nsamples = 2\nvalue = [2, 0]"] ;
872 -> 878 ;
879 [label="ELO_DIFF <= 3.9\ngini = 0.5\nsamples = 44\nvalue = [35, 35]"] ;
865 -> 879 ;
880 [label="ELO_DIFF <= 3.8\ngini = 0.5\nsamples = 14\nvalue = [9, 14]"] ;
879 -> 880 ;
881 [label="ELO_DIFF <= 3.7\ngini = 0.5\nsamples = 7\nvalue = [7, 5]"] ;
880 -> 881 ;
882 [label="gini = 0.5\nsamples = 2\nvalue = [1, 1]"] ;
881 -> 882 ;
883 [label="gini = 0.5\nsamples = 5\nvalue = [6, 4]"] ;
881 -> 883 ;
884 [label="gini = 0.3\nsamples = 7\nvalue = [2, 9]"] ;
880 -> 884 ;
885 [label="ELO_DIFF <= 4.3\ngini = 0.5\nsamples = 30\nvalue = [26, 21]"] ;
879 -> 885 ;
886 [label="ELO_DIFF <= 4.2\ngini = 0.4\nsamples = 13\nvalue = [17, 8]"] ;
885 -> 886 ;
887 [label="ELO_DIFF <= 4.0\ngini = 0.5\nsamples = 8\nvalue = [9, 6]"] ;
886 -> 887 ;
888 [label="gini = 0.4\nsamples = 3\nvalue = [3, 1]"] ;
887 -> 888 ;
889 [label="ELO_DIFF <= 4.1\ngini = 0.5\nsamples = 5\nvalue = [6, 5]"] ;
887 -> 889 ;
890 [label="gini = 0.5\nsamples = 2\nvalue = [3, 2]"] ;
889 -> 890 ;
891 [label="gini = 0.5\nsamples = 3\nvalue = [3, 3]"] ;
889 -> 891 ;
892 [label="gini = 0.3\nsamples = 5\nvalue = [8, 2]"] ;
886 -> 892 ;
893 [label="ELO_DIFF <= 4.8\ngini = 0.5\nsamples = 17\nvalue = [9, 13]"] ;
885 -> 893 ;
894 [label="ELO_DIFF <= 4.5\ngini = 0.3\nsamples = 8\nvalue = [2, 9]"] ;
893 -> 894 ;
895 [label="gini = 0.4\nsamples = 3\nvalue = [1, 2]"] ;
894 -> 895 ;
896 [label="ELO_DIFF <= 4.6\ngini = 0.2\nsamples = 5\nvalue = [1, 7]"] ;
894 -> 896 ;
897 [label="gini = 0.0\nsamples = 1\nvalue = [0, 1]"] ;
896 -> 897 ;
898 [label="ELO_DIFF <= 4.7\ngini = 0.2\nsamples = 4\nvalue = [1, 6]"] ;
896 -> 898 ;
899 [label="gini = 0.3\nsamples = 3\nvalue = [1, 5]"] ;
898 -> 899 ;
900 [label="gini = 0.0\nsamples = 1\nvalue = [0, 1]"] ;
898 -> 900 ;
901 [label="ELO_DIFF <= 5.2\ngini = 0.5\nsamples = 9\nvalue = [7, 4]"] ;
893 -> 901 ;
902 [label="ELO_DIFF <= 5.0\ngini = 0.2\nsamples = 6\nvalue = [6, 1]"] ;
901 -> 902 ;
903 [label="ELO_DIFF <= 4.9\ngini = 0.4\nsamples = 3\nvalue = [2, 1]"] ;
902 -> 903 ;
904 [label="gini = 0.0\nsamples = 1\nvalue = [1, 0]"] ;
903 -> 904 ;
905 [label="gini = 0.5\nsamples = 2\nvalue = [1, 1]"] ;
903 -> 905 ;
906 [label="gini = 0.0\nsamples = 3\nvalue = [4, 0]"] ;
902 -> 906 ;
907 [label="ELO_DIFF <= 5.5\ngini = 0.4\nsamples = 3\nvalue = [1, 3]"] ;
901 -> 907 ;
908 [label="gini = 0.0\nsamples = 2\nvalue = [0, 3]"] ;
907 -> 908 ;
909 [label="gini = 0.0\nsamples = 1\nvalue = [1, 0]"] ;
907 -> 909 ;
910 [label="ELO_DIFF <= 4.6\ngini = 0.5\nsamples = 103\nvalue = [79, 106]"] ;
744 -> 910 ;
911 [label="RECENT_PERF_DIFF <= 4.9\ngini = 0.5\nsamples = 71\nvalue = [65, 70]"] ;
910 -> 911 ;
912 [label="ELO_DIFF <= 4.2\ngini = 0.5\nsamples = 44\nvalue = [41, 40]"] ;
911 -> 912 ;
913 [label="ELO_DIFF <= 4.1\ngini = 0.5\nsamples = 37\nvalue = [28, 37]"] ;
912 -> 913 ;
914 [label="ELO_DIFF <= 3.8\ngini = 0.5\nsamples = 34\nvalue = [28, 28]"] ;
913 -> 914 ;
915 [label="ELO_DIFF <= 3.4\ngini = 0.5\nsamples = 23\nvalue = [14, 23]"] ;
914 -> 915 ;
916 [label="ELO_DIFF <= 2.4\ngini = 0.5\nsamples = 13\nvalue = [13, 10]"] ;
915 -> 916 ;
917 [label="gini = 0.0\nsamples = 1\nvalue = [0, 1]"] ;
916 -> 917 ;
918 [label="ELO_DIFF <= 3.0\ngini = 0.5\nsamples = 12\nvalue = [13, 9]"] ;
916 -> 918 ;
919 [label="ELO_DIFF <= 2.6\ngini = 0.3\nsamples = 5\nvalue = [5, 1]"] ;
918 -> 919 ;
920 [label="gini = 0.4\nsamples = 2\nvalue = [2, 1]"] ;
919 -> 920 ;
921 [label="gini = 0.0\nsamples = 3\nvalue = [3, 0]"] ;
919 -> 921 ;
922 [label="ELO_DIFF <= 3.3\ngini = 0.5\nsamples = 7\nvalue = [8, 8]"] ;
918 -> 922 ;
923 [label="ELO_DIFF <= 3.2\ngini = 0.5\nsamples = 5\nvalue = [6, 5]"] ;
922 -> 923 ;
924 [label="gini = 0.5\nsamples = 2\nvalue = [1, 1]"] ;
923 -> 924 ;
925 [label="gini = 0.5\nsamples = 3\nvalue = [5, 4]"] ;
923 -> 925 ;
926 [label="gini = 0.5\nsamples = 2\nvalue = [2, 3]"] ;
922 -> 926 ;
927 [label="ELO_DIFF <= 3.5\ngini = 0.1\nsamples = 10\nvalue = [1, 13]"] ;
915 -> 927 ;
928 [label="gini = 0.0\nsamples = 3\nvalue = [0, 4]"] ;
927 -> 928 ;
929 [label="ELO_DIFF <= 3.7\ngini = 0.2\nsamples = 7\nvalue = [1, 9]"] ;
927 -> 929 ;
930 [label="gini = 0.3\nsamples = 3\nvalue = [1, 5]"] ;
929 -> 930 ;
931 [label="gini = 0.0\nsamples = 4\nvalue = [0, 4]"] ;
929 -> 931 ;
932 [label="ELO_DIFF <= 3.9\ngini = 0.4\nsamples = 11\nvalue = [14, 5]"] ;
914 -> 932 ;
933 [label="gini = 0.0\nsamples = 4\nvalue = [9, 0]"] ;
932 -> 933 ;
934 [label="gini = 0.5\nsamples = 7\nvalue = [5, 5]"] ;
932 -> 934 ;
935 [label="gini = 0.0\nsamples = 3\nvalue = [0, 9]"] ;
913 -> 935 ;
936 [label="ELO_DIFF <= 4.5\ngini = 0.3\nsamples = 7\nvalue = [13, 3]"] ;
912 -> 936 ;
937 [label="ELO_DIFF <= 4.3\ngini = 0.4\nsamples = 5\nvalue = [8, 3]"] ;
936 -> 937 ;
938 [label="gini = 0.0\nsamples = 2\nvalue = [3, 0]"] ;
937 -> 938 ;
939 [label="gini = 0.5\nsamples = 3\nvalue = [5, 3]"] ;
937 -> 939 ;
940 [label="gini = 0.0\nsamples = 2\nvalue = [5, 0]"] ;
936 -> 940 ;
941 [label="ELO_DIFF <= 4.1\ngini = 0.5\nsamples = 27\nvalue = [24, 30]"] ;
911 -> 941 ;
942 [label="ELO_DIFF <= 3.1\ngini = 0.5\nsamples = 17\nvalue = [13, 24]"] ;
941 -> 942 ;
943 [label="gini = 0.0\nsamples = 1\nvalue = [0, 2]"] ;
942 -> 943 ;
944 [label="ELO_DIFF <= 3.8\ngini = 0.5\nsamples = 16\nvalue = [13, 22]"] ;
942 -> 944 ;
945 [label="ELO_DIFF <= 3.6\ngini = 0.5\nsamples = 7\nvalue = [7, 7]"] ;
944 -> 945 ;
946 [label="ELO_DIFF <= 3.3\ngini = 0.5\nsamples = 6\nvalue = [5, 7]"] ;
945 -> 946 ;
947 [label="gini = 0.5\nsamples = 4\nvalue = [3, 3]"] ;
946 -> 947 ;
948 [label="gini = 0.4\nsamples = 2\nvalue = [2, 4]"] ;
946 -> 948 ;
949 [label="gini = 0.0\nsamples = 1\nvalue = [2, 0]"] ;
945 -> 949 ;
950 [label="ELO_DIFF <= 3.9\ngini = 0.4\nsamples = 9\nvalue = [6, 15]"] ;
944 -> 950 ;
951 [label="gini = 0.0\nsamples = 2\nvalue = [0, 3]"] ;
950 -> 951 ;
952 [label="ELO_DIFF <= 4.0\ngini = 0.4\nsamples = 7\nvalue = [6, 12]"] ;
950 -> 952 ;
953 [label="gini = 0.4\nsamples = 3\nvalue = [3, 7]"] ;
952 -> 953 ;
954 [label="gini = 0.5\nsamples = 4\nvalue = [3, 5]"] ;
952 -> 954 ;
955 [label="ELO_DIFF <= 4.3\ngini = 0.5\nsamples = 10\nvalue = [11, 6]"] ;
941 -> 955 ;
956 [label="ELO_DIFF <= 4.2\ngini = 0.5\nsamples = 8\nvalue = [8, 6]"] ;
955 -> 956 ;
957 [label="gini = 0.5\nsamples = 4\nvalue = [5, 3]"] ;
956 -> 957 ;
958 [label="gini = 0.5\nsamples = 4\nvalue = [3, 3]"] ;
956 -> 958 ;
959 [label="gini = 0.0\nsamples = 2\nvalue = [3, 0]"] ;
955 -> 959 ;
960 [label="RECENT_PERF_DIFF <= 4.9\ngini = 0.4\nsamples = 32\nvalue = [14, 36]"] ;
910 -> 960 ;
961 [label="ELO_DIFF <= 5.1\ngini = 0.3\nsamples = 20\nvalue = [5, 24]"] ;
960 -> 961 ;
962 [label="ELO_DIFF <= 4.7\ngini = 0.1\nsamples = 9\nvalue = [1, 12]"] ;
961 -> 962 ;
963 [label="gini = 0.3\nsamples = 3\nvalue = [1, 4]"] ;
962 -> 963 ;
964 [label="gini = 0.0\nsamples = 6\nvalue = [0, 8]"] ;
962 -> 964 ;
965 [label="ELO_DIFF <= 5.7\ngini = 0.4\nsamples = 11\nvalue = [4, 12]"] ;
961 -> 965 ;
966 [label="ELO_DIFF <= 5.2\ngini = 0.4\nsamples = 9\nvalue = [4, 8]"] ;
965 -> 966 ;
967 [label="gini = 0.5\nsamples = 3\nvalue = [2, 2]"] ;
966 -> 967 ;
968 [label="ELO_DIFF <= 5.4\ngini = 0.4\nsamples = 6\nvalue = [2, 6]"] ;
966 -> 968 ;
969 [label="gini = 0.3\nsamples = 4\nvalue = [1, 5]"] ;
968 -> 969 ;
970 [label="gini = 0.5\nsamples = 2\nvalue = [1, 1]"] ;
968 -> 970 ;
971 [label="gini = 0.0\nsamples = 2\nvalue = [0, 4]"] ;
965 -> 971 ;
972 [label="ELO_DIFF <= 5.9\ngini = 0.5\nsamples = 12\nvalue = [9, 12]"] ;
960 -> 972 ;
973 [label="ELO_DIFF <= 5.3\ngini = 0.4\nsamples = 11\nvalue = [5, 12]"] ;
972 -> 973 ;
974 [label="ELO_DIFF <= 5.0\ngini = 0.5\nsamples = 9\nvalue = [5, 8]"] ;
973 -> 974 ;
975 [label="ELO_DIFF <= 4.9\ngini = 0.3\nsamples = 7\nvalue = [2, 7]"] ;
974 -> 975 ;
976 [label="ELO_DIFF <= 4.8\ngini = 0.5\nsamples = 4\nvalue = [2, 3]"] ;
975 -> 976 ;
977 [label="gini = 0.0\nsamples = 2\nvalue = [0, 2]"] ;
976 -> 977 ;
978 [label="gini = 0.4\nsamples = 2\nvalue = [2, 1]"] ;
976 -> 978 ;
979 [label="gini = 0.0\nsamples = 3\nvalue = [0, 4]"] ;
975 -> 979 ;
980 [label="gini = 0.4\nsamples = 2\nvalue = [3, 1]"] ;
974 -> 980 ;
981 [label="gini = 0.0\nsamples = 2\nvalue = [0, 4]"] ;
973 -> 981 ;
982 [label="gini = 0.0\nsamples = 1\nvalue = [4, 0]"] ;
972 -> 982 ;
983 [label="ELO_DIFF <= 4.6\ngini = 0.5\nsamples = 178\nvalue = [137, 132]"] ;
743 -> 983 ;
984 [label="RECENT_PERF_DIFF <= 5.3\ngini = 0.5\nsamples = 135\nvalue = [115, 88]"] ;
983 -> 984 ;
985 [label="HOME_AWAY_GOAL_DIFF <= 5.2\ngini = 0.5\nsamples = 54\nvalue = [49, 28]"] ;
984 -> 985 ;
986 [label="ELO_DIFF <= 3.3\ngini = 0.5\nsamples = 26\nvalue = [24, 13]"] ;
985 -> 986 ;
987 [label="ELO_DIFF <= 3.0\ngini = 0.5\nsamples = 5\nvalue = [4, 6]"] ;
986 -> 987 ;
988 [label="gini = 0.0\nsamples = 1\nvalue = [4, 0]"] ;
987 -> 988 ;
989 [label="gini = 0.0\nsamples = 4\nvalue = [0, 6]"] ;
987 -> 989 ;
990 [label="ELO_DIFF <= 3.9\ngini = 0.4\nsamples = 21\nvalue = [20, 7]"] ;
986 -> 990 ;
991 [label="ELO_DIFF <= 3.4\ngini = 0.2\nsamples = 10\nvalue = [10, 1]"] ;
990 -> 991 ;
992 [label="gini = 0.0\nsamples = 3\nvalue = [4, 0]"] ;
991 -> 992 ;
993 [label="ELO_DIFF <= 3.5\ngini = 0.2\nsamples = 7\nvalue = [6, 1]"] ;
991 -> 993 ;
994 [label="gini = 0.4\nsamples = 4\nvalue = [3, 1]"] ;
993 -> 994 ;
995 [label="gini = 0.0\nsamples = 3\nvalue = [3, 0]"] ;
993 -> 995 ;
996 [label="ELO_DIFF <= 4.2\ngini = 0.5\nsamples = 11\nvalue = [10, 6]"] ;
990 -> 996 ;
997 [label="ELO_DIFF <= 4.1\ngini = 0.5\nsamples = 7\nvalue = [6, 5]"] ;
996 -> 997 ;
998 [label="gini = 0.4\nsamples = 5\nvalue = [4, 2]"] ;
997 -> 998 ;
999 [label="gini = 0.5\nsamples = 2\nvalue = [2, 3]"] ;
997 -> 999 ;
1000 [label="ELO_DIFF <= 4.4\ngini = 0.3\nsamples = 4\nvalue = [4, 1]"] ;
996 -> 1000 ;
1001 [label="gini = 0.4\nsamples = 3\nvalue = [3, 1]"] ;
1000 -> 1001 ;
1002 [label="gini = 0.0\nsamples = 1\nvalue = [1, 0]"] ;
1000 -> 1002 ;
1003 [label="ELO_DIFF <= 4.3\ngini = 0.5\nsamples = 28\nvalue = [25, 15]"] ;
985 -> 1003 ;
1004 [label="ELO_DIFF <= 4.2\ngini = 0.5\nsamples = 27\nvalue = [25, 13]"] ;
1003 -> 1004 ;
1005 [label="ELO_DIFF <= 3.9\ngini = 0.5\nsamples = 25\nvalue = [22, 13]"] ;
1004 -> 1005 ;
1006 [label="ELO_DIFF <= 3.8\ngini = 0.5\nsamples = 12\nvalue = [10, 8]"] ;
1005 -> 1006 ;
1007 [label="ELO_DIFF <= 3.2\ngini = 0.4\nsamples = 7\nvalue = [8, 4]"] ;
1006 -> 1007 ;
1008 [label="gini = 0.0\nsamples = 1\nvalue = [1, 0]"] ;
1007 -> 1008 ;
1009 [label="ELO_DIFF <= 3.5\ngini = 0.5\nsamples = 6\nvalue = [7, 4]"] ;
1007 -> 1009 ;
1010 [label="gini = 0.5\nsamples = 2\nvalue = [2, 2]"] ;
1009 -> 1010 ;
1011 [label="ELO_DIFF <= 3.7\ngini = 0.4\nsamples = 4\nvalue = [5, 2]"] ;
1009 -> 1011 ;
1012 [label="gini = 0.4\nsamples = 2\nvalue = [2, 1]"] ;
1011 -> 1012 ;
1013 [label="gini = 0.4\nsamples = 2\nvalue = [3, 1]"] ;
1011 -> 1013 ;
1014 [label="gini = 0.4\nsamples = 5\nvalue = [2, 4]"] ;
1006 -> 1014 ;
1015 [label="ELO_DIFF <= 4.1\ngini = 0.4\nsamples = 13\nvalue = [12, 5]"] ;
1005 -> 1015 ;
1016 [label="ELO_DIFF <= 4.0\ngini = 0.4\nsamples = 9\nvalue = [9, 3]"] ;
1015 -> 1016 ;
1017 [label="gini = 0.4\nsamples = 3\nvalue = [2, 1]"] ;
1016 -> 1017 ;
1018 [label="gini = 0.3\nsamples = 6\nvalue = [7, 2]"] ;
1016 -> 1018 ;
1019 [label="gini = 0.5\nsamples = 4\nvalue = [3, 2]"] ;
1015 -> 1019 ;
1020 [label="gini = 0.0\nsamples = 2\nvalue = [3, 0]"] ;
1004 -> 1020 ;
1021 [label="gini = 0.0\nsamples = 1\nvalue = [0, 2]"] ;
1003 -> 1021 ;
1022 [label="RECENT_PERF_DIFF <= 5.4\ngini = 0.5\nsamples = 81\nvalue = [66, 60]"] ;
984 -> 1022 ;
1023 [label="ELO_DIFF <= 3.7\ngini = 0.5\nsamples = 26\nvalue = [18, 26]"] ;
1022 -> 1023 ;
1024 [label="ELO_DIFF <= 3.5\ngini = 0.5\nsamples = 8\nvalue = [8, 6]"] ;
1023 -> 1024 ;
1025 [label="ELO_DIFF <= 2.9\ngini = 0.4\nsamples = 6\nvalue = [3, 6]"] ;
1024 -> 1025 ;
1026 [label="gini = 0.0\nsamples = 1\nvalue = [0, 3]"] ;
1025 -> 1026 ;
1027 [label="ELO_DIFF <= 3.3\ngini = 0.5\nsamples = 5\nvalue = [3, 3]"] ;
1025 -> 1027 ;
1028 [label="ELO_DIFF <= 3.2\ngini = 0.4\nsamples = 3\nvalue = [3, 1]"] ;
1027 -> 1028 ;
1029 [label="ELO_DIFF <= 3.0\ngini = 0.5\nsamples = 2\nvalue = [1, 1]"] ;
1028 -> 1029 ;
1030 [label="gini = 0.0\nsamples = 1\nvalue = [1, 0]"] ;
1029 -> 1030 ;
1031 [label="gini = 0.0\nsamples = 1\nvalue = [0, 1]"] ;
1029 -> 1031 ;
1032 [label="gini = 0.0\nsamples = 1\nvalue = [2, 0]"] ;
1028 -> 1032 ;
1033 [label="gini = 0.0\nsamples = 2\nvalue = [0, 2]"] ;
1027 -> 1033 ;
1034 [label="gini = 0.0\nsamples = 2\nvalue = [5, 0]"] ;
1024 -> 1034 ;
1035 [label="ELO_DIFF <= 4.1\ngini = 0.4\nsamples = 18\nvalue = [10, 20]"] ;
1023 -> 1035 ;
1036 [label="ELO_DIFF <= 4.0\ngini = 0.2\nsamples = 9\nvalue = [2, 12]"] ;
1035 -> 1036 ;
1037 [label="gini = 0.0\nsamples = 4\nvalue = [0, 6]"] ;
1036 -> 1037 ;
1038 [label="gini = 0.4\nsamples = 5\nvalue = [2, 6]"] ;
1036 -> 1038 ;
1039 [label="ELO_DIFF <= 4.5\ngini = 0.5\nsamples = 9\nvalue = [8, 8]"] ;
1035 -> 1039 ;
1040 [label="ELO_DIFF <= 4.2\ngini = 0.5\nsamples = 8\nvalue = [7, 8]"] ;
1039 -> 1040 ;
1041 [label="gini = 0.4\nsamples = 2\nvalue = [2, 1]"] ;
1040 -> 1041 ;
1042 [label="ELO_DIFF <= 4.3\ngini = 0.5\nsamples = 6\nvalue = [5, 7]"] ;
1040 -> 1042 ;
1043 [label="gini = 0.4\nsamples = 2\nvalue = [1, 2]"] ;
1042 -> 1043 ;
1044 [label="gini = 0.5\nsamples = 4\nvalue = [4, 5]"] ;
1042 -> 1044 ;
1045 [label="gini = 0.0\nsamples = 1\nvalue = [1, 0]"] ;
1039 -> 1045 ;
1046 [label="ELO_DIFF <= 4.2\ngini = 0.5\nsamples = 55\nvalue = [48, 34]"] ;
1022 -> 1046 ;
1047 [label="ELO_DIFF <= 2.8\ngini = 0.5\nsamples = 38\nvalue = [35, 19]"] ;
1046 -> 1047 ;
1048 [label="gini = 0.0\nsamples = 1\nvalue = [3, 0]"] ;
1047 -> 1048 ;
1049 [label="ELO_DIFF <= 3.2\ngini = 0.5\nsamples = 37\nvalue = [32, 19]"] ;
1047 -> 1049 ;
1050 [label="gini = 0.0\nsamples = 2\nvalue = [0, 2]"] ;
1049 -> 1050 ;
1051 [label="HOME_AWAY_GOAL_DIFF <= 5.7\ngini = 0.5\nsamples = 35\nvalue = [32, 17]"] ;
1049 -> 1051 ;
1052 [label="RECENT_PERF_DIFF <= 5.6\ngini = 0.5\nsamples = 26\nvalue = [19, 15]"] ;
1051 -> 1052 ;
1053 [label="HOME_AWAY_GOAL_DIFF <= 5.5\ngini = 0.5\nsamples = 18\nvalue = [15, 10]"] ;
1052 -> 1053 ;
1054 [label="ELO_DIFF <= 4.0\ngini = 0.5\nsamples = 11\nvalue = [10, 6]"] ;
1053 -> 1054 ;
1055 [label="ELO_DIFF <= 3.7\ngini = 0.3\nsamples = 7\nvalue = [8, 2]"] ;
1054 -> 1055 ;
1056 [label="gini = 0.0\nsamples = 2\nvalue = [4, 0]"] ;
1055 -> 1056 ;
1057 [label="ELO_DIFF <= 3.9\ngini = 0.4\nsamples = 5\nvalue = [4, 2]"] ;
1055 -> 1057 ;
1058 [label="ELO_DIFF <= 3.8\ngini = 0.4\nsamples = 3\nvalue = [1, 2]"] ;
1057 -> 1058 ;
1059 [label="gini = 0.0\nsamples = 1\nvalue = [0, 1]"] ;
1058 -> 1059 ;
1060 [label="gini = 0.5\nsamples = 2\nvalue = [1, 1]"] ;
1058 -> 1060 ;
1061 [label="gini = 0.0\nsamples = 2\nvalue = [3, 0]"] ;
1057 -> 1061 ;
1062 [label="ELO_DIFF <= 4.1\ngini = 0.4\nsamples = 4\nvalue = [2, 4]"] ;
1054 -> 1062 ;
1063 [label="gini = 0.0\nsamples = 1\nvalue = [0, 2]"] ;
1062 -> 1063 ;
1064 [label="gini = 0.5\nsamples = 3\nvalue = [2, 2]"] ;
1062 -> 1064 ;
1065 [label="ELO_DIFF <= 3.4\ngini = 0.5\nsamples = 7\nvalue = [5, 4]"] ;
1053 -> 1065 ;
1066 [label="gini = 0.0\nsamples = 1\nvalue = [2, 0]"] ;
1065 -> 1066 ;
1067 [label="ELO_DIFF <= 3.8\ngini = 0.5\nsamples = 6\nvalue = [3, 4]"] ;
1065 -> 1067 ;
1068 [label="gini = 0.0\nsamples = 2\nvalue = [0, 3]"] ;
1067 -> 1068 ;
1069 [label="ELO_DIFF <= 4.1\ngini = 0.4\nsamples = 4\nvalue = [3, 1]"] ;
1067 -> 1069 ;
1070 [label="gini = 0.4\nsamples = 3\nvalue = [2, 1]"] ;
1069 -> 1070 ;
1071 [label="gini = 0.0\nsamples = 1\nvalue = [1, 0]"] ;
1069 -> 1071 ;
1072 [label="ELO_DIFF <= 3.7\ngini = 0.5\nsamples = 8\nvalue = [4, 5]"] ;
1052 -> 1072 ;
1073 [label="gini = 0.0\nsamples = 1\nvalue = [1, 0]"] ;
1072 -> 1073 ;
1074 [label="ELO_DIFF <= 4.0\ngini = 0.5\nsamples = 7\nvalue = [3, 5]"] ;
1072 -> 1074 ;
1075 [label="gini = 0.0\nsamples = 3\nvalue = [0, 3]"] ;
1074 -> 1075 ;
1076 [label="ELO_DIFF <= 4.1\ngini = 0.5\nsamples = 4\nvalue = [3, 2]"] ;
1074 -> 1076 ;
1077 [label="gini = 0.4\nsamples = 3\nvalue = [3, 1]"] ;
1076 -> 1077 ;
1078 [label="gini = 0.0\nsamples = 1\nvalue = [0, 1]"] ;
1076 -> 1078 ;
1079 [label="ELO_DIFF <= 3.9\ngini = 0.2\nsamples = 9\nvalue = [13, 2]"] ;
1051 -> 1079 ;
1080 [label="gini = 0.0\nsamples = 2\nvalue = [3, 0]"] ;
1079 -> 1080 ;
1081 [label="ELO_DIFF <= 4.0\ngini = 0.3\nsamples = 7\nvalue = [10, 2]"] ;
1079 -> 1081 ;
1082 [label="gini = 0.3\nsamples = 3\nvalue = [4, 1]"] ;
1081 -> 1082 ;
1083 [label="ELO_DIFF <= 4.1\ngini = 0.2\nsamples = 4\nvalue = [6, 1]"] ;
1081 -> 1083 ;
1084 [label="gini = 0.0\nsamples = 1\nvalue = [2, 0]"] ;
1083 -> 1084 ;
1085 [label="gini = 0.3\nsamples = 3\nvalue = [4, 1]"] ;
1083 -> 1085 ;
1086 [label="ELO_DIFF <= 4.3\ngini = 0.5\nsamples = 17\nvalue = [13, 15]"] ;
1046 -> 1086 ;
1087 [label="HOME_AWAY_GOAL_DIFF <= 5.5\ngini = 0.2\nsamples = 5\nvalue = [1, 6]"] ;
1086 -> 1087 ;
1088 [label="gini = 0.4\nsamples = 2\nvalue = [1, 2]"] ;
1087 -> 1088 ;
1089 [label="gini = 0.0\nsamples = 3\nvalue = [0, 4]"] ;
1087 -> 1089 ;
1090 [label="ELO_DIFF <= 4.5\ngini = 0.5\nsamples = 12\nvalue = [12, 9]"] ;
1086 -> 1090 ;
1091 [label="RECENT_PERF_DIFF <= 5.5\ngini = 0.5\nsamples = 6\nvalue = [5, 4]"] ;
1090 -> 1091 ;
1092 [label="gini = 0.3\nsamples = 3\nvalue = [5, 1]"] ;
1091 -> 1092 ;
1093 [label="gini = 0.0\nsamples = 3\nvalue = [0, 3]"] ;
1091 -> 1093 ;
1094 [label="HOME_AWAY_GOAL_DIFF <= 5.6\ngini = 0.5\nsamples = 6\nvalue = [7, 5]"] ;
1090 -> 1094 ;
1095 [label="RECENT_PERF_DIFF <= 5.5\ngini = 0.5\nsamples = 5\nvalue = [7, 4]"] ;
1094 -> 1095 ;
1096 [label="gini = 0.5\nsamples = 3\nvalue = [3, 2]"] ;
1095 -> 1096 ;
1097 [label="gini = 0.4\nsamples = 2\nvalue = [4, 2]"] ;
1095 -> 1097 ;
1098 [label="gini = 0.0\nsamples = 1\nvalue = [0, 1]"] ;
1094 -> 1098 ;
1099 [label="ELO_DIFF <= 6.1\ngini = 0.4\nsamples = 43\nvalue = [22, 44]"] ;
983 -> 1099 ;
1100 [label="HOME_AWAY_GOAL_DIFF <= 5.7\ngini = 0.4\nsamples = 42\nvalue = [20, 44]"] ;
1099 -> 1100 ;
1101 [label="HOME_AWAY_GOAL_DIFF <= 5.5\ngini = 0.4\nsamples = 39\nvalue = [20, 39]"] ;
1100 -> 1101 ;
1102 [label="ELO_DIFF <= 5.0\ngini = 0.4\nsamples = 26\nvalue = [10, 26]"] ;
1101 -> 1102 ;
1103 [label="ELO_DIFF <= 4.7\ngini = 0.3\nsamples = 12\nvalue = [3, 15]"] ;
1102 -> 1103 ;
1104 [label="RECENT_PERF_DIFF <= 5.4\ngini = 0.3\nsamples = 5\nvalue = [2, 7]"] ;
1103 -> 1104 ;
1105 [label="HOME_AWAY_GOAL_DIFF <= 5.2\ngini = 0.4\nsamples = 3\nvalue = [2, 1]"] ;
1104 -> 1105 ;
1106 [label="gini = 0.0\nsamples = 1\nvalue = [1, 0]"] ;
1105 -> 1106 ;
1107 [label="RECENT_PERF_DIFF <= 5.3\ngini = 0.5\nsamples = 2\nvalue = [1, 1]"] ;
1105 -> 1107 ;
1108 [label="gini = 0.0\nsamples = 1\nvalue = [0, 1]"] ;
1107 -> 1108 ;
1109 [label="gini = 0.0\nsamples = 1\nvalue = [1, 0]"] ;
1107 -> 1109 ;
1110 [label="gini = 0.0\nsamples = 2\nvalue = [0, 6]"] ;
1104 -> 1110 ;
1111 [label="RECENT_PERF_DIFF <= 5.2\ngini = 0.2\nsamples = 7\nvalue = [1, 8]"] ;
1103 -> 1111 ;
1112 [label="ELO_DIFF <= 4.9\ngini = 0.3\nsamples = 4\nvalue = [1, 5]"] ;
1111 -> 1112 ;
1113 [label="gini = 0.0\nsamples = 2\nvalue = [0, 3]"] ;
1112 -> 1113 ;
1114 [label="gini = 0.4\nsamples = 2\nvalue = [1, 2]"] ;
1112 -> 1114 ;
1115 [label="gini = 0.0\nsamples = 3\nvalue = [0, 3]"] ;
1111 -> 1115 ;
1116 [label="HOME_AWAY_GOAL_DIFF <= 5.3\ngini = 0.5\nsamples = 14\nvalue = [7, 11]"] ;
1102 -> 1116 ;
1117 [label="ELO_DIFF <= 5.2\ngini = 0.5\nsamples = 12\nvalue = [7, 9]"] ;
1116 -> 1117 ;
1118 [label="HOME_AWAY_GOAL_DIFF <= 5.2\ngini = 0.4\nsamples = 4\nvalue = [3, 1]"] ;
1117 -> 1118 ;
1119 [label="gini = 0.5\nsamples = 2\nvalue = [1, 1]"] ;
1118 -> 1119 ;
1120 [label="gini = 0.0\nsamples = 2\nvalue = [2, 0]"] ;
1118 -> 1120 ;
1121 [label="HOME_AWAY_GOAL_DIFF <= 5.2\ngini = 0.4\nsamples = 8\nvalue = [4, 8]"] ;
1117 -> 1121 ;
1122 [label="ELO_DIFF <= 5.8\ngini = 0.4\nsamples = 4\nvalue = [2, 5]"] ;
1121 -> 1122 ;
1123 [label="gini = 0.5\nsamples = 2\nvalue = [2, 2]"] ;
1122 -> 1123 ;
1124 [label="gini = 0.0\nsamples = 2\nvalue = [0, 3]"] ;
1122 -> 1124 ;
1125 [label="ELO_DIFF <= 5.7\ngini = 0.5\nsamples = 4\nvalue = [2, 3]"] ;
1121 -> 1125 ;
1126 [label="ELO_DIFF <= 5.4\ngini = 0.4\nsamples = 3\nvalue = [1, 3]"] ;
1125 -> 1126 ;
1127 [label="gini = 0.0\nsamples = 1\nvalue = [0, 1]"] ;
1126 -> 1127 ;
1128 [label="gini = 0.4\nsamples = 2\nvalue = [1, 2]"] ;
1126 -> 1128 ;
1129 [label="gini = 0.0\nsamples = 1\nvalue = [1, 0]"] ;
1125 -> 1129 ;
1130 [label="gini = 0.0\nsamples = 2\nvalue = [0, 2]"] ;
1116 -> 1130 ;
1131 [label="RECENT_PERF_DIFF <= 5.6\ngini = 0.5\nsamples = 13\nvalue = [10, 13]"] ;
1101 -> 1131 ;
1132 [label="ELO_DIFF <= 5.1\ngini = 0.5\nsamples = 5\nvalue = [5, 4]"] ;
1131 -> 1132 ;
1133 [label="ELO_DIFF <= 4.9\ngini = 0.5\nsamples = 4\nvalue = [5, 3]"] ;
1132 -> 1133 ;
1134 [label="gini = 0.4\nsamples = 2\nvalue = [3, 1]"] ;
1133 -> 1134 ;
1135 [label="gini = 0.5\nsamples = 2\nvalue = [2, 2]"] ;
1133 -> 1135 ;
1136 [label="gini = 0.0\nsamples = 1\nvalue = [0, 1]"] ;
1132 -> 1136 ;
1137 [label="ELO_DIFF <= 5.5\ngini = 0.5\nsamples = 8\nvalue = [5, 9]"] ;
1131 -> 1137 ;
1138 [label="ELO_DIFF <= 5.2\ngini = 0.5\nsamples = 7\nvalue = [5, 7]"] ;
1137 -> 1138 ;
1139 [label="ELO_DIFF <= 4.7\ngini = 0.5\nsamples = 6\nvalue = [4, 7]"] ;
1138 -> 1139 ;
1140 [label="gini = 0.5\nsamples = 4\nvalue = [4, 5]"] ;
1139 -> 1140 ;
1141 [label="gini = 0.0\nsamples = 2\nvalue = [0, 2]"] ;
1139 -> 1141 ;
1142 [label="gini = 0.0\nsamples = 1\nvalue = [1, 0]"] ;
1138 -> 1142 ;
1143 [label="gini = 0.0\nsamples = 1\nvalue = [0, 2]"] ;
1137 -> 1143 ;
1144 [label="gini = 0.0\nsamples = 3\nvalue = [0, 5]"] ;
1100 -> 1144 ;
1145 [label="gini = 0.0\nsamples = 1\nvalue = [2, 0]"] ;
1099 -> 1145 ;
1146 [label="ELO_DIFF <= 3.5\ngini = 0.4\nsamples = 21\nvalue = [13, 26]"] ;
742 -> 1146 ;
1147 [label="gini = 0.0\nsamples = 3\nvalue = [0, 7]"] ;
1146 -> 1147 ;
1148 [label="RECENT_PERF_DIFF <= 5.9\ngini = 0.5\nsamples = 18\nvalue = [13, 19]"] ;
1146 -> 1148 ;
1149 [label="ELO_DIFF <= 3.9\ngini = 0.4\nsamples = 10\nvalue = [4, 13]"] ;
1148 -> 1149 ;
1150 [label="gini = 0.0\nsamples = 1\nvalue = [2, 0]"] ;
1149 -> 1150 ;
1151 [label="ELO_DIFF <= 4.5\ngini = 0.2\nsamples = 9\nvalue = [2, 13]"] ;
1149 -> 1151 ;
1152 [label="gini = 0.0\nsamples = 4\nvalue = [0, 7]"] ;
1151 -> 1152 ;
1153 [label="ELO_DIFF <= 4.8\ngini = 0.4\nsamples = 5\nvalue = [2, 6]"] ;
1151 -> 1153 ;
1154 [label="ELO_DIFF <= 4.7\ngini = 0.5\nsamples = 3\nvalue = [2, 2]"] ;
1153 -> 1154 ;
1155 [label="gini = 0.4\nsamples = 2\nvalue = [1, 2]"] ;
1154 -> 1155 ;
1156 [label="gini = 0.0\nsamples = 1\nvalue = [1, 0]"] ;
1154 -> 1156 ;
1157 [label="gini = 0.0\nsamples = 2\nvalue = [0, 4]"] ;
1153 -> 1157 ;
1158 [label="ELO_DIFF <= 3.9\ngini = 0.5\nsamples = 8\nvalue = [9, 6]"] ;
1148 -> 1158 ;
1159 [label="gini = 0.0\nsamples = 1\nvalue = [3, 0]"] ;
1158 -> 1159 ;
1160 [label="ELO_DIFF <= 4.8\ngini = 0.5\nsamples = 7\nvalue = [6, 6]"] ;
1158 -> 1160 ;
1161 [label="ELO_DIFF <= 4.6\ngini = 0.5\nsamples = 6\nvalue = [6, 5]"] ;
1160 -> 1161 ;
1162 [label="ELO_DIFF <= 4.3\ngini = 0.5\nsamples = 5\nvalue = [4, 5]"] ;
1161 -> 1162 ;
1163 [label="gini = 0.5\nsamples = 2\nvalue = [2, 3]"] ;
1162 -> 1163 ;
1164 [label="gini = 0.5\nsamples = 3\nvalue = [2, 2]"] ;
1162 -> 1164 ;
1165 [label="gini = 0.0\nsamples = 1\nvalue = [2, 0]"] ;
1161 -> 1165 ;
1166 [label="gini = 0.0\nsamples = 1\nvalue = [0, 1]"] ;
1160 -> 1166 ;
1167 [label="ELO_DIFF <= 4.5\ngini = 0.5\nsamples = 25\nvalue = [23, 13]"] ;
741 -> 1167 ;
1168 [label="ELO_DIFF <= 4.1\ngini = 0.3\nsamples = 17\nvalue = [19, 4]"] ;
1167 -> 1168 ;
1169 [label="ELO_DIFF <= 3.8\ngini = 0.4\nsamples = 10\nvalue = [8, 3]"] ;
1168 -> 1169 ;
1170 [label="RECENT_PERF_DIFF <= 6.3\ngini = 0.2\nsamples = 6\nvalue = [6, 1]"] ;
1169 -> 1170 ;
1171 [label="gini = 0.0\nsamples = 2\nvalue = [2, 0]"] ;
1170 -> 1171 ;
1172 [label="HOME_AWAY_GOAL_DIFF <= 6.4\ngini = 0.3\nsamples = 4\nvalue = [4, 1]"] ;
1170 -> 1172 ;
1173 [label="ELO_DIFF <= 3.2\ngini = 0.4\nsamples = 3\nvalue = [2, 1]"] ;
1172 -> 1173 ;
1174 [label="gini = 0.0\nsamples = 2\nvalue = [2, 0]"] ;
1173 -> 1174 ;
1175 [label="gini = 0.0\nsamples = 1\nvalue = [0, 1]"] ;
1173 -> 1175 ;
1176 [label="gini = 0.0\nsamples = 1\nvalue = [2, 0]"] ;
1172 -> 1176 ;
1177 [label="HOME_AWAY_GOAL_DIFF <= 6.2\ngini = 0.5\nsamples = 4\nvalue = [2, 2]"] ;
1169 -> 1177 ;
1178 [label="gini = 0.4\nsamples = 3\nvalue = [2, 1]"] ;
1177 -> 1178 ;
1179 [label="gini = 0.0\nsamples = 1\nvalue = [0, 1]"] ;
1177 -> 1179 ;
1180 [label="RECENT_PERF_DIFF <= 6.3\ngini = 0.2\nsamples = 7\nvalue = [11, 1]"] ;
1168 -> 1180 ;
1181 [label="HOME_AWAY_GOAL_DIFF <= 6.2\ngini = 0.5\nsamples = 2\nvalue = [1, 1]"] ;
1180 -> 1181 ;
1182 [label="gini = 0.0\nsamples = 1\nvalue = [1, 0]"] ;
1181 -> 1182 ;
1183 [label="gini = 0.0\nsamples = 1\nvalue = [0, 1]"] ;
1181 -> 1183 ;
1184 [label="gini = 0.0\nsamples = 5\nvalue = [10, 0]"] ;
1180 -> 1184 ;
1185 [label="HOME_AWAY_GOAL_DIFF <= 6.4\ngini = 0.4\nsamples = 8\nvalue = [4, 9]"] ;
1167 -> 1185 ;
1186 [label="HOME_AWAY_GOAL_DIFF <= 6.3\ngini = 0.5\nsamples = 6\nvalue = [4, 3]"] ;
1185 -> 1186 ;
1187 [label="ELO_DIFF <= 5.2\ngini = 0.5\nsamples = 5\nvalue = [3, 3]"] ;
1186 -> 1187 ;
1188 [label="gini = 0.0\nsamples = 3\nvalue = [3, 0]"] ;
1187 -> 1188 ;
1189 [label="gini = 0.0\nsamples = 2\nvalue = [0, 3]"] ;
1187 -> 1189 ;
1190 [label="gini = 0.0\nsamples = 1\nvalue = [1, 0]"] ;
1186 -> 1190 ;
1191 [label="gini = 0.0\nsamples = 2\nvalue = [0, 6]"] ;
1185 -> 1191 ;
1192 [label="HOME_AWAY_GOAL_DIFF <= 7.2\ngini = 0.4\nsamples = 12\nvalue = [6, 14]"] ;
740 -> 1192 ;
1193 [label="HOME_AWAY_GOAL_DIFF <= 6.8\ngini = 0.2\nsamples = 6\nvalue = [1, 9]"] ;
1192 -> 1193 ;
1194 [label="ELO_DIFF <= 5.0\ngini = 0.4\nsamples = 2\nvalue = [1, 2]"] ;
1193 -> 1194 ;
1195 [label="gini = 0.0\nsamples = 1\nvalue = [0, 2]"] ;
1194 -> 1195 ;
1196 [label="gini = 0.0\nsamples = 1\nvalue = [1, 0]"] ;
1194 -> 1196 ;
1197 [label="gini = 0.0\nsamples = 4\nvalue = [0, 7]"] ;
1193 -> 1197 ;
1198 [label="ELO_DIFF <= 4.3\ngini = 0.5\nsamples = 6\nvalue = [5, 5]"] ;
1192 -> 1198 ;
1199 [label="gini = 0.0\nsamples = 2\nvalue = [5, 0]"] ;
1198 -> 1199 ;
1200 [label="gini = 0.0\nsamples = 4\nvalue = [0, 5]"] ;
1198 -> 1200 ;
}